##Temp./°C,Time/min,Mass loss(subtr.2)/mg,DSC(subtr.2)/(mW/mg),Sensit./(uV/mW)
50.14,10.01667,-0.03587,0.01352253,1.048
50.24,10.51098,-0.03989039,0.01612664,1.04796
50.34,10.6925,-0.03977825,0.02350447,1.0479100000000001
50.44,10.81545,-0.03829113,0.02768247,1.04787
50.54,10.914710000000001,-0.03959385,0.03206943,1.0478299999999998
50.64,10.99944,-0.03961016,0.03349631,1.04778
50.74,11.07674,-0.04045148,0.03753041,1.04774
50.84,11.145719999999999,-0.04106564,0.03764701,1.04769
50.94,11.21078,-0.03960025,0.04022456,1.04765
51.04,11.27195,-0.03849769,0.04481845,1.0476
51.14,11.3305,-0.03929546,0.04450062,1.04756
51.24,11.385819999999999,-0.03897158,0.04463887,1.04752
51.34,11.439789999999999,-0.03888568,0.04586345,1.0474700000000001
51.44,11.49194,-0.04100909,0.04961438,1.0474299999999999
51.54,11.54243,-0.03958545,0.05037073,1.04738
51.64,11.59154,-0.04033854,0.05302394,1.04734
51.74,11.6393,-0.04108715,0.05340776,1.04729
51.84,11.68697,-0.04101367,0.05746706,1.04725
51.94,11.73305,-0.03971718,0.05690137,1.04721
52.04,11.77862,-0.03862803,0.05905211,1.04716
52.14,11.82325,-0.03853082,0.06040399,1.04712
52.24,11.867410000000001,-0.03931769,0.06076664,1.0470700000000002
52.34,11.91076,-0.04100167,0.0626868,1.04703
52.44,11.95383,-0.04178509,0.06332545,1.0469899999999999
52.54,11.9962,-0.04252184,0.06480377,1.04694
52.64,12.03835,-0.0429153,0.06693575,1.0469
52.74,12.08015,-0.04339283,0.06887934,1.04685
52.84,12.12128,-0.04418869,0.06759613,1.04681
52.94,12.16228,-0.04376609,0.06756552,1.0467600000000001
53.04,12.20225,-0.04289388,0.06765862,1.04672
53.14,12.24266,-0.04247193,0.06851042,1.0466799999999998
53.24,12.28289,-0.04058508,0.0659849,1.04663
53.34,12.323,-0.04059216,0.06732636,1.04659
53.44,12.36246,-0.04058932,0.06893138,1.04654
53.54,12.40179,-0.04059853,0.06803305,1.0465
53.64,12.440760000000001,-0.04036072,0.06775086,1.04646
53.74,12.47968,-0.04046448,0.06970738,1.04641
53.84,12.51871,-0.0418877,0.07065511,1.04637
53.94,12.55733,-0.04184977,0.07278343,1.0463200000000001
54.04,12.59568,-0.04045297,0.07232785,1.0462799999999999
54.14,12.63377,-0.04190132,0.07160882,1.04623
54.24,12.6721,-0.04189872,0.07159473,1.04619
54.34,12.71011,-0.04185882,0.07536706,1.04615
54.44,12.74811,-0.04067455,0.07535954,1.0461
54.54,12.785960000000001,-0.04193256,0.07554778,1.04606
54.64,12.82358,-0.0415926,0.0763947,1.04601
54.74,12.86122,-0.04196809,0.07689352,1.04597
54.84,12.899280000000001,-0.04191286,0.07512149,1.04593
54.94,12.93655,-0.04170176,0.07567862,1.04588
55.04,12.97382,-0.04062758,0.07635653,1.0458399999999999
55.14,13.01117,-0.04059156,0.07608432,1.04579
55.24,13.04835,-0.04058825,0.07793618,1.04575
55.34,13.085339999999999,-0.0406331,0.07903116,1.0457100000000001
55.44,13.1225,-0.04194542,0.08072083,1.04566
55.54,13.15944,-0.04176128,0.0778184,1.04562
55.64,13.19635,-0.04327629,0.07712379,1.04557
55.74,13.23301,-0.04452926,0.0779999,1.0455299999999998
55.84,13.26995,-0.0446513,0.0788938,1.04549
55.94,13.306820000000002,-0.04456347,0.07995316,1.04544
56.04,13.34336,-0.04591541,0.07852956,1.0454
56.14,13.379879999999998,-0.04591643,0.08106527,1.04535
56.24,13.41603,-0.04726862,0.08172758,1.04531
56.34,13.452670000000001,-0.0472222,0.07939063,1.0452700000000001
56.44,13.488979999999998,-0.0458871,0.07883261,1.04522
56.54,13.525260000000001,-0.0445588,0.08087167,1.04518
56.64,13.56156,-0.04464564,0.08038933,1.04513
56.74,13.597929999999998,-0.04465045,0.07980565,1.04509
56.84,13.63432,-0.0446448,0.08055711,1.04505
56.94,13.6703,-0.04490319,0.08160522,1.045
57.04,13.70628,-0.04394252,0.08221779,1.04496
57.14,13.74221,-0.04321593,0.0817489,1.04491
57.24,13.77854,-0.04344139,0.08301806,1.04487
57.34,13.814689999999999,-0.04455467,0.08279086,1.04483
57.44,13.85079,-0.04600188,0.08201737,1.0447799999999998
57.54,13.88676,-0.0461954,0.08288172,1.04474
57.64,13.92283,-0.04724379,0.08443847,1.0447
57.74,13.95841,-0.0473515,0.08296373,1.04465
57.84,13.99424,-0.04876092,0.08361222,1.04461
57.94,14.03011,-0.04757193,0.08325056,1.04456
58.04,14.065879999999998,-0.04760715,0.08411105,1.0445200000000001
58.14,14.101820000000002,-0.04725351,0.08441574,1.0444799999999999
58.24,14.13745,-0.04699593,0.08302798,1.04443
58.34,14.1733,-0.04599779,0.0833126,1.04439
58.44,14.208929999999999,-0.04596248,0.08393197,1.04434
58.54,14.2444,-0.04596013,0.08446757,1.0443
58.64,14.280079999999998,-0.04596001,0.08170314,1.04426
58.74,14.315129999999998,-0.04596,0.08518685,1.04421
58.84,14.350679999999999,-0.04596,0.08324792,1.04417
58.94,14.38613,-0.04595977,0.08653686,1.0441200000000002
59.04,14.421829999999998,-0.04595371,0.08730864,1.04408
59.14,14.457020000000002,-0.04584192,0.08413353,1.0440399999999999
59.24,14.492270000000001,-0.04741619,0.08649111,1.04399
59.34,14.52762,-0.04629431,0.08601644,1.04395
59.44,14.5625,-0.04700798,0.0847806,1.0439100000000001
59.54,14.596829999999999,-0.04747015,0.08720523,1.04386
59.64,14.63181,-0.04866869,0.08552693,1.04382
59.74,14.66673,-0.04728086,0.08574207,1.04377
59.84,14.701620000000002,-0.04728124,0.08727465,1.0437299999999998
59.94,14.73656,-0.04727995,0.0866212,1.04369
60.04,14.7714,-0.04727591,0.08638662,1.04364
60.14,14.806270000000001,-0.04799816,0.08792185,1.0436
60.24,14.84096,-0.04857464,0.08903766,1.04356
60.34,14.87575,-0.04859654,0.08783634,1.04351
60.44,14.91075,-0.04857345,0.08985738,1.0434700000000001
60.54,14.94529,-0.04788477,0.09068063,1.04342
60.64,14.98,-0.04844962,0.08854672,1.04338
60.74,15.015039999999999,-0.04859527,0.0893778,1.04334
60.84,15.049439999999999,-0.04859989,0.09022675,1.04329
60.94,15.08394,-0.04860001,0.08895539,1.04325
61.04,15.11842,-0.0486,0.09016119,1.04321
61.14,15.153170000000001,-0.04860007,0.09284855,1.04316
61.24,15.187489999999999,-0.04860139,0.09071601,1.04312
61.34,15.222170000000002,-0.0486255,0.09181324,1.0430700000000002
61.44,15.257220000000002,-0.04828465,0.09029723,1.04303
61.54,15.29244,-0.04967383,0.08970068,1.0429899999999999
61.64,15.32726,-0.04960893,0.09280886,1.04294
61.74,15.362020000000001,-0.05002161,0.0942482,1.0429
61.84,15.39666,-0.05091985,0.09209691,1.0428600000000001
61.94,15.431370000000001,-0.05090065,0.0917976,1.04281
62.04,15.465829999999999,-0.05089904,0.09218378,1.04277
62.14,15.500689999999999,-0.05091334,0.09052204,1.04273
62.24,15.53476,-0.05224878,0.09238907,1.0426799999999998
62.34,15.56889,-0.05235894,0.09135803,1.04264
62.44,15.603589999999999,-0.05351138,0.09127731,1.04259
62.54,15.63804,-0.05292594,0.09269463,1.04255
62.64,15.67251,-0.05224389,0.09124834,1.04251
62.74,15.70711,-0.05219991,0.09268706,1.04246
62.84,15.74216,-0.05172496,0.09306513,1.0424200000000001
62.94,15.77696,-0.05090499,0.09290423,1.0423799999999999
63.04,15.811810000000001,-0.05103686,0.09312507,1.04233
63.14,15.84627,-0.04969475,0.09172773,1.04229
63.24,15.88088,-0.05092672,0.09372961,1.04225
63.34,15.9153,-0.05091665,0.09390962,1.0422
63.44,15.949729999999999,-0.05219662,0.09634738,1.04216
63.54,15.98441,-0.05219494,0.09296017,1.04211
63.64,16.01877,-0.05224666,0.09309792,1.04207
63.74,16.05329,-0.05222258,0.09221989,1.04203
63.84,16.087870000000002,-0.05222022,0.09294432,1.04198
63.94,16.12238,-0.05221999,0.09284428,1.0419399999999999
64.04,16.15683,-0.05221961,0.09249592,1.0419
64.14,16.19145,-0.05221392,0.09292636,1.04185
64.24,16.22652,-0.05212612,0.09416375,1.0418100000000001
64.34,16.26115,-0.05354572,0.09372272,1.04177
64.44,16.29534,-0.05465887,0.09399857,1.04172
64.54,16.3298,-0.05682445,0.09409072,1.04168
64.64,16.36405,-0.05681424,0.09420213,1.04164
64.74,16.39819,-0.05514632,0.09390511,1.04159
64.84,16.43226,-0.05357701,0.09612363,1.04155
64.94,16.46623,-0.05289445,0.09406488,1.0415
65.04,16.500429999999998,-0.05000239,0.09431544,1.04146
65.14,16.5346,-0.04996404,0.09483298,1.04142
65.24,16.56879,-0.04905589,0.09592015,1.0413700000000001
65.34,16.60291,-0.04903728,0.09432264,1.0413299999999999
65.44,16.63703,-0.04896415,0.09691146,1.04129
65.54,16.67093,-0.05064631,0.09779729,1.04124
65.64,16.70511,-0.05206285,0.09821801,1.0412
65.74,16.7391,-0.05232342,0.09788759,1.04116
65.84,16.77301,-0.05316475,0.09767664,1.04111
65.94,16.806829999999998,-0.05309214,0.09835054,1.0410700000000002
66.04,16.84052,-0.0546649,0.09725341,1.04103
66.14,16.8744,-0.05534461,0.10142000000000001,1.04098
66.24,16.908179999999998,-0.05581615,0.09905788,1.04094
66.34,16.94215,-0.05583819,0.10117000000000001,1.0409
66.44,16.976,-0.05583722,0.09915633,1.04085
66.54,17.00985,-0.0558023,0.1005,1.04081
66.64,17.0436,-0.05500609,0.10149,1.04077
66.74,17.07755,-0.05455617,0.10138,1.04072
66.84,17.11116,-0.05453142,0.09869112,1.0406799999999998
66.94,17.14496,-0.05452499,0.10199,1.04064
67.04,17.17853,-0.05561008,0.10082999999999999,1.04059
67.14,17.2123,-0.05586401,0.10151,1.04055
67.24,17.2462,-0.05698042,0.10137,1.04051
67.34,17.27982,-0.05720842,0.10004,1.04046
67.44,17.31364,-0.05861516,0.10303,1.0404200000000001
67.54,17.34741,-0.05724978,0.10325999999999999,1.04037
67.64,17.38113,-0.05544571,0.10372,1.04033
67.74,17.41493,-0.05437222,0.10328,1.04029
67.84,17.448610000000002,-0.05329844,0.10274000000000001,1.04024
67.94,17.48239,-0.05203413,0.10467,1.0402
68.04,17.51643,-0.05200057,0.10397,1.04016
68.14,17.550060000000002,-0.05199999,0.10303,1.04011
68.24,17.5836,-0.052,0.10136,1.04007
68.34,17.61721,-0.05200017,0.10247,1.04003
68.44,17.65087,-0.05200388,0.1013,1.03998
68.54,17.6846,-0.05208315,0.10127,1.0399399999999999
68.64,17.71828,-0.05351454,0.10184,1.0399
68.74,17.75173,-0.054903,0.10318,1.03985
68.84,17.78535,-0.05494759,0.10493,1.0398100000000001
68.94,17.81889,-0.05540372,0.10288,1.03977
69.04,17.8527,-0.05487198,0.10235,1.03972
69.14,17.8863,-0.05504018,0.10325,1.03968
69.24,17.919970000000003,-0.05614168,0.10201,1.03964
69.34,17.95366,-0.05756014,0.10434,1.0396
69.44,17.9873,-0.05748632,0.10221000000000001,1.03955
69.54,18.02095,-0.05748518,0.10186,1.03951
69.64,18.05436,-0.05754752,0.10412,1.0394700000000001
69.74,18.08764,-0.05596749,0.10327,1.03942
69.84,18.12109,-0.05760928,0.10274000000000001,1.03938
69.94,18.15484,-0.05747678,0.10405,1.03934
70.04,18.18869,-0.05710736,0.10278,1.03929
70.14,18.222189999999998,-0.05620908,0.10664000000000001,1.03925
70.24,18.25595,-0.05619724,0.10364000000000001,1.03921
70.34,18.28959,-0.05659544,0.10253,1.03916
70.44,18.32329,-0.05834768,0.10309000000000001,1.03912
70.54,18.35709,-0.060061,0.1051,1.03908
70.64,18.39075,-0.06022241,0.1041,1.03903
70.74,18.42449,-0.060173,0.1058,1.0389899999999999
70.84,18.45833,-0.05881929,0.10405999999999999,1.03895
70.94,18.49214,-0.05890372,0.10447999999999999,1.0389
71.04,18.52604,-0.05890958,0.10369,1.0388600000000001
71.14,18.55973,-0.05891007,0.10422000000000001,1.03882
71.24,18.59348,-0.05891138,0.10289000000000001,1.03877
71.34,18.627370000000003,-0.05901634,0.10487,1.03873
71.44,18.66103,-0.0602099,0.10313,1.03869
71.54,18.69475,-0.06166207,0.10277,1.03864
71.64,18.72866,-0.06017644,0.10280999999999998,1.0386
71.74,18.762710000000002,-0.0612676,0.10217000000000001,1.03856
71.84,18.79672,-0.06152486,0.10425,1.03851
71.94,18.830289999999998,-0.06153888,0.10203,1.03847
72.04,18.86382,-0.06153855,0.10254,1.03843
72.14,18.89755,-0.0613182,0.10605999999999999,1.0383799999999999
72.24,18.93136,-0.06020773,0.10199,1.03834
72.34,18.9651,-0.0592637,0.10224,1.0383
72.44,18.99868,-0.05917542,0.10203999999999999,1.03826
72.54,19.03219,-0.06057122,0.10330999999999999,1.03821
72.64,19.06581,-0.0605935,0.10244,1.03817
72.74,19.099439999999998,-0.05910897,0.10447999999999999,1.03813
72.84,19.1332,-0.0584764,0.10361,1.03808
72.94,19.16681,-0.05781062,0.10304,1.03804
73.04,19.20026,-0.05780813,0.10494,1.038
73.14,19.23355,-0.05881637,0.10474000000000001,1.03795
73.24,19.266920000000002,-0.05977697,0.10379000000000001,1.03791
73.34,19.3002,-0.06045036,0.10549000000000001,1.03787
73.44,19.333560000000002,-0.06110321,0.10515,1.03782
73.54,19.367,-0.06242534,0.10628,1.03778
73.64,19.400270000000003,-0.06241536,0.10586,1.0377399999999999
73.74,19.4335,-0.06087119,0.10496,1.03769
73.84,19.466720000000002,-0.05890861,0.10533,1.03765
73.94,19.50001,-0.05890999,0.10533,1.0376100000000001
74.04,19.533279999999998,-0.05858245,0.10833,1.03757
74.14,19.56663,-0.05758947,0.1031,1.03752
74.24,19.59992,-0.05758573,0.10592,1.03748
74.34,19.6331,-0.05890634,0.10685,1.03744
74.44,19.66637,-0.06033925,0.10724000000000002,1.03739
74.54,19.69954,-0.06096101,0.10439000000000001,1.03735
74.64,19.7329,-0.06066827,0.10649000000000002,1.03731
74.74,19.76635,-0.06098814,0.10705,1.03726
74.84,19.79966,-0.06001271,0.10553,1.03722
74.94,19.83269,-0.05838347,0.10387,1.03718
75.04,19.86591,-0.05977492,0.10645,1.03714
75.14,19.89922,-0.05979611,0.10843,1.03709
75.24,19.93262,-0.06074167,0.10605,1.03705
75.34,19.966,-0.061066,0.10445,1.03701
75.44,19.99934,-0.06208624,0.10670999999999999,1.03696
75.54,20.03237,-0.0620809,0.1071,1.03692
75.64,20.06571,-0.0620829,0.10765999999999999,1.03688
75.74,20.09916,-0.06211511,0.10876,1.03683
75.84,20.132379999999998,-0.06071329,0.10599000000000001,1.0367899999999999
75.94,20.16565,-0.06210683,0.10758,1.03675
76.04,20.19898,-0.06109124,0.1068,1.03671
76.14,20.23229,-0.06210223,0.10772999999999999,1.0366600000000001
76.24,20.26538,-0.06207167,0.10655,1.03662
76.34,20.29867,-0.06355487,0.10522999999999999,1.0365799999999998
76.44,20.33204,-0.06459972,0.1061,1.03653
76.54,20.36553,-0.06462219,0.10662999999999999,1.03649
76.64,20.39878,-0.06558987,0.10568,1.03645
76.74,20.43202,-0.0646109,0.10643,1.0364
76.84,20.4651,-0.06322801,0.10729000000000001,1.03636
76.94,20.49855,-0.06319025,0.10544,1.0363200000000001
77.04,20.53169,-0.06291399,0.10567,1.0362799999999999
77.14,20.5649,-0.06188415,0.10550999999999999,1.03623
77.24,20.59839,-0.06187227,0.10764000000000001,1.03619
77.34,20.63169,-0.06188997,0.10693,1.03615
77.44,20.66469,-0.06315899,0.10837999999999999,1.0361
77.54,20.6979,-0.06321382,0.10638,1.03606
77.64,20.73162,-0.0626574,0.10702,1.0360200000000002
77.74,20.76491,-0.06284297,0.10645999999999999,1.03598
77.84,20.79825,-0.06285879,0.10689000000000001,1.03593
77.94,20.83156,-0.06285966,0.1043,1.03589
78.04,20.8651,-0.06285685,0.10745999999999999,1.03585
78.14,20.89856,-0.06437209,0.10611,1.0358
78.24,20.932029999999997,-0.06582444,0.10514000000000001,1.03576
78.34,20.96566,-0.06581398,0.10572000000000001,1.03572
78.44,20.9991,-0.06585063,0.10772999999999999,1.03568
78.54,21.03248,-0.06448726,0.10500999999999999,1.0356299999999998
78.64,21.06579,-0.06449447,0.10655,1.03559
78.74,21.09918,-0.06547044,0.10665999999999999,1.03555
78.84,21.132460000000002,-0.06548847,0.10524000000000001,1.0355
78.94,21.16585,-0.06548922,0.10519,1.03546
79.04,21.199379999999998,-0.06548269,0.10539000000000001,1.03542
79.14,21.23256,-0.06582272,0.10387,1.03538
79.24,21.265810000000002,-0.0658183,0.10515,1.0353299999999999
79.34,21.299220000000002,-0.06579561,0.10396,1.03529
79.44,21.332910000000002,-0.06714016,0.10525,1.03525
79.54,21.36636,-0.06715473,0.10371,1.0352
79.64,21.39946,-0.06581247,0.10422999999999999,1.03516
79.74,21.43294,-0.06581961,0.10315999999999999,1.03512
79.84,21.46632,-0.06581998,0.10257000000000001,1.03508
79.94,21.49975,-0.06582,0.10282000000000001,1.03503
80.04,21.53322,-0.06581999,0.10465999999999999,1.0349899999999999
80.14,21.56641,-0.06581956,0.10618,1.03495
80.24,21.59969,-0.06581282,0.10409000000000002,1.0349
80.34,21.632579999999997,-0.06648022,0.10464000000000001,1.0348600000000001
80.44,21.66594,-0.06711081,0.10605,1.03482
80.54,21.69933,-0.06712874,0.10428,1.03478
80.64,21.7329,-0.06712994,0.10432000000000001,1.03473
80.74,21.766289999999998,-0.06712993,0.10397,1.0346899999999999
80.84,21.79975,-0.06712939,0.10300999999999999,1.03465
80.94,21.83322,-0.06844599,0.10528,1.03461
81.04,21.86674,-0.06845045,0.10378,1.0345600000000001
81.14,21.90042,-0.06847208,0.10378,1.03452
81.24,21.93444,-0.06975778,0.10238,1.0344799999999998
81.34,21.96817,-0.06979211,0.10237,1.03443
81.44,22.001820000000002,-0.06838419,0.10280999999999998,1.03439
81.54,22.03539,-0.06859652,0.10273,1.03435
81.64,22.0692,-0.07010612,0.10298,1.03431
81.74,22.102870000000003,-0.07126823,0.10095,1.03426
81.84,22.13635,-0.07128443,0.10315999999999999,1.0342200000000001
81.94,22.16989,-0.07109208,0.10288,1.0341799999999999
82.04,22.20355,-0.0700215,0.10177,1.03414
82.14,22.237270000000002,-0.06999237,0.10252,1.03409
82.24,22.271,-0.06999018,0.10117000000000001,1.03405
82.34,22.30489,-0.06999001,0.10156,1.03401
82.44,22.338720000000002,-0.06999,0.10072,1.03396
82.54,22.3723,-0.06999,0.1021,1.0339200000000002
82.64,22.40571,-0.06999003,0.1027,1.03388
82.74,22.43926,-0.06999037,0.10136,1.0338399999999999
82.84,22.47275,-0.06999506,0.10107000000000001,1.03379
82.94,22.50633,-0.07006469,0.10145,1.03375
83.04,22.53993,-0.06876927,0.10178999999999999,1.0337100000000001
83.14,22.57341,-0.06869276,0.10092000000000001,1.03367
83.24,22.6066,-0.0690159,0.1025,1.03362
83.34,22.64009,-0.06999592,0.10004,1.03358
83.44,22.67352,-0.06996965,0.1004,1.03354
83.54,22.706789999999998,-0.06963023,0.10207999999999999,1.0335
83.64,22.74025,-0.06866866,0.1023,1.03345
83.74,22.77375,-0.06875049,0.1007,1.03341
83.84,22.80733,-0.06743412,0.10003,1.0333700000000001
83.94,22.84103,-0.06735186,0.10074,1.03332
84.04,22.87442,-0.06735014,0.10167000000000001,1.03328
84.14,22.908,-0.06735005,0.1004,1.03324
84.24,22.94143,-0.06735063,0.09823372,1.0332
84.34,22.9747,-0.06735881,0.10323,1.03315
84.44,23.007939999999998,-0.06747151,0.10032999999999999,1.03311
84.54,23.04121,-0.06673363,0.10047,1.0330700000000002
84.64,23.07449,-0.06732502,0.09978087,1.03303
84.74,23.107979999999998,-0.06735751,0.10161,1.03298
84.84,23.14153,-0.06736,0.10042999999999999,1.03294
84.94,23.17473,-0.06736246,0.09978365,1.0329
85.04,23.208070000000003,-0.06739484,0.10031,1.0328600000000001
85.14,23.24126,-0.06798212,0.09877657,1.03281
85.24,23.27489,-0.06870044,0.10122,1.03277
85.34,23.30813,-0.07006823,0.10011,1.03273
85.44,23.34129,-0.06998818,0.09828659,1.0326899999999999
85.54,23.3744,-0.070004,0.10132999999999999,1.03264
85.64,23.40778,-0.07041085,0.09910163,1.0326
85.74,23.44108,-0.07142613,0.1008,1.0325600000000001
85.84,23.47418,-0.071988,0.10089,1.03252
85.94,23.50737,-0.07199866,0.10255999999999998,1.03247
86.04,23.54065,-0.07170458,0.09917425,1.03243
86.14,23.57387,-0.07140081,0.10082999999999999,1.03239
86.24,23.607020000000002,-0.07071783,0.0998692,1.03235
86.34,23.6402,-0.07117171,0.09767988,1.0323
86.44,23.67345,-0.07191804,0.09957971,1.03226
86.54,23.70685,-0.07189407,0.09876988,1.0322200000000001
86.64,23.74016,-0.07259126,0.09726023,1.0321799999999999
86.74,23.77346,-0.07193775,0.09749706,1.03213
86.84,23.80659,-0.07194714,0.09672937,1.03209
86.94,23.83973,-0.07177243,0.09787089,1.03205
87.04,23.87306,-0.07055986,0.09766324,1.03201
87.14,23.906489999999998,-0.07015633,0.10032,1.03196
87.24,23.9397,-0.06942197,0.09842167,1.0319200000000002
87.34,23.97281,-0.06860298,0.09642797,1.03188
87.44,24.006079999999997,-0.06866529,0.09731718,1.0318399999999999
87.54,24.03956,-0.06867166,0.09575298,1.03179
87.64,24.073079999999997,-0.0686986,0.09610284,1.03175
87.74,24.10662,-0.06916537,0.09838271,1.0317100000000001
87.84,24.14004,-0.06993869,0.09824284,1.03167
87.94,24.17332,-0.06994277,0.09592426,1.03162
88.04,24.20675,-0.07266054,0.09562393,1.03158
88.14,24.24,-0.07349273,0.09587389,1.03154
88.24,24.27335,-0.07424686,0.09541534,1.0315
88.34,24.30668,-0.07109569,0.09800177,1.03145
88.44,24.33997,-0.07100996,0.09548869,1.03141
88.54,24.3734,-0.06957902,0.09567493,1.0313700000000001
88.64,24.40681,-0.06880224,0.09578244,1.0313299999999999
88.74,24.44044,-0.0685114,0.09390614,1.03128
88.84,24.47391,-0.06813847,0.09629923,1.03124
88.94,24.507720000000003,-0.06811803,0.09532593,1.0312
89.04,24.54129,-0.06807296,0.09338133,1.03116
89.14,24.57476,-0.06916531,0.0969509,1.03112
89.24,24.60807,-0.06942679,0.09789022,1.0310700000000002
89.34,24.641820000000003,-0.06943908,0.09565953,1.03103
89.44,24.67538,-0.06943993,0.09451764,1.03099
89.54,24.70881,-0.06943999,0.09453714,1.03095
89.64,24.74217,-0.06943992,0.09334378,1.0309
89.74,24.77541,-0.06943881,0.09361241,1.03086
89.84,24.80883,-0.06942348,0.09523914,1.03082
89.94,24.84224,-0.06916019,0.09559724,1.03078
90.04,24.87555,-0.07020324,0.09397613,1.03073
90.14,24.908929999999998,-0.07010009,0.09373806,1.0306899999999999
90.24,24.94241,-0.07100304,0.09430272,1.03065
90.34,24.97565,-0.07138754,0.0928753,1.03061
90.44,25.0095,-0.07140845,0.09438301,1.0305600000000001
90.54,25.04286,-0.07140986,0.09420296,1.03052
90.64,25.07636,-0.0714095,0.09258403,1.0304799999999998
90.74,25.10979,-0.0714031,0.09414079,1.03044
90.84,25.14329,-0.07237577,0.09507884,1.0304
90.94,25.1767,-0.07270977,0.09409537,1.03035
91.04,25.210179999999998,-0.07273373,0.09175257,1.03031
91.14,25.24354,-0.07280241,0.09368476,1.03027
91.24,25.27693,-0.07203505,0.09287046,1.03023
91.34,25.31026,-0.0724856,0.09406377,1.0301799999999999
91.44,25.3436,-0.07271181,0.09364196,1.03014
91.54,25.377129999999998,-0.07268108,0.09394508,1.0301
91.64,25.410829999999997,-0.07170541,0.09329331,1.03006
91.74,25.44404,-0.07276807,0.09261013,1.03001
91.84,25.477510000000002,-0.07302814,0.09345088,1.02997
91.94,25.511110000000002,-0.07339665,0.09346417,1.02993
92.04,25.54472,-0.07391233,0.09306491,1.02989
92.14,25.578229999999998,-0.07266071,0.09375863,1.02985
92.24,25.61156,-0.07271577,0.09419011,1.0298
92.34,25.64526,-0.07271973,0.09497454,1.02976
92.44,25.67863,-0.07272017,0.09597163,1.02972
92.54,25.71211,-0.07272257,0.09352116,1.02968
92.64,25.74551,-0.0727559,0.09461795,1.0296299999999998
92.74,25.77882,-0.07372812,0.09486742,1.02959
92.84,25.81224,-0.07404115,0.09263896,1.02955
92.94,25.845470000000002,-0.07459549,0.09459971,1.0295100000000001
93.04,25.87859,-0.07410486,0.09280682,1.02947
93.14,25.91195,-0.07414375,0.09175125,1.02942
93.24,25.94529,-0.07410729,0.09278408,1.02938
93.34,25.978720000000003,-0.07298485,0.09412159,1.02934
93.44,26.012,-0.07260058,0.0921078,1.0293
93.54,26.044810000000002,-0.07166842,0.09291645,1.02925
93.64,26.0779,-0.07132453,0.09410547,1.02921
93.74,26.11115,-0.07130145,0.0947781,1.0291700000000001
93.84,26.14457,-0.07129589,0.09242675,1.0291299999999999
93.94,26.1778,-0.07241268,0.0945978,1.02909
94.04,26.21115,-0.0727025,0.09374448,1.02904
94.14,26.24418,-0.0727434,0.09291711,1.029
94.24,26.277240000000003,-0.07332197,0.09508379,1.02896
94.34,26.31048,-0.07485936,0.09475929,1.02892
94.44,26.343429999999998,-0.07563716,0.09304336,1.0288700000000002
94.54,26.37653,-0.07599593,0.09456384,1.02883
94.64,26.4095,-0.07601821,0.09349787,1.0287899999999999
94.74,26.442629999999998,-0.07601988,0.09374115,1.02875
94.84,26.47563,-0.07602012,0.09435589,1.02871
94.94,26.50863,-0.07602168,0.09516545,1.0286600000000001
95.04,26.54171,-0.07604292,0.09412607,1.02862
95.14,26.57485,-0.0754324,0.09362209,1.0285799999999998
95.24,26.607770000000002,-0.07395221,0.09327188,1.02854
95.34,26.64071,-0.07402469,0.0954334,1.0285
95.44,26.67377,-0.07392083,0.09440132,1.02845
95.54,26.70716,-0.07549484,0.09449681,1.02841
95.64,26.740790000000004,-0.07533947,0.09483202,1.02837
95.74,26.774079999999998,-0.07482506,0.09426063,1.02833
95.84,26.807190000000002,-0.07463827,0.0951843,1.0282799999999999
95.94,26.84011,-0.07535532,0.0953153,1.02824
96.04,26.873070000000002,-0.07583304,0.09525454,1.0282
96.14,26.906029999999998,-0.07661777,0.09492177,1.02816
96.24,26.9392,-0.0764371,0.0951078,1.0281200000000001
96.34,26.97205,-0.07577154,0.0941453,1.02807
96.44,27.00473,-0.07469414,0.09353625,1.02803
96.54,27.03745,-0.07469957,0.093112,1.02799
96.64,27.0705,-0.07469965,0.09430638,1.02795
96.74,27.10332,-0.07469605,0.09161601,1.02791
96.84,27.136359999999996,-0.07518884,0.09307091,1.02786
96.94,27.169520000000002,-0.07581987,0.09348905,1.0278200000000002
97.04,27.20315,-0.07472831,0.09460333,1.02778
97.14,27.23653,-0.07470205,0.09207051,1.0277399999999999
97.24,27.269940000000002,-0.07470015,0.09240924,1.0277
97.34,27.30354,-0.07470007,0.09317164,1.02765
97.44,27.33713,-0.0747009,0.09325485,1.0276100000000001
97.54,27.3705,-0.07471666,0.09179888,1.02757
97.64,27.403779999999998,-0.07610272,0.09227476,1.0275299999999998
97.74,27.437070000000002,-0.07602594,0.09139348,1.02749
97.84,27.47036,-0.07602044,0.09449749,1.02744
97.94,27.503829999999997,-0.07602026,0.09074614,1.0274
98.04,27.53728,-0.0760233,0.0916068,1.02736
98.14,27.570859999999996,-0.07544257,0.0893498,1.02732
98.24,27.60437,-0.074724,0.08956162,1.02728
98.34,27.637990000000002,-0.07470162,0.09014551,1.0272299999999999
98.44,27.67207,-0.0746984,0.09090165,1.02719
98.54,27.70572,-0.07467465,0.08998108,1.02715
98.64,27.73947,-0.07502985,0.09116157,1.02711
98.74,27.77313,-0.07362718,0.08993619,1.0270700000000001
98.84,27.80695,-0.07369836,0.08915219,1.02702
98.94,27.8406,-0.07344886,0.09235865,1.02698
99.04,27.873820000000002,-0.07321662,0.09071892,1.02694
99.14,27.907009999999996,-0.07338523,0.09063435,1.0269
99.24,27.9404,-0.07343406,0.09144482,1.02686
99.34,27.97363,-0.07415488,0.08987348,1.02681
99.44,28.006790000000002,-0.07566879,0.09010536,1.0267700000000002
99.54,28.03998,-0.07568644,0.08935555,1.02673
99.64,28.073059999999998,-0.07566261,0.09069887,1.0266899999999999
99.74,28.106170000000002,-0.07605006,0.09205409,1.02665
99.84,28.1394,-0.07672545,0.09116963,1.0266
99.94,28.17261,-0.07731429,0.08941015,1.0265600000000001
100.04,28.20545,-0.07733817,0.08870777,1.02652
100.14,28.23872,-0.07733987,0.09290177,1.0264799999999998
100.24,28.27188,-0.07733999,0.09166042,1.02644
100.34,28.305059999999997,-0.07734,0.09077759,1.02639
100.44,28.338179999999998,-0.07734,0.09067189,1.02635
100.54,28.37156,-0.07734,0.09080497,1.02631
100.64,28.40488,-0.07734,0.0919254,1.02627
100.74,28.438159999999996,-0.07734,0.09014383,1.02623
100.84,28.471259999999997,-0.07734,0.09327797,1.0261799999999999
100.94,28.504579999999997,-0.07734,0.09090519,1.02614
101.04,28.53795,-0.07734,0.09351592,1.0261
101.14,28.57132,-0.07733999,0.09496622,1.02606
101.24,28.604459999999996,-0.07733987,0.09211653,1.0260200000000002
101.34,28.637659999999997,-0.0773383,0.09287101,1.02597
101.44,28.67077,-0.07731794,0.09082606,1.02593
101.54,28.70402,-0.07702077,0.09419645,1.02589
101.64,28.73728,-0.07720758,0.0937542,1.02585
101.74,28.7705,-0.07678675,0.09368373,1.02581
101.84,28.803890000000003,-0.07604313,0.09443754,1.02577
101.94,28.83693,-0.07602158,0.09600767,1.02572
102.04,28.87022,-0.0760201,0.09437942,1.02568
102.14,28.90367,-0.07601985,0.09190128,1.0256399999999999
102.24,28.93651,-0.07601813,0.09576154,1.0256
102.34,28.969559999999998,-0.07599653,0.09454443,1.02556
102.44,29.00255,-0.07671689,0.09482688,1.0255100000000001
102.54,29.03572,-0.07667324,0.09396265,1.02547
102.64,29.0688,-0.07667022,0.09296927,1.0254299999999998
102.74,29.10186,-0.07667007,0.09258449,1.02539
102.84,29.134990000000002,-0.07667072,0.09414449,1.02535
102.94,29.16755,-0.07667521,0.09473158,1.02531
103.04,29.200259999999997,-0.07669012,0.09484422,1.02526
103.14,29.23282,-0.07866076,0.09452524,1.02522
103.24,29.265279999999997,-0.07865253,0.09735393,1.02518
103.34,29.29781,-0.07865623,0.09433336,1.02514
103.44,29.330679999999997,-0.07893866,0.09747991,1.0251
103.54,29.36344,-0.07898164,0.09394971,1.02505
103.64,29.39605,-0.07784324,0.09536243,1.02501
103.74,29.428720000000002,-0.07767392,0.09434561,1.0249700000000002
103.84,29.46128,-0.07765341,0.09527984,1.02493
103.94,29.49431,-0.07755307,0.09400348,1.0248899999999999
104.04,29.52747,-0.07872738,0.09341222,1.02485
104.14,29.56049,-0.07865578,0.09369956,1.0248
104.24,29.59362,-0.07865092,0.09501382,1.0247600000000001
104.34,29.62688,-0.07865703,0.09459108,1.02472
104.44,29.66028,-0.07882461,0.09486676,1.02468
104.54,29.693440000000002,-0.07933044,0.09325659,1.02464
104.64,29.726409999999998,-0.07931134,0.09347198,1.02459
104.74,29.759559999999997,-0.07930737,0.09362678,1.02455
104.84,29.792759999999998,-0.07927237,0.09226243,1.02451
104.94,29.82592,-0.07856547,0.09017756,1.02447
105.04,29.85955,-0.07803165,0.0933967,1.02443
105.14,29.892970000000002,-0.07800222,0.0933011,1.02439
105.24,29.9264,-0.07799997,0.09247027,1.02434
105.34,29.959840000000003,-0.07799728,0.09127425,1.0243
105.44,29.99343,-0.07796173,0.09289978,1.02426
105.54,30.026790000000002,-0.0771752,0.09155011,1.0242200000000001
105.64,30.0602,-0.07672267,0.09154077,1.0241799999999999
105.74,30.09352,-0.07702165,0.09175194,1.02414
105.84,30.127,-0.07793958,0.09139635,1.02409
105.94,30.16027,-0.07828851,0.09288646,1.02405
106.04,30.19336,-0.07800958,0.09229389,1.02401
106.14,30.226470000000003,-0.07799514,0.09192454,1.02397
106.24,30.259559999999997,-0.07804118,0.09083469,1.02393
106.34,30.29259,-0.07690451,0.09162544,1.02388
106.44,30.325570000000003,-0.07673237,0.09303248,1.0238399999999999
106.54,30.35853,-0.0774103,0.09160506,1.0238
106.64,30.39145,-0.07806292,0.09174481,1.02376
106.74,30.4245,-0.07815411,0.09029982,1.02372
106.84,30.45764,-0.07951671,0.09052455,1.02368
106.94,30.490190000000002,-0.07942691,0.08983525,1.0236299999999998
107.04,30.52345,-0.0794205,0.09165134,1.02359
107.14,30.55663,-0.07942004,0.09051152,1.02355
107.24,30.5898,-0.07942,0.0929319,1.0235100000000001
107.34,30.62305,-0.07941999,0.09164522,1.02347
107.44,30.656209999999998,-0.07941985,0.09003328,1.0234299999999998
107.54,30.689290000000003,-0.07941803,0.0917717,1.02338
107.64,30.722340000000003,-0.07939402,0.09018001,1.02334
107.74,30.75556,-0.07901425,0.09142486,1.0233
107.84,30.7888,-0.07813778,0.09090438,1.02326
107.94,30.822020000000002,-0.07810384,0.09035169,1.02322
108.04,30.85535,-0.07812753,0.0899497,1.02318
108.14,30.88859,-0.07951436,0.09223849,1.0231299999999999
108.24,30.92189,-0.07942849,0.08906866,1.02309
108.34,30.95513,-0.07944408,0.09113259,1.02305
108.44,30.988259999999997,-0.0797711,0.08932886,1.02301
108.54,31.02155,-0.08070323,0.09105379,1.0229700000000002
108.64,31.054679999999998,-0.080737,0.08974992,1.02293
108.74,31.088,-0.08073402,0.09171425,1.02288
108.84,31.12128,-0.08065979,0.08957618,1.02284
108.94,31.15467,-0.08218074,0.0904753,1.0228
109.04,31.18781,-0.08203909,0.09042838,1.0227600000000001
109.14,31.22065,-0.08178058,0.09294565,1.02272
109.24,31.253729999999997,-0.08075603,0.08817149,1.02268
109.34,31.286609999999996,-0.08053054,0.09091123,1.02264
109.44,31.319340000000004,-0.07944406,0.0880981,1.0225899999999999
109.54,31.35235,-0.07939632,0.09077081,1.02255
109.64,31.38555,-0.08050033,0.09045017,1.02251
109.74,31.41858,-0.08075094,0.08961609,1.02247
109.84,31.45133,-0.07970738,0.09168958,1.02243
109.94,31.4844,-0.07974742,0.08878082,1.02239
110.04,31.51728,-0.07974934,0.09074874,1.02234
110.14,31.550179999999997,-0.07974791,0.0894269,1.0223
110.24,31.58297,-0.07941393,0.08922991,1.02226
110.34,31.615640000000003,-0.0781572,0.09004858,1.0222200000000001
110.44,31.64841,-0.07812113,0.09234777,1.0221799999999999
110.54,31.68125,-0.07923796,0.09174311,1.02214
110.64,31.71408,-0.08071911,0.09309749,1.02209
110.74,31.746909999999996,-0.08072583,0.09175822,1.02205
110.84,31.779490000000003,-0.08161752,0.09275332,1.02201
110.94,31.81227,-0.08172135,0.09194199,1.02197
111.04,31.84505,-0.08172935,0.09296498,1.02193
111.14,31.8779,-0.08173066,0.09326343,1.02189
111.24,31.91077,-0.08174021,0.09251031,1.02185
111.34,31.94353,-0.0818715,0.09201434,1.0218
111.44,31.976409999999998,-0.08029995,0.09179226,1.02176
111.54,32.00939,-0.08045231,0.09288113,1.0217200000000002
111.64,32.04211,-0.07933454,0.09244185,1.02168
111.74,32.07479,-0.07910314,0.0930946,1.0216399999999999
111.84,32.10761,-0.07909326,0.09442255,1.0216
111.94,32.14075,-0.0791213,0.09201623,1.02155
112.04,32.17315,-0.0795745,0.09435046,1.0215100000000001
112.14,32.20557,-0.08030695,0.09316136,1.02147
112.24,32.238279999999996,-0.08158794,0.09375033,1.0214299999999998
112.34,32.271029999999996,-0.08172678,0.0937802,1.02139
112.44,32.30373,-0.08171296,0.09385642,1.02135
112.54,32.33657,-0.08152035,0.09538688,1.02131
112.64,32.3694,-0.08043667,0.09184747,1.02126
112.74,32.4021,-0.08040772,0.09345462,1.02122
112.84,32.43473,-0.08079429,0.09263871,1.02118
112.94,32.46757,-0.08138943,0.09356159,1.02114
113.04,32.500170000000004,-0.08040636,0.09450314,1.0211
113.14,32.53293,-0.08041076,0.09488112,1.02106
113.24,32.56581,-0.08041294,0.0955958,1.02102
113.34,32.59837,-0.08047804,0.09386119,1.0209700000000002
113.44,32.63127,-0.07904784,0.09317045,1.02093
113.54,32.664120000000004,-0.07999889,0.09364069,1.0208899999999999
113.64,32.696909999999995,-0.08006197,0.09633061,1.02085
113.74,32.729929999999996,-0.08004059,0.09264339,1.02081
113.84,32.762859999999996,-0.08041607,0.09248359,1.0207700000000002
113.94,32.7956,-0.08040117,0.09286525,1.02072
114.04,32.82824,-0.08039748,0.09338657,1.02068
114.14,32.86148,-0.0803645,0.09464019,1.02064
114.24,32.89452,-0.07948555,0.09199938,1.0206
114.34,32.92715,-0.07909974,0.09456554,1.0205600000000001
114.44,32.96006,-0.07884295,0.09298006,1.02052
114.54,32.993140000000004,-0.08159357,0.0945448,1.0204799999999998
114.64,33.02613,-0.08141883,0.09163704,1.02043
114.74,33.059059999999995,-0.08168604,0.09303406,1.02039
114.84,33.09202,-0.08275489,0.09205641,1.02035
114.94,33.12505,-0.08267975,0.09127418,1.02031
115.04,33.158,-0.08306757,0.09179512,1.02027
115.14,33.1911,-0.08386118,0.09285816,1.02023
115.24,33.22408,-0.08433556,0.09400772,1.02019
115.34,33.25718,-0.08439636,0.09358914,1.02014
115.44,33.290420000000005,-0.08556454,0.09407929,1.0201
115.54,33.32335,-0.08431349,0.09365799,1.02006
115.64,33.356429999999996,-0.08432584,0.09235796,1.0200200000000001
115.74,33.38932,-0.08388436,0.09435905,1.0199799999999999
115.84,33.422259999999994,-0.08263271,0.09130832,1.01994
115.94,33.4553,-0.08088972,0.09168301,1.0199
116.04,33.488479999999996,-0.0793723,0.09268434,1.01986
116.14,33.5217,-0.07752593,0.0908703,1.01981
116.24,33.554829999999995,-0.07745786,0.09193751,1.01977
116.34,33.5882,-0.07750077,0.088431,1.01973
116.44,33.6215,-0.08027516,0.09078238,1.01969
116.54,33.65467,-0.08041056,0.09001209,1.01965
116.64,33.68778,-0.08135579,0.09126299,1.0196100000000001
116.74,33.72077,-0.08138854,0.09056925,1.01957
116.84,33.75388,-0.08140193,0.08982168,1.01952
116.94,33.78713,-0.08156484,0.09149863,1.01948
117.04,33.82023,-0.08273643,0.09003963,1.01944
117.14,33.853429999999996,-0.08243196,0.09283624,1.0194
117.24,33.8864,-0.08370914,0.09031552,1.01936
117.34,33.91945,-0.08449146,0.09032055,1.01932
117.44,33.95257,-0.08499654,0.08920792,1.01928
117.54,33.98565,-0.08495653,0.09082678,1.0192299999999999
117.64,34.01883,-0.08365372,0.09167468,1.01919
117.74,34.05196,-0.08362642,0.08939994,1.01915
117.84,34.08527,-0.0834579,0.0923738,1.01911
117.94,34.11858,-0.08402143,0.09069121,1.0190700000000001
118.04,34.151579999999996,-0.0840267,0.09228469,1.0190299999999999
118.14,34.184740000000005,-0.08399533,0.08977653,1.01899
118.24,34.2178,-0.08303446,0.09212533,1.01895
118.34,34.25093,-0.08304306,0.09106681,1.0189
118.44,34.2841,-0.0827011,0.09131056,1.01886
118.54,34.31735,-0.08270943,0.09026798,1.01882
118.64,34.350640000000006,-0.08270996,0.0911081,1.01878
118.74,34.38387,-0.08270999,0.09180385,1.01874
118.84,34.41706,-0.08270995,0.09070071,1.0187
118.94,34.45048,-0.08270909,0.08898346,1.0186600000000001
119.04,34.48372,-0.08269978,0.09148527,1.01861
119.14,34.516909999999996,-0.08205114,0.08845284,1.01857
119.24,34.55023,-0.08204416,0.08864946,1.01853
119.34,34.58357,-0.08139036,0.08937576,1.01849
119.44,34.61696,-0.08206484,0.09014814,1.01845
119.54,34.65016,-0.08270922,0.09019192,1.01841
119.64,34.68333,-0.08271,0.08864316,1.01837
119.74,34.716609999999996,-0.08271,0.09017667,1.01833
119.84,34.7498,-0.08271,0.08938242,1.0182799999999999
119.94,34.78307,-0.08271,0.08965524,1.01824
120.04,34.81583,-0.08271004,0.09100954,1.0182
120.14,34.84875,-0.08271075,0.08836372,1.01816
120.24,34.88185,-0.0829717,0.0904112,1.0181200000000001
120.34,34.91496,-0.08405307,0.09069177,1.0180799999999999
120.44,34.94814,-0.0843414,0.0919316,1.01804
120.54,34.98123,-0.08491337,0.09154518,1.018
120.64,35.01416,-0.0856843,0.09184304,1.01795
120.74,35.04698,-0.08567214,0.09071135,1.01791
120.84,35.07993,-0.08568277,0.08934012,1.01787
120.94,35.113,-0.08461708,0.09061209,1.01783
121.04,35.14601,-0.08333216,0.09236841,1.01779
121.14,35.17915,-0.08337631,0.09114892,1.01775
121.24,35.21216,-0.08350459,0.0905637,1.0177100000000001
121.34,35.245090000000005,-0.08197787,0.0897493,1.01767
121.44,35.27803,-0.08242926,0.09123753,1.01762
121.54,35.310990000000004,-0.08349663,0.09161398,1.01758
121.64,35.34405,-0.08293699,0.09297878,1.01754
121.74,35.37707,-0.08389351,0.09209101,1.0175
121.84,35.40998,-0.08379768,0.09215075,1.01746
121.94,35.44294,-0.08360603,0.09351538,1.01742
122.04,35.476009999999995,-0.08347999,0.09121595,1.01738
122.14,35.50942,-0.08355747,0.09215061,1.01734
122.24,35.5425,-0.08487435,0.09219273,1.0173
122.34,35.57561,-0.08479617,0.09104568,1.01725
122.44,35.60861,-0.08479094,0.09208442,1.01721
122.54,35.64164,-0.08479656,0.09169561,1.0171700000000001
122.64,35.67455,-0.08487781,0.09135031,1.0171299999999999
122.74,35.707609999999995,-0.08355095,0.09094137,1.01709
122.84,35.74086,-0.08352371,0.09290458,1.01705
122.94,35.77365,-0.082592,0.09295937,1.01701
123.04,35.8066,-0.08061218,0.09132491,1.0169700000000002
123.14,35.83947,-0.08229345,0.09116483,1.01692
123.24,35.87226,-0.08218781,0.09267859,1.01688
123.34,35.90505,-0.08242989,0.09434623,1.01684
123.44,35.9376,-0.08488571,0.09210349,1.0168
123.54,35.97005,-0.08479601,0.09152225,1.01676
123.64,36.00293,-0.08479034,0.08947728,1.01672
123.74,36.03585,-0.0847894,0.09157737,1.01668
123.84,36.0688,-0.08478202,0.09178907,1.01664
123.94,36.10153,-0.08341903,0.09250096,1.0166
124.04,36.13404,-0.08343076,0.09399311,1.01655
124.14,36.16641,-0.08215661,0.09240659,1.01651
124.24,36.19885,-0.08215863,0.09057859,1.01647
124.34,36.23138,-0.08215578,0.09374836,1.01643
124.44,36.26404,-0.08208964,0.0906027,1.01639
124.54,36.2963,-0.08322795,0.09383004,1.01635
124.64,36.32875,-0.08414907,0.09285382,1.01631
124.74,36.3614,-0.08443637,0.09378424,1.01627
124.84,36.39385,-0.08445801,0.0935077,1.0162200000000001
124.94,36.42642,-0.08445967,0.09486786,1.0161799999999999
125.04,36.45913,-0.08445761,0.09379176,1.01614
125.14,36.49171,-0.08442784,0.095552,1.0161
125.24,36.52424,-0.08484045,0.09530675,1.01606
125.34,36.55688,-0.08504048,0.09445497,1.0160200000000001
125.44,36.590109999999996,-0.08517237,0.09443245,1.0159799999999999
125.54,36.62363,-0.0847957,0.09486001,1.01594
125.64,36.65692,-0.08457724,0.09285549,1.0159
125.74,36.68983,-0.08404023,0.0929403,1.01585
125.84,36.72289,-0.08448614,0.09347692,1.01581
125.94,36.75581,-0.08586987,0.09405486,1.01577
126.04,36.788990000000005,-0.08646129,0.09466139,1.01573
126.14,36.82242,-0.08707988,0.09282044,1.01569
126.24,36.855959999999996,-0.08716875,0.09370505,1.01565
126.34,36.88947,-0.08589415,0.09431259,1.0156100000000001
126.44,36.92272,-0.08509878,0.0936425,1.01557
126.54,36.95593,-0.08402161,0.09343777,1.0155299999999998
126.64,36.989470000000004,-0.08381163,0.0935683,1.01549
126.74,37.022690000000004,-0.08370612,0.09324293,1.01544
126.84,37.056090000000005,-0.0852603,0.09334954,1.0154
126.94,37.08955,-0.08511799,0.09298878,1.01536
127.04,37.12297,-0.08572125,0.09234313,1.01532
127.14,37.15632,-0.08609342,0.09295953,1.01528
127.24,37.18979,-0.08610885,0.09319902,1.01524
127.34,37.22327,-0.08611045,0.09145041,1.0152
127.44,37.25645,-0.08611731,0.09317539,1.01516
127.54,37.28949,-0.08622522,0.09408445,1.01512
127.64,37.322590000000005,-0.08643568,0.09402192,1.0150700000000001
127.74,37.355540000000005,-0.08577584,0.0956422,1.0150299999999999
127.84,37.3884,-0.08515493,0.09314899,1.01499
127.94,37.42135,-0.08513173,0.09399926,1.01495
128.04,37.45438,-0.08513013,0.09293332,1.01491
128.14,37.48734,-0.0851301,0.0931474,1.0148700000000002
128.24,37.52026,-0.08513116,0.0932294,1.01483
128.34,37.5533,-0.08514462,0.09331755,1.0147899999999999
128.44,37.58644,-0.08532823,0.09416493,1.01475
128.54,37.61943,-0.08641239,0.09491115,1.01471
128.64,37.65232,-0.08643786,0.09254651,1.0146600000000001
128.74,37.68527,-0.08643545,0.09510037,1.01462
128.84,37.71832,-0.08682441,0.09228004,1.01458
128.94,37.75115,-0.08641251,0.09081301,1.01454
129.04,37.78405,-0.08644236,0.09212184,1.0145
129.14,37.81668,-0.08577957,0.09434143,1.0144600000000001
129.24,37.84977,-0.0851188,0.09373935,1.01442
129.34,37.882709999999996,-0.08511922,0.09413166,1.0143799999999998
129.44,37.91553,-0.08510692,0.0930813,1.01434
129.54,37.948190000000004,-0.08546729,0.09482085,1.01429
129.64,37.9809,-0.08546072,0.09440153,1.01425
129.74,38.013740000000006,-0.08546006,0.09407446,1.01421
129.84,38.04671,-0.08546,0.09134561,1.01417
129.94,38.079640000000005,-0.08546,0.09198686,1.01413
130.04,38.112559999999995,-0.08546,0.09292242,1.01409
130.14,38.145559999999996,-0.08545997,0.09276109,1.01405
130.24,38.17791,-0.08545948,0.09281485,1.01401
130.34,38.21045,-0.08545288,0.09397682,1.01397
130.44,38.24302,-0.08536084,0.09334728,1.01393
130.54,38.27576,-0.08667124,0.09348084,1.01389
130.64,38.308609999999994,-0.08599457,0.09365918,1.01384
130.74,38.341440000000006,-0.08678005,0.09387595,1.0138
130.84,38.374109999999995,-0.08675572,0.09510968,1.01376
130.94,38.40685,-0.08832758,0.09489799,1.0137200000000002
131.04,38.43956,-0.08817174,0.09374422,1.01368
131.14,38.472429999999996,-0.08777121,0.09435774,1.0136399999999999
131.24,38.50529,-0.08692199,0.09543972,1.0136
131.34,38.53779,-0.08628544,0.09328499,1.01356
131.44,38.570440000000005,-0.08556212,0.09288926,1.01352
131.54,38.60322,-0.08586903,0.09468537,1.01348
131.64,38.635979999999996,-0.08557867,0.09405224,1.0134299999999998
131.74,38.66874,-0.08557417,0.09497398,1.01339
131.84,38.70148,-0.08560622,0.09438188,1.01335
131.94,38.733740000000004,-0.08690841,0.09532194,1.01331
132.04,38.76592,-0.08819854,0.09241495,1.0132700000000001
132.14,38.798429999999996,-0.08816688,0.09383419,1.0132299999999999
132.24,38.83095,-0.0894573,0.09772255,1.01319
132.34,38.86422,-0.08950632,0.09652653,1.01315
132.44,38.89712,-0.08951022,0.09441206,1.01311
132.54,38.929959999999994,-0.08951833,0.09506507,1.0130700000000001
132.64,38.96266,-0.08963752,0.0929766,1.0130299999999999
132.74,38.99552,-0.08811232,0.09496816,1.01298
132.84,39.02823,-0.08818371,0.09487386,1.01294
132.94,39.061009999999996,-0.08818949,0.09240348,1.0129
133.04,39.09386,-0.08818998,0.09524217,1.01286
133.14,39.12681,-0.08819027,0.09327159,1.01282
133.24,39.159659999999995,-0.08819378,0.09296515,1.01278
133.34,39.19265,-0.08824201,0.0932922,1.01274
133.44,39.22575,-0.0871078,0.09215138,1.0127
133.54,39.2587,-0.08688271,0.09327932,1.0126600000000001
133.64,39.2916,-0.08674825,0.09322981,1.01262
133.74,39.32459,-0.08832523,0.09177728,1.01258
133.84,39.35754,-0.08819991,0.09228938,1.01253
133.94,39.39054,-0.08819028,0.09189317,1.01249
134.04,39.4238,-0.08818412,0.09179786,1.01245
134.14,39.45707,-0.0881085,0.09099015,1.01241
134.24,39.49028,-0.08941194,0.0905653,1.01237
134.34,39.52335,-0.08939366,0.0907687,1.01233
134.44,39.556470000000004,-0.09094683,0.09275262,1.01229
134.54,39.5894,-0.09044888,0.09159642,1.01225
134.64,39.62249,-0.09059926,0.08977177,1.01221
134.74,39.65566,-0.09049415,0.09158459,1.01217
134.84,39.688829999999996,-0.09030171,0.09065522,1.01213
134.94,39.72182,-0.08985876,0.09052899,1.0120799999999999
135.04,39.754709999999996,-0.08984131,0.09146828,1.01204
135.14,39.78782,-0.0898401,0.09072112,1.012
135.24,39.82065,-0.08984001,0.0926731,1.01196
135.34,39.85369,-0.08984,0.08931089,1.0119200000000002
135.44,39.88674,-0.08984001,0.09014948,1.01188
135.54,39.91995,-0.08983755,0.09002453,1.01184
135.64,39.95304,-0.08804169,0.09052232,1.0118
135.74,39.98619,-0.08786977,0.0891747,1.01176
135.84,40.01931,-0.0878699,0.08924086,1.0117200000000002
135.94,40.0524,-0.08786896,0.08821471,1.01168
136.04,40.08551,-0.08785694,0.09138609,1.0116399999999999
136.14,40.118959999999994,-0.0886445,0.09000402,1.01159
136.24,40.152029999999996,-0.08918049,0.09007813,1.01155
136.34,40.18496,-0.08959588,0.09340561,1.0115100000000001
136.44,40.21798,-0.09047599,0.08945998,1.01147
136.54,40.25092,-0.09153363,0.08786951,1.0114299999999998
136.64,40.2839,-0.09181962,0.08830853,1.01139
136.74,40.31691,-0.09181999,0.08889508,1.01135
136.84,40.349779999999996,-0.09181999,0.08832736,1.01131
136.94,40.38262,-0.09181956,0.09125467,1.0112700000000001
137.04,40.4157,-0.09181223,0.09017776,1.0112299999999999
137.14,40.44897,-0.09088453,0.08836907,1.01119
137.24,40.48207,-0.09049852,0.0891607,1.01115
137.34,40.51504,-0.09049076,0.09086292,1.0111
137.44,40.547909999999995,-0.08990278,0.09029046,1.01106
137.54,40.58088,-0.08984528,0.09050393,1.01102
137.64,40.613609999999994,-0.08984048,0.08859888,1.01098
137.74,40.64665,-0.08984004,0.08982583,1.01094
137.84,40.67961,-0.08983999,0.09057165,1.0109
137.94,40.71261,-0.08983982,0.09071702,1.01086
138.04,40.745470000000005,-0.0898373,0.0918271,1.01082
138.14,40.77841,-0.08980092,0.09231237,1.01078
138.24,40.81112,-0.08888406,0.09121682,1.01074
138.34,40.84408,-0.08766903,0.09188306,1.0107
138.44,40.87719,-0.08724019,0.09008079,1.0106600000000001
138.54,40.910090000000004,-0.08721496,0.09024051,1.01061
138.64,40.94312,-0.08724706,0.0919948,1.01057
138.74,40.97605,-0.08795892,0.09233758,1.01053
138.84,41.00893,-0.08835784,0.09132047,1.0104899999999999
138.94,41.04186,-0.08996684,0.08814727,1.01045
139.04,41.0751,-0.08984747,0.09127746,1.01041
139.14,41.10796,-0.08978135,0.09185047,1.01037
139.24,41.14089,-0.08843526,0.09252934,1.01033
139.34,41.17382,-0.08852291,0.09186744,1.01029
139.44,41.20697,-0.08852593,0.09264119,1.01025
139.54,41.239940000000004,-0.08848209,0.09039155,1.01021
139.64,41.272909999999996,-0.08937832,0.09407147,1.01017
139.74,41.30588,-0.09127731,0.0927764,1.01013
139.84,41.33875,-0.09116631,0.0930584,1.0100799999999999
139.94,41.37169,-0.09125696,0.0917952,1.01004
140.04,41.40462,-0.09106656,0.09200403,1.01
140.14,41.437529999999995,-0.09230625,0.09441324,1.00996
140.24,41.47051,-0.09248546,0.09303008,1.0099200000000002
140.34,41.50351,-0.0926983,0.09432625,1.0098799999999999
140.44,41.53629,-0.09376176,0.09450719,1.00984
140.54,41.56923,-0.09378816,0.0941109,1.0098
140.64,41.60221,-0.09378989,0.0933875,1.00976
140.74,41.63511,-0.09379009,0.09438895,1.0097200000000002
140.84,41.66819,-0.09379114,0.09532505,1.00968
140.94,41.701190000000004,-0.09380211,0.09523341,1.0096399999999999
141.04,41.73405,-0.09276509,0.0923059,1.0096
141.14,41.76686,-0.09247019,0.09500131,1.00956
141.24,41.799690000000005,-0.09246853,0.09484172,1.0095100000000001
141.34,41.83255,-0.09184937,0.09460809,1.00947
141.44,41.86534,-0.0911426,0.09566671,1.0094299999999998
141.54,41.89792,-0.09114902,0.09338202,1.00939
141.64,41.93088,-0.09114793,0.09472227,1.00935
141.74,41.96369,-0.09111815,0.09557836,1.00931
141.84,41.99627,-0.09141231,0.09550856,1.0092700000000001
141.94,42.0287,-0.09278066,0.09312862,1.0092299999999998
142.04,42.06142,-0.09279999,0.09495553,1.00919
142.14,42.09424,-0.09281395,0.09408794,1.00915
142.24,42.12701,-0.09315281,0.09545676,1.00911
142.34,42.15995,-0.09414323,0.09398814,1.0090700000000001
142.44,42.19285,-0.09505151,0.09261564,1.0090299999999999
142.54,42.22575,-0.0954057,0.09415568,1.00899
142.64,42.25858,-0.09540855,0.09367901,1.00894
142.74,42.29137,-0.09508968,0.09694288,1.0089
142.84,42.32418,-0.09438258,0.09550605,1.00886
142.94,42.35685,-0.09344221,0.09472556,1.00882
143.04,42.38944,-0.09342198,0.09594994,1.00878
143.14,42.422129999999996,-0.09305617,0.09668448,1.00874
143.24,42.45483,-0.09217553,0.09648689,1.0087
143.34,42.48761,-0.09213725,0.09861893,1.0086600000000001
143.44,42.52029,-0.09207909,0.09652909,1.00862
143.54,42.55294,-0.09356635,0.09540112,1.00858
143.64,42.58565,-0.09347021,0.09651224,1.00854
143.74,42.61824,-0.09349534,0.09365723,1.0085
143.84,42.6508,-0.09480403,0.09614683,1.0084600000000001
143.94,42.68381,-0.09509912,0.09703088,1.00842
144.04,42.7167,-0.0951,0.09741506,1.00837
144.14,42.74942,-0.09509965,0.09774589,1.00833
144.24,42.78208,-0.09509012,0.09813227,1.00829
144.34,42.81477,-0.09422356,0.09423362,1.00825
144.44,42.847359999999995,-0.09379495,0.09716343,1.00821
144.54,42.87997,-0.09390542,0.09974891,1.00817
144.64,42.912659999999995,-0.0924016,0.09788793,1.00813
144.74,42.94525,-0.09246409,0.0986919,1.00809
144.84,42.9778,-0.0924695,0.09715057,1.00805
144.94,43.010329999999996,-0.09246996,0.09589878,1.00801
145.04,43.04295,-0.09247005,0.09588253,1.00797
145.14,43.07563,-0.0924707,0.0970015,1.00793
145.24,43.10823,-0.09247935,0.09674055,1.00789
145.34,43.14091,-0.0925933,0.09602063,1.00785
145.44,43.17346,-0.09100179,0.09642195,1.00781
145.54,43.20622,-0.09103433,0.09700983,1.00776
145.64,43.23888,-0.09261107,0.09701404,1.0077200000000002
145.74,43.27113,-0.09245959,0.09599098,1.00768
145.84,43.303709999999995,-0.09109087,0.09723897,1.0076399999999999
145.94,43.336209999999994,-0.09129004,0.09721613,1.0076
146.04,43.36826,-0.09256622,0.09660583,1.00756
146.14,43.4006,-0.09378286,0.09826655,1.00752
146.24,43.43289,-0.09378892,0.09829749,1.00748
146.34,43.46517,-0.09372706,0.09593341,1.00744
146.44,43.49757,-0.09515108,0.09812408,1.0074
146.54,43.53002,-0.09565582,0.09759201,1.00736
146.64,43.5624,-0.09575019,0.09559427,1.00732
146.74,43.59467,-0.09575409,0.09622612,1.00728
146.84,43.62703,-0.09568785,0.09834499,1.00724
146.94,43.659440000000004,-0.09646576,0.09678128,1.0072
147.04,43.69206,-0.09614444,0.09668298,1.00716
147.14,43.7244,-0.09507033,0.09433108,1.00711
147.24,43.75685,-0.09522042,0.0963098,1.0070700000000001
147.34,43.789390000000004,-0.09361741,0.09954653,1.0070299999999999
147.44,43.821870000000004,-0.09336736,0.09521815,1.00699
147.54,43.85434,-0.09330434,0.09836954,1.00695
147.64,43.88681,-0.0934597,0.09715201,1.00691
147.74,43.91936,-0.09347151,0.0976547,1.0068700000000002
147.84,43.95235,-0.09360345,0.09812829,1.00683
147.94,43.98483,-0.09476929,0.0935936,1.00679
148.04,44.017509999999994,-0.09482534,0.09700094,1.00675
148.14,44.05064,-0.09608199,0.09600903,1.00671
148.24,44.08382,-0.0960899,0.09726598,1.0066700000000002
148.34,44.11673,-0.09575674,0.09507169,1.00663
148.44,44.149840000000005,-0.09476849,0.09662952,1.0065899999999999
148.54,44.18287,-0.09476967,0.0979784,1.00655
148.64,44.21577,-0.0947699,0.098352,1.00651
148.74,44.248709999999996,-0.09476888,0.09781263,1.0064600000000001
148.84,44.28167,-0.09475079,0.097461,1.00642
148.94,44.31479,-0.09508191,0.09831786,1.0063799999999998
149.04,44.347770000000004,-0.09662286,0.10042999999999999,1.00634
149.14,44.38068,-0.09742447,0.10052,1.0063
149.24,44.413579999999996,-0.09741399,0.09773118,1.00626
149.34,44.44636,-0.09745345,0.09995606,1.0062200000000001
149.44,44.47888,-0.09620641,0.09841936,1.0061799999999999
149.54,44.51175,-0.09609825,0.09967405,1.00614
149.64,44.54465,-0.09609064,0.09949528,1.0061
149.74,44.57756,-0.09609005,0.10011,1.00606
149.84,44.61051,-0.09609,0.10007,1.0060200000000001
149.94,44.6435,-0.09609,0.09977945,1.0059799999999999
150.04,44.67654,-0.09609,0.10052,1.00594
150.14,44.70942,-0.09609,0.10131,1.0059
150.24,44.74225,-0.0960901,0.09910669,1.00586
150.34,44.775079999999996,-0.0960914,0.10128999999999999,1.0058200000000002
150.44,44.807809999999996,-0.09610932,0.1008,1.00578
150.54,44.84032,-0.09638641,0.09934236,1.00573
150.64,44.87273,-0.09636471,0.10109,1.00569
150.74,44.90502,-0.09641621,0.10202,1.00565
150.84,44.93759,-0.09641961,0.10011,1.0056100000000001
150.94,44.97027,-0.09641838,0.10167999999999999,1.00557
151.04,45.00285,-0.09640292,0.1007,1.00553
151.14,45.03553,-0.09718973,0.10044,1.00549
151.24,45.06816,-0.09773326,0.09865222,1.00545
151.34,45.10088,-0.09735,0.09879961,1.0054100000000001
151.44,45.13377,-0.09776392,0.10042999999999999,1.00537
151.54,45.166779999999996,-0.09773839,0.10119,1.0053299999999998
151.64,45.19947,-0.09643153,0.09990917,1.00529
151.74,45.23222,-0.09645851,0.10149,1.00525
151.84,45.264829999999996,-0.0951807,0.10128999999999999,1.00521
151.94,45.2974,-0.09374868,0.09918072,1.0051700000000001
152.04,45.330040000000004,-0.09378626,0.10199,1.0051299999999999
152.14,45.36253,-0.09379131,0.10041,1.00509
152.24,45.39524,-0.09393458,0.09902225,1.00505
152.34,45.42799,-0.09517233,0.09947169,1.005
152.44,45.4607,-0.09511247,0.10071000000000001,1.00496
152.54,45.49338,-0.09507511,0.09890849,1.00492
152.64,45.52622,-0.09437508,0.097415,1.00488
152.74,45.55911,-0.09455365,0.10015,1.00484
152.84,45.592220000000005,-0.0951428,0.09994206,1.0048
152.94,45.62498,-0.09650839,0.09803935,1.00476
153.04,45.6578,-0.09642653,0.10290999999999999,1.00472
153.14,45.690540000000006,-0.09642048,0.09996205,1.00468
153.24,45.72325,-0.09642003,0.101,1.00464
153.34,45.75577,-0.09642,0.10073,1.0046
153.44,45.78855,-0.09642,0.09866561,1.0045600000000001
153.54,45.821459999999995,-0.09642,0.09964909,1.00452
153.64,45.853809999999996,-0.09642,0.10016,1.0044799999999998
153.74,45.88677,-0.09641999,0.10069,1.00444
153.84,45.91945,-0.09641995,0.10279,1.0044
153.94,45.95235,-0.09641949,0.09950757,1.0043600000000001
154.04,45.985209999999995,-0.0964141,0.09710888,1.00432
154.14,46.01812,-0.09505794,0.09878404,1.0042799999999998
154.24,46.05109,-0.09510122,0.09826847,1.00423
154.34,46.08385,-0.09668286,0.09899064,1.00419
154.44,46.11663,-0.09816742,0.0984017,1.00415
154.54,46.1495,-0.09959897,0.09982215,1.00411
154.64,46.18243,-0.1009,0.09777561,1.00407
154.74,46.21533,-0.10215,0.09763768,1.00403
154.84,46.24822,-0.10222,0.09806347,1.00399
154.94,46.2809,-0.10223,0.10089,1.00395
155.04,46.31378,-0.10225,0.09876328,1.00391
155.14,46.34649,-0.10226,0.09693005,1.00387
155.24,46.37939,-0.10064,0.09733211,1.00383
155.34,46.41222,-0.09918679,0.09689984,1.00379
155.44,46.44531,-0.09911523,0.09752239,1.00375
155.54,46.47811,-0.09789882,0.09810126,1.00371
155.64,46.510909999999996,-0.097949,0.09758988,1.00367
155.74,46.54412,-0.09899652,0.09693264,1.00363
155.84,46.57677,-0.09983104,0.09831763,1.00359
155.94,46.60953,-0.10057,0.09961957,1.00355
156.04,46.64224,-0.10006,0.09771376,1.0035100000000001
156.14,46.675059999999995,-0.09976067,0.09818148,1.00347
156.24,46.707809999999995,-0.09814566,0.09830453,1.00342
156.34,46.74057,-0.09826429,0.09855993,1.00338
156.44,46.7733,-0.09820254,0.09900589,1.00334
156.54,46.80594,-0.09948744,0.09988799,1.0033
156.64,46.83862,-0.09960704,0.09786656,1.00326
156.74,46.871320000000004,-0.09972244,0.09890424,1.00322
156.84,46.90408,-0.10097,0.09829531,1.00318
156.94,46.93685,-0.10092000000000001,0.10029,1.00314
157.04,46.96962,-0.1009,0.10092000000000001,1.0031
157.14,47.00217,-0.10166,0.10079,1.00306
157.24,47.034890000000004,-0.10191,0.09958866,1.00302
157.34,47.067640000000004,-0.10191,0.1002,1.00298
157.44,47.10033,-0.10191,0.09993902,1.00294
157.54,47.133,-0.10192000000000001,0.1013,1.0029
157.64,47.16553,-0.1003,0.10107000000000001,1.00286
157.74,47.1981,-0.09958728,0.10017999999999999,1.00282
157.84,47.230779999999996,-0.09959184,0.09995216,1.00278
157.94,47.26363,-0.09949131,0.1013,1.00274
158.04,47.296459999999996,-0.10098,0.09980383,1.0027
158.14,47.32918,-0.10096000000000001,0.10107000000000001,1.00266
158.24,47.36165,-0.10057,0.10019,1.00262
158.34,47.39423,-0.10063,0.10157999999999999,1.0025700000000002
158.44,47.42689,-0.10042999999999999,0.10195,1.00253
158.54,47.45953,-0.10057,0.1001,1.0024899999999999
158.64,47.49215,-0.10057999999999999,0.10195,1.00245
158.74,47.52466,-0.10053,0.09951517,1.00241
158.84,47.55703,-0.10157999999999999,0.10278,1.00237
158.94,47.58954,-0.10189,0.10167000000000001,1.00233
159.04,47.622170000000004,-0.1019,0.10106,1.00229
159.14,47.65467,-0.1019,0.10178999999999999,1.00225
159.24,47.68732,-0.1019,0.10232999999999999,1.00221
159.34,47.71938,-0.1019,0.10162,1.00217
159.44,47.75189,-0.1019,0.10149,1.00213
159.54,47.784290000000006,-0.10152,0.10284000000000001,1.00209
159.64,47.81691,-0.10059,0.10307000000000001,1.00205
159.74,47.84961,-0.09996798,0.1029,1.00201
159.84,47.8821,-0.09792488,0.10175,1.00197
159.94,47.91454,-0.09794696,0.10267000000000001,1.00193
160.04,47.94697,-0.09795497,0.10278,1.00189
160.14,47.97916,-0.09803778,0.10347999999999999,1.00185
160.24,48.011520000000004,-0.09665335,0.1035,1.00181
160.34,48.04401,-0.09669385,0.10282000000000001,1.00177
160.44,48.076570000000004,-0.09915136,0.10321,1.00173
160.54,48.108990000000006,-0.0993013,0.10131,1.00169
160.64,48.14152,-0.09991906,0.10314000000000001,1.0016399999999999
160.74,48.17409,-0.10059,0.10413,1.0016
160.84,48.20662,-0.10107999999999999,0.1053,1.00156
160.94,48.23918,-0.10186,0.10632,1.00152
161.04,48.27174,-0.10189,0.10549000000000001,1.00148
161.14,48.304320000000004,-0.10182999999999999,0.1046,1.0014399999999999
161.24,48.33696,-0.10335,0.10392,1.0014
161.34,48.36956,-0.10462,0.106,1.00136
161.44,48.4026,-0.10453,0.10362,1.00132
161.54,48.43522,-0.10440999999999999,0.10382000000000001,1.00128
161.64,48.46792,-0.10307000000000001,0.10445,1.00124
161.74,48.50028,-0.10178999999999999,0.10488,1.0012
161.84,48.53263,-0.10142000000000001,0.10442,1.00116
161.94,48.56507,-0.10347,0.10527,1.00112
162.04,48.59753,-0.10568,0.10434,1.00108
162.14,48.63024,-0.107,0.10557000000000001,1.00104
162.24,48.6629,-0.10802,0.10525,1.001
162.34,48.69555,-0.10826,0.10707,1.00096
162.44,48.72817,-0.1084,0.10574000000000001,1.00092
162.54,48.76073,-0.10682,0.10457000000000001,1.00088
162.64,48.7934,-0.10638,0.10418,1.00084
162.74,48.82612,-0.10555,0.10597000000000001,1.0008
162.84,48.858670000000004,-0.10442,0.10503,1.00076
162.94,48.89147,-0.10357999999999999,0.10636,1.00072
163.04,48.92416,-0.10293,0.10427,1.0006700000000002
163.14,48.95668,-0.10286,0.10745,1.00063
163.24,48.989290000000004,-0.10325999999999999,0.10572999999999999,1.0005899999999999
163.34,49.02187,-0.10322,0.10601,1.00055
163.44,49.054429999999996,-0.10322,0.10715999999999999,1.00051
163.54,49.08695,-0.10268,0.10428,1.00047
163.64,49.11956,-0.10192000000000001,0.10499000000000001,1.00043
163.74,49.1523,-0.1019,0.10419,1.00039
163.84,49.18512,-0.1019,0.10475999999999999,1.00035
163.94,49.21808,-0.1019,0.10614000000000001,1.00031
164.04,49.25095,-0.1019,0.10434,1.00027
164.14,49.283770000000004,-0.1019,0.10192000000000001,1.00023
164.24,49.31643,-0.1019,0.10425,1.00019
164.34,49.34923,-0.1019,0.10237,1.00015
164.44,49.382090000000005,-0.10188,0.1026,1.00011
164.54,49.4148,-0.10028,0.10287,1.00007
164.64,49.44758,-0.09898621,0.10352,1.00003
164.74,49.480109999999996,-0.09855868,0.10273,0.9999899999999999
164.84,49.5126,-0.09970679,0.10417,0.99995
164.94,49.54537,-0.10032,0.10257000000000001,0.9999100000000001
165.04,49.57798,-0.10236,0.10289000000000001,0.99987
165.14,49.61081,-0.10265,0.10500999999999999,0.9998299999999999
165.24,49.64352,-0.10385,0.10499000000000001,0.99979
165.34,49.67623,-0.10528,0.1028,0.99975
165.44,49.709,-0.10564000000000001,0.10449000000000001,0.99971
165.54,49.74165,-0.10647000000000001,0.10512,0.9996700000000001
165.64,49.77472,-0.10649000000000002,0.10428,0.9996200000000001
165.74,49.8073,-0.10428,0.10212,0.9995799999999999
165.84,49.84002,-0.10354000000000001,0.10081,0.99954
165.94,49.87275,-0.10214,0.10275999999999999,0.9995
166.04,49.90534,-0.10224,0.104,0.99946
166.14,49.93802,-0.10246,0.10454000000000001,0.9994200000000001
166.24,49.97067,-0.10362,0.10359000000000002,0.9993799999999999
166.34,50.0032,-0.10387,0.10362,0.99934
166.44,50.03555,-0.10388,0.10612,0.9993
166.54,50.06777,-0.10388,0.10528,0.99926
166.64,50.1002,-0.10388,0.10587,0.9992200000000001
166.74,50.13283,-0.10419,0.10389000000000001,0.99918
166.84,50.16555,-0.1052,0.10392,0.9991399999999999
166.94,50.198240000000006,-0.10519,0.10405,0.9991
167.04,50.231,-0.10519,0.10572000000000001,0.9990600000000001
167.14,50.26359,-0.10519,0.10303,0.99902
167.24,50.29618,-0.10519,0.10305999999999998,0.99898
167.34,50.32891,-0.10519,0.10435,0.9989399999999999
167.44,50.36142,-0.10525,0.1041,0.9989
167.54,50.39419,-0.10429000000000001,0.1042,0.9988600000000001
167.64,50.42682,-0.10386,0.10552,0.99882
167.74,50.45933,-0.10392,0.10322,0.9987799999999999
167.84,50.49194,-0.10455999999999999,0.10418,0.99874
167.94,50.52426,-0.10520999999999998,0.10375,0.9987
168.04,50.5568,-0.10662,0.10159,0.99866
168.14,50.58935,-0.10679000000000001,0.10312,0.9986200000000001
168.24,50.62182,-0.10644,0.1062,0.9985700000000001
168.34,50.654309999999995,-0.10655999999999999,0.10288,0.9985299999999999
168.44,50.68701,-0.10536,0.10676,0.99849
168.54,50.71989,-0.10509,0.10349000000000001,0.99845
168.64,50.75284,-0.10504000000000001,0.10714000000000001,0.99841
168.74,50.785470000000004,-0.10647999999999999,0.10412,0.9983700000000001
168.84,50.817890000000006,-0.1064,0.1046,0.9983299999999999
168.94,50.85031,-0.1064,0.10579000000000001,0.99829
169.04,50.88276,-0.1064,0.10540999999999999,0.99825
169.14,50.91511,-0.10702,0.10651,0.99821
169.24,50.9477,-0.10705999999999999,0.104,0.9981700000000001
169.34,50.98023,-0.10707,0.10564000000000001,0.99813
169.44,51.0127,-0.10719000000000001,0.1054,0.9980899999999999
169.54,51.04515,-0.10555999999999999,0.105,0.99805
169.64,51.0775,-0.10321,0.10647999999999999,0.9980100000000001
169.74,51.11003,-0.10315999999999999,0.10493,0.99797
169.84,51.14246,-0.10385,0.10705,0.9979299999999999
169.94,51.17491,-0.10439000000000001,0.10590999999999999,0.9978899999999999
170.04,51.20752,-0.10439000000000001,0.10486,0.99785
170.14,51.24015,-0.10392,0.10415,0.9978100000000001
170.24,51.27278,-0.10325999999999999,0.10471,0.99777
170.34,51.30539,-0.10156,0.10497000000000001,0.9977299999999999
170.44,51.33791,-0.1032,0.10563,0.99769
170.54,51.37044,-0.10312,0.10424000000000001,0.99765
170.64,51.403040000000004,-0.10318,0.10604000000000001,0.99761
170.74,51.43555,-0.10457000000000001,0.10579000000000001,0.9975700000000001
170.84,51.46825,-0.10537,0.10643,0.9975299999999999
170.94,51.50087,-0.1072,0.10669000000000001,0.99749
171.04,51.5335,-0.10848,0.10587,0.99745
171.14,51.56613,-0.10848,0.10722999999999999,0.9974
171.24,51.59876,-0.10789000000000001,0.10787000000000001,0.99736
171.34,51.6313,-0.10718,0.1072,0.9973200000000001
171.44,51.66387,-0.10830999999999999,0.10294,0.9972799999999999
171.54,51.69627,-0.10847000000000001,0.10622999999999999,0.99724
171.64,51.7291,-0.10849,0.10421,0.9972
171.74,51.7616,-0.10849,0.10684,0.99716
171.84,51.79442,-0.10849,0.10386,0.9971200000000001
171.94,51.82699,-0.10849,0.106,0.99708
172.04,51.85987,-0.10848,0.10394,0.9970399999999999
172.14,51.89248,-0.10819000000000001,0.10653,0.997
172.24,51.92504,-0.10712,0.10745999999999999,0.9969600000000001
172.34,51.957609999999995,-0.10717,0.104,0.99692
172.44,51.99023,-0.10718,0.10568,0.9968799999999999
172.54,52.02285,-0.10735,0.10568,0.99684
172.64,52.05532,-0.10854000000000001,0.10569,0.9968
172.74,52.0878,-0.10849,0.10655,0.9967600000000001
172.84,52.120470000000005,-0.10843,0.10535,0.99672
172.94,52.153059999999996,-0.10991,0.10628,0.9966799999999999
173.04,52.18561,-0.1098,0.10554000000000001,0.99664
173.14,52.21837,-0.10969000000000001,0.10469,0.9966
173.24,52.25104,-0.10839000000000001,0.10542,0.99656
173.34,52.28346,-0.10837999999999999,0.10265999999999999,0.9965200000000001
173.44,52.31584,-0.10708,0.10686,0.9964799999999999
173.54,52.34827,-0.10834,0.10219,0.99644
173.64,52.38108,-0.10837000000000001,0.10430999999999999,0.9964
173.74,52.41328,-0.10837000000000001,0.10651,0.99636
173.84,52.44583000000001,-0.10835999999999998,0.10552,0.9963200000000001
173.94,52.47826,-0.10826,0.10593,0.9962799999999999
174.04,52.51076,-0.10922,0.10449000000000001,0.99624
174.14,52.54323,-0.10905,0.10824,0.9961899999999999
174.24,52.575680000000006,-0.10904000000000001,0.10659,0.99615
174.34,52.6082,-0.10905,0.10513,0.99611
174.44,52.64074,-0.10912000000000001,0.10720999999999999,0.9960700000000001
174.54,52.6733,-0.10860999999999998,0.10627,0.99603
174.64,52.70567,-0.10828,0.10832,0.9959899999999999
174.74,52.73822,-0.10837999999999999,0.10805,0.99595
174.84,52.77092,-0.10855,0.10572000000000001,0.9959100000000001
174.94,52.80335,-0.10830999999999999,0.1079,0.99587
175.04,52.83594,-0.10835999999999998,0.10747999999999999,0.9958299999999999
175.14,52.86857,-0.10912999999999999,0.10708,0.99579
175.24,52.90091999999999,-0.10968,0.10914000000000001,0.99575
175.34,52.933530000000005,-0.11069000000000001,0.10722999999999999,0.99571
175.44,52.9662,-0.11101,0.10703,0.99567
175.54,52.99901,-0.11007,0.10692,0.9956299999999999
175.64,53.03184,-0.109,0.10670999999999999,0.99559
175.74,53.06443,-0.10826,0.1092,0.99555
175.84,53.097159999999995,-0.1083,0.10778,0.99551
175.94,53.129459999999995,-0.10933,0.10762000000000001,0.9954700000000001
176.04,53.162130000000005,-0.10957,0.10755999999999999,0.9954299999999999
176.14,53.19481999999999,-0.10959,0.1088,0.99539
176.24,53.22744,-0.1097,0.10755,0.99535
176.34,53.26011999999999,-0.11095999999999999,0.10657,0.99531
176.44,53.2929,-0.11073,0.10615,0.9952700000000001
176.54,53.32561,-0.1127,0.10835,0.99523
176.64,53.35828000000001,-0.11245999999999999,0.10787999999999999,0.99519
176.74,53.39133,-0.11363,0.10728,0.99515
176.84,53.42417,-0.11352000000000001,0.10697000000000001,0.99511
176.94,53.45686,-0.11238,0.10897000000000001,0.9950700000000001
177.04,53.48961,-0.11127999999999999,0.10803,0.99503
177.14,53.5225,-0.11123,0.10824,0.99498
177.24,53.55535,-0.11114,0.10569,0.9949399999999999
177.34,53.58821,-0.11094000000000001,0.10903,0.9949
177.44,53.62085,-0.1101,0.10667,0.9948600000000001
177.54,53.65367,-0.10985999999999999,0.10690999999999999,0.99482
177.64,53.68635,-0.10967,0.108,0.9947799999999999
177.74,53.71917,-0.11093,0.10868,0.99474
177.84,53.751940000000005,-0.1109,0.10840999999999999,0.9947
177.94,53.78496,-0.11130999999999999,0.10764000000000001,0.99466
178.04,53.818,-0.1122,0.10744000000000001,0.9946200000000001
178.14,53.85063,-0.11220999999999999,0.10722000000000001,0.9945799999999999
178.24,53.88329,-0.11220999999999999,0.10795,0.99454
178.34,53.91593,-0.11220999999999999,0.10775,0.9945
178.44,53.94886999999999,-0.11216,0.10827,0.99446
178.54,53.9817,-0.11356,0.10833,0.9944200000000001
178.64,54.01452,-0.11354000000000002,0.10982,0.9943799999999999
178.74,54.04727,-0.11363,0.10951,0.99434
178.84,54.07999,-0.11216,0.10701,0.9943
178.94,54.11265,-0.11227999999999999,0.10804000000000001,0.99426
179.04,54.14544,-0.11202000000000001,0.10819000000000001,0.9942200000000001
179.14,54.178309999999996,-0.11220999999999999,0.10848,0.99418
179.24,54.21099,-0.11222,0.10736,0.9941399999999999
179.34,54.24363,-0.11220999999999999,0.10494,0.9941
179.44,54.276419999999995,-0.11208,0.1072,0.99406
179.54,54.30908,-0.11369000000000001,0.10745999999999999,0.9940200000000001
179.64,54.34185,-0.11425999999999999,0.10486,0.99398
179.74,54.37457,-0.1138,0.10612,0.9939399999999999
179.84,54.4073,-0.11392999999999999,0.10747000000000001,0.9939
179.94,54.439969999999995,-0.11485999999999999,0.10615,0.9938600000000001
180.04,54.47271,-0.11485,0.10885,0.99382
180.14,54.50554,-0.11485,0.10587,0.9937799999999999
180.24,54.53833,-0.11485,0.1088,0.99374
180.34,54.57119,-0.11485,0.10814000000000001,0.99369
180.44,54.6042,-0.11485,0.10784,0.99365
180.54,54.637,-0.11485,0.108,0.99361
180.64,54.66966,-0.11485,0.10759,0.9935700000000001
180.74,54.70256,-0.11485,0.10608,0.9935299999999999
180.84,54.735319999999994,-0.11485,0.10745999999999999,0.99349
180.94,54.76818000000001,-0.11485,0.10697000000000001,0.99345
181.04,54.80106,-0.11484000000000001,0.10633,0.99341
181.14,54.83388000000001,-0.11452000000000001,0.10592,0.9933700000000001
181.24,54.86665,-0.11485,0.10827,0.9933299999999999
181.34,54.89943,-0.11584000000000001,0.10640999999999999,0.99329
181.44,54.93224,-0.11582999999999999,0.10743,0.99325
181.54,54.965140000000005,-0.11582999999999999,0.10378,0.99321
181.64,54.99804,-0.11582999999999999,0.10722000000000001,0.9931700000000001
181.74,55.03086999999999,-0.11582999999999999,0.10685,0.99313
181.84,55.06383,-0.11582999999999999,0.10452,0.9930899999999999
181.94,55.096680000000006,-0.11582999999999999,0.1076,0.99305
182.04,55.12961,-0.11582999999999999,0.10495,0.9930100000000001
182.14,55.16234,-0.11582999999999999,0.10472999999999999,0.99297
182.24,55.195159999999994,-0.11582999999999999,0.10630999999999999,0.99293
182.34,55.228069999999995,-0.11582999999999999,0.10825,0.9928899999999999
182.44,55.26086,-0.11582999999999999,0.10744000000000001,0.99285
182.54,55.29351,-0.11582999999999999,0.10693,0.9928100000000001
182.64,55.326280000000004,-0.11582999999999999,0.10632,0.99277
182.74,55.358990000000006,-0.11582999999999999,0.10815,0.9927299999999999
182.84,55.39171999999999,-0.11582999999999999,0.1053,0.99269
182.94,55.42456,-0.11582999999999999,0.10680999999999999,0.99265
183.04,55.45735,-0.11588,0.10513,0.99261
183.14,55.490030000000004,-0.11725,0.10778,0.9925700000000001
183.24,55.522769999999994,-0.11715999999999999,0.10584,0.9925299999999999
183.34,55.55549,-0.11715,0.10605999999999999,0.99249
183.44,55.58829,-0.11715,0.10727,0.99245
183.54,55.621159999999996,-0.11715,0.10884,0.99241
183.64,55.653890000000004,-0.11715,0.10614000000000001,0.99236
183.74,55.68637,-0.11715,0.10772999999999999,0.9923200000000001
183.84,55.71869,-0.11715,0.10753,0.9922799999999999
183.94,55.75096,-0.11715999999999999,0.10711,0.99224
184.04,55.78331,-0.11748,0.10722000000000001,0.9922
184.14,55.815830000000005,-0.11748,0.10707,0.99216
184.24,55.84863000000001,-0.11748,0.10964000000000002,0.9921200000000001
184.34,55.88136,-0.11748,0.10817,0.99208
184.44,55.914,-0.11749000000000001,0.1066,0.9920399999999999
184.54,55.946619999999996,-0.1176,0.1077,0.992
184.64,55.97919,-0.11613,0.10775,0.9919600000000001
184.74,56.011559999999996,-0.11710999999999999,0.10709,0.99192
184.84,56.044019999999996,-0.11747,0.10780999999999999,0.9918799999999999
184.94,56.07631,-0.11782999999999999,0.10758,0.9918399999999999
185.04,56.10873,-0.11848,0.10935,0.9918
185.14,56.14106999999999,-0.11846,0.10638,0.9917600000000001
185.24,56.1736,-0.11846,0.10845999999999999,0.99172
185.34,56.20599,-0.11846,0.10704000000000001,0.9916799999999999
185.44,56.23839,-0.11846,0.10889000000000001,0.99164
185.54,56.27071,-0.11846,0.10675,0.9916
185.64,56.302969999999995,-0.11846,0.10684,0.99156
185.74,56.335359999999994,-0.11849000000000001,0.10972,0.9915200000000001
185.84,56.36799,-0.11879,0.10837000000000001,0.9914799999999999
185.94,56.40074,-0.12013,0.10613,0.99144
186.04,56.43348,-0.12011,0.1077,0.9914
186.14,56.46618,-0.12011,0.10985,0.99136
186.24,56.4987,-0.12011,0.10905,0.9913200000000001
186.34,56.531,-0.1201,0.10912999999999999,0.9912799999999999
186.44,56.563340000000004,-0.11962,0.10860999999999998,0.99124
186.54,56.59562,-0.11877,0.10790999999999999,0.9912
186.64,56.62798000000001,-0.11879,0.10898,0.99116
186.74,56.66033,-0.11979000000000001,0.10643,0.99111
186.84,56.69276,-0.1201,0.10849,0.9910700000000001
186.94,56.725269999999995,-0.12042,0.10914000000000001,0.99103
187.04,56.75787,-0.1211,0.10793,0.9909899999999999
187.14,56.790240000000004,-0.12172999999999999,0.10705,0.99095
187.24,56.8227,-0.12208,0.10802,0.9909100000000001
187.34,56.855059999999995,-0.12215999999999999,0.10867,0.99087
187.44,56.88746999999999,-0.12212999999999999,0.10787999999999999,0.9908299999999999
187.54,56.91996999999999,-0.12113,0.10801,0.99079
187.64,56.95245,-0.1211,0.10927,0.99075
187.74,56.984840000000005,-0.12111,0.10865999999999999,0.9907100000000001
187.84,57.017309999999995,-0.12042,0.10928,0.99067
187.94,57.04979,-0.12044,0.1101,0.9906299999999999
188.04,57.08203,-0.12044,0.1085,0.99059
188.14,57.114340000000006,-0.12044,0.1093,0.99055
188.24,57.14671,-0.12044,0.10992,0.99051
188.34,57.17909,-0.12043,0.11064,0.9904700000000001
188.44,57.21147,-0.12036,0.1082,0.9904299999999999
188.54,57.24371,-0.12186,0.10743,0.99039
188.64,57.27606,-0.12032000000000001,0.10775,0.99035
188.74,57.30834,-0.12043,0.10890999999999999,0.99031
188.84,57.34061,-0.12044,0.10755999999999999,0.9902700000000001
188.94,57.37304,-0.12045,0.10905,0.9902299999999999
189.04,57.40541999999999,-0.12050999999999999,0.11108,0.99019
189.14,57.43785,-0.12112,0.10851,0.99015
189.24,57.47031,-0.1211,0.10930999999999999,0.99011
189.34,57.50273000000001,-0.12109,0.11005999999999999,0.9900700000000001
189.44,57.53508000000001,-0.12147000000000001,0.10939000000000002,0.99003
189.54,57.5675,-0.12176,0.10914000000000001,0.9899899999999999
189.64,57.59965,-0.12176,0.10805999999999999,0.98995
189.74,57.63204,-0.12178,0.108,0.9899100000000001
189.84,57.664519999999996,-0.12295,0.10939000000000002,0.98987
189.94,57.696830000000006,-0.12307,0.10790999999999999,0.98982
190.04,57.72905,-0.12308,0.11020999999999999,0.9897799999999999
190.14,57.761540000000004,-0.12308,0.10820999999999999,0.98974
190.24,57.79401,-0.12308,0.10944000000000001,0.9897
190.34,57.82638000000001,-0.1231,0.10959,0.98966
190.44,57.85875,-0.12347999999999999,0.10935,0.98962
190.54,57.891130000000004,-0.12563,0.10772999999999999,0.9895799999999999
190.64,57.92371,-0.1257,0.10939000000000002,0.98954
190.74,57.95615,-0.12578,0.11072,0.9895
190.84,57.98856,-0.12460999999999998,0.11208,0.98946
190.94,58.02106,-0.1247,0.11032,0.9894200000000001
191.04,58.05339,-0.12472000000000001,0.11066,0.9893799999999999
191.14,58.08586999999999,-0.12477,0.11177999999999999,0.98934
191.24,58.11824,-0.12605,0.11200999999999998,0.9893
191.34,58.1505,-0.12603,0.11166,0.98926
191.44,58.18294,-0.12603,0.1109,0.9892200000000001
191.54,58.21536999999999,-0.12597,0.11084000000000001,0.98918
191.64,58.247780000000006,-0.12738,0.10857,0.9891399999999999
191.74,58.28025,-0.12727,0.11199,0.9891
191.84,58.31265,-0.12819,0.10992,0.98906
191.94,58.34509,-0.12732000000000002,0.11281,0.9890200000000001
192.04,58.377390000000005,-0.12735,0.1134,0.98898
192.14,58.409890000000004,-0.12735,0.11052000000000001,0.9889399999999999
192.24,58.44226999999999,-0.12735,0.11149,0.9889
192.34,58.47456,-0.12735,0.11062999999999999,0.9888600000000001
192.44,58.50705,-0.12735,0.11137999999999999,0.98882
192.54,58.5396,-0.12735,0.11,0.9887799999999999
192.64,58.572109999999995,-0.12736,0.11107,0.98874
192.74,58.60446999999999,-0.12747,0.11259000000000001,0.9887
192.84,58.636990000000004,-0.12871,0.11122,0.98866
192.94,58.66947,-0.12867,0.11012999999999999,0.98861
193.04,58.70202,-0.12869,0.1103,0.9885700000000001
193.14,58.73469,-0.12934,0.11054000000000001,0.9885299999999999
193.24,58.76716999999999,-0.12933,0.11076,0.98849
193.34,58.79948,-0.12902,0.10879000000000001,0.98845
193.44,58.83215,-0.12664,0.11105,0.98841
193.54,58.86456999999999,-0.12550999999999998,0.1081,0.9883700000000001
193.64,58.89702,-0.12435999999999998,0.11057,0.9883299999999999
193.74,58.929480000000005,-0.12415999999999999,0.1087,0.98829
193.84,58.962,-0.12455,0.10951,0.98825
193.94,58.99455,-0.12415,0.10892,0.98821
194.04,59.02701,-0.1252,0.10947,0.9881700000000001
194.14,59.05961,-0.12635,0.11124,0.98813
194.24,59.09216,-0.12774000000000002,0.10832,0.9880899999999999
194.34,59.12478,-0.12911,0.11125,0.98805
194.44,59.15736,-0.13014,0.10905999999999999,0.98801
194.54,59.18974,-0.13241,0.10945999999999999,0.9879700000000001
194.64,59.22214,-0.13251,0.1107,0.98793
194.74,59.254630000000006,-0.1325,0.10942,0.9878899999999999
194.84,59.28711,-0.13234,0.10957,0.98785
194.94,59.319559999999996,-0.13105999999999998,0.11087999999999999,0.9878100000000001
195.04,59.352109999999996,-0.12971,0.10761,0.98777
195.14,59.3845,-0.12977,0.10705999999999999,0.9877299999999999
195.24,59.41696999999999,-0.12977,0.10890999999999999,0.98769
195.34,59.44944,-0.12976,0.11029000000000001,0.98765
195.44,59.48203,-0.13011,0.10929000000000001,0.98761
195.54,59.51455,-0.1307,0.10805999999999999,0.9875700000000001
195.64,59.54713,-0.13076,0.109,0.9875299999999999
195.74,59.5798,-0.1308,0.10844000000000001,0.9874799999999999
195.84,59.6124,-0.12955,0.10868,0.98744
195.94,59.64499,-0.12945,0.10739000000000001,0.9874
196.04,59.67766999999999,-0.12944,0.10619,0.98736
196.14,59.71024,-0.12944,0.10801,0.9873200000000001
196.24,59.74286,-0.12944,0.10790999999999999,0.9872799999999999
196.34,59.77536,-0.12944,0.10655,0.98724
196.44,59.808040000000005,-0.12944,0.10795,0.9872
196.54,59.84075,-0.12944,0.1063,0.98716
196.64,59.87348000000001,-0.12941,0.10755,0.9871200000000001
196.74,59.906119999999994,-0.12979000000000002,0.10697999999999999,0.98708
196.84,59.938869999999994,-0.12967,0.10593,0.9870399999999999
196.94,59.97181,-0.13122999999999999,0.10597000000000001,0.987
197.04,60.0047,-0.1312,0.10811,0.9869600000000001
197.14,60.037530000000004,-0.13255,0.1057,0.98692
197.24,60.070209999999996,-0.13474,0.10635,0.98688
197.34,60.10265,-0.13514,0.1058,0.9868399999999999
197.44,60.13524,-0.13514,0.10755999999999999,0.9868
197.54,60.16794,-0.13516,0.10675,0.9867600000000001
197.64,60.2005,-0.1338,0.10705999999999999,0.98672
197.74,60.233109999999996,-0.13382,0.10643,0.9866799999999999
197.84,60.265730000000005,-0.13444,0.10664000000000001,0.98664
197.94,60.298590000000004,-0.13325,0.10586,0.9866
198.04,60.3313,-0.13318,0.10542,0.98656
198.14,60.36388,-0.13197,0.10918,0.9865200000000001
198.24,60.39646,-0.13185999999999998,0.10683,0.9864799999999999
198.34,60.42912,-0.13185,0.10655999999999999,0.98644
198.44,60.462,-0.13185,0.10593,0.9864
198.54,60.494519999999994,-0.13185,0.1094,0.98635
198.64,60.527159999999995,-0.13185999999999998,0.10718,0.98631
198.74,60.55996999999999,-0.13322,0.10580999999999999,0.9862700000000001
198.84,60.592659999999995,-0.13379000000000002,0.10895999999999999,0.9862299999999999
198.94,60.62523,-0.13382,0.10899,0.98619
199.04,60.657669999999996,-0.13371,0.10665,0.98615
199.14,60.69022,-0.13527999999999998,0.10799,0.98611
199.24,60.722809999999996,-0.13515,0.10835,0.9860700000000001
199.34,60.75561999999999,-0.13749,0.10784,0.98603
199.44,60.78849,-0.13777,0.10703,0.9859899999999999
199.54,60.821369999999995,-0.13785,0.10726,0.98595
199.64,60.85406999999999,-0.13633,0.10797000000000001,0.9859100000000001
199.74,60.88691,-0.1365,0.10765,0.98587
199.84,60.91958,-0.13504000000000002,0.1073,0.9858299999999999
199.94,60.9524,-0.13513,0.1073,0.9857899999999999
200.04,60.98503,-0.13514,0.10858,0.98575
200.14,61.01764,-0.13514,0.10914000000000001,0.9857100000000001
200.24,61.050290000000004,-0.13514,0.10995,0.98567
200.34,61.083119999999994,-0.13513,0.11032,0.9856299999999999
200.44,61.11577,-0.1365,0.11120999999999999,0.98559
200.54,61.14833,-0.13512000000000002,0.11108,0.98555
200.64,61.1811,-0.13513,0.11052999999999999,0.98551
200.74,61.21386999999999,-0.13623,0.11110999999999999,0.9854700000000001
200.84,61.24641,-0.13782,0.11060999999999999,0.9854299999999999
200.94,61.279090000000004,-0.13777,0.1084,0.98539
201.04,61.31182,-0.13777,0.11042,0.98534
201.14,61.34433000000001,-0.13777,0.11010999999999999,0.9853
201.24,61.3771,-0.13777,0.11132,0.98526
201.34,61.4099,-0.13776,0.11012999999999999,0.9852200000000001
201.44,61.44254,-0.13869,0.11077000000000001,0.98518
201.54,61.47513000000001,-0.13907,0.1114,0.98514
201.64,61.507769999999994,-0.13908,0.10998,0.9851
201.74,61.5403,-0.13902,0.10778,0.98506
201.84,61.572869999999995,-0.14040999999999998,0.11187000000000001,0.9850200000000001
201.94,61.60547,-0.13895,0.11077999999999999,0.98498
202.04,61.6379,-0.13908,0.10926,0.9849399999999999
202.14,61.67044,-0.13851,0.11045999999999999,0.9849
202.24,61.70304,-0.13856,0.11022,0.9848600000000001
202.34,61.7355,-0.13878,0.11273,0.98482
202.44,61.767880000000005,-0.13774,0.11080999999999999,0.9847799999999999
202.54,61.80035,-0.13777999999999999,0.11097,0.98474
202.64,61.83278000000001,-0.13777999999999999,0.11238,0.9847
202.74,61.86516999999999,-0.13777999999999999,0.11076,0.9846600000000001
202.84,61.89753,-0.1378,0.11074,0.98462
202.94,61.92994,-0.13859000000000002,0.10979000000000001,0.9845799999999999
203.04,61.96235,-0.13874,0.11045,0.98454
203.14,61.99483000000001,-0.13874,0.1138,0.9845
203.24,62.02731,-0.13832,0.11288,0.98446
203.34,62.05947,-0.13810999999999998,0.11235,0.9844200000000001
203.44,62.09158000000001,-0.13802,0.11207,0.9843700000000001
203.54,62.12381,-0.13855,0.11419000000000001,0.9843299999999999
203.64,62.15619,-0.13964000000000001,0.1132,0.98429
203.74,62.188469999999995,-0.14107,0.11449000000000001,0.98425
203.84,62.220859999999995,-0.14129,0.11508,0.98421
203.94,62.253119999999996,-0.14129,0.11682000000000001,0.9841700000000001
204.04,62.28546,-0.14129,0.11495,0.98413
204.14,62.317809999999994,-0.14129,0.11582999999999999,0.9840899999999999
204.24,62.35,-0.14129,0.11284000000000001,0.98405
204.34,62.38227,-0.14129,0.11474000000000001,0.98401
204.44,62.41463,-0.14129,0.11565,0.9839700000000001
204.54,62.44709,-0.14128,0.11465999999999998,0.98393
204.64,62.479569999999995,-0.14243,0.11614000000000001,0.9838899999999999
204.74,62.51198,-0.14259000000000002,0.11477000000000001,0.98385
204.84,62.54419,-0.1426,0.11366,0.9838100000000001
204.94,62.57658000000001,-0.1426,0.11217,0.98377
205.04,62.6089,-0.1426,0.11433,0.9837299999999999
205.14,62.64125,-0.1426,0.11166,0.98369
205.24,62.67363,-0.1426,0.11238,0.98365
205.34,62.70593,-0.14256,0.11325999999999999,0.98361
205.44,62.73831,-0.14351,0.11055999999999999,0.98357
205.54,62.77078,-0.14390999999999998,0.11265,0.9835299999999999
205.64,62.80328000000001,-0.14393,0.10993,0.98349
205.74,62.83576,-0.1453,0.11314,0.98344
205.84,62.86813000000001,-0.14524,0.11199,0.9834
205.94,62.90059,-0.14524,0.11367999999999999,0.98336
206.04,62.93303,-0.14524,0.11352000000000001,0.9833200000000001
206.14,62.96544,-0.14461,0.1122,0.9832799999999999
206.24,62.99781,-0.14458,0.11202999999999999,0.98324
206.34,63.03031,-0.14458,0.11032,0.9832
206.44,63.06273,-0.14458,0.11074,0.98316
206.54,63.095240000000004,-0.14455,0.11198,0.9831200000000001
206.64,63.12766,-0.14494,0.11043,0.98308
206.74,63.16007,-0.14493,0.11002999999999999,0.9830399999999999
206.84,63.19249,-0.14527,0.11310999999999999,0.983
206.94,63.225080000000005,-0.14554,0.11160999999999999,0.9829600000000001
207.04,63.257540000000006,-0.14635,0.11272,0.9829200000000001
207.14,63.29018000000001,-0.14684,0.10899,0.98288
207.24,63.3227,-0.14687,0.11058,0.9828399999999999
207.34,63.355169999999994,-0.14687,0.11257,0.9828
207.44,63.38735,-0.14687,0.10989000000000002,0.9827600000000001
207.54,63.419709999999995,-0.14687,0.11122,0.98272
207.64,63.45223000000001,-0.14687,0.1114,0.9826799999999999
207.74,63.484680000000004,-0.14687,0.10934,0.98264
207.84,63.517230000000005,-0.14687,0.10909,0.98259
207.94,63.549769999999995,-0.14687,0.11065,0.98255
208.04,63.582280000000004,-0.14687,0.10819000000000001,0.98251
208.14,63.61478,-0.14683,0.11008,0.9824700000000001
208.24,63.64748,-0.14604,0.10975,0.9824299999999999
208.34,63.68,-0.14533,0.10901,0.98239
208.44,63.71241,-0.14584,0.11192,0.98235
208.54,63.7448,-0.14583,0.11041,0.98231
208.64,63.77729,-0.14712,0.1096,0.9822700000000001
208.74,63.80987,-0.15016,0.11124,0.9822299999999999
208.84,63.84222,-0.15017,0.11044000000000001,0.98219
208.94,63.87477,-0.15016,0.11223,0.98215
209.04,63.907230000000006,-0.15091,0.10915,0.98211
209.14,63.93965,-0.15086,0.10929000000000001,0.9820700000000001
209.24,63.971880000000006,-0.14962,0.10826,0.98203
209.34,64.00424,-0.14853,0.10903,0.9819899999999999
209.44,64.03655,-0.14854,0.10870999999999999,0.98195
209.54,64.06934,-0.14859,0.11047,0.9819100000000001
209.64,64.10203,-0.14987,0.11002,0.98187
209.74,64.13453,-0.14984,0.10797999999999999,0.98183
209.84,64.16701,-0.14984,0.10935,0.9817899999999999
209.94,64.19932,-0.14985,0.11020999999999999,0.98174
210.04,64.23156,-0.15105,0.11218,0.9817
210.14,64.26371999999999,-0.15115,0.11143,0.9816600000000001
210.24,64.29603,-0.15112,0.11160999999999999,0.98162
210.34,64.32826,-0.15017,0.11037999999999999,0.9815799999999999
210.44,64.36071,-0.14924,0.11029000000000001,0.98154
210.54,64.39331,-0.14852,0.11155,0.9815
210.64,64.42558000000001,-0.14851,0.10902,0.98146
210.74,64.45781,-0.14842,0.11064,0.9814200000000001
210.84,64.49002,-0.15049,0.11057,0.9813799999999999
210.94,64.52235999999999,-0.15217999999999998,0.11068,0.98134
211.04,64.55483000000001,-0.15425,0.11074,0.9813
211.14,64.58725,-0.15186,0.11105,0.98126
211.24,64.61963,-0.1508,0.11122,0.9812200000000001
211.34,64.65216,-0.15026,0.11275,0.9811799999999999
211.44,64.68438,-0.15283,0.11169000000000001,0.98114
211.54,64.71655,-0.15412,0.1122,0.9811
211.64,64.74861,-0.15386,0.11002999999999999,0.98106
211.74,64.78076999999999,-0.15287,0.11275999999999999,0.9810200000000001
211.84,64.81283,-0.1514,0.11302000000000001,0.9809700000000001
211.94,64.84484,-0.15077000000000002,0.11302000000000001,0.98093
212.04,64.87693,-0.15052000000000001,0.11185,0.9808899999999999
212.14,64.9091,-0.15049,0.11334000000000001,0.98085
212.24,64.9416,-0.15034,0.11312,0.9808100000000001
212.34,64.97391999999999,-0.15245999999999998,0.11287,0.98077
212.44,65.00596,-0.15247,0.11412,0.9807299999999999
212.54,65.0381,-0.15247,0.11334000000000001,0.98069
212.64,65.07014000000001,-0.15245999999999998,0.11285,0.98065
212.74,65.10255,-0.15241,0.11292,0.98061
212.84,65.13486999999999,-0.15112,0.11213,0.98057
212.94,65.16743000000001,-0.15112,0.11177999999999999,0.9805299999999999
213.04,65.20009,-0.14984,0.11107,0.98049
213.14,65.23267,-0.15114,0.11145999999999999,0.98045
213.24,65.26522,-0.15116,0.11022,0.98041
213.34,65.29783,-0.15116,0.11150999999999998,0.9803700000000001
213.44,65.33028,-0.15116,0.1079,0.9803299999999999
213.54,65.36291,-0.15116,0.11129000000000001,0.98029
213.64,65.39568,-0.15119000000000002,0.10979000000000001,0.98024
213.74,65.42867,-0.15215,0.11231,0.9802
213.84,65.46154,-0.15249000000000001,0.10969000000000001,0.98016
213.94,65.49436,-0.1535,0.11059000000000001,0.9801200000000001
214.04,65.52715,-0.15548,0.10959,0.98008
214.14,65.56013,-0.1567,0.11012000000000001,0.9800399999999999
214.24,65.59302,-0.15664,0.10957,0.98
214.34,65.62575,-0.15664,0.11009000000000001,0.97996
214.44,65.6585,-0.15664,0.11309000000000001,0.9799200000000001
214.54,65.69143000000001,-0.15655,0.11155,0.97988
214.64,65.72426999999999,-0.15559,0.11016,0.9798399999999999
214.74,65.7572,-0.15567999999999999,0.11045999999999999,0.9798
214.84,65.7901,-0.15616,0.11032,0.9797600000000001
214.94,65.82301,-0.15692,0.10992,0.97972
215.04,65.85557,-0.15696,0.11005,0.9796799999999999
215.14,65.88808,-0.15698,0.11105,0.97964
215.24,65.92038000000001,-0.1566,0.10859,0.9796
215.34,65.9528,-0.15667,0.11132,0.97955
215.44,65.98534000000001,-0.15525,0.11217,0.97951
215.54,66.01788,-0.15538,0.11157,0.9794700000000001
215.64,66.05041,-0.15663,0.11139,0.9794299999999999
215.74,66.08303000000001,-0.15805,0.1124,0.97939
215.84,66.11559,-0.15932000000000002,0.11139,0.97935
215.94,66.14806,-0.15939,0.11310999999999999,0.97931
216.04,66.18055,-0.16172,0.11409000000000001,0.9792700000000001
216.14,66.21303,-0.16192,0.11419000000000001,0.9792299999999999
216.24,66.24558,-0.16346,0.11177000000000001,0.97919
216.34,66.27801,-0.16164,0.11513,0.97915
216.44,66.3106,-0.16091,0.11127999999999999,0.97911
216.54,66.34317,-0.1605,0.11210999999999999,0.9790700000000001
216.64,66.37576,-0.16049000000000002,0.11130999999999999,0.97903
216.74,66.40834,-0.1608,0.11210999999999999,0.9789899999999999
216.84,66.44091999999999,-0.16111,0.11194000000000001,0.97895
216.94,66.47349,-0.16113,0.113,0.9789100000000001
217.04,66.50617,-0.16117,0.11317999999999999,0.9788600000000001
217.14,66.53884000000001,-0.16021,0.11077999999999999,0.97882
217.24,66.57146999999999,-0.15921,0.1117,0.9787799999999999
217.34,66.60410999999999,-0.15847999999999998,0.11335,0.9787399999999999
217.44,66.63668,-0.15965,0.11298,0.9787
217.54,66.66934,-0.15947,0.11369000000000001,0.9786600000000001
217.64,66.70196,-0.15957000000000002,0.11189,0.97862
217.74,66.73470999999999,-0.1608,0.1139,0.9785799999999999
217.84,66.76737,-0.1608,0.11207,0.97854
217.94,66.79997,-0.1608,0.11448,0.9785
218.04,66.83247,-0.16175,0.11464,0.97846
218.14,66.86532,-0.16218,0.11077999999999999,0.9784200000000001
218.24,66.89820999999999,-0.16078,0.11472,0.9783799999999999
218.34,66.93083,-0.16080999999999998,0.11275999999999999,0.97834
218.44,66.96364,-0.16080999999999998,0.11515999999999998,0.9783
218.54,66.99614,-0.16080999999999998,0.11194000000000001,0.97825
218.64,67.02851,-0.16084,0.11312,0.97821
218.74,67.06085999999999,-0.16169,0.11373,0.9781700000000001
218.84,67.09324000000001,-0.16194,0.11332,0.9781299999999999
218.94,67.12559,-0.16342,0.11335999999999999,0.97809
219.04,67.15791999999999,-0.16574,0.11174,0.97805
219.14,67.19011,-0.16625,0.11347,0.97801
219.24,67.22255,-0.16743,0.1114,0.9779700000000001
219.34,67.2552,-0.16738,0.11183,0.97793
219.44,67.28787,-0.16738,0.11210999999999999,0.9778899999999999
219.54,67.32053,-0.16738,0.11193,0.97785
219.64,67.35302,-0.16741,0.11325,0.9778100000000001
219.74,67.3857,-0.16629000000000002,0.11191,0.97777
219.84,67.41826999999999,-0.16605,0.11365,0.9777299999999999
219.94,67.45079,-0.16709000000000002,0.11235999999999999,0.97769
220.04,67.48335,-0.16749,0.11478,0.97764
220.14,67.51604,-0.16845,0.11398,0.9776
220.24,67.54849,-0.16882,0.11142,0.97756
220.34,67.58104,-0.16891,0.11175,0.9775200000000001
220.44,67.61355999999999,-0.16747,0.11259000000000001,0.9774799999999999
220.54,67.64602,-0.16608,0.11200999999999998,0.97744
220.64,67.67874,-0.1656,0.11259000000000001,0.9774
220.74,67.71161,-0.16564,0.11169000000000001,0.97736
220.84,67.74448000000001,-0.16568,0.11216,0.9773200000000001
220.94,67.77729000000001,-0.16665,0.11243,0.9772799999999999
221.04,67.80981,-0.16713,0.11119000000000001,0.97724
221.14,67.84231,-0.16717,0.11105,0.9772
221.24,67.87474,-0.16715,0.11069000000000001,0.97716
221.34,67.90701,-0.1678,0.11323,0.9771200000000001
221.44,67.93913,-0.16814,0.1135,0.97708
221.54,67.97140999999999,-0.16818,0.11437,0.97703
221.64,68.00364,-0.16847,0.11308,0.9769899999999999
221.74,68.03596,-0.1681,0.11316,0.97695
221.84,68.06823,-0.16963,0.11227999999999999,0.9769100000000001
221.94,68.10036,-0.16825,0.11434000000000001,0.9768700000000001
222.04,68.13265,-0.1689,0.11054000000000001,0.97683
222.14,68.16484,-0.16863,0.1118,0.9767899999999999
222.24,68.19691,-0.16826,0.11517999999999999,0.97675
222.34,68.2289,-0.1695,0.11334000000000001,0.9767100000000001
222.44,68.26046,-0.16932,0.11370999999999999,0.97667
222.54,68.29223,-0.16981,0.11373,0.9766299999999999
222.64,68.32431,-0.17149,0.11365,0.97659
222.74,68.35637,-0.17239000000000002,0.11433,0.97655
222.84,68.38833000000001,-0.16978,0.11510999999999999,0.9765
222.94,68.42034,-0.16845,0.11552,0.97646
223.04,68.45260999999999,-0.17013,0.1161,0.9764200000000001
223.14,68.48501999999999,-0.17153,0.11523,0.9763799999999999
223.24,68.51751999999999,-0.17277,0.11506,0.97634
223.34,68.55003,-0.17506,0.11712,0.9763
223.44,68.58270999999999,-0.17507,0.11498,0.97626
223.54,68.61527,-0.17468,0.11477000000000001,0.9762200000000001
223.64,68.64771,-0.17507,0.11472,0.9761799999999999
223.74,68.6802,-0.17506,0.11475999999999999,0.97614
223.84,68.71269000000001,-0.17506,0.11582,0.9761
223.94,68.74515,-0.17506,0.11423,0.97606
224.04,68.7778,-0.17506,0.11402999999999999,0.9760200000000001
224.14,68.8101,-0.17506,0.11513,0.97598
224.24,68.84252,-0.17502,0.11477000000000001,0.97593
224.34,68.87514,-0.17438,0.11323,0.9758899999999999
224.44,68.90765999999999,-0.17369,0.11342999999999999,0.97585
224.54,68.94068,-0.17498,0.11573,0.9758100000000001
224.64,68.97354,-0.17509,0.11364,0.97577
224.74,69.00622,-0.17552,0.11595,0.9757299999999999
224.84,69.03883,-0.17632,0.11552,0.97569
224.94,69.07146,-0.17604,0.11283,0.97565
225.04,69.104,-0.17509,0.11217,0.9756100000000001
225.14,69.13620999999999,-0.17506,0.11185,0.97557
225.24,69.16853,-0.17506,0.11395999999999999,0.9755299999999999
225.34,69.20078000000001,-0.17506,0.11424000000000001,0.97549
225.44,69.23304,-0.17637,0.11405,0.97544
225.54,69.26541,-0.17638,0.113,0.9754
225.64,69.2978,-0.17637,0.11508,0.97536
225.74,69.33015999999999,-0.17627,0.11462,0.9753200000000001
225.84,69.36231,-0.17786,0.11573,0.9752799999999999
225.94,69.3944,-0.17745,0.11162000000000001,0.97524
226.04,69.42658,-0.17767,0.11374000000000001,0.9752
226.14,69.45875,-0.17769000000000001,0.11673,0.97516
226.24,69.49076,-0.17769000000000001,0.11458,0.9751200000000001
226.34,69.5228,-0.17769000000000001,0.1137,0.97508
226.44,69.55499,-0.17769000000000001,0.11356,0.97504
226.54,69.58744,-0.17770999999999998,0.11350999999999999,0.975
226.64,69.61979000000001,-0.17789000000000002,0.11409000000000001,0.97496
226.74,69.65214,-0.17899,0.11223,0.97491
226.84,69.6845,-0.17906,0.1143,0.9748700000000001
226.94,69.7169,-0.17966,0.11510999999999999,0.97483
227.04,69.74922,-0.17902,0.11457,0.9747899999999999
227.14,69.78163,-0.17907,0.11416,0.97475
227.24,69.81401,-0.17770999999999998,0.11383,0.9747100000000001
227.34,69.84642,-0.17778,0.11314,0.97467
227.44,69.87884,-0.1764,0.1131,0.9746299999999999
227.54,69.91133,-0.17640999999999998,0.11398,0.97459
227.64,69.94364,-0.17698,0.11400999999999999,0.97455
227.74,69.97596999999999,-0.1777,0.11139,0.97451
227.84,70.00797,-0.17853,0.11350999999999999,0.9744700000000001
227.94,70.04045,-0.17898,0.11231,0.9744200000000001
228.04,70.07316,-0.17974,0.1126,0.9743799999999999
228.14,70.10571,-0.18033,0.111,0.97434
228.24,70.13813,-0.18170999999999998,0.11132,0.9743
228.34,70.1709,-0.18252000000000002,0.11267,0.97426
228.44,70.20358,-0.18304,0.11375999999999999,0.9742200000000001
228.54,70.23614,-0.18432,0.11414,0.9741799999999999
228.64,70.26853,-0.18428,0.11416,0.97414
228.74,70.30107,-0.18429,0.11257,0.9741
228.84,70.33362,-0.18361,0.1142,0.97406
228.94,70.36608000000001,-0.18168,0.11398,0.9740200000000001
229.04,70.39855,-0.18039000000000002,0.11169000000000001,0.9739700000000001
229.14,70.43106,-0.18034,0.11414,0.97393
229.24,70.46356,-0.18033,0.10933,0.9738899999999999
229.34,70.49623000000001,-0.18039000000000002,0.11259000000000001,0.97385
229.44,70.52877,-0.17979,0.11133,0.9738100000000001
229.54,70.56145,-0.18105,0.11102999999999999,0.97377
229.64,70.59408,-0.181,0.11135999999999999,0.9737299999999999
229.74,70.62661,-0.18099,0.112,0.9736899999999999
229.84,70.65916999999999,-0.18104,0.11377000000000001,0.97365
229.94,70.69221,-0.18183,0.11273,0.9736100000000001
230.04,70.72491,-0.18292,0.11258,0.97357
230.14,70.75773000000001,-0.18397,0.11256,0.97352
230.24,70.79033000000001,-0.18395,0.11110999999999999,0.9734799999999999
230.34,70.82306,-0.18395,0.11304000000000002,0.97344
230.44,70.85589,-0.18394000000000002,0.1132,0.9734
230.54,70.8887,-0.18377000000000002,0.11357,0.97336
230.64,70.9214,-0.18686,0.11355,0.9733200000000001
230.74,70.95416,-0.18679,0.11341,0.9732799999999999
230.84,70.98682,-0.18789,0.11173,0.97324
230.94,71.01944,-0.18788,0.11548,0.9732
231.04,71.05213,-0.18775999999999998,0.1126,0.97316
231.14,71.08469000000001,-0.18657,0.11409000000000001,0.9731200000000001
231.24,71.11717,-0.18525,0.11535999999999999,0.9730700000000001
231.34,71.14959,-0.18623,0.11397,0.97303
231.44,71.18212,-0.18661,0.11354000000000002,0.9729899999999999
231.54,71.21481,-0.189,0.11498,0.97295
231.64,71.24726,-0.18939,0.11550999999999999,0.97291
231.74,71.27985,-0.19071,0.11394000000000001,0.9728700000000001
231.84,71.31254,-0.19180999999999998,0.11392999999999999,0.97283
231.94,71.34503000000001,-0.1919,0.11266,0.9727899999999999
232.04,71.37753000000001,-0.19005999999999998,0.11567999999999999,0.97275
232.14,71.40977,-0.1895,0.11579,0.9727100000000001
232.24,71.44219,-0.18766,0.11425,0.97267
232.34,71.47468,-0.18757000000000001,0.1164,0.97262
232.44,71.50703,-0.18748,0.11565999999999999,0.9725799999999999
232.54,71.53939,-0.18868,0.1161,0.97254
232.64,71.57175,-0.19035,0.11431,0.9725
232.74,71.60414,-0.19022,0.1151,0.97246
232.84,71.6365,-0.1902,0.11697,0.9724200000000001
232.94,71.66875,-0.18928,0.11485,0.9723799999999999
233.04,71.70125,-0.19021,0.11775,0.97234
233.14,71.7336,-0.18887,0.11645,0.9723
233.24,71.76586,-0.18889,0.11582999999999999,0.97226
233.34,71.7983,-0.18941,0.11645,0.97221
233.44,71.83083,-0.19153,0.11648,0.9721700000000001
233.54,71.86315,-0.19152,0.1183,0.9721299999999999
233.64,71.89545,-0.19167,0.11622,0.97209
233.74,71.92781,-0.19293,0.1191,0.97205
233.84,71.95998,-0.19345,0.11867,0.97201
233.94,71.99229,-0.1938,0.11782000000000001,0.9719700000000001
234.04,72.02476,-0.19382,0.11682000000000001,0.97193
234.14,72.05703000000001,-0.19383,0.11684000000000001,0.9718899999999999
234.24,72.08964,-0.19395,0.11938,0.97185
234.34,72.12189000000001,-0.192,0.11752,0.9718
234.44,72.15419,-0.19216,0.11759000000000001,0.9717600000000001
234.54,72.18670999999999,-0.19222999999999998,0.11764000000000001,0.97172
234.64,72.21908,-0.19252,0.11717000000000001,0.9716799999999999
234.74,72.25151,-0.19177,0.1182,0.97164
234.84,72.28387,-0.19287,0.11905999999999999,0.9716
234.94,72.31626,-0.19284,0.11707000000000001,0.9715600000000001
235.04,72.3486,-0.19285,0.11388,0.97152
235.14,72.38091999999999,-0.19369,0.11849000000000001,0.9714799999999999
235.24,72.41325,-0.19418,0.11911,0.9714299999999999
235.34,72.44556,-0.19516,0.11843,0.97139
235.44,72.4779,-0.19547,0.11952,0.97135
235.54,72.51028000000001,-0.19605999999999998,0.1163,0.97131
235.64,72.54259,-0.19677999999999998,0.11774000000000001,0.9712700000000001
235.74,72.57489,-0.19664,0.11688,0.9712299999999999
235.84,72.60731,-0.19824,0.11957999999999999,0.97119
235.94,72.63981,-0.19967000000000001,0.1171,0.97115
236.04,72.67228,-0.19954000000000002,0.11725999999999999,0.97111
236.14,72.70456,-0.1996,0.11914000000000001,0.9710700000000001
236.24,72.73701,-0.19809000000000002,0.1173,0.9710200000000001
236.34,72.76951,-0.19818,0.11628,0.97098
236.44,72.80192,-0.19672,0.11572,0.9709399999999999
236.54,72.83439,-0.19559,0.11892,0.9709
236.64,72.86686999999999,-0.19558,0.11657999999999999,0.9708600000000001
236.74,72.89944,-0.19685999999999998,0.11500999999999999,0.9708200000000001
236.84,72.93204,-0.19689,0.11803,0.97078
236.94,72.96457,-0.19868,0.11665999999999999,0.9707399999999999
237.04,72.9971,-0.19954000000000002,0.11793,0.9707
237.14,73.02974,-0.19952999999999999,0.11782999999999999,0.97065
237.24,73.0623,-0.19944,0.1164,0.9706100000000001
237.34,73.09473,-0.20081,0.11818,0.97057
237.44,73.1272,-0.2008,0.11654,0.9705299999999999
237.54,73.15958,-0.20007,0.11557,0.97049
237.64,73.1919,-0.19956,0.11532,0.97045
237.74,73.22428000000001,-0.19952999999999999,0.11735,0.97041
237.84,73.25657,-0.19952999999999999,0.11667000000000001,0.9703700000000001
237.94,73.28888,-0.19952999999999999,0.11805,0.9703299999999999
238.04,73.32118,-0.19952999999999999,0.11652,0.9702799999999999
238.14,73.35349000000001,-0.19951,0.11640999999999999,0.97024
238.24,73.38588,-0.20032,0.11579,0.9702
238.34,73.41856,-0.20085,0.11777,0.97016
238.44,73.45081,-0.20089,0.11759000000000001,0.9701200000000001
238.54,73.48311,-0.20215999999999998,0.11485999999999999,0.9700799999999999
238.64,73.51554,-0.20215999999999998,0.1173,0.97004
238.74,73.54789,-0.20215999999999998,0.11738,0.97
238.84,73.58001,-0.20213,0.11685,0.96996
238.94,73.61234,-0.20251,0.1161,0.96991
239.04,73.6448,-0.20249,0.11689000000000001,0.9698700000000001
239.14,73.6772,-0.20249,0.11528,0.96983
239.24,73.70945999999999,-0.20249,0.11540999999999998,0.9697899999999999
239.34,73.7419,-0.2025,0.11717000000000001,0.96975
239.44,73.77433,-0.2027,0.11703,0.9697100000000001
239.54,73.80726999999999,-0.20421,0.11487,0.96967
239.64,73.84033000000001,-0.20406,0.11704,0.9696299999999999
239.74,73.87313,-0.20534000000000002,0.11504,0.96959
239.84,73.90597,-0.2054,0.11395,0.96954
239.94,73.93894,-0.20636999999999997,0.11653,0.9695
240.04,73.97176999999999,-0.20674,0.1147,0.96946
240.14,74.00468000000001,-0.20670999999999998,0.11797,0.9694200000000001
240.24,74.0372,-0.20790999999999998,0.11515,0.9693799999999999
240.34,74.07001,-0.20808000000000001,0.11760999999999999,0.96934
240.44,74.10254,-0.20855,0.1176,0.9693
240.54,74.13546,-0.20938,0.118,0.96926
240.64,74.16845,-0.2094,0.11756,0.96921
240.74,74.2012,-0.2094,0.11617000000000001,0.9691700000000001
240.84,74.23392,-0.2094,0.11652,0.9691299999999999
240.94,74.26666999999999,-0.20906999999999998,0.11819,0.96909
241.04,74.29937,-0.20806999999999998,0.11757000000000001,0.96905
241.14,74.332,-0.20808000000000001,0.11774000000000001,0.96901
241.24,74.36471999999999,-0.20803000000000002,0.11685,0.9689700000000001
241.34,74.39752,-0.20938,0.11640999999999999,0.96893
241.44,74.43016,-0.20959,0.11565999999999999,0.96888
241.54,74.46254,-0.21076,0.11899000000000001,0.9688399999999999
241.64,74.49461,-0.21070999999999998,0.11533,0.9688
241.74,74.52668,-0.21061,0.11628,0.9687600000000001
241.84,74.5591,-0.21197,0.11617000000000001,0.96872
