##Temp./°C,Time/min,Mass loss(subtr.2)/mg,DSC(subtr.2)/(mW/mg),Sensit./(uV/mW)
50.099,10.01667,-0.03917,0.01303856,1.0480200000000002
50.199,10.4962,-0.04119509,0.0166929,1.04798
50.299,10.683810000000001,-0.04146806,0.02173569,1.04793
50.399,10.80688,-0.04284924,0.02566752,1.04789
50.499,10.90723,-0.04287741,0.02833961,1.0478399999999999
50.599,10.9933,-0.04177678,0.03194536,1.0478
50.699,11.069139999999999,-0.04259769,0.03375315,1.04776
50.799,11.138710000000001,-0.04435308,0.03572634,1.0477100000000001
50.899,11.20423,-0.04368549,0.0401011,1.04767
50.999,11.26492,-0.04408154,0.03937253,1.04762
51.099,11.32273,-0.04407014,0.04321991,1.04758
51.199,11.3784,-0.04399188,0.04681439,1.0475299999999999
51.299,11.43233,-0.04270993,0.04668959,1.04749
51.399,11.48381,-0.0440116,0.04674355,1.04745
51.499,11.534239999999999,-0.04403832,0.04976347,1.0474
51.599,11.582980000000001,-0.04529811,0.05219049,1.04736
51.699,11.63079,-0.04522239,0.05345974,1.04731
51.799,11.6779,-0.04518549,0.05231073,1.0472700000000001
51.899,11.72377,-0.04445692,0.0562818,1.04722
51.999,11.768839999999999,-0.04530388,0.05518256,1.04718
52.099,11.813039999999999,-0.04598395,0.05620451,1.04714
52.199,11.85702,-0.04529109,0.05784813,1.0470899999999999
52.299,11.90018,-0.0466303,0.05836435,1.04705
52.399,11.942919999999999,-0.0458156,0.05966349,1.047
52.499,11.98524,-0.04662012,0.06104898,1.0469600000000001
52.599,12.02707,-0.0477526,0.06086605,1.04691
52.699,12.06822,-0.04664934,0.06358678,1.04687
52.799,12.10904,-0.04649343,0.06593504,1.04683
52.899,12.14971,-0.04795421,0.06546803,1.0467799999999998
52.999,12.189969999999999,-0.04794798,0.06450024,1.04674
53.099,12.23016,-0.04796094,0.06541444,1.04669
53.199,12.27007,-0.04875289,0.0672816,1.04665
53.299,12.309560000000001,-0.04847253,0.06524004,1.04661
53.399,12.349089999999999,-0.0479546,0.06738876,1.04656
53.499,12.3885,-0.04941084,0.06637943,1.0465200000000001
53.599,12.42763,-0.04846614,0.06824873,1.04647
53.699,12.46676,-0.04860341,0.06892488,1.04643
53.799,12.50567,-0.04924318,0.06849738,1.04639
53.899,12.54416,-0.04925752,0.06805008,1.04634
53.999,12.58264,-0.04896398,0.07017822,1.0463
54.099,12.62107,-0.04790261,0.06880844,1.04625
54.199,12.65885,-0.04938431,0.06994879,1.04621
54.299,12.69694,-0.04926356,0.07116953,1.04616
54.399,12.73505,-0.04925987,0.06986432,1.0461200000000002
54.499,12.77307,-0.04925805,0.06831113,1.04608
54.599,12.81097,-0.04922457,0.07028475,1.04603
54.699,12.848889999999999,-0.04959413,0.07182298,1.04599
54.799,12.88675,-0.0495854,0.07153358,1.0459399999999999
54.899,12.92431,-0.0494657,0.07268927,1.0459
54.999,12.961789999999999,-0.0509731,0.07261129,1.04586
55.099,12.999239999999999,-0.050581,0.07279816,1.0458100000000001
55.199,13.036439999999999,-0.0505781,0.07392963,1.04577
55.299,13.0735,-0.05096092,0.07318412,1.04572
55.399,13.1106,-0.05151989,0.07228443,1.04568
55.499,13.147520000000002,-0.05097628,0.07301284,1.04564
55.599,13.184510000000001,-0.05089579,0.07287621,1.04559
55.699,13.22149,-0.05073035,0.07220556,1.04555
55.799,13.25844,-0.05025534,0.07348703,1.0455
55.899,13.29535,-0.05020729,0.07424336,1.04546
55.999,13.33265,-0.05057232,0.07358981,1.04542
56.099,13.36935,-0.05057905,0.0743888,1.0453700000000001
56.199,13.406260000000001,-0.05198643,0.07407545,1.0453299999999999
56.299,13.443179999999998,-0.0518937,0.07376995,1.04528
56.399,13.479829999999998,-0.05186732,0.07550602,1.04524
56.499,13.51661,-0.05091236,0.07372372,1.0452
56.599,13.55299,-0.05165434,0.07403134,1.04515
56.699,13.58956,-0.05188496,0.07361883,1.04511
56.799,13.62629,-0.0518897,0.07419416,1.04506
56.899,13.662720000000002,-0.05188999,0.07507402,1.04502
56.999,13.69931,-0.05189,0.07479268,1.04498
57.099,13.735679999999999,-0.05189,0.07643342,1.04493
57.199,13.772329999999998,-0.05189002,0.07548945,1.0448899999999999
57.299,13.8087,-0.05189033,0.07325425,1.04484
57.399,13.845229999999999,-0.05189449,0.07604392,1.0448
57.499,13.88125,-0.05192867,0.07597758,1.0447600000000001
57.599,13.91746,-0.05426356,0.07477101,1.04471
57.699,13.953510000000001,-0.05415648,0.07606414,1.04467
57.799,13.98935,-0.05562211,0.07464295,1.04463
57.899,14.025360000000001,-0.05482189,0.07528672,1.0445799999999998
57.999,14.06151,-0.05421458,0.07713584,1.04454
58.099,14.097439999999999,-0.05419083,0.07541042,1.04449
58.199,14.133389999999999,-0.05419,0.07704279,1.04445
58.299,14.169210000000001,-0.05419,0.07583482,1.04441
58.399,14.205020000000001,-0.05419001,0.07617478,1.04436
58.499,14.240929999999999,-0.05419017,0.07966013,1.0443200000000001
58.599,14.276620000000001,-0.05419276,0.07800913,1.04427
58.699,14.31221,-0.05422568,0.07650217,1.04423
58.799,14.34774,-0.05537445,0.07644445,1.04419
58.899,14.383320000000001,-0.05551017,0.07797522,1.04414
58.999,14.418779999999998,-0.05690572,0.07968721,1.0441
59.099,14.454089999999999,-0.05689795,0.07929549,1.04406
59.199,14.48944,-0.05537045,0.07944272,1.04401
59.299,14.524820000000002,-0.05550036,0.07886709,1.04397
59.399,14.560279999999999,-0.05550877,0.08047975,1.0439200000000002
59.499,14.595529999999998,-0.05550136,0.08012214,1.04388
59.599,14.63083,-0.05542366,0.07860838,1.0438399999999999
59.699,14.666070000000001,-0.05672772,0.08075779,1.04379
59.799,14.701279999999999,-0.05671911,0.08213694,1.04375
59.899,14.736410000000001,-0.05672357,0.08229413,1.0437
59.999,14.77123,-0.05680084,0.08052909,1.04366
60.099,14.80631,-0.05527473,0.08133162,1.04362
60.199,14.84113,-0.05581651,0.08211109,1.04357
60.299,14.87601,-0.0567255,0.08203203,1.0435299999999998
60.399,14.910810000000001,-0.05672036,0.08154101,1.04349
60.499,14.945429999999998,-0.05672048,0.0825162,1.04344
60.599,14.980129999999999,-0.05672548,0.0843268,1.0434
60.699,15.014679999999998,-0.0567747,0.08478762,1.04335
60.799,15.04925,-0.05540253,0.08381394,1.04331
60.899,15.083860000000001,-0.05575615,0.08639969,1.0432700000000001
60.999,15.118179999999999,-0.05668237,0.08805235,1.04322
61.099,15.152679999999998,-0.05781483,0.08479028,1.04318
61.199,15.187029999999998,-0.05802797,0.08633849,1.04314
61.299,15.22161,-0.05802465,0.08759351,1.04309
61.399,15.256039999999999,-0.05792582,0.08623141,1.04305
61.499,15.29031,-0.05782565,0.08710272,1.04301
61.599,15.32455,-0.05624693,0.08692698,1.04296
61.699,15.35878,-0.05639575,0.08732948,1.04292
61.799,15.39318,-0.05694329,0.08947143,1.04287
61.899,15.4273,-0.05770491,0.08787869,1.04283
61.999,15.4618,-0.05770031,0.0893972,1.0427899999999999
62.099,15.495989999999999,-0.0577003,0.08994964,1.04274
62.199,15.53009,-0.05770351,0.09068762,1.0427
62.299,15.5642,-0.05794471,0.09128114,1.0426600000000001
62.399,15.598339999999999,-0.0586998,0.09176512,1.04261
62.499,15.63269,-0.05868279,0.0901016,1.04257
62.599,15.66685,-0.05901939,0.08920212,1.0425200000000001
62.699,15.701089999999999,-0.05901898,0.09103941,1.0424799999999999
62.799,15.73531,-0.05899904,0.09311146,1.04244
62.899,15.76936,-0.06011609,0.09302937,1.04239
62.999,15.80367,-0.06032827,0.09293292,1.04235
63.099,15.83791,-0.06032932,0.09413048,1.04231
63.199,15.87199,-0.06032119,0.09138392,1.04226
63.299,15.90589,-0.0601662,0.09261673,1.0422200000000001
63.399,15.9399,-0.05896778,0.09388691,1.0421799999999999
63.499,15.973770000000002,-0.05903357,0.09274635,1.04213
63.599,16.007939999999998,-0.05938542,0.09414225,1.04209
63.699,16.04202,-0.06106208,0.09484944,1.04205
63.799,16.07592,-0.06100416,0.09425419,1.042
63.899,16.1099,-0.06119135,0.09513921,1.04196
63.999,16.14358,-0.06131301,0.094118,1.0419100000000001
64.099,16.177529999999997,-0.06132411,0.09418977,1.04187
64.199,16.21159,-0.06138199,0.0929014,1.04183
64.299,16.24549,-0.06056684,0.09488966,1.04178
64.399,16.27937,-0.06136102,0.09512561,1.0417399999999999
64.499,16.3132,-0.06133196,0.09466689,1.0417
64.599,16.3471,-0.06133062,0.09507959,1.04165
64.699,16.38114,-0.06133572,0.09738794,1.0416100000000001
64.799,16.41506,-0.0616371,0.09726094,1.04157
64.899,16.44925,-0.06165917,0.0992109,1.04152
64.999,16.48309,-0.06165948,0.0958316,1.04148
65.099,16.51696,-0.06297966,0.09786259,1.04144
65.199,16.55088,-0.06297194,0.09981216,1.04139
65.299,16.58494,-0.06297024,0.10089,1.04135
65.399,16.61882,-0.06297002,0.10078,1.04131
65.499,16.65292,-0.06297,0.0984338,1.04126
65.599,16.68654,-0.06297,0.09867581,1.04122
65.699,16.7202,-0.06296998,0.10057999999999999,1.0411700000000002
65.799,16.75405,-0.06296975,0.09950262,1.0411299999999999
65.899,16.787879999999998,-0.06296608,0.1007,1.04109
65.999,16.821920000000002,-0.0636169,0.1018,1.04104
66.099,16.855729999999998,-0.0642656,0.0994143,1.041
66.199,16.88962,-0.06431519,0.10084,1.04096
66.299,16.92369,-0.06392432,0.09984029,1.04091
66.399,16.95768,-0.06395766,0.10132000000000001,1.04087
66.499,16.99157,-0.06396233,0.10207999999999999,1.04083
66.599,17.02535,-0.06399626,0.10259000000000001,1.0407799999999998
66.699,17.05922,-0.06469566,0.09983093,1.04074
66.799,17.09299,-0.06523875,0.10155,1.0407
66.899,17.1267,-0.06526782,0.1025,1.04065
66.999,17.16067,-0.06526913,0.10409000000000002,1.04061
67.099,17.19441,-0.06525981,0.10438,1.04057
67.199,17.22852,-0.06513581,0.10509,1.0405200000000001
67.299,17.26248,-0.06666013,0.10330999999999999,1.0404799999999998
67.399,17.29662,-0.06659399,0.10459,1.04044
67.499,17.33076,-0.06659022,0.10471,1.04039
67.599,17.364929999999998,-0.06659008,0.10482000000000001,1.04035
67.699,17.39909,-0.06659055,0.10505999999999999,1.04031
67.799,17.43313,-0.06659181,0.10638,1.04026
67.899,17.46726,-0.06760919,0.10661,1.0402200000000001
67.999,17.501089999999998,-0.0679094,0.10624000000000001,1.0401799999999999
68.099,17.5349,-0.06790994,0.10799,1.04013
68.199,17.56878,-0.06790998,0.10577,1.04009
68.299,17.60258,-0.06790964,0.10614000000000001,1.04005
68.399,17.63625,-0.06790436,0.10809,1.04
68.499,17.66996,-0.06837373,0.10878,1.03996
68.599,17.70376,-0.06887555,0.10805,1.0399200000000002
68.699,17.73749,-0.06887948,0.10837000000000001,1.03987
68.799,17.77134,-0.06872633,0.10944000000000001,1.03983
68.899,17.80501,-0.06824706,0.11107,1.03979
68.999,17.83863,-0.06820849,0.11254000000000002,1.0397399999999999
69.099,17.872410000000002,-0.06859466,0.11157,1.0397
69.199,17.906129999999997,-0.06855521,0.11163,1.03966
69.299,17.93954,-0.06845584,0.11252999999999999,1.0396100000000001
69.399,17.97296,-0.07004027,0.11037999999999999,1.03957
69.499,18.00646,-0.07022635,0.114,1.0395299999999998
69.599,18.03983,-0.07120807,0.11435999999999999,1.03948
69.699,18.073320000000002,-0.07120057,0.11268,1.03944
69.799,18.10675,-0.07120004,0.11479,1.0394
69.899,18.14014,-0.0712,0.11517000000000001,1.03935
69.999,18.17365,-0.0712,0.11656,1.03931
70.099,18.20715,-0.07120007,0.1132,1.0392700000000001
70.199,18.24064,-0.07120101,0.11595,1.03922
70.299,18.27409,-0.07121423,0.11762,1.03918
70.399,18.30764,-0.07146669,0.119,1.03914
70.499,18.34114,-0.07219502,0.11732000000000001,1.03909
70.599,18.374670000000002,-0.07218135,0.11997000000000001,1.03905
70.699,18.40821,-0.07218407,0.11942,1.03901
70.799,18.44128,-0.07227159,0.11863,1.03896
70.899,18.47436,-0.07322811,0.12130999999999999,1.03892
70.999,18.50796,-0.07317178,0.12165999999999999,1.03888
71.099,18.541520000000002,-0.07313699,0.12122999999999999,1.03883
71.199,18.57495,-0.07352391,0.12343,1.0387899999999999
71.299,18.60851,-0.07337031,0.12351,1.03875
71.399,18.64199,-0.07494905,0.12142,1.0387
71.499,18.67547,-0.07482914,0.12476,1.0386600000000001
71.599,18.709139999999998,-0.07482063,0.12574000000000002,1.03862
71.699,18.742720000000002,-0.07482004,0.1265,1.0385799999999998
71.799,18.77629,-0.07481998,0.1246,1.03853
71.899,18.80988,-0.07481969,0.12498,1.03849
71.999,18.84331,-0.0748157,0.1272,1.03845
72.099,18.87695,-0.07476044,0.12813,1.0384
72.199,18.91045,-0.07584852,0.12780999999999998,1.03836
72.299,18.94407,-0.07717624,0.12915,1.0383200000000001
72.399,18.9778,-0.0771144,0.12976,1.03827
72.499,19.01141,-0.0771103,0.13028,1.03823
72.599,19.04488,-0.07711002,0.13071,1.03819
72.699,19.0785,-0.07711,0.1324,1.03814
72.799,19.11225,-0.07711,0.13308,1.0381
72.899,19.14639,-0.07711,0.13296,1.03806
72.999,19.18015,-0.07710997,0.1364,1.03801
73.099,19.21371,-0.07710961,0.13577999999999998,1.03797
73.199,19.24723,-0.07710486,0.13483,1.03793
73.299,19.28102,-0.07833271,0.13508,1.03788
73.399,19.31459,-0.07842401,0.13471,1.0378399999999999
73.499,19.34795,-0.07842956,0.13815,1.0378
73.599,19.3817,-0.07842997,0.13727,1.03776
73.699,19.41528,-0.07843,0.13834000000000002,1.0377100000000001
73.799,19.44895,-0.07843,0.13982999999999998,1.03767
73.899,19.482470000000003,-0.07843,0.14002,1.0376299999999998
73.999,19.51625,-0.07843,0.14157999999999998,1.03758
74.099,19.54993,-0.07843,0.13993,1.03754
74.199,19.583560000000002,-0.07843003,0.14015,1.0375
74.299,19.61735,-0.07843169,0.14364000000000002,1.03745
74.399,19.65103,-0.07978145,0.14155,1.03741
74.499,19.684839999999998,-0.07974742,0.14289000000000002,1.0373700000000001
74.599,19.71869,-0.08010057,0.1446,1.03732
74.699,19.752,-0.08008153,0.14538,1.03728
74.799,19.7855,-0.08008013,0.14758,1.03724
74.899,19.81927,-0.0800803,0.14728,1.0372
74.999,19.853,-0.08008469,0.14864000000000002,1.03715
75.099,19.88676,-0.08016085,0.14678,1.03711
75.199,19.92074,-0.08201348,0.14976,1.0370700000000002
75.299,19.95446,-0.08268993,0.1489,1.03702
75.399,19.98835,-0.08270852,0.15069000000000002,1.03698
75.499,20.0226,-0.08270989,0.15123,1.03694
75.599,20.0567,-0.08270999,0.15097,1.0368899999999999
75.699,20.09062,-0.08270999,0.15370999999999999,1.03685
75.799,20.12453,-0.08270993,0.15419000000000002,1.03681
75.899,20.15853,-0.08270907,0.15631,1.03677
75.999,20.19246,-0.08269639,0.15796,1.03672
76.099,20.22632,-0.08251795,0.1586,1.0366799999999998
76.199,20.26023,-0.08527184,0.15896,1.03664
76.299,20.29404,-0.08534726,0.16104000000000002,1.03659
76.399,20.327479999999998,-0.08534981,0.16152,1.03655
76.499,20.36122,-0.08534999,0.16241,1.03651
76.599,20.39488,-0.08535,0.1647,1.03647
76.699,20.42897,-0.08535,0.16269,1.0364200000000001
76.799,20.46333,-0.08534998,0.16574,1.0363799999999999
76.899,20.49699,-0.08534979,0.16602999999999998,1.03634
76.999,20.53077,-0.08534744,0.16701,1.03629
77.099,20.56464,-0.08531955,0.16874,1.03625
77.199,20.598329999999997,-0.08661998,0.1687,1.03621
77.299,20.63198,-0.08660073,0.17004,1.03616
77.399,20.665029999999998,-0.08799424,0.17101,1.0361200000000002
77.499,20.69858,-0.08797148,0.17092000000000002,1.03608
77.599,20.732210000000002,-0.08797009,0.17556,1.03604
77.699,20.76599,-0.08797001,0.17474,1.03599
77.799,20.79972,-0.08797,0.17608,1.03595
77.899,20.83341,-0.08797002,0.17955,1.03591
77.999,20.86695,-0.08797072,0.17829,1.03586
78.099,20.90071,-0.08799639,0.18303,1.03582
78.199,20.93455,-0.08929283,0.18116,1.03578
78.299,20.96817,-0.08929621,0.18115,1.0357399999999999
78.399,21.00229,-0.08942512,0.18392,1.03569
78.499,21.03585,-0.09055707,0.18583,1.03565
78.599,21.06939,-0.09171649,0.18729,1.0356100000000001
78.699,21.1029,-0.09192848,0.18788,1.03556
78.799,21.13628,-0.0919299,0.19018,1.03552
78.899,21.16988,-0.09193007,0.19005,1.03548
78.999,21.20351,-0.09193113,0.19269,1.03544
79.099,21.23691,-0.09194613,0.19362000000000001,1.03539
79.199,21.27038,-0.09217808,0.19575,1.03535
79.299,21.30385,-0.0932178,0.19565,1.03531
79.399,21.3374,-0.09326554,0.19794,1.03526
79.499,21.37094,-0.09354234,0.19983,1.03522
79.599,21.404329999999998,-0.09452503,0.19932,1.03518
79.699,21.43759,-0.09455758,0.20174,1.03514
79.799,21.47099,-0.09456079,0.20382,1.03509
79.899,21.50425,-0.09457323,0.20546999999999999,1.03505
79.999,21.53787,-0.09477629,0.20698000000000003,1.03501
80.099,21.57123,-0.09588632,0.20997,1.03496
80.199,21.6045,-0.09588157,0.21048000000000003,1.03492
80.299,21.63785,-0.0958955,0.21404,1.03488
80.399,21.67122,-0.09611702,0.21334,1.03484
80.499,21.704629999999998,-0.0975196,0.21727,1.0347899999999999
80.599,21.73809,-0.09848706,0.21700999999999998,1.03475
80.699,21.77169,-0.09885768,0.21821999999999997,1.03471
80.799,21.80546,-0.09978286,0.22173,1.03467
80.899,21.83877,-0.09983437,0.22291,1.03462
80.999,21.872220000000002,-0.1001,0.22471999999999998,1.0345799999999998
81.099,21.90573,-0.10115,0.22526,1.03454
81.199,21.939020000000003,-0.10117000000000001,0.23005,1.03449
81.299,21.97257,-0.10254,0.22949,1.03445
81.399,22.00635,-0.10211,0.23301,1.03441
81.499,22.0402,-0.1015,0.23164,1.03437
81.599,22.07374,-0.10147,0.23275,1.0343200000000001
81.699,22.107689999999998,-0.10138,0.23471,1.0342799999999999
81.799,22.14142,-0.10257999999999999,0.23661,1.03424
81.899,22.17527,-0.10422999999999999,0.23928000000000002,1.0342
81.999,22.2088,-0.10411,0.24143,1.03415
82.099,22.24236,-0.1041,0.24226999999999999,1.03411
82.199,22.27591,-0.10409000000000002,0.24395,1.03407
82.299,22.309639999999998,-0.104,0.24643,1.0340200000000002
82.399,22.34314,-0.10538,0.24678000000000003,1.03398
82.499,22.37664,-0.10545999999999998,0.24858000000000002,1.0339399999999999
82.599,22.41031,-0.10625,0.2512,1.0339
82.699,22.44375,-0.10664000000000001,0.25379,1.03385
82.799,22.4774,-0.10765999999999999,0.25506,1.0338100000000001
82.899,22.51108,-0.10772000000000001,0.25451,1.03377
82.999,22.54467,-0.10901,0.25844,1.03373
83.099,22.57817,-0.10934,0.26076,1.03368
83.199,22.611829999999998,-0.10927,0.26316,1.03364
83.299,22.64554,-0.11177000000000001,0.26541,1.0336
83.399,22.67921,-0.11198,0.26766999999999996,1.03356
83.499,22.71264,-0.11174,0.27044,1.03351
83.599,22.7462,-0.11185,0.27316999999999997,1.03347
83.699,22.77966,-0.11302000000000001,0.27508,1.0334299999999998
83.799,22.81294,-0.1129,0.27712,1.03339
83.899,22.84615,-0.11427999999999999,0.27939,1.03334
83.999,22.87952,-0.1143,0.28328000000000003,1.0333
84.099,22.91301,-0.11448,0.28574,1.03326
84.199,22.94654,-0.11565999999999999,0.28723000000000004,1.03321
84.299,22.98012,-0.11560999999999999,0.28893,1.0331700000000001
84.399,23.013720000000003,-0.11550999999999999,0.29045,1.0331299999999999
84.499,23.04725,-0.11697,0.29468,1.03309
84.599,23.08072,-0.11685999999999999,0.29832,1.03304
84.699,23.11407,-0.11814000000000001,0.29911,1.033
84.799,23.1472,-0.11962,0.30159,1.03296
84.899,23.18015,-0.11957000000000001,0.30545,1.03292
84.999,23.21347,-0.11949000000000001,0.30618,1.0328700000000002
85.099,23.247,-0.12087,0.30716,1.03283
85.199,23.280079999999998,-0.12088,0.30931,1.0327899999999999
85.299,23.31352,-0.12082999999999999,0.31606,1.03275
85.399,23.34685,-0.12202,0.31731,1.0327
85.499,23.380110000000002,-0.12359,0.31924,1.0326600000000001
85.599,23.413710000000002,-0.12465,0.32187,1.03262
85.699,23.44715,-0.12485,0.32336,1.0325799999999998
85.799,23.48058,-0.12597,0.32604,1.03253
85.899,23.51424,-0.12612,0.32788,1.03249
85.999,23.547620000000002,-0.12607000000000002,0.33155,1.03245
86.099,23.58115,-0.12868,0.33351,1.03241
86.199,23.61465,-0.12878,0.3378,1.03236
86.299,23.64808,-0.1288,0.34043,1.0323200000000001
86.399,23.68154,-0.13,0.34458,1.0322799999999999
86.499,23.71511,-0.13013,0.34497,1.03224
86.599,23.74881,-0.13101,0.34928000000000003,1.03219
86.699,23.78246,-0.13109,0.35019,1.03215
86.799,23.816129999999998,-0.13138,0.35470999999999997,1.03211
86.899,23.85047,-0.13205999999999998,0.35634,1.03207
86.999,23.88417,-0.13342,0.35915,1.0320200000000002
87.099,23.9173,-0.13338,0.3635,1.03198
87.199,23.95139,-0.13474,0.36376,1.0319399999999999
87.299,23.98509,-0.13474,0.36835999999999997,1.0319
87.399,24.01877,-0.13605,0.3712,1.03185
87.499,24.05256,-0.13601,0.37346999999999997,1.0318100000000001
87.599,24.08614,-0.13683,0.37664000000000003,1.03177
87.699,24.1199,-0.13868,0.38238,1.03173
87.799,24.15364,-0.13982,0.38525,1.03168
87.899,24.18732,-0.14034000000000002,0.38774000000000003,1.03164
87.999,24.22128,-0.14263,0.39098,1.0316
88.099,24.25488,-0.14263,0.39252,1.03156
88.199,24.288710000000002,-0.14288,0.39791,1.03151
88.299,24.32249,-0.14395,0.40084000000000003,1.03147
88.399,24.356370000000002,-0.14440999999999998,0.40267,1.0314299999999998
88.499,24.390220000000003,-0.14540999999999998,0.40555,1.03139
88.599,24.42387,-0.1466,0.40808,1.03134
88.699,24.457629999999998,-0.14659,0.41112,1.0313
88.799,24.49129,-0.14718,0.41606000000000004,1.03126
88.899,24.525170000000003,-0.14786,0.41878000000000004,1.03122
88.999,24.55892,-0.14849,0.42208,1.0311700000000001
89.099,24.59308,-0.15054,0.42575,1.0311299999999999
89.199,24.62689,-0.15137,0.42963,1.03109
89.299,24.66064,-0.15298,0.43387,1.03105
89.399,24.69439,-0.1543,0.43546,1.03101
89.499,24.72798,-0.15441,0.43977,1.03096
89.599,24.76165,-0.15595,0.44213,1.03092
89.699,24.79534,-0.15700999999999998,0.44786000000000004,1.03088
89.799,24.82893,-0.15821,0.45033999999999996,1.03084
89.899,24.86272,-0.15895,0.45366999999999996,1.0307899999999999
89.999,24.89651,-0.15972,0.45816,1.03075
90.099,24.93042,-0.16112,0.46413999999999994,1.03071
90.199,24.96408,-0.16246,0.46691000000000005,1.03067
90.299,24.99766,-0.16299,0.47076,1.03062
90.399,25.03128,-0.1637,0.47462,1.0305799999999998
90.499,25.06478,-0.16514,0.47652,1.03054
90.599,25.0985,-0.16659000000000002,0.47857,1.0305
90.699,25.13202,-0.16798,0.48589,1.03045
90.799,25.1654,-0.16901,0.48936999999999997,1.03041
90.899,25.19898,-0.17034000000000002,0.4902,1.03037
90.999,25.23258,-0.17032,0.49816000000000005,1.03033
91.099,25.26643,-0.17165999999999998,0.50011,1.03029
91.199,25.30013,-0.17134000000000002,0.50329,1.03024
91.299,25.3336,-0.17169,0.5099199999999999,1.0302
91.399,25.36724,-0.17442,0.5129600000000001,1.03016
91.499,25.401120000000002,-0.17574,0.51684,1.0301200000000001
91.599,25.43489,-0.1772,0.52162,1.03007
91.699,25.46871,-0.17854,0.5263100000000001,1.03003
91.799,25.50235,-0.18064000000000002,0.52889,1.02999
91.899,25.5361,-0.18128,0.53317,1.02995
91.999,25.56987,-0.18244000000000002,0.5363899999999999,1.02991
92.099,25.6034,-0.18392999999999998,0.54062,1.02986
92.199,25.63707,-0.18470999999999999,0.5454399999999999,1.0298200000000002
92.299,25.67087,-0.18544000000000002,0.5497,1.02978
92.399,25.70459,-0.18656,0.55333,1.0297399999999999
92.499,25.73837,-0.18799000000000002,0.5575899999999999,1.02969
92.599,25.77219,-0.18934,0.56138,1.02965
92.699,25.80585,-0.18953,0.5663,1.0296100000000001
92.799,25.840020000000003,-0.19069,0.57029,1.02957
92.899,25.873720000000002,-0.19254000000000002,0.57387,1.0295299999999998
92.999,25.90771,-0.19409,0.58024,1.02948
93.099,25.94139,-0.19527,0.58296,1.02944
93.199,25.97479,-0.19772,0.58581,1.0294
93.299,26.00855,-0.19906,0.59103,1.02936
93.399,26.0423,-0.20083,0.597,1.02931
93.499,26.07582,-0.20188,0.6005699999999999,1.0292700000000001
93.599,26.10951,-0.20292000000000002,0.60455,1.0292299999999999
93.699,26.143,-0.20434000000000002,0.61065,1.02919
93.799,26.17661,-0.20586,0.6123,1.02915
93.899,26.21011,-0.20734,0.6167199999999999,1.0291
93.999,26.243740000000003,-0.2088,0.6185,1.02906
94.099,26.277070000000002,-0.20906999999999998,0.6235,1.02902
94.199,26.31066,-0.21206999999999998,0.62774,1.02898
94.299,26.34427,-0.21343,0.63376,1.02893
94.399,26.37775,-0.21475,0.63653,1.0288899999999999
94.499,26.4114,-0.21606999999999998,0.64237,1.02885
94.599,26.444940000000003,-0.21711,0.64426,1.02881
94.699,26.47853,-0.21805,0.6500199999999999,1.02877
94.799,26.51225,-0.2181,0.6523399999999999,1.02872
94.899,26.545859999999998,-0.2191,0.6590600000000001,1.0286799999999998
94.999,26.579009999999997,-0.22193000000000002,0.6609,1.02864
95.099,26.61252,-0.22326999999999997,0.6655800000000001,1.0286
95.199,26.64616,-0.22455999999999998,0.66981,1.02855
95.299,26.67982,-0.22616999999999998,0.67435,1.02851
95.399,26.713490000000004,-0.22745,0.67707,1.02847
95.499,26.74713,-0.22883,0.68142,1.02843
95.599,26.78078,-0.23051,0.6862699999999999,1.02839
95.699,26.81451,-0.2333,0.6907,1.02834
95.799,26.84835,-0.2349,0.69548,1.0283
95.899,26.882209999999997,-0.23646,0.6993199999999999,1.02826
95.999,26.915809999999997,-0.23811,0.7024199999999999,1.0282200000000001
96.099,26.949409999999997,-0.24042,0.70835,1.0281799999999999
96.199,26.98309,-0.24251,0.71154,1.02813
96.299,27.016740000000002,-0.24351,0.7133,1.02809
96.399,27.05027,-0.2444,0.71926,1.02805
96.499,27.084,-0.24619000000000002,0.72453,1.02801
96.599,27.11767,-0.24764,0.7286199999999999,1.02797
96.699,27.15138,-0.2492,0.73242,1.0279200000000002
96.799,27.185090000000002,-0.25059000000000003,0.73757,1.02788
96.899,27.21872,-0.25353000000000003,0.74123,1.0278399999999999
96.999,27.252679999999998,-0.25501999999999997,0.7451399999999999,1.0278
97.099,27.286440000000002,-0.25645,0.74939,1.02776
97.199,27.32017,-0.25806999999999997,0.75367,1.0277100000000001
97.299,27.353820000000002,-0.25968,0.75874,1.02767
97.399,27.387559999999997,-0.2611,0.76449,1.0276299999999998
97.499,27.42107,-0.26266999999999996,0.76951,1.02759
97.599,27.454590000000003,-0.26441,0.77315,1.02754
97.699,27.4882,-0.26618,0.77828,1.0275
97.799,27.52163,-0.26819,0.77972,1.02746
97.899,27.554740000000002,-0.26985,0.78368,1.02742
97.999,27.58799,-0.27169,0.7894800000000001,1.02738
98.099,27.62149,-0.27355999999999997,0.7931699999999999,1.0273299999999999
98.199,27.65489,-0.27549,0.7961699999999999,1.02729
98.299,27.688209999999998,-0.27704,0.80152,1.02725
98.399,27.72148,-0.27865,0.80657,1.02721
98.499,27.754820000000002,-0.28026,0.81014,1.0271700000000001
98.599,27.78815,-0.28176999999999996,0.8156899999999999,1.02712
98.699,27.82146,-0.28345,0.81877,1.02708
98.799,27.854509999999998,-0.28658,0.82337,1.02704
98.899,27.887559999999997,-0.28870999999999997,0.8268399999999999,1.027
98.999,27.92059,-0.29017,0.8339799999999999,1.02696
99.099,27.953709999999997,-0.29186,0.83821,1.02691
99.199,27.98688,-0.29436,0.8428700000000001,1.0268700000000002
99.299,28.02007,-0.29551,0.84615,1.02683
99.399,28.05309,-0.29779,0.8519700000000001,1.0267899999999999
99.499,28.08623,-0.29951,0.85706,1.02675
99.599,28.11945,-0.30158,0.8613700000000001,1.0267
99.699,28.15265,-0.30435,0.8667,1.0266600000000001
99.799,28.18576,-0.3068,0.8696200000000001,1.02662
99.899,28.2191,-0.30832,0.87623,1.0265799999999998
99.999,28.252570000000002,-0.30985,0.88266,1.02654
100.099,28.28598,-0.31199,0.88356,1.0265
100.199,28.319329999999997,-0.31440999999999997,0.8880299999999999,1.02645
100.299,28.3527,-0.31689,0.8939299999999999,1.02641
100.399,28.386020000000002,-0.31995999999999997,0.89994,1.02637
100.499,28.41947,-0.3232,0.9044700000000001,1.02633
100.599,28.45283,-0.32504,0.90784,1.02629
100.699,28.486040000000003,-0.32675,0.91322,1.02624
100.799,28.51928,-0.3284,0.9171600000000001,1.0262
100.899,28.552709999999998,-0.33083,0.9213100000000001,1.02616
100.999,28.586209999999998,-0.33359,0.9274600000000001,1.0261200000000001
101.099,28.619629999999997,-0.33505,0.9326700000000001,1.0260799999999999
101.199,28.652959999999997,-0.33662,0.9383600000000001,1.02603
101.299,28.68638,-0.33883,0.9416899999999999,1.02599
101.399,28.7198,-0.3418,0.9475899999999999,1.02595
101.499,28.75313,-0.34357,0.95268,1.02591
101.599,28.78663,-0.34534000000000004,0.95685,1.02587
101.699,28.82027,-0.34813,0.9650799999999999,1.0258200000000002
101.799,28.853890000000003,-0.35039000000000003,0.9703200000000001,1.02578
101.899,28.88727,-0.35236,0.9761700000000001,1.0257399999999999
101.999,28.92075,-0.35448,0.98056,1.0257
102.099,28.954179999999997,-0.3569,0.98626,1.02566
102.199,28.98767,-0.35956,0.9913799999999999,1.02562
102.299,29.02115,-0.36165,0.99646,1.02557
102.399,29.054640000000003,-0.36466,1.00356,1.0255299999999998
102.499,29.087940000000003,-0.36791,1.00963,1.02549
102.599,29.12132,-0.36985,1.0165600000000001,1.02545
102.699,29.15495,-0.37179,1.0206600000000001,1.02541
102.799,29.188409999999998,-0.37387,1.02706,1.02536
102.899,29.22205,-0.37674,1.03318,1.02532
102.999,29.255670000000002,-0.3803,1.0409700000000002,1.02528
103.099,29.28923,-0.38244,1.04735,1.02524
103.199,29.32283,-0.38495999999999997,1.05066,1.0252
103.299,29.35622,-0.38785,1.05742,1.02515
103.399,29.38986,-0.39009,1.06525,1.02511
103.499,29.42346,-0.39265,1.07006,1.0250700000000001
103.599,29.45706,-0.39534,1.0770600000000001,1.0250299999999999
103.699,29.490470000000002,-0.39716,1.0813700000000002,1.02499
103.799,29.52396,-0.40052,1.08851,1.02495
103.899,29.55753,-0.40298,1.09768,1.0249
103.999,29.59125,-0.40552,1.10184,1.02486
104.099,29.62463,-0.40765999999999997,1.1082299999999998,1.02482
104.199,29.65803,-0.41053,1.11386,1.02478
104.299,29.691679999999998,-0.4134,1.12061,1.02474
104.399,29.725309999999997,-0.41648,1.12878,1.0247
104.499,29.759090000000004,-0.41827,1.13291,1.02465
104.599,29.792640000000002,-0.42089,1.1382299999999999,1.02461
104.699,29.826259999999998,-0.4234,1.14736,1.02457
104.799,29.85995,-0.42849,1.15235,1.02453
104.899,29.893620000000002,-0.43046,1.15737,1.02449
104.999,29.92724,-0.43322,1.16295,1.02444
105.099,29.96087,-0.43583999999999995,1.16923,1.0244
105.199,29.994559999999996,-0.439,1.17276,1.02436
105.299,30.02852,-0.44133999999999995,1.17991,1.0243200000000001
105.399,30.062179999999998,-0.44514,1.1837799999999998,1.0242799999999999
105.499,30.09613,-0.44733,1.19086,1.02424
105.599,30.12995,-0.45116000000000006,1.19459,1.02419
105.699,30.16351,-0.45433,1.20092,1.02415
105.799,30.197229999999998,-0.45736000000000004,1.20402,1.02411
105.899,30.23098,-0.46003,1.20909,1.02407
105.999,30.2648,-0.46261,1.21043,1.02403
106.099,30.298779999999997,-0.46591000000000005,1.21676,1.02399
106.199,30.33281,-0.46811,1.21951,1.02394
106.299,30.366629999999997,-0.47035,1.2252,1.0239
106.399,30.40055,-0.47426,1.2282799999999998,1.02386
106.499,30.434390000000004,-0.47641999999999995,1.2287700000000001,1.0238200000000002
106.599,30.46837,-0.4797,1.23237,1.02378
106.699,30.502059999999997,-0.48221,1.23443,1.0237399999999999
106.799,30.53562,-0.48525,1.23737,1.02369
106.899,30.569509999999998,-0.48712,1.24081,1.02365
106.999,30.60316,-0.49077,1.24176,1.0236100000000001
107.099,30.63686,-0.49478999999999995,1.24575,1.02357
107.199,30.67062,-0.49771000000000004,1.24506,1.0235299999999998
107.299,30.7042,-0.49946999999999997,1.24691,1.02349
107.399,30.7378,-0.50238,1.2488,1.02344
107.499,30.7712,-0.5057699999999999,1.2523799999999998,1.0234
107.599,30.804679999999998,-0.5081,1.25274,1.02336
107.699,30.838359999999998,-0.51144,1.25367,1.02332
107.799,30.87179,-0.51445,1.25755,1.02328
107.899,30.90516,-0.5171399999999999,1.2589299999999999,1.02324
107.999,30.938609999999997,-0.52018,1.258,1.02319
108.099,30.971940000000004,-0.52303,1.26189,1.02315
108.199,31.005309999999998,-0.52567,1.26334,1.02311
108.299,31.03867,-0.52873,1.2669700000000002,1.0230700000000001
108.399,31.072020000000002,-0.53217,1.26705,1.0230299999999999
108.499,31.105290000000004,-0.53551,1.27086,1.02299
108.599,31.13853,-0.53746,1.27365,1.02294
108.699,31.17206,-0.54079,1.27535,1.0229
108.799,31.205340000000003,-0.54318,1.27685,1.02286
108.899,31.238640000000004,-0.54593,1.28175,1.02282
108.999,31.271959999999996,-0.5485399999999999,1.28505,1.02278
109.099,31.3053,-0.5521,1.28708,1.02274
109.199,31.338659999999997,-0.55445,1.29136,1.0226899999999999
109.299,31.37205,-0.5589,1.2913299999999999,1.02265
109.399,31.40535,-0.56137,1.2931700000000002,1.02261
109.499,31.43848,-0.5645,1.2959399999999999,1.02257
109.599,31.47185,-0.56666,1.3027,1.02253
109.699,31.5053,-0.56979,1.3032299999999999,1.02249
109.799,31.53855,-0.5724,1.3086200000000001,1.02244
109.899,31.571920000000002,-0.57682,1.3107799999999998,1.0224
109.999,31.605059999999998,-0.58022,1.3148,1.02236
110.099,31.638379999999998,-0.58191,1.31834,1.0223200000000001
110.199,31.67162,-0.58568,1.32092,1.0222799999999999
110.299,31.70482,-0.587,1.32533,1.02224
110.399,31.73825,-0.5904,1.32988,1.02219
110.499,31.771409999999996,-0.59299,1.33184,1.02215
110.599,31.804579999999998,-0.5956,1.33554,1.02211
110.699,31.837940000000003,-0.59872,1.33785,1.02207
110.799,31.871129999999997,-0.60173,1.3395700000000001,1.02203
110.899,31.90457,-0.60535,1.34725,1.02199
110.999,31.9379,-0.6076199999999999,1.34703,1.02195
111.099,31.971259999999997,-0.61193,1.35101,1.0219
111.199,32.00441,-0.61407,1.3533600000000001,1.02186
111.299,32.03757,-0.6178600000000001,1.35645,1.0218200000000002
111.399,32.07076,-0.62016,1.36001,1.02178
111.499,32.10407,-0.6231800000000001,1.36337,1.0217399999999999
111.599,32.137609999999995,-0.6262,1.36602,1.0217
111.699,32.17078,-0.62841,1.37006,1.02165
111.799,32.20398,-0.62992,1.37171,1.0216100000000001
111.899,32.23737,-0.63372,1.3781700000000001,1.02157
111.999,32.27064,-0.63771,1.3770799999999999,1.0215299999999998
112.099,32.30413,-0.64059,1.37752,1.02149
112.199,32.33747,-0.6442100000000001,1.38019,1.02145
112.299,32.37086,-0.64662,1.38257,1.02141
112.399,32.40432,-0.64979,1.38629,1.02136
112.499,32.4376,-0.65185,1.3874600000000001,1.02132
112.599,32.47113,-0.65515,1.38774,1.02128
112.699,32.504540000000006,-0.6585,1.38819,1.02124
112.799,32.5377,-0.6622399999999999,1.3901700000000001,1.0212
112.899,32.571,-0.66555,1.38763,1.02116
112.999,32.60415,-0.66846,1.39044,1.02112
113.099,32.63725,-0.67135,1.38846,1.0210700000000001
113.199,32.67051,-0.6731600000000001,1.38543,1.0210299999999999
113.299,32.70393,-0.67595,1.38276,1.02099
113.399,32.737359999999995,-0.67971,1.38276,1.02095
113.499,32.77062,-0.6832600000000001,1.38089,1.02091
113.599,32.80382,-0.68542,1.3768799999999999,1.0208700000000002
113.699,32.83705,-0.68874,1.37141,1.02082
113.799,32.87038,-0.6907399999999999,1.36766,1.02078
113.899,32.90367,-0.6946399999999999,1.35847,1.02074
113.999,32.936809999999994,-0.69781,1.3521100000000001,1.0207
114.099,32.96985,-0.70143,1.3407799999999999,1.0206600000000001
114.199,33.002959999999995,-0.7037800000000001,1.3277299999999999,1.02062
114.299,33.03598,-0.70686,1.31489,1.0205799999999998
114.399,33.06878,-0.70897,1.29936,1.02053
114.499,33.10176,-0.71153,1.2841,1.02049
114.599,33.13463,-0.7132,1.26577,1.02045
114.699,33.16738,-0.7152,1.2488700000000001,1.02041
114.799,33.20021,-0.71824,1.2233399999999999,1.02037
114.899,33.233129999999996,-0.72041,1.2030100000000001,1.02033
114.999,33.26574,-0.72278,1.1772799999999999,1.02029
115.099,33.298759999999994,-0.72533,1.14909,1.02024
115.199,33.331109999999995,-0.72735,1.11874,1.0202
115.299,33.3635,-0.729,1.08437,1.02016
115.399,33.39575,-0.73056,1.0494,1.0201200000000001
115.499,33.42803,-0.7330300000000001,1.005,1.0200799999999999
115.599,33.46011,-0.73495,0.96246,1.02004
115.699,33.492090000000005,-0.73661,0.91669,1.02
115.799,33.52402,-0.7380800000000001,0.8700700000000001,1.01995
115.899,33.55603,-0.74006,0.82609,1.01991
115.999,33.5878,-0.74159,0.7810600000000001,1.01987
116.099,33.61954,-0.7431800000000001,0.73935,1.01983
116.199,33.6513,-0.74464,0.69835,1.01979
116.299,33.68278,-0.74597,0.66299,1.01975
116.399,33.71435,-0.7458899999999999,0.62764,1.0197100000000001
116.499,33.74588,-0.74738,0.59509,1.01967
116.599,33.77738,-0.74767,0.56404,1.01962
116.699,33.80873,-0.74853,0.5380199999999999,1.01958
116.799,33.84001,-0.75012,0.5106,1.01954
116.899,33.87113,-0.75137,0.48786,1.0195
116.999,33.902359999999994,-0.75264,0.46603,1.01946
117.099,33.93347,-0.75257,0.44281000000000004,1.01942
117.199,33.96472,-0.7528100000000001,0.42596000000000006,1.01938
117.299,33.995870000000004,-0.75407,0.40728000000000003,1.0193299999999998
117.399,34.027190000000004,-0.75461,0.39092,1.01929
117.499,34.05823,-0.75531,0.37512,1.01925
117.599,34.0895,-0.7559600000000001,0.35945,1.01921
117.699,34.12072,-0.75558,0.34704,1.0191700000000001
117.799,34.15185,-0.75575,0.33345,1.0191299999999999
117.899,34.18311,-0.75695,0.32005,1.01909
117.999,34.2143,-0.75692,0.30937,1.01904
118.099,34.245470000000005,-0.75815,0.29753,1.019
118.199,34.27677,-0.7592399999999999,0.28872,1.01896
118.299,34.30819,-0.75956,0.28043,1.01892
118.399,34.33955,-0.75959,0.27109,1.01888
118.499,34.370979999999996,-0.75959,0.26263000000000003,1.01884
118.599,34.40238,-0.75959,0.25551999999999997,1.0188
118.699,34.4337,-0.75958,0.24953000000000003,1.01876
118.799,34.464940000000006,-0.7608,0.24255,1.01871
118.899,34.496520000000004,-0.76088,0.23715,1.01867
118.999,34.52793,-0.76194,0.22934000000000002,1.01863
119.099,34.55973,-0.76218,0.22348,1.0185899999999999
119.199,34.59134,-0.7630399999999999,0.21818,1.01855
119.299,34.62307,-0.7635,0.21318,1.01851
119.399,34.65481,-0.76353,0.20858000000000002,1.01847
119.499,34.68651,-0.76353,0.20148,1.01843
119.599,34.71804,-0.76353,0.19974,1.0183799999999998
119.699,34.74992,-0.76353,0.19495,1.01834
119.799,34.781729999999996,-0.76353,0.19139,1.0183
119.899,34.81344,-0.76353,0.18616,1.01826
119.999,34.84553,-0.76352,0.18198,1.0182200000000001
120.099,34.87755,-0.76456,0.18141,1.0181799999999999
120.199,34.90945,-0.76483,0.17364000000000002,1.01814
120.299,34.94147,-0.76485,0.17238,1.0181
120.399,34.97336,-0.76485,0.17004,1.01805
120.499,35.00526,-0.76486,0.16713,1.01801
120.599,35.037259999999996,-0.76495,0.16305,1.01797
120.699,35.0693,-0.7662,0.15877,1.01793
120.799,35.10119,-0.7661600000000001,0.15791,1.01789
120.899,35.133559999999996,-0.76749,0.15547,1.01785
120.999,35.16585,-0.76748,0.15374000000000002,1.01781
121.099,35.19794,-0.76748,0.15433,1.01777
121.199,35.23005,-0.76748,0.15023,1.0177200000000002
121.299,35.26222,-0.76748,0.14977000000000001,1.01768
121.399,35.29439,-0.76748,0.14679,1.0176399999999999
121.499,35.3263,-0.76748,0.14502,1.0176
121.599,35.35853,-0.7674300000000001,0.14384,1.01756
121.699,35.390859999999996,-0.7685,0.14082,1.01752
121.799,35.423190000000005,-0.76879,0.13842000000000002,1.01748
121.899,35.45532,-0.7688,0.1369,1.01744
121.999,35.48753,-0.7688,0.137,1.01739
122.099,35.51958,-0.7688,0.13404000000000002,1.01735
122.199,35.55186,-0.7688,0.13293,1.01731
122.299,35.58409,-0.7688,0.1324,1.0172700000000001
122.399,35.616279999999996,-0.7688,0.12988,1.0172299999999999
122.499,35.64844,-0.7688,0.12933,1.01719
122.599,35.68085,-0.76876,0.13014,1.01715
122.699,35.71307,-0.76976,0.12853,1.01711
122.799,35.745259999999995,-0.76979,0.12722999999999998,1.01706
122.899,35.77752,-0.76979,0.12565,1.01702
122.999,35.80925,-0.7698699999999999,0.12390999999999999,1.01698
123.099,35.84106,-0.7712399999999999,0.12303,1.01694
123.199,35.87328,-0.77161,0.12245,1.0169
123.299,35.905359999999995,-0.77237,0.12172999999999999,1.01686
123.399,35.93745,-0.77231,0.11977,1.01682
123.499,35.96946,-0.77107,0.12055999999999999,1.01678
123.599,36.00181,-0.7711100000000001,0.11782999999999999,1.01674
123.699,36.034079999999996,-0.7711100000000001,0.11765999999999999,1.0166899999999999
123.799,36.06624,-0.7711100000000001,0.11654,1.01665
123.899,36.09839,-0.7711100000000001,0.11805999999999998,1.01661
123.999,36.1306,-0.7711100000000001,0.11542999999999999,1.01657
124.099,36.162929999999996,-0.7711100000000001,0.11120999999999999,1.01653
124.199,36.19534,-0.77128,0.11177000000000001,1.01649
124.299,36.22739,-0.77213,0.11357,1.01645
124.399,36.25967,-0.7720600000000001,0.11092,1.01641
124.499,36.29197,-0.77245,0.11130999999999999,1.01637
124.599,36.32441,-0.77242,0.11105999999999999,1.0163200000000001
124.699,36.35671,-0.77242,0.11209000000000001,1.0162799999999999
124.799,36.389070000000004,-0.77242,0.11075,1.01624
124.899,36.42152,-0.7724,0.10797000000000001,1.0162
124.999,36.45388,-0.77278,0.10587,1.01616
125.099,36.48658,-0.77275,0.10740999999999999,1.0161200000000001
125.199,36.51945,-0.77275,0.106,1.0160799999999999
125.299,36.5519,-0.77274,0.10601,1.01604
125.399,36.584579999999995,-0.77346,0.10305,1.016
125.499,36.617259999999995,-0.7740600000000001,0.10665,1.01595
125.599,36.6499,-0.7740600000000001,0.1063,1.01591
125.699,36.68237,-0.7740600000000001,0.10350999999999999,1.01587
125.799,36.71484,-0.7740600000000001,0.10412,1.01583
125.899,36.74742,-0.7740600000000001,0.10177,1.01579
125.999,36.78006,-0.7740600000000001,0.1001,1.01575
126.099,36.8125,-0.7740600000000001,0.10057999999999999,1.0157100000000001
126.199,36.84509,-0.7740600000000001,0.0989063,1.01567
126.299,36.87764,-0.7740600000000001,0.09991201,1.01563
126.399,36.910379999999996,-0.7740600000000001,0.09999313,1.01558
126.499,36.943090000000005,-0.7740100000000001,0.09704018,1.0155399999999999
126.599,36.975640000000006,-0.7751399999999999,0.09781164,1.0155
126.699,37.00815,-0.77537,0.0953152,1.01546
126.799,37.0408,-0.7753800000000001,0.09612248,1.01542
126.899,37.07345,-0.7753800000000001,0.09651614,1.01538
126.999,37.10603,-0.77541,0.09379096,1.01534
127.099,37.13888,-0.77578,0.09484839,1.0153
127.199,37.17158,-0.77666,0.09451879,1.01526
127.299,37.20422,-0.7767,0.09329442,1.01521
127.399,37.23683,-0.77672,0.0929526,1.0151700000000001
127.499,37.26931,-0.77591,0.09208182,1.0151299999999999
127.599,37.30186,-0.7753899999999999,0.09212323,1.01509
127.699,37.33442,-0.7753800000000001,0.09200196,1.01505
127.799,37.36722,-0.7753800000000001,0.09277941,1.01501
127.899,37.3999,-0.77571,0.0901337,1.0149700000000001
127.999,37.43244,-0.777,0.0903843,1.0149299999999999
128.099,37.46516,-0.77736,0.09143804,1.01489
128.199,37.49803,-0.77736,0.09042423,1.01485
128.299,37.530770000000004,-0.77736,0.09072379,1.0148
128.399,37.56348,-0.77736,0.08994793,1.01476
128.499,37.59616,-0.77736,0.09034589,1.01472
128.599,37.628890000000006,-0.77736,0.08860823,1.01468
128.699,37.6617,-0.77736,0.08953736,1.01464
128.799,37.69458,-0.77736,0.09024526,1.0146
128.899,37.72739,-0.77736,0.0902697,1.0145600000000001
128.999,37.76017,-0.77736,0.08988694,1.01452
129.099,37.793,-0.77736,0.08722812,1.0144799999999998
129.199,37.825759999999995,-0.77736,0.08931963,1.01443
129.299,37.85862,-0.77736,0.0897708,1.01439
129.399,37.89144,-0.77736,0.08801598,1.01435
129.499,37.92432,-0.7773800000000001,0.08697806,1.01431
129.599,37.957390000000004,-0.77764,0.08792062,1.01427
129.699,37.99034,-0.7780100000000001,0.08840856,1.01423
129.799,38.02333,-0.77836,0.08801936,1.01419
129.899,38.05618,-0.77933,0.08688051,1.01415
129.999,38.08917,-0.7793399999999999,0.08574587,1.01411
130.099,38.12229,-0.77961,0.08773215,1.01407
130.199,38.155190000000005,-0.78074,0.08582427,1.0140200000000001
130.299,38.1879,-0.7792,0.08526968,1.0139799999999999
130.399,38.22095,-0.77932,0.08682136,1.01394
130.499,38.25399,-0.77933,0.0847193,1.0139
130.599,38.28687,-0.77936,0.08399995,1.01386
130.699,38.31977,-0.77863,0.08500364,1.0138200000000002
130.799,38.35272,-0.77884,0.08527209,1.01378
130.899,38.3857,-0.77996,0.08586243,1.0137399999999999
130.999,38.41865,-0.77998,0.08348408,1.0137
131.099,38.451609999999995,-0.77998,0.08439518,1.01366
131.199,38.484559999999995,-0.77998,0.08350615,1.01362
131.299,38.5173,-0.77998,0.082549,1.01357
131.399,38.55019,-0.77965,0.08146897,1.0135299999999998
131.499,38.583290000000005,-0.77867,0.08239648,1.01349
131.599,38.61629,-0.77867,0.08311274,1.01345
131.699,38.6491,-0.77962,0.0813967,1.0134100000000001
131.799,38.68208,-0.77966,0.08115781,1.01337
131.899,38.71515,-0.78025,0.08119809,1.0133299999999998
131.999,38.74815,-0.78128,0.08049321,1.01329
132.099,38.78113,-0.7813,0.08151781,1.01325
132.199,38.8141,-0.7812899999999999,0.07871081,1.01321
132.299,38.84721,-0.78074,0.08009202,1.01316
132.399,38.88009,-0.78066,0.07826899,1.01312
132.499,38.91283,-0.78074,0.07936065,1.01308
132.599,38.945859999999996,-0.77963,0.07901056,1.01304
132.699,38.97888,-0.78037,0.0802931,1.013
132.799,39.01182,-0.78096,0.07889735,1.01296
132.899,39.04464,-0.78083,0.07909763,1.01292
132.999,39.077459999999995,-0.7823899999999999,0.08087937,1.01288
133.099,39.11031,-0.7823,0.07898399,1.01284
133.199,39.143229999999996,-0.78232,0.07943832,1.0128
133.299,39.17624,-0.78278,0.07905442,1.01276
133.399,39.20921,-0.78185,0.07849684,1.01271
133.499,39.2421,-0.78195,0.07988619,1.0126700000000002
133.599,39.274809999999995,-0.78196,0.08084259,1.01263
133.699,39.30768,-0.78196,0.07957111,1.0125899999999999
133.799,39.340559999999996,-0.78195,0.07753102,1.01255
133.899,39.37343,-0.78188,0.07913413,1.01251
133.999,39.4061,-0.78315,0.07904912,1.01247
134.099,39.43869,-0.7815,0.07930875,1.01243
134.199,39.47144,-0.78162,0.07976149,1.01239
134.299,39.50408,-0.78158,0.08016635,1.01235
134.399,39.536809999999996,-0.78276,0.07948871,1.01231
134.499,39.56965,-0.78294,0.08062824,1.01226
134.599,39.60245,-0.78294,0.07966066,1.0122200000000001
134.699,39.635329999999996,-0.78294,0.07797836,1.0121799999999999
134.799,39.66812,-0.78294,0.07897856,1.01214
134.899,39.70087,-0.78294,0.07674103,1.0121
134.999,39.73373,-0.78294,0.07891674,1.01206
135.099,39.766659999999995,-0.78294,0.07688873,1.0120200000000001
135.199,39.799409999999995,-0.78294,0.07834801,1.0119799999999999
135.299,39.83222,-0.78354,0.07809305,1.01194
135.399,39.86492,-0.78427,0.07920763,1.0119
135.499,39.897659999999995,-0.7842600000000001,0.07674653,1.01186
135.599,39.93033,-0.7842600000000001,0.07856138,1.0118200000000002
135.699,39.96322,-0.78432,0.07864558,1.01177
135.799,39.995979999999996,-0.78358,0.0790811,1.01173
135.899,40.02871,-0.78361,0.07644326,1.01169
135.999,40.06136,-0.78361,0.07798079,1.01165
136.099,40.09411,-0.78361,0.07722057,1.0116100000000001
136.199,40.12699,-0.78361,0.07840412,1.01157
136.299,40.15976,-0.78356,0.07745884,1.0115299999999998
136.399,40.19253,-0.78469,0.07788179,1.01149
136.499,40.22524,-0.78486,0.0791148,1.01145
136.599,40.257940000000005,-0.78498,0.07673549,1.0114100000000001
136.699,40.29061,-0.78462,0.07824253,1.01137
136.799,40.323170000000005,-0.7846,0.07641296,1.0113299999999998
136.899,40.35584,-0.78528,0.07710998,1.01128
136.999,40.3885,-0.78587,0.07800243,1.01124
137.099,40.42126,-0.78569,0.07671275,1.0112
137.199,40.4537,-0.78458,0.07789972,1.01116
137.299,40.48643,-0.7844,0.0762227,1.01112
137.399,40.51912,-0.78332,0.07618506,1.01108
137.499,40.55177,-0.7833899999999999,0.07819747,1.01104
137.599,40.58448,-0.78459,0.07712734,1.011
137.699,40.61735,-0.78593,0.0775481,1.01096
137.799,40.65007,-0.7855800000000001,0.0767813,1.01092
137.899,40.68273,-0.7855800000000001,0.07417404,1.01088
137.999,40.71542,-0.78496,0.07621875,1.01084
138.099,40.74825,-0.78492,0.07844348,1.0107899999999999
138.199,40.78105,-0.78493,0.0779056,1.01075
138.299,40.81381,-0.7854300000000001,0.07693375,1.01071
138.399,40.84661,-0.78638,0.07895599,1.0106700000000002
138.499,40.879529999999995,-0.7864,0.07686475,1.01063
138.599,40.91243,-0.7854,0.0738066,1.0105899999999999
138.699,40.94527,-0.7853600000000001,0.07702713,1.01055
138.799,40.97813,-0.7853600000000001,0.07736436,1.01051
138.899,41.01108,-0.7853600000000001,0.07745626,1.01047
138.999,41.04391,-0.7853899999999999,0.07709134,1.01043
139.099,41.07695,-0.78595,0.07668226,1.01039
139.199,41.10974,-0.78669,0.07646368,1.01035
139.299,41.142720000000004,-0.78668,0.0756974,1.01031
139.399,41.17562,-0.78668,0.07488209,1.01026
139.499,41.20844,-0.78668,0.07707196,1.0102200000000001
139.599,41.24135,-0.78668,0.07569948,1.0101799999999999
139.699,41.27418,-0.78668,0.07662053,1.01014
139.799,41.306940000000004,-0.78669,0.07690772,1.0101
139.899,41.339909999999996,-0.78687,0.07536185,1.01006
139.999,41.37274,-0.78804,0.07747569,1.0100200000000001
140.099,41.40554,-0.788,0.07538164,1.0099799999999999
140.199,41.4383,-0.78805,0.0758793,1.00994
140.299,41.47101,-0.7869,0.07459584,1.0099
140.399,41.5039,-0.78699,0.07646719,1.00986
140.499,41.53667,-0.787,0.07676597,1.0098200000000002
140.599,41.569390000000006,-0.787,0.07832802,1.00978
140.699,41.602109999999996,-0.787,0.07531823,1.00973
140.799,41.63496,-0.787,0.07555043,1.00969
140.899,41.66771,-0.787,0.07509476,1.00965
140.999,41.70043,-0.787,0.07543376,1.0096100000000001
141.099,41.733,-0.787,0.07519741,1.00957
141.199,41.76583,-0.787,0.07726618,1.0095299999999998
141.299,41.79844,-0.787,0.07719277,1.00949
141.399,41.83112,-0.787,0.07610058,1.00945
141.499,41.86371,-0.787,0.07378325,1.0094100000000001
141.599,41.896359999999994,-0.78699,0.07737196,1.00937
141.699,41.92906,-0.78687,0.0752776,1.0093299999999998
141.799,41.96182,-0.7884,0.07687405,1.00929
141.899,41.99451,-0.7883399999999999,0.07587861,1.00925
141.999,42.02704,-0.78737,0.0775428,1.00921
142.099,42.05963,-0.7878,0.07609425,1.00916
142.199,42.09231,-0.7883,0.07568978,1.00912
142.299,42.125009999999996,-0.78845,0.07551436,1.00908
142.399,42.15775,-0.78686,0.07849388,1.00904
142.499,42.19036,-0.78699,0.07671379,1.009
142.599,42.22312,-0.78703,0.07760803,1.00896
142.699,42.255790000000005,-0.78743,0.07449118,1.00892
142.799,42.28855,-0.78828,0.07610575,1.00888
142.899,42.32121,-0.78832,0.07610851,1.00884
142.999,42.35383,-0.78832,0.07541172,1.0088
143.099,42.38604,-0.78832,0.07576511,1.00876
143.199,42.4187,-0.78832,0.07462728,1.00872
143.299,42.45132,-0.78832,0.07780906,1.00868
143.399,42.48406,-0.78832,0.0753085,1.00864
143.499,42.51685,-0.78832,0.07431323,1.0085899999999999
143.599,42.54952,-0.78832,0.07510114,1.00855
143.699,42.582240000000006,-0.78832,0.07593817,1.00851
143.799,42.61488,-0.78832,0.07374144,1.00847
143.899,42.64748,-0.78832,0.07493924,1.00843
143.999,42.68012,-0.78832,0.07540074,1.00839
144.099,42.71282,-0.78832,0.07353977,1.00835
144.199,42.74545,-0.78832,0.07548058,1.00831
144.299,42.77815,-0.78832,0.07422716,1.00827
144.399,42.810829999999996,-0.7883100000000001,0.07581999,1.00823
144.499,42.84352,-0.78818,0.07470709,1.00819
144.599,42.87615,-0.78976,0.07386458,1.00815
144.699,42.90875,-0.78965,0.07557079,1.00811
144.799,42.941390000000006,-0.78961,0.0758338,1.00807
144.899,42.97394,-0.78786,0.07571774,1.00803
144.999,43.00643,-0.78799,0.07510538,1.0079799999999999
145.099,43.03914,-0.7881,0.07436354,1.00794
145.199,43.072140000000005,-0.7883100000000001,0.07701385,1.0079
145.299,43.10485,-0.78832,0.07561199,1.00786
145.399,43.1374,-0.78832,0.07373643,1.0078200000000002
145.499,43.17007,-0.78832,0.07261702,1.00778
145.599,43.20267,-0.78832,0.07549816,1.0077399999999999
145.699,43.23538,-0.78832,0.07392982,1.0077
145.799,43.2681,-0.78832,0.0718944,1.00766
145.899,43.30083,-0.78832,0.07573489,1.0076200000000002
145.999,43.3335,-0.78832,0.07269942,1.00758
146.099,43.36619,-0.78832,0.07252348,1.0075399999999999
146.199,43.398920000000004,-0.78832,0.07500168,1.0075
146.299,43.43166,-0.78827,0.07247521,1.00746
146.399,43.464420000000004,-0.78988,0.07379719,1.00742
146.499,43.497,-0.79065,0.07272506,1.00737
146.599,43.529720000000005,-0.79063,0.07386974,1.0073299999999998
146.699,43.56252,-0.79063,0.07532213,1.00729
146.799,43.595079999999996,-0.79063,0.07380016,1.00725
146.899,43.627790000000005,-0.79064,0.07350147,1.00721
146.999,43.6606,-0.79077,0.07375409,1.0071700000000001
147.099,43.69344,-0.7892,0.07273315,1.0071299999999999
147.199,43.72606,-0.78933,0.07344458,1.00709
147.299,43.75885,-0.78984,0.07138275,1.00705
147.399,43.79166,-0.79027,0.07193309,1.00701
147.499,43.82431,-0.79032,0.07426097,1.0069700000000001
147.599,43.85703,-0.79083,0.07271682,1.0069299999999999
147.699,43.88973,-0.79157,0.0758783,1.00689
147.799,43.92241,-0.79161,0.07265108,1.00685
147.899,43.95513,-0.79161,0.07626188,1.00681
147.999,43.9878,-0.79161,0.0741957,1.0067700000000002
148.099,44.0205,-0.79161,0.07231908,1.00673
148.199,44.05325,-0.7916,0.07226857,1.00668
148.299,44.08611,-0.79152,0.07404659,1.00664
148.399,44.11889,-0.79096,0.07160731,1.0066
148.499,44.15152,-0.79095,0.07336994,1.0065600000000001
148.599,44.18436,-0.79095,0.07233484,1.00652
148.699,44.21685,-0.79095,0.07410247,1.0064799999999998
148.799,44.24954,-0.79095,0.07159302,1.00644
148.899,44.28255,-0.79095,0.07344178,1.0064
148.999,44.31535,-0.79095,0.07395058,1.0063600000000001
149.099,44.348040000000005,-0.79095,0.07161967,1.00632
149.199,44.38098,-0.79095,0.07098717,1.0062799999999998
149.299,44.413940000000004,-0.79095,0.07243202,1.00624
149.399,44.44648,-0.79087,0.07299636,1.0062
149.499,44.47862,-0.79225,0.07441037,1.00616
149.599,44.5115,-0.79227,0.07287376,1.0061200000000001
149.699,44.5444,-0.79227,0.0735209,1.0060799999999999
149.799,44.57727,-0.79228,0.07432293,1.00604
149.899,44.610170000000004,-0.7925,0.07352168,1.00599
149.999,44.6431,-0.792,0.07231673,1.00595
150.099,44.67605,-0.7923100000000001,0.07251524,1.00591
150.199,44.70908,-0.79227,0.07242593,1.00587
150.299,44.741929999999996,-0.79227,0.07176245,1.00583
150.399,44.77472,-0.79227,0.07231706,1.00579
150.499,44.80765,-0.79227,0.07198665,1.00575
150.599,44.8406,-0.79227,0.07287856,1.00571
150.699,44.87348,-0.79227,0.07323734,1.00567
150.799,44.90656,-0.79227,0.07437702,1.00563
150.899,44.939209999999996,-0.79227,0.0730966,1.00559
150.999,44.9719,-0.79227,0.07288506,1.00555
151.099,45.00466,-0.79227,0.07346228,1.0055100000000001
151.199,45.0374,-0.79227,0.07490411,1.00547
151.299,45.07015,-0.7922899999999999,0.0747741,1.0054299999999998
151.399,45.10262,-0.7924399999999999,0.07333141,1.00539
151.499,45.13577,-0.79356,0.07364776,1.00535
151.599,45.169,-0.79394,0.07414999,1.00531
151.699,45.20128,-0.79392,0.07215851,1.00526
151.799,45.233740000000004,-0.79357,0.07251534,1.00522
151.899,45.26638,-0.7926,0.07346106,1.00518
151.999,45.29896,-0.7925800000000001,0.07323274,1.00514
152.099,45.331509999999994,-0.79389,0.07458804,1.0051
152.199,45.364059999999995,-0.79477,0.07335115,1.00506
152.299,45.39662,-0.79489,0.07512678,1.00502
152.399,45.42925,-0.7949,0.07367824,1.00498
152.499,45.46184,-0.79491,0.07391759,1.00494
152.599,45.494409999999995,-0.795,0.07345793,1.0049
152.699,45.52687,-0.79384,0.07169246,1.00486
152.799,45.559309999999996,-0.79391,0.07426101,1.00482
152.899,45.59193,-0.79392,0.07285572,1.00478
152.999,45.624520000000004,-0.79389,0.07553657,1.00474
153.099,45.65713,-0.79337,0.07445124,1.0047
153.199,45.689640000000004,-0.79264,0.0737522,1.00466
153.299,45.72218,-0.79261,0.07404453,1.00462
153.399,45.75465,-0.79264,0.07444313,1.00458
153.499,45.78738,-0.79365,0.0729647,1.00453
153.599,45.81998,-0.79359,0.07483033,1.0044899999999999
153.699,45.852540000000005,-0.79359,0.07528115,1.00445
153.799,45.88536,-0.7935800000000001,0.07445182,1.00441
153.899,45.91805,-0.79396,0.07389535,1.00437
153.999,45.95067,-0.7942600000000001,0.07197126,1.00433
154.099,45.98324,-0.7945800000000001,0.07407545,1.00429
154.199,46.015809999999995,-0.7945800000000001,0.0754369,1.00425
154.299,46.04834,-0.7945800000000001,0.07549112,1.00421
154.399,46.080870000000004,-0.7945800000000001,0.07583564,1.00417
154.499,46.11342,-0.79482,0.07581947,1.00413
154.599,46.14594,-0.79524,0.07758934,1.00409
154.699,46.178670000000004,-0.79524,0.0736012,1.00405
154.799,46.211420000000004,-0.79547,0.07493832,1.00401
154.899,46.244170000000004,-0.79556,0.07654532,1.00397
154.999,46.27685,-0.7956300000000001,0.07466985,1.00393
155.099,46.30961,-0.79485,0.07532869,1.00389
155.199,46.34232,-0.79491,0.07562347,1.00385
155.299,46.37518,-0.79491,0.07358709,1.00381
155.399,46.40793,-0.7949,0.07578833,1.00377
155.499,46.44057,-0.79555,0.07367462,1.0037200000000002
155.599,46.47336,-0.79588,0.07559285,1.00368
155.699,46.50606,-0.79591,0.07358737,1.0036399999999999
155.799,46.53882,-0.79605,0.07544141,1.0036
155.899,46.5717,-0.7972600000000001,0.07502422,1.00356
155.999,46.60452,-0.79719,0.07535961,1.00352
156.099,46.63727,-0.79695,0.07549421,1.00348
156.199,46.66986,-0.79592,0.07457585,1.0034399999999999
156.299,46.70275,-0.79589,0.07653878,1.0034
156.399,46.73554,-0.79587,0.07540305,1.00336
156.499,46.76832,-0.79487,0.07540438,1.00332
156.599,46.801109999999994,-0.7949,0.07576498,1.00328
156.699,46.83409,-0.7949,0.07511331,1.00324
156.799,46.86671,-0.7949,0.07528964,1.0032
156.899,46.899570000000004,-0.7949,0.07470554,1.00316
156.999,46.93234,-0.7949,0.07515493,1.00312
157.099,46.96498,-0.7949,0.07342565,1.00308
157.199,46.99776,-0.79492,0.07640364,1.00304
157.299,47.03037,-0.79575,0.07361389,1.003
157.399,47.06306,-0.79588,0.07313409,1.00296
157.499,47.09557,-0.79589,0.07361047,1.00292
157.599,47.12834,-0.7959,0.0749495,1.0028700000000002
157.699,47.16108,-0.79599,0.07453205,1.0028299999999999
157.799,47.1939,-0.79482,0.07532496,1.00279
157.899,47.22654,-0.79487,0.074749,1.00275
157.999,47.25892,-0.79545,0.07491475,1.00271
158.099,47.29152,-0.79572,0.07243217,1.0026700000000002
158.199,47.32414,-0.79588,0.07394988,1.00263
158.299,47.3571,-0.79589,0.07438129,1.0025899999999999
158.399,47.38962,-0.79592,0.07588891,1.00255
158.499,47.42237,-0.7955300000000001,0.07444516,1.00251
158.599,47.45512,-0.79556,0.07464185,1.00247
158.699,47.48774,-0.79556,0.07317601,1.00243
158.799,47.52016,-0.79556,0.07341943,1.00239
158.899,47.55279,-0.79556,0.07677297,1.00235
158.999,47.58529,-0.79556,0.07615369,1.00231
159.099,47.61784,-0.79556,0.07736307,1.00227
159.199,47.65052,-0.79556,0.07436398,1.00223
159.299,47.68309,-0.79556,0.07365302,1.00219
159.399,47.71584,-0.79556,0.07393855,1.00215
159.499,47.74838,-0.7955399999999999,0.07360282,1.00211
159.599,47.78123,-0.79438,0.07441601,1.00207
159.699,47.8139,-0.7942600000000001,0.07501528,1.00203
159.799,47.846379999999996,-0.79442,0.07324625,1.0019799999999999
159.899,47.878809999999994,-0.79561,0.07522743,1.00194
159.999,47.91149,-0.79556,0.07608433,1.0019
160.099,47.94448,-0.79556,0.07580218,1.00186
160.199,47.97708,-0.79556,0.07675754,1.0018200000000002
160.299,48.00966,-0.79556,0.07538646,1.00178
160.399,48.042229999999996,-0.79556,0.07807387,1.0017399999999999
160.499,48.07464,-0.79556,0.07484171,1.0017
160.599,48.10703,-0.79551,0.07603308,1.00166
160.699,48.13937,-0.7964,0.07604595,1.0016200000000002
160.799,48.171820000000004,-0.79655,0.07577821,1.00158
160.899,48.20442,-0.79655,0.07656952,1.0015399999999999
160.999,48.23693,-0.79655,0.07599574,1.0015
161.099,48.26932,-0.79655,0.07505338,1.00146
161.199,48.30171,-0.79655,0.07679586,1.00142
161.299,48.33435,-0.79655,0.07641222,1.00138
161.399,48.3669,-0.79655,0.07617822,1.00134
161.499,48.39931,-0.79655,0.07600794,1.0013
161.599,48.43181,-0.79655,0.07389779,1.00126
161.699,48.46441,-0.7965300000000001,0.07731905,1.00122
161.799,48.49692,-0.79571,0.07432432,1.00118
161.899,48.529540000000004,-0.79557,0.0771646,1.00114
161.999,48.56214,-0.79556,0.07559514,1.0011
162.099,48.594640000000005,-0.79556,0.07677382,1.00105
162.199,48.62701,-0.79556,0.07447387,1.00101
162.299,48.65953,-0.79556,0.07700101,1.0009700000000001
162.399,48.69202,-0.79556,0.07586898,1.0009299999999999
162.499,48.72468,-0.79556,0.07739704,1.00089
162.599,48.7575,-0.7955899999999999,0.07598379,1.00085
162.699,48.79013,-0.79608,0.07664578,1.00081
162.799,48.822829999999996,-0.79684,0.07633505,1.0007700000000002
162.899,48.85544,-0.79683,0.07673119,1.00073
162.999,48.88808,-0.7975899999999999,0.07711992,1.0006899999999999
163.099,48.92065,-0.7973399999999999,0.07692075,1.00065
163.199,48.95341,-0.79657,0.07768688,1.00061
163.299,48.986270000000005,-0.79705,0.07972377,1.0005700000000002
163.399,49.01892,-0.79785,0.07703411,1.00053
163.499,49.05162,-0.79787,0.07721635,1.0004899999999999
163.599,49.084179999999996,-0.79787,0.07401096,1.00045
163.699,49.11691,-0.79786,0.07644158,1.00041
163.799,49.14965,-0.79688,0.07574647,1.00037
163.899,49.18244,-0.79656,0.07660447,1.00033
163.999,49.215270000000004,-0.79655,0.07487514,1.00029
164.099,49.24818,-0.79655,0.07336326,1.00025
164.199,49.28089,-0.7965399999999999,0.07672852,1.00021
164.299,49.31374,-0.79647,0.07560992,1.00017
164.399,49.34652,-0.7975800000000001,0.07470732,1.00013
164.499,49.37944,-0.7975399999999999,0.07515504,1.00009
164.599,49.4122,-0.7975399999999999,0.07498698,1.00004
164.699,49.44494,-0.79755,0.07584686,1.0
164.799,49.47798,-0.79777,0.07621678,0.9999600000000001
164.899,49.51082,-0.79786,0.07305359,0.99992
164.999,49.54368,-0.79787,0.07700524,0.9998799999999999
165.099,49.57654,-0.79787,0.07568115,0.99984
165.199,49.6094,-0.79787,0.07471967,0.9998
165.299,49.6422,-0.79787,0.07497303,0.99976
165.399,49.67496,-0.79787,0.07694216,0.99972
165.499,49.70776,-0.79787,0.07383182,0.9996799999999999
165.599,49.74058,-0.79787,0.07482986,0.99964
165.699,49.77355,-0.79784,0.07527045,0.9996
165.799,49.806309999999996,-0.79824,0.07685799,0.99956
165.899,49.83902,-0.7982,0.07398608,0.9995200000000001
165.999,49.871809999999996,-0.7982,0.07453913,0.9994799999999999
166.099,49.90461,-0.7982,0.07635387,0.99944
166.199,49.9373,-0.7982,0.0748288,0.9994
166.299,49.97022,-0.7982,0.07615388,0.99936
166.399,50.002990000000004,-0.7982,0.07667509,0.9993200000000001
166.499,50.03587,-0.7982,0.07725002,0.99928
166.599,50.068490000000004,-0.7982,0.07661393,0.99924
166.699,50.101209999999995,-0.79819,0.07452481,0.9992
166.799,50.13387,-0.7992100000000001,0.07482696,0.99916
166.899,50.16644,-0.7982,0.07349555,0.9991200000000001
166.999,50.19924,-0.79692,0.07628862,0.99908
167.099,50.23195,-0.79689,0.07710069,0.9990399999999999
167.199,50.264540000000004,-0.79688,0.07592723,0.999
167.299,50.29717,-0.79688,0.0751908,0.99895
167.399,50.329679999999996,-0.79688,0.07388229,0.9989100000000001
167.499,50.362159999999996,-0.79688,0.07494233,0.99887
167.599,50.394729999999996,-0.79688,0.07712194,0.9988299999999999
167.699,50.42734,-0.79688,0.07704599,0.99879
167.799,50.459790000000005,-0.79688,0.07559909,0.99875
167.899,50.49221,-0.79688,0.07800339,0.99871
167.999,50.52467,-0.79688,0.07638026,0.9986700000000001
168.099,50.55703,-0.79688,0.07641575,0.9986299999999999
168.199,50.58948,-0.79688,0.07677068,0.99859
168.299,50.62189,-0.79688,0.07618569,0.99855
168.399,50.65413,-0.79745,0.07603214,0.99851
168.499,50.68652,-0.7981699999999999,0.07633912,0.9984700000000001
168.599,50.718779999999995,-0.79819,0.07695376,0.9984299999999999
168.699,50.75119,-0.79819,0.07681868,0.99839
168.799,50.78368,-0.79819,0.07779726,0.99835
168.899,50.81617,-0.79819,0.07836393,0.99831
168.999,50.84858,-0.7982,0.07951233,0.9982700000000001
169.099,50.88093,-0.79875,0.07891914,0.99823
169.199,50.913309999999996,-0.79775,0.07792628,0.9981899999999999
169.299,50.94582,-0.79756,0.07820849,0.99815
169.399,50.97824,-0.7975399999999999,0.07745311,0.99811
169.499,51.01073,-0.7975399999999999,0.07578256,0.9980700000000001
169.599,51.04333,-0.7974899999999999,0.07846985,0.99803
169.699,51.07587,-0.7986300000000001,0.07704859,0.9979899999999999
169.799,51.10846,-0.79884,0.07744497,0.99795
169.899,51.141059999999996,-0.79885,0.07664777,0.9979100000000001
169.999,51.173629999999996,-0.79885,0.07702314,0.99787
170.099,51.20627,-0.7988,0.07794224,0.99782
170.199,51.23885,-0.7995800000000001,0.07769056,0.9977799999999999
170.299,51.27128,-0.79952,0.0759629,0.99774
170.399,51.30373,-0.79951,0.07712389,0.9977
170.499,51.33593,-0.7995399999999999,0.07482902,0.99766
170.599,51.3683,-0.79845,0.07561659,0.9976200000000001
170.699,51.400890000000004,-0.79819,0.07419532,0.9975799999999999
170.799,51.43353,-0.79818,0.0780112,0.99754
170.899,51.46606,-0.80076,0.07403623,0.9975
170.999,51.49864,-0.80082,0.07516447,0.99746
171.099,51.53127,-0.80083,0.07513771,0.9974200000000001
171.199,51.56384,-0.80087,0.07938573,0.9973799999999999
171.299,51.59646,-0.79987,0.074231,0.99734
171.399,51.62908,-0.79984,0.07538426,0.9973
171.499,51.66167,-0.79984,0.07801204,0.99726
171.599,51.6943,-0.79984,0.07670274,0.9972200000000001
171.699,51.72691,-0.79986,0.07778482,0.99718
171.799,51.75947,-0.7991,0.07846156,0.9971399999999999
171.899,51.79187,-0.79887,0.07724804,0.9971
171.999,51.82444,-0.79885,0.07752821,0.9970600000000001
172.099,51.85715,-0.79885,0.07666263,0.99702
172.199,51.889759999999995,-0.79884,0.07784854,0.99698
172.299,51.92236,-0.79875,0.07631556,0.9969399999999999
172.399,51.95512,-0.8003100000000001,0.07671111,0.9969
172.499,51.987829999999995,-0.80018,0.07689705,0.9968600000000001
172.599,52.02089,-0.80019,0.07887499,0.99682
172.699,52.05366,-0.8004100000000001,0.07714132,0.9967799999999999
172.799,52.08638,-0.8014600000000001,0.0784187,0.99674
172.899,52.11905,-0.80153,0.07658776,0.9967
172.999,52.15157,-0.80011,0.07805317,0.99665
173.099,52.18399,-0.79947,0.07712346,0.99661
173.199,52.21667,-0.79885,0.07826969,0.9965700000000001
173.299,52.24937,-0.79885,0.07731462,0.9965299999999999
173.399,52.282070000000004,-0.79885,0.07834532,0.99649
173.499,52.314659999999996,-0.79883,0.07697493,0.99645
173.599,52.34735,-0.8004,0.07885011,0.99641
173.699,52.37984,-0.8004899999999999,0.0776352,0.9963700000000001
173.799,52.41231,-0.8005,0.07856123,0.9963299999999999
173.899,52.4448,-0.8005,0.07801882,0.99629
173.999,52.47727,-0.8005,0.07700754,0.99625
174.099,52.50974,-0.8005,0.07761837,0.99621
174.199,52.54211,-0.8005,0.07931382,0.9961700000000001
174.299,52.57444,-0.8005,0.07769898,0.99613
174.399,52.60698000000001,-0.8005,0.07830507,0.9960899999999999
174.499,52.6394,-0.8005,0.07713794,0.99605
174.599,52.67191,-0.8005,0.07794194,0.9960100000000001
174.699,52.704319999999996,-0.8005399999999999,0.0778855,0.99597
174.799,52.73696999999999,-0.79978,0.08027961,0.99593
174.899,52.76945,-0.79984,0.07697873,0.9958899999999999
174.999,52.80194,-0.79984,0.07811853,0.99585
175.099,52.8345,-0.79984,0.07676659,0.9958100000000001
175.199,52.86701,-0.79984,0.0770039,0.99577
175.299,52.899469999999994,-0.79983,0.0774449,0.9957299999999999
175.399,52.93185,-0.80018,0.07725355,0.99569
175.499,52.964240000000004,-0.80042,0.07680996,0.99565
175.599,52.99669,-0.80118,0.07800204,0.99561
175.699,53.0291,-0.80113,0.07728434,0.9955700000000001
175.799,53.06155,-0.8015100000000001,0.07733602,0.9955299999999999
175.899,53.09397,-0.8014899999999999,0.07812997,0.99549
175.999,53.126430000000006,-0.8014899999999999,0.07664201,0.99545
176.099,53.15909,-0.8014899999999999,0.07742616,0.9954
176.199,53.19161999999999,-0.8014899999999999,0.07732337,0.99536
176.299,53.224090000000004,-0.8014899999999999,0.08038575,0.9953200000000001
176.399,53.25666,-0.8014899999999999,0.07891768,0.9952799999999999
176.499,53.2891,-0.80147,0.0791086,0.99524
176.599,53.321509999999996,-0.80185,0.0803953,0.9952
176.699,53.35375,-0.80182,0.08006169,0.99516
176.799,53.38644,-0.80182,0.07875537,0.9951200000000001
176.899,53.418769999999995,-0.80182,0.07770891,0.99508
176.999,53.45123,-0.80182,0.07756974,0.9950399999999999
177.099,53.48369,-0.80182,0.07891555,0.995
177.199,53.51619,-0.80182,0.08142932,0.9949600000000001
177.299,53.54889,-0.80182,0.08230036,0.99492
177.399,53.581309999999995,-0.80182,0.07910426,0.9948799999999999
177.499,53.613730000000004,-0.80182,0.08084248,0.99484
177.599,53.646280000000004,-0.80182,0.07609758,0.9948
177.699,53.67889,-0.80182,0.08158725,0.9947600000000001
177.799,53.711619999999996,-0.80182,0.07941774,0.99472
177.899,53.74436,-0.80182,0.07798343,0.9946799999999999
177.999,53.77718,-0.80182,0.07765538,0.99464
178.099,53.809830000000005,-0.80182,0.07884048,0.9946
178.199,53.8425,-0.80182,0.07770516,0.99456
178.299,53.87514,-0.80182,0.07764772,0.9945200000000001
178.399,53.907869999999996,-0.80184,0.07665577,0.9944799999999999
178.499,53.94067,-0.8021,0.07943264,0.99444
178.599,53.9735,-0.80245,0.07782215,0.9944
178.699,54.0063,-0.80247,0.07600294,0.99436
178.799,54.039190000000005,-0.80247,0.07680234,0.9943200000000001
178.899,54.07188000000001,-0.80247,0.07850488,0.9942799999999999
178.999,54.1048,-0.80247,0.07845437,0.99424
179.099,54.13768,-0.80248,0.07602873,0.9942
179.199,54.1705,-0.80266,0.07695702,0.99415
179.299,54.203340000000004,-0.8034399999999999,0.07851197,0.99411
179.399,54.236090000000004,-0.8034600000000001,0.07747694,0.9940700000000001
179.499,54.269,-0.8034899999999999,0.07850399,0.99403
179.599,54.301880000000004,-0.80199,0.07711949,0.9939899999999999
179.699,54.334630000000004,-0.80082,0.07720483,0.99395
179.799,54.367259999999995,-0.80083,0.07705045,0.9939100000000001
179.899,54.39999,-0.80083,0.07791007,0.99387
179.999,54.432790000000004,-0.80081,0.07763866,0.9938299999999999
180.099,54.46553,-0.8034100000000001,0.07635493,0.99379
180.199,54.4982,-0.80345,0.07746606,0.99375
180.299,54.5309,-0.8034600000000001,0.0782186,0.99371
180.399,54.5637,-0.80347,0.07854732,0.99367
180.499,54.59638,-0.8035800000000001,0.07694841,0.9936299999999999
180.599,54.62885,-0.80205,0.07699076,0.99359
180.699,54.661480000000005,-0.802,0.07806961,0.99355
180.799,54.69412,-0.80356,0.07531811,0.99351
180.899,54.726780000000005,-0.80347,0.07627179,0.9934700000000001
180.999,54.75937,-0.80347,0.07544067,0.9934299999999999
181.099,54.791959999999996,-0.80355,0.07531153,0.99339
181.199,54.8246,-0.80213,0.07824843,0.99335
181.299,54.85709,-0.8011,0.07492617,0.99331
181.399,54.88965,-0.80115,0.07284172,0.9932700000000001
181.499,54.92227,-0.8018,0.07748681,0.99323
181.599,54.954809999999995,-0.80281,0.07694935,0.99319
181.699,54.98765,-0.8028,0.07490665,0.99315
181.799,55.02026,-0.8028,0.07526382,0.99311
181.899,55.05303000000001,-0.8028,0.07585374,0.9930700000000001
181.999,55.08579,-0.8028,0.07766848,0.99303
182.099,55.11853000000001,-0.8028,0.0768866,0.9929899999999999
182.199,55.151180000000004,-0.8028,0.07734988,0.99295
182.299,55.18411,-0.8028,0.07761515,0.9929100000000001
182.399,55.216919999999995,-0.8028,0.07666329,0.9928600000000001
182.499,55.2496,-0.8015,0.07610203,0.99282
182.599,55.282340000000005,-0.80116,0.07534705,0.9927799999999999
182.699,55.31521,-0.80116,0.07775368,0.99274
182.799,55.347809999999996,-0.80116,0.07508908,0.9927
182.899,55.38058,-0.80116,0.0765316,0.99266
182.999,55.41341,-0.80116,0.07470422,0.9926200000000001
183.099,55.44604,-0.80116,0.07557359,0.9925799999999999
183.199,55.478680000000004,-0.8012,0.07774245,0.99254
183.299,55.51124,-0.80208,0.075842,0.9925
183.399,55.54405,-0.8024399999999999,0.07795714,0.99246
183.499,55.576609999999995,-0.80247,0.07690119,0.9924200000000001
183.599,55.609269999999995,-0.80247,0.07574739,0.9923799999999999
183.699,55.6419,-0.80247,0.0757543,0.99234
183.799,55.674440000000004,-0.80247,0.07639705,0.9923
183.899,55.70705,-0.80247,0.07683673,0.99226
183.999,55.739540000000005,-0.80247,0.07450316,0.9922200000000001
184.099,55.771969999999996,-0.80247,0.07694286,0.99218
184.199,55.804390000000005,-0.80247,0.07844792,0.9921399999999999
184.299,55.83687,-0.80247,0.07671126,0.9921
184.399,55.86926,-0.80247,0.07662566,0.99206
184.499,55.90165,-0.80247,0.0792791,0.9920200000000001
184.599,55.93401,-0.80247,0.0755449,0.99198
184.699,55.96641999999999,-0.80247,0.07634987,0.9919399999999999
184.799,55.99881,-0.80247,0.07476369,0.9919
184.899,56.031290000000006,-0.80247,0.07534054,0.9918600000000001
184.999,56.06366,-0.80247,0.0769479,0.99182
185.099,56.095969999999994,-0.80247,0.07507103,0.9917799999999999
185.199,56.12837,-0.8024,0.0762098,0.99174
185.299,56.160740000000004,-0.80318,0.07685962,0.9917
185.399,56.193130000000004,-0.80313,0.07570722,0.99166
185.499,56.22545,-0.80313,0.07573434,0.9916200000000001
185.599,56.257769999999994,-0.80313,0.0765282,0.9915799999999999
185.699,56.2901,-0.80307,0.07619556,0.9915299999999999
185.799,56.32244,-0.80386,0.07483804,0.99149
185.899,56.354859999999995,-0.80379,0.0755659,0.99145
185.999,56.38731,-0.80379,0.07578319,0.99141
186.099,56.41975,-0.80379,0.07462539,0.9913700000000001
186.199,56.452119999999994,-0.80379,0.07636078,0.9913299999999999
186.299,56.484519999999996,-0.80379,0.07502127,0.99129
186.399,56.517019999999995,-0.80379,0.07601272,0.99125
186.499,56.54946999999999,-0.80381,0.07581058,0.99121
186.599,56.58185,-0.8024600000000001,0.07419483,0.9911700000000001
186.699,56.61425,-0.80247,0.07523173,0.99113
186.799,56.646840000000005,-0.8024,0.07542139,0.9910899999999999
186.899,56.67931,-0.8035100000000001,0.07517832,0.99105
186.999,56.711909999999996,-0.8034600000000001,0.0754229,0.9910100000000001
187.099,56.744409999999995,-0.80343,0.0752416,0.99097
187.199,56.776990000000005,-0.80382,0.07524017,0.99093
187.299,56.80944,-0.80379,0.0763068,0.9908899999999999
187.399,56.84177,-0.80379,0.07464842,0.99085
187.499,56.87415,-0.80377,0.07579575,0.9908100000000001
187.599,56.90662,-0.8034399999999999,0.07486539,0.99077
187.699,56.93911,-0.80245,0.07511461,0.9907299999999999
187.799,56.97156,-0.8023,0.07227587,0.99069
187.899,57.004169999999995,-0.80183,0.07465958,0.99065
187.999,57.0366,-0.80181,0.07405755,0.99061
188.099,57.06905,-0.80181,0.07536245,0.9905700000000001
188.199,57.1015,-0.80181,0.07326934,0.9905299999999999
188.299,57.13406,-0.80315,0.07359785,0.99049
188.399,57.16656999999999,-0.80313,0.07204899,0.99045
188.499,57.198919999999994,-0.80313,0.07207109,0.99041
188.599,57.231269999999995,-0.80313,0.07231918,0.9903700000000001
188.699,57.263830000000006,-0.80313,0.07219162,0.9903299999999999
188.799,57.296409999999995,-0.80314,0.07104064,0.9902799999999999
188.899,57.328680000000006,-0.8032699999999999,0.07243636,0.99024
188.999,57.36125,-0.80172,0.07298139,0.9902
189.099,57.39366999999999,-0.80179,0.07501391,0.99016
189.199,57.426140000000004,-0.8017,0.07274775,0.9901200000000001
189.299,57.45851,-0.8029,0.07449396,0.99008
189.399,57.49105,-0.8028,0.07368728,0.9900399999999999
189.499,57.52373000000001,-0.8026800000000001,0.07227293,0.99
189.599,57.556169999999995,-0.8042600000000001,0.07260449,0.9899600000000001
189.699,57.588609999999996,-0.80413,0.07543749,0.98992
189.799,57.621159999999996,-0.80412,0.07320718,0.98988
189.899,57.6536,-0.80412,0.07367598,0.9898399999999999
189.999,57.686130000000006,-0.80412,0.07326346,0.9898
190.099,57.71859,-0.80412,0.07325507,0.9897600000000001
190.199,57.75103000000001,-0.80413,0.07336507,0.98972
190.299,57.78351,-0.80345,0.07362726,0.9896799999999999
190.399,57.81585,-0.80281,0.07481576,0.98964
190.499,57.848569999999995,-0.80282,0.07176675,0.9896
190.599,57.88134,-0.80376,0.07418021,0.98956
190.699,57.914030000000004,-0.80247,0.07396438,0.9895200000000001
190.799,57.946619999999996,-0.80247,0.07607531,0.9894799999999999
190.899,57.97934,-0.8024899999999999,0.07539785,0.98944
190.999,58.01225,-0.8032,0.07232216,0.9894
191.099,58.04495,-0.80379,0.07308349,0.98936
191.199,58.077780000000004,-0.80379,0.07315823,0.9893200000000001
191.299,58.11066999999999,-0.80379,0.07409225,0.9892799999999999
191.399,58.143640000000005,-0.80379,0.07230633,0.98924
191.499,58.176469999999995,-0.80379,0.07247214,0.9892
191.599,58.20933,-0.80379,0.07314728,0.98916
191.699,58.24244,-0.80379,0.07414065,0.9891200000000001
191.799,58.27539,-0.80379,0.07283248,0.9890700000000001
191.899,58.30838000000001,-0.80379,0.07375061,0.98903
191.999,58.34129,-0.80379,0.07292142,0.9889899999999999
192.099,58.374109999999995,-0.8038,0.07236653,0.98895
192.199,58.40696,-0.80388,0.07167686,0.9889100000000001
192.299,58.43975,-0.80197,0.07275624,0.98887
192.399,58.472719999999995,-0.8015100000000001,0.07221458,0.9888299999999999
192.499,58.50581,-0.8014899999999999,0.07234433,0.98879
192.599,58.53855,-0.8015100000000001,0.07215031,0.98875
192.699,58.571369999999995,-0.80174,0.07028029,0.9887100000000001
192.799,58.60436,-0.8024399999999999,0.07197813,0.98867
192.899,58.637319999999995,-0.80247,0.07007131,0.9886299999999999
192.999,58.670159999999996,-0.80247,0.0717272,0.98859
193.099,58.702980000000004,-0.80247,0.07010801,0.98855
193.199,58.73583000000001,-0.80247,0.07236766,0.98851
193.299,58.76862,-0.80247,0.07183474,0.9884700000000001
193.399,58.80133000000001,-0.80247,0.06987819,0.9884299999999999
193.499,58.83405,-0.80247,0.06988625,0.98839
193.599,58.866859999999996,-0.80247,0.06912786,0.98835
193.699,58.89963,-0.80247,0.07144838,0.98831
193.799,58.93244,-0.8024600000000001,0.07218416,0.9882700000000001
193.899,58.965180000000004,-0.80157,0.06851418,0.9882299999999999
193.999,58.99796,-0.80115,0.07009073,0.98819
194.099,59.03075,-0.80109,0.06956232,0.98815
194.199,59.06355,-0.80218,0.06945125,0.98811
194.299,59.09647,-0.80214,0.06913377,0.9880700000000001
194.399,59.12936,-0.80214,0.0702284,0.98803
194.499,59.16216,-0.80215,0.07030711,0.9879899999999999
194.599,59.19497,-0.80238,0.06636563,0.98795
194.699,59.22769,-0.8024600000000001,0.06938349,0.9879100000000001
194.799,59.260419999999996,-0.80247,0.07000313,0.9878600000000001
194.899,59.29322,-0.80247,0.07001141,0.98782
194.999,59.3259,-0.80247,0.06871328,0.9877799999999999
195.099,59.35864,-0.80242,0.07044637,0.98774
195.199,59.39148,-0.80353,0.06994042,0.9877
195.299,59.4242,-0.80392,0.07018878,0.98766
195.399,59.45697,-0.80411,0.06888529,0.98762
195.499,59.489819999999995,-0.80412,0.06833314,0.9875799999999999
195.599,59.522330000000004,-0.80412,0.07097309,0.98754
195.699,59.555080000000004,-0.80412,0.07058265,0.9875
195.799,59.587869999999995,-0.80412,0.06894326,0.98746
195.899,59.62047,-0.80414,0.0680126,0.9874200000000001
195.999,59.65319,-0.80379,0.06933305,0.9873799999999999
196.099,59.68589,-0.80304,0.06931304,0.98734
196.199,59.71855,-0.80281,0.07078417,0.9873
196.299,59.75123000000001,-0.80283,0.06745124,0.98726
196.399,59.784009999999995,-0.80413,0.07084495,0.9872200000000001
196.499,59.816759999999995,-0.80412,0.06844845,0.98718
196.599,59.84941,-0.80412,0.0678964,0.98714
196.699,59.88203000000001,-0.80412,0.07032809,0.9871
196.799,59.91486,-0.80412,0.06821893,0.98706
196.899,59.94749,-0.80412,0.0696231,0.9870200000000001
196.999,59.980019999999996,-0.80412,0.06701316,0.98698
197.099,60.01262,-0.80414,0.07037063,0.9869399999999999
197.199,60.04524,-0.80482,0.06934617,0.9869
197.299,60.0778,-0.80543,0.07003527,0.9868600000000001
197.399,60.11031,-0.80543,0.06902142,0.98682
197.499,60.142959999999995,-0.80543,0.06901969,0.9867799999999999
197.599,60.1755,-0.80543,0.06980427,0.9867299999999999
197.699,60.20839,-0.8053600000000001,0.06892509,0.98669
197.799,60.241,-0.80403,0.0689649,0.98665
197.899,60.273540000000004,-0.80411,0.06810834,0.98661
197.999,60.30631999999999,-0.80412,0.06941254,0.9865700000000001
198.099,60.33896,-0.80416,0.06881701,0.9865299999999999
198.199,60.37161999999999,-0.8032199999999999,0.07050109,0.98649
198.299,60.40438,-0.80284,0.07111948,0.98645
198.399,60.43716,-0.80306,0.07004513,0.98641
198.499,60.469640000000005,-0.80409,0.0712569,0.9863700000000001
198.599,60.50213000000001,-0.80412,0.06923174,0.9863299999999999
198.699,60.53473,-0.80412,0.06857197,0.98629
198.799,60.56734,-0.80412,0.0687727,0.98625
198.899,60.5999,-0.80412,0.06775631,0.98621
198.999,60.63253,-0.80412,0.06773737,0.9861700000000001
199.099,60.66506,-0.80381,0.06684055,0.98613
199.199,60.6976,-0.80379,0.06927697,0.9860899999999999
199.299,60.73005,-0.80379,0.06882394,0.98605
199.399,60.7625,-0.80379,0.06894291,0.98601
199.499,60.79501,-0.80379,0.07070253,0.9859700000000001
199.599,60.8273,-0.80379,0.06943999,0.98593
199.699,60.85969,-0.80379,0.0689909,0.9858899999999999
199.799,60.8921,-0.80379,0.06872553,0.98585
199.899,60.92439,-0.80378,0.0688427,0.9858100000000001
199.999,60.95685,-0.8045399999999999,0.06816552,0.98577
200.099,60.988969999999995,-0.80503,0.06717885,0.9857299999999999
200.199,61.0214,-0.80406,0.07191094,0.9856799999999999
200.299,61.053740000000005,-0.80412,0.06834592,0.98564
200.399,61.086009999999995,-0.80414,0.06909615,0.9856
200.499,61.118159999999996,-0.80343,0.06933198,0.98556
200.599,61.15055,-0.80479,0.06851451,0.9855200000000001
200.699,61.182880000000004,-0.80477,0.0691158,0.9854799999999999
200.799,61.2151,-0.80477,0.06965412,0.98544
200.899,61.24742,-0.80477,0.06851063,0.9854
200.999,61.27966,-0.80477,0.0681531,0.98536
201.099,61.311809999999994,-0.80477,0.06876765,0.9853200000000001
201.199,61.344069999999995,-0.80476,0.06846242,0.9852799999999999
201.299,61.3762,-0.80467,0.06851911,0.98524
201.399,61.40797,-0.80587,0.06944601,0.9852
201.499,61.44021,-0.80596,0.06895512,0.98516
201.599,61.472409999999996,-0.80724,0.06938307,0.9851200000000001
201.699,61.50468000000001,-0.80698,0.06802274,0.98508
201.799,61.537,-0.80581,0.06951909,0.9850399999999999
201.899,61.56916999999999,-0.80435,0.06847054,0.985
201.999,61.601459999999996,-0.80445,0.07129333,0.9849600000000001
202.099,61.63353000000001,-0.80411,0.06705866,0.98492
202.199,61.66587,-0.80312,0.0695643,0.98488
202.299,61.69804,-0.8031,0.0704169,0.9848399999999999
202.399,61.730219999999996,-0.80437,0.0686875,0.9848
202.499,61.76237,-0.80443,0.06995141,0.9847600000000001
202.599,61.79447,-0.8044399999999999,0.07067236,0.9847100000000001
202.699,61.82654,-0.80447,0.06838391,0.98467
202.799,61.858869999999996,-0.8051,0.0709124,0.9846299999999999
202.899,61.89102,-0.80676,0.06960106,0.98459
202.999,61.92329,-0.8071699999999999,0.07020343,0.98455
203.099,61.95544,-0.8055899999999999,0.0722804,0.98451
203.199,61.987669999999994,-0.8043399999999999,0.06956531,0.9844700000000001
203.299,62.01999,-0.80443,0.06753103,0.9844299999999999
203.399,62.052440000000004,-0.80491,0.06872872,0.98439
203.499,62.085480000000004,-0.80574,0.06734263,0.98435
203.599,62.11793,-0.8044,0.06915174,0.98431
203.699,62.150240000000004,-0.8044399999999999,0.06842794,0.9842700000000001
203.799,62.18261999999999,-0.80506,0.06899094,0.9842299999999999
203.899,62.21508000000001,-0.80577,0.07040785,0.98419
203.999,62.24755,-0.80582,0.07053436,0.98415
204.099,62.28004,-0.8044600000000001,0.06870838,0.98411
204.199,62.31273,-0.8044600000000001,0.06910001,0.9840700000000001
204.299,62.34522,-0.80469,0.06770024,0.98403
204.399,62.37761999999999,-0.80476,0.06815162,0.9839899999999999
204.499,62.41011999999999,-0.80477,0.06908062,0.98395
204.599,62.44266,-0.80477,0.06926984,0.9839100000000001
204.699,62.4752,-0.80477,0.06840499,0.98387
204.799,62.50779,-0.80477,0.06803019,0.98383
204.899,62.54015,-0.80477,0.06642951,0.9837899999999999
204.999,62.57281,-0.80476,0.06758219,0.98374
205.099,62.60531999999999,-0.8045800000000001,0.06825993,0.9837
205.199,62.63783000000001,-0.80414,0.06706486,0.9836600000000001
205.299,62.67031,-0.80412,0.0685672,0.98362
205.399,62.702769999999994,-0.80412,0.06982933,0.9835799999999999
205.499,62.7352,-0.80413,0.06911618,0.98354
205.599,62.76749,-0.80547,0.06589435,0.9835
205.699,62.800059999999995,-0.8054399999999999,0.06676995,0.98346
205.799,62.83255,-0.80515,0.06807164,0.9834200000000001
205.899,62.8649,-0.8041,0.06908152,0.9833799999999999
205.999,62.897259999999996,-0.80408,0.06723682,0.98334
206.099,62.929719999999996,-0.80535,0.06931289,0.9833
206.199,62.962109999999996,-0.80543,0.06744298,0.98326
206.299,62.994409999999995,-0.8054399999999999,0.06793693,0.9832200000000001
206.399,63.026669999999996,-0.8054399999999999,0.06910281,0.9831799999999999
206.499,63.0593,-0.8054399999999999,0.06816488,0.98314
206.599,63.09166,-0.8054399999999999,0.06770514,0.9831
206.699,63.12418,-0.8054399999999999,0.06728839,0.98306
206.799,63.15671,-0.8054399999999999,0.06830899,0.9830200000000001
206.899,63.189280000000004,-0.8054399999999999,0.06740583,0.98298
206.999,63.221869999999996,-0.8054399999999999,0.06758541,0.9829399999999999
207.099,63.254290000000005,-0.8054399999999999,0.06771402,0.9828899999999999
207.199,63.286680000000004,-0.80545,0.0667771,0.98285
207.299,63.3192,-0.8055399999999999,0.06719836,0.9828100000000001
207.399,63.35171,-0.80538,0.06691892,0.98277
207.499,63.38426,-0.80577,0.06649348,0.9827299999999999
207.599,63.4168,-0.80576,0.06701612,0.98269
207.699,63.44925,-0.80576,0.06509298,0.98265
207.799,63.481519999999996,-0.80576,0.06606065,0.98261
207.899,63.51407,-0.80576,0.06901579,0.98257
207.999,63.5466,-0.80576,0.06793246,0.9825299999999999
208.099,63.57914,-0.80576,0.06725878,0.98249
208.199,63.61167,-0.80576,0.06616245,0.98245
208.299,63.64416,-0.80577,0.06787996,0.98241
208.399,63.67678000000001,-0.80586,0.06512978,0.9823700000000001
208.499,63.70933,-0.80452,0.06641917,0.9823299999999999
208.599,63.741780000000006,-0.80472,0.06763045,0.98229
208.699,63.774390000000004,-0.80582,0.06688592,0.98225
208.799,63.80673,-0.80577,0.06626168,0.98221
208.899,63.8392,-0.80577,0.06707833,0.9821700000000001
208.999,63.871759999999995,-0.80577,0.06651275,0.98213
209.099,63.90421,-0.80574,0.06641023,0.98209
209.199,63.936769999999996,-0.8066,0.06721217,0.9820399999999999
209.299,63.969319999999996,-0.80707,0.06566687,0.982
209.399,64.00185,-0.80708,0.06638428,0.98196
209.499,64.0343,-0.80708,0.06678385,0.9819200000000001
209.599,64.06663,-0.80708,0.06919712,0.98188
209.699,64.09886,-0.80708,0.0642969,0.9818399999999999
209.799,64.13131,-0.80708,0.06579195,0.9818
209.899,64.16401,-0.80708,0.06841692,0.9817600000000001
209.999,64.19651999999999,-0.80708,0.06478245,0.98172
210.099,64.22901999999999,-0.80704,0.06942228,0.9816799999999999
210.199,64.26148,-0.80612,0.06823594,0.98164
210.299,64.29398,-0.80565,0.06725273,0.9816
210.399,64.3262,-0.80719,0.06530762,0.98156
210.499,64.35866999999999,-0.80688,0.06502228,0.9815200000000001
210.599,64.39133000000001,-0.80712,0.06632645,0.9814799999999999
210.699,64.42388000000001,-0.80708,0.06937268,0.98144
210.799,64.45633000000001,-0.80708,0.06694125,0.9814
210.899,64.48895999999999,-0.80706,0.06867142,0.98136
210.999,64.52152,-0.80683,0.06699713,0.9813200000000001
211.099,64.55395,-0.80612,0.06755443,0.9812799999999999
211.199,64.58653000000001,-0.8061,0.06884258,0.9812299999999999
211.299,64.61913,-0.8061,0.06799782,0.98119
211.399,64.65163000000001,-0.8061,0.06599754,0.98115
211.499,64.6841,-0.8061,0.06983277,0.98111
211.599,64.71670999999999,-0.8061,0.06964333,0.9810700000000001
211.699,64.74937,-0.8061,0.06904826,0.98103
211.799,64.78198,-0.80609,0.06602822,0.9809899999999999
211.899,64.8146,-0.80703,0.06541298,0.98095
211.999,64.8471,-0.80705,0.06910242,0.9809100000000001
212.099,64.87964000000001,-0.80743,0.06628495,0.98087
212.199,64.91211,-0.8074100000000001,0.06760553,0.98083
212.299,64.94471999999999,-0.8074100000000001,0.06926581,0.9807899999999999
212.399,64.97714,-0.8074100000000001,0.06822949,0.98075
212.499,65.00969,-0.80737,0.06562298,0.9807100000000001
212.599,65.0421,-0.80671,0.06726624,0.98067
212.699,65.07449,-0.80613,0.06802395,0.9806299999999999
212.799,65.10692,-0.8061699999999999,0.06760543,0.98059
212.899,65.13939,-0.80714,0.06632869,0.98055
212.999,65.17174,-0.80708,0.06849635,0.9805
213.099,65.20413,-0.80708,0.06802076,0.98046
213.199,65.23639,-0.80708,0.06818973,0.9804200000000001
213.299,65.26872,-0.80711,0.06778657,0.9803799999999999
213.399,65.30098000000001,-0.8074100000000001,0.06815507,0.98034
213.499,65.3333,-0.8074100000000001,0.06737573,0.9803
213.599,65.36574,-0.8074100000000001,0.06680956,0.98026
213.699,65.39824,-0.8073600000000001,0.06741167,0.9802200000000001
213.799,65.43061999999999,-0.80871,0.06722885,0.9801799999999999
213.899,65.46304,-0.80872,0.06791873,0.98014
213.999,65.49535,-0.8087300000000001,0.06789004,0.9801
214.099,65.52774000000001,-0.80886,0.06735023,0.98006
214.199,65.56003,-0.8073,0.06900756,0.9800200000000001
214.299,65.59251,-0.8074,0.06805378,0.97998
214.399,65.62485,-0.8074100000000001,0.0682873,0.9799399999999999
214.499,65.65729,-0.8074100000000001,0.06773741,0.9799
214.599,65.6898,-0.8074100000000001,0.06894081,0.9798600000000001
214.699,65.72223000000001,-0.8074100000000001,0.06993361,0.97982
214.799,65.75465,-0.80742,0.06895681,0.97977
214.899,65.787,-0.80758,0.06899568,0.9797299999999999
214.999,65.8195,-0.8087300000000001,0.0678446,0.97969
215.099,65.85203,-0.80872,0.06819783,0.97965
215.199,65.8845,-0.80872,0.06890373,0.9796100000000001
215.299,65.91681,-0.80872,0.06625481,0.97957
215.399,65.94924,-0.80808,0.06767751,0.9795299999999999
215.499,65.98170999999999,-0.80806,0.0663926,0.97949
215.599,66.01411,-0.80806,0.06746078,0.97945
215.699,66.04642,-0.8081,0.06492232,0.97941
215.799,66.07875,-0.80687,0.06706611,0.9793700000000001
215.899,66.11106,-0.80675,0.06579504,0.9793299999999999
215.999,66.14346,-0.80661,0.06745396,0.97929
216.099,66.17594,-0.80818,0.06723078,0.97925
216.199,66.20837,-0.80807,0.06539921,0.97921
216.299,66.24079,-0.80806,0.06753949,0.9791700000000001
216.399,66.27311,-0.80806,0.0668454,0.9791200000000001
216.499,66.30537,-0.80806,0.06592604,0.97908
216.599,66.33766999999999,-0.80806,0.06640429,0.9790399999999999
216.699,66.37011,-0.80806,0.06677072,0.979
216.799,66.40250999999999,-0.80806,0.06723337,0.97896
216.899,66.43486999999999,-0.80806,0.06859109,0.9789200000000001
216.999,66.4671,-0.80806,0.06612631,0.97888
217.099,66.49911999999999,-0.80806,0.0687447,0.9788399999999999
217.199,66.53135999999999,-0.80803,0.06822136,0.9788
217.299,66.56368,-0.80903,0.06512149,0.9787600000000001
217.399,66.59631,-0.80906,0.06519668,0.97872
217.499,66.62881999999999,-0.80955,0.06606008,0.9786799999999999
217.599,66.66124,-0.8097,0.06605636,0.97864
217.699,66.69365,-0.80971,0.06607421,0.9786
217.799,66.72609,-0.80971,0.06445158,0.97856
217.899,66.75856999999999,-0.80967,0.06583425,0.9785200000000001
217.999,66.79125,-0.80909,0.06603175,0.9784700000000001
218.099,66.82381,-0.80843,0.06683279,0.9784299999999999
218.199,66.85625999999999,-0.8083899999999999,0.06689847,0.97839
218.299,66.88865,-0.8083,0.06518519,0.97835
218.399,66.92114000000001,-0.80984,0.06386151,0.97831
218.499,66.9537,-0.80971,0.06486893,0.9782700000000001
218.599,66.98626999999999,-0.81016,0.06632933,0.9782299999999999
218.699,67.01892,-0.8106899999999999,0.06739588,0.97819
218.799,67.05153,-0.8107,0.06499792,0.97815
218.899,67.08414,-0.8107,0.06478191,0.97811
218.999,67.11681999999999,-0.8107,0.06343274,0.9780700000000001
219.099,67.14972,-0.80972,0.06673476,0.97803
219.199,67.18259,-0.80938,0.06578338,0.9779899999999999
219.299,67.2153,-0.80938,0.06436421,0.97795
219.399,67.24795999999999,-0.80938,0.06483956,0.9779100000000001
219.499,67.28041,-0.80938,0.06363454,0.9778600000000001
219.599,67.31306,-0.80938,0.06373341,0.97782
219.699,67.34569,-0.80938,0.06441337,0.97778
219.799,67.37832,-0.80937,0.06319394,0.9777399999999999
219.899,67.41105,-0.8092699999999999,0.06399198,0.9777
219.999,67.44363,-0.81045,0.06358199,0.9776600000000001
220.099,67.47610999999999,-0.81038,0.06238467,0.97762
220.199,67.50869,-0.81037,0.06051212,0.9775799999999999
220.299,67.54131,-0.81037,0.06156158,0.97754
220.399,67.57392,-0.81037,0.05928172,0.9775
220.499,67.60656999999999,-0.81037,0.06256063,0.97746
220.599,67.63899,-0.8103899999999999,0.06329299,0.9774200000000001
220.699,67.67168000000001,-0.8106399999999999,0.06247139,0.9773799999999999
220.799,67.70416,-0.81133,0.06365261,0.97734
220.899,67.73665,-0.8113600000000001,0.06276534,0.9773
220.999,67.76919000000001,-0.81133,0.06521916,0.97725
221.099,67.80157,-0.81065,0.06548328,0.97721
221.199,67.83391999999999,-0.80937,0.06373196,0.9771700000000001
221.299,67.86641999999999,-0.80938,0.06450671,0.9771299999999999
221.399,67.89879,-0.80907,0.06218644,0.97709
221.499,67.9314,-0.80907,0.06306585,0.97705
221.599,67.96401,-0.80992,0.06211292,0.97701
221.699,67.99649000000001,-0.81003,0.06556031,0.9769700000000001
221.799,68.02888,-0.81004,0.06389894,0.97693
221.899,68.06139,-0.81004,0.06456224,0.9768899999999999
221.999,68.0937,-0.81005,0.0657428,0.97685
222.099,68.12621,-0.81013,0.06401238,0.9768100000000001
222.199,68.15865,-0.80966,0.06530099,0.97677
222.299,68.191,-0.80999,0.06816012,0.9767299999999999
222.399,68.22303000000001,-0.80971,0.06465441,0.9766799999999999
222.499,68.25541,-0.80871,0.06323359,0.97664
222.599,68.28787,-0.80872,0.06528988,0.9766
222.699,68.3204,-0.80874,0.0639819,0.97656
222.799,68.35278000000001,-0.8089,0.06400624,0.97652
222.899,68.38526999999999,-0.81003,0.06629066,0.9764799999999999
222.999,68.4176,-0.81009,0.06426936,0.97644
223.099,68.45003,-0.8113600000000001,0.06588961,0.9764
223.199,68.48241,-0.81002,0.06551406,0.97636
223.299,68.5149,-0.80912,0.06632196,0.9763200000000001
223.399,68.54726,-0.80896,0.06506657,0.9762799999999999
223.499,68.57963000000001,-0.81043,0.06593112,0.97624
223.599,68.61187,-0.81038,0.06619832,0.9762
223.699,68.64421,-0.81037,0.06615281,0.97615
223.799,68.67655,-0.81037,0.06465946,0.97611
223.899,68.70896,-0.81037,0.06474674,0.9760700000000001
223.999,68.74126,-0.81043,0.06675115,0.97603
224.099,68.77367,-0.8096399999999999,0.06462362,0.9759899999999999
224.199,68.80596,-0.8097,0.06461737,0.97595
224.299,68.83828000000001,-0.80971,0.06384111,0.97591
224.399,68.87066999999999,-0.80971,0.06436823,0.9758700000000001
224.499,68.90341,-0.80971,0.06476304,0.97583
224.599,68.9358,-0.8097,0.06546564,0.9757899999999999
224.699,68.96807,-0.81005,0.06247914,0.97575
224.799,69.00046999999999,-0.81004,0.06395538,0.9757100000000001
224.899,69.03272,-0.81004,0.0652423,0.97567
224.999,69.06479,-0.81004,0.06532553,0.97562
225.099,69.09709000000001,-0.81004,0.06337908,0.9755799999999999
225.199,69.1293,-0.81004,0.0631036,0.97554
225.299,69.1617,-0.81004,0.06249922,0.9755
225.399,69.19394,-0.81004,0.06355271,0.97546
225.499,69.22641999999999,-0.81004,0.06387364,0.9754200000000001
225.599,69.25895,-0.81004,0.06448039,0.9753799999999999
225.699,69.29122,-0.81003,0.06285504,0.97534
225.799,69.3236,-0.80995,0.06332079,0.9753
225.899,69.3559,-0.81114,0.06297101,0.97526
225.999,69.38814,-0.81104,0.06293012,0.9752200000000001
226.099,69.42043000000001,-0.81103,0.06468521,0.9751799999999999
226.199,69.45283,-0.81103,0.06447104,0.97514
226.299,69.48534000000001,-0.81105,0.06308838,0.97509
226.399,69.51769,-0.81035,0.06431687,0.97505
226.499,69.55013000000001,-0.81038,0.06365853,0.97501
226.599,69.58248,-0.8113199999999999,0.06373621,0.9749700000000001
226.699,69.61493,-0.81292,0.06404553,0.97493
226.799,69.64724,-0.81288,0.0616755,0.9748899999999999
226.899,69.6796,-0.81243,0.06181192,0.97485
226.999,69.71219,-0.8116399999999999,0.06400302,0.9748100000000001
227.099,69.74469,-0.81029,0.06326433,0.97477
227.199,69.77736,-0.8102600000000001,0.06211319,0.9747299999999999
227.299,69.80979,-0.8102600000000001,0.06216033,0.97469
227.399,69.84233,-0.8102600000000001,0.06326239,0.97465
227.499,69.87479,-0.8102600000000001,0.06351572,0.9746
227.599,69.9071,-0.8102600000000001,0.06171282,0.97456
227.699,69.93944,-0.8102600000000001,0.06201073,0.97452
227.799,69.97206,-0.8102600000000001,0.06170621,0.9744799999999999
227.899,70.00454,-0.81025,0.06082802,0.97444
227.999,70.03693,-0.81074,0.06113984,0.9744
228.099,70.06938000000001,-0.81124,0.06128116,0.97436
228.199,70.10175,-0.81125,0.06124606,0.9743200000000001
228.299,70.13409,-0.81125,0.06311686,0.9742799999999999
228.399,70.16626,-0.81125,0.06149513,0.97424
228.499,70.19861,-0.81091,0.05983074,0.9742
228.599,70.23094,-0.81092,0.06281764,0.97415
228.699,70.2631,-0.81092,0.06160047,0.97411
228.799,70.29535,-0.81093,0.06052484,0.9740700000000001
228.899,70.32788000000001,-0.81102,0.06079701,0.97403
228.999,70.36027,-0.80985,0.05998422,0.9739899999999999
229.099,70.39253000000001,-0.80992,0.05990787,0.97395
229.199,70.42494,-0.80993,0.06147618,0.97391
229.299,70.4571,-0.80996,0.06075939,0.9738700000000001
229.399,70.48952,-0.8103899999999999,0.06125067,0.97383
229.499,70.5219,-0.81121,0.06333851,0.9737899999999999
229.599,70.55414,-0.81125,0.0621982,0.97375
229.699,70.58648000000001,-0.81125,0.06354232,0.9737100000000001
229.799,70.61878,-0.81125,0.05937644,0.9736600000000001
229.899,70.65104000000001,-0.8112699999999999,0.06161036,0.97362
229.999,70.68329,-0.81224,0.06062354,0.9735799999999999
230.099,70.71564000000001,-0.81224,0.06163813,0.97354
230.199,70.74795,-0.81224,0.06237117,0.9735
230.299,70.78039,-0.81224,0.06137049,0.97346
230.399,70.8128,-0.81224,0.06344456,0.9734200000000001
230.499,70.84538,-0.81224,0.05989476,0.9733799999999999
230.599,70.87787,-0.81228,0.06040955,0.97334
230.699,70.9104,-0.81188,0.06136796,0.9733
230.799,70.94304,-0.81191,0.06251999,0.97326
230.899,70.97561999999999,-0.81191,0.05981689,0.97321
230.999,71.00811999999999,-0.81191,0.06352316,0.9731700000000001
231.099,71.0406,-0.8119,0.06241551,0.9731299999999999
231.199,71.07318000000001,-0.81172,0.06244176,0.97309
231.299,71.10552,-0.81053,0.06100484,0.97305
231.399,71.13811,-0.8105100000000001,0.0607034,0.97301
231.499,71.17068,-0.81217,0.06247484,0.9729700000000001
231.599,71.20311,-0.8125600000000001,0.05951898,0.97293
231.699,71.23569,-0.81257,0.06135819,0.9728899999999999
231.799,71.2683,-0.81257,0.06019283,0.97285
231.899,71.301,-0.81257,0.05980905,0.9728
231.999,71.33359,-0.81257,0.06143987,0.9727600000000001
232.099,71.3662,-0.81257,0.05773787,0.97272
232.199,71.3988,-0.81257,0.05923349,0.9726799999999999
232.299,71.43148000000001,-0.81257,0.05826049,0.97264
232.399,71.4642,-0.81257,0.05914256,0.9726
232.499,71.49686,-0.81257,0.05850265,0.9725600000000001
232.599,71.52958000000001,-0.8126,0.05743344,0.97252
232.699,71.56211,-0.81357,0.0563932,0.9724799999999999
232.799,71.59473,-0.81386,0.05758655,0.97244
232.899,71.62733,-0.81388,0.05693514,0.9724
232.999,71.65974,-0.81388,0.05842529,0.97235
233.099,71.69219,-0.81388,0.05959087,0.97231
233.199,71.72455,-0.8139,0.05910322,0.9722700000000001
233.299,71.7571,-0.81416,0.05984445,0.9722299999999999
233.399,71.78973,-0.8147,0.05976669,0.97219
233.499,71.8223,-0.816,0.05924043,0.97215
233.599,71.8548,-0.81428,0.05691706,0.97211
233.699,71.88750999999999,-0.8144100000000001,0.05916417,0.9720700000000001
233.799,71.92,-0.81442,0.05972641,0.97203
233.899,71.95265,-0.81265,0.0572105,0.9719899999999999
233.999,71.98529,-0.81247,0.05846761,0.9719399999999999
234.099,72.01791,-0.81253,0.06111958,0.9719
234.199,72.05057,-0.81376,0.05826334,0.9718600000000001
234.299,72.0833,-0.81377,0.05917777,0.9718200000000001
234.399,72.11599,-0.81377,0.06071215,0.97178
234.499,72.14859,-0.81376,0.06091578,0.9717399999999999
234.599,72.18129,-0.8126,0.0599196,0.9717
234.699,72.21377,-0.8136,0.05690442,0.9716600000000001
234.799,72.2463,-0.81374,0.05650976,0.97162
234.899,72.2789,-0.81361,0.05798736,0.97157
234.999,72.31148,-0.8144600000000001,0.05907469,0.9715299999999999
235.099,72.34432,-0.81412,0.05987522,0.97149
235.199,72.37701,-0.81409,0.05867778,0.97145
235.299,72.40946,-0.81409,0.0604419,0.97141
235.399,72.44219,-0.81409,0.05855918,0.9713700000000001
235.499,72.47452,-0.81409,0.05675198,0.9713299999999999
235.599,72.50714,-0.81409,0.05901991,0.97129
235.699,72.53968,-0.81409,0.06141714,0.97125
235.799,72.5722,-0.81409,0.05967329,0.97121
235.899,72.6049,-0.81409,0.05756609,0.97116
235.999,72.63752,-0.81409,0.05797973,0.9711200000000001
236.099,72.67015,-0.81409,0.05903885,0.9710799999999999
236.199,72.70274,-0.81409,0.05849746,0.97104
236.299,72.73527,-0.81409,0.05880677,0.971
236.399,72.76777,-0.8141,0.05950576,0.97096
236.499,72.80041,-0.81343,0.05841871,0.9709200000000001
236.599,72.83303000000001,-0.81311,0.05847977,0.97088
236.699,72.86554,-0.81311,0.05754783,0.9708399999999999
236.799,72.89814,-0.81311,0.05652038,0.9707899999999999
236.899,72.93086,-0.81312,0.05916193,0.97075
236.999,72.96346,-0.81339,0.06034018,0.9707100000000001
237.099,72.99618000000001,-0.8134399999999999,0.05632171,0.97067
237.199,73.02884,-0.8134399999999999,0.05754439,0.9706299999999999
237.299,73.06155,-0.81347,0.05880265,0.97059
237.399,73.09463000000001,-0.81414,0.05676747,0.97055
237.499,73.12728,-0.8144100000000001,0.05753411,0.97051
237.599,73.1603,-0.81443,0.05636731,0.97047
237.699,73.19291,-0.81443,0.05797038,0.9704200000000001
237.799,73.22563000000001,-0.81439,0.05600451,0.9703799999999999
237.899,73.25839,-0.81377,0.05896613,0.97034
237.999,73.29082,-0.81314,0.05702369,0.9703
238.099,73.32330999999999,-0.81304,0.05699991,0.97026
238.199,73.35584,-0.81443,0.05725383,0.9702200000000001
238.299,73.3884,-0.8149,0.056363,0.9701799999999999
238.399,73.42103,-0.8157399999999999,0.05724678,0.97014
238.499,73.45368,-0.81557,0.0596916,0.9701
238.599,73.48619000000001,-0.81442,0.05645425,0.97005
238.699,73.51873,-0.81442,0.05897808,0.97001
238.799,73.55147,-0.81445,0.05781634,0.9699700000000001
238.899,73.5841,-0.81575,0.05692618,0.96993
238.999,73.61667,-0.8157399999999999,0.05870311,0.9698899999999999
239.099,73.64918,-0.8157399999999999,0.05927737,0.96985
239.199,73.68176,-0.81577,0.0583468,0.9698100000000001
239.299,73.7142,-0.81509,0.05777572,0.96977
239.399,73.74683,-0.8147399999999999,0.05728869,0.96973
239.499,73.7792,-0.8147300000000001,0.05836344,0.9696799999999999
239.599,73.81156999999999,-0.81404,0.05706319,0.96964
239.699,73.84416999999999,-0.8138,0.05760448,0.9696
239.799,73.87674,-0.8141,0.05667719,0.9695600000000001
239.899,73.90929,-0.81513,0.05783513,0.96952
239.999,73.94175,-0.81508,0.05552069,0.9694799999999999
240.099,73.97438000000001,-0.81508,0.05688267,0.96944
240.199,74.00695999999999,-0.81508,0.05607573,0.9694
240.299,74.03941,-0.81508,0.05555368,0.96935
240.399,74.07184000000001,-0.81508,0.05721337,0.96931
240.499,74.10417,-0.8151,0.0582251,0.9692700000000001
240.599,74.13629,-0.81647,0.05685951,0.9692299999999999
240.699,74.16846,-0.8164,0.05761185,0.96919
240.799,74.20089,-0.8164,0.05817351,0.96915
240.899,74.23321,-0.8164,0.05992549,0.96911
240.999,74.26552,-0.81515,0.0557137,0.9690700000000001
241.099,74.29791999999999,-0.8151,0.05607607,0.96903
241.199,74.33025,-0.8151,0.06092436,0.96898
241.299,74.36225999999999,-0.81519,0.05556358,0.9689399999999999
241.399,74.39465,-0.81403,0.05896211,0.9689
241.499,74.42689,-0.8141,0.05881436,0.96886
241.599,74.45924000000001,-0.81418,0.05954741,0.9688200000000001
241.699,74.49129,-0.8155,0.05630823,0.96878
241.799,74.52356,-0.81542,0.05701199,0.9687399999999999
241.899,74.55585,-0.8154100000000001,0.05785233,0.9687
