##Temp./°C,Time/min,Mass loss(subtr.2)/mg,DSC(subtr.2)/(mW/mg),Sensit./(uV/mW)
48.767,10.01,-0.02402,0.0058675030000000005,1.08892
48.867,10.321710000000001,-0.02358474,0.01312455,1.08883
48.967,10.39095,-0.02358462,0.02108994,1.08875
49.067,10.43897,-0.02191177,0.02597582,1.08866
49.167,10.47523,-0.02268032,0.0333927,1.0885799999999999
49.267,10.50509,-0.02204794,0.04052291,1.08849
49.367,10.53097,-0.02097388,0.04633001,1.08841
49.467,10.55509,-0.02214958,0.05100268,1.08833
49.567,10.576260000000001,-0.02256711,0.05802973,1.0882399999999999
49.667,10.59628,-0.02220336,0.06156098,1.08816
49.767,10.61462,-0.02190216,0.06727314,1.08807
49.867,10.63205,-0.02237165,0.07295491,1.08799
49.967,10.64839,-0.02152013,0.07828456,1.0879
50.067,10.66395,-0.02147113,0.08448034,1.08782
50.167,10.67897,-0.02163889,0.08840241,1.0877299999999999
50.267,10.693019999999999,-0.02099945,0.09488755,1.08765
50.367,10.70659,-0.02182187,0.09934222,1.0875700000000001
50.467,10.719710000000001,-0.02125559,0.1034,1.08748
50.567,10.732280000000001,-0.02312305,0.10918,1.0874
50.667,10.744489999999999,-0.02234197,0.11252999999999999,1.08731
50.767,10.75642,-0.0230238,0.11728,1.08723
50.867,10.76799,-0.0223065,0.1212,1.08715
50.967,10.7793,-0.02321333,0.12617,1.0870600000000001
51.067,10.79032,-0.02233877,0.13221,1.0869799999999998
51.167,10.800980000000001,-0.02172695,0.13519,1.08689
51.267,10.81141,-0.0216889,0.14027,1.08681
51.367,10.82146,-0.0207969,0.14498,1.08673
51.467,10.831430000000001,-0.02210873,0.1485,1.08664
51.567,10.84116,-0.02139463,0.15292999999999998,1.08656
51.667,10.850660000000001,-0.0213047,0.15905,1.08647
51.767,10.859869999999999,-0.02160918,0.16117,1.08639
51.867,10.86897,-0.02051506,0.16593,1.08631
51.967,10.87802,-0.0215879,0.16887,1.08622
52.067,10.88688,-0.0217002,0.17310999999999999,1.0861399999999999
52.167,10.89557,-0.021491,0.17779,1.08605
52.267,10.90414,-0.02231173,0.18264,1.08597
52.367,10.91263,-0.02257973,0.1868,1.08589
52.467,10.921,-0.02235086,0.18916,1.0858
52.567,10.92912,-0.02381224,0.19304000000000002,1.08572
52.667,10.93719,-0.02365477,0.19694,1.0856299999999999
52.767,10.94515,-0.02306268,0.19877999999999998,1.08555
52.867,10.95303,-0.02334752,0.20137,1.0854700000000002
52.967,10.96079,-0.02352595,0.20569,1.08538
53.067,10.96834,-0.02276561,0.20840999999999998,1.0853
53.167,10.97582,-0.02392904,0.21288,1.08522
53.267,10.983239999999999,-0.02436612,0.21764,1.08513
53.367,10.9906,-0.02347172,0.22129000000000001,1.08505
53.467,10.99796,-0.0245135,0.22501999999999997,1.0849600000000001
53.567,11.00508,-0.02478372,0.22734000000000001,1.0848799999999998
53.667,11.01213,-0.02463836,0.22976,1.0848
53.767,11.01924,-0.02518898,0.23376999999999998,1.08471
53.867,11.02622,-0.02509275,0.23783,1.08463
53.967,11.03311,-0.02512749,0.2422,1.08455
54.067,11.03995,-0.0254502,0.24672,1.08446
54.167,11.046669999999999,-0.02516272,0.25023,1.08438
54.267,11.05338,-0.02566424,0.25293000000000004,1.0843
54.367,11.06007,-0.02654145,0.25603000000000004,1.0842100000000001
54.467,11.06658,-0.02601506,0.26039,1.08413
54.567,11.07306,-0.02624779,0.26321,1.08404
54.667,11.07954,-0.02747873,0.26456999999999997,1.08396
54.767,11.08589,-0.02742114,0.26776,1.08388
54.867,11.092189999999999,-0.02678263,0.27186,1.08379
54.967,11.0985,-0.02660968,0.27546,1.08371
55.067,11.10472,-0.02688376,0.27851,1.0836299999999999
55.167,11.11089,-0.02662754,0.2816,1.08354
55.267,11.11704,-0.02537904,0.2851,1.08346
55.367,11.12321,-0.02506428,0.28826,1.08338
55.467,11.12933,-0.02572711,0.29096,1.0832899999999999
55.567,11.13533,-0.02566532,0.29373,1.08321
55.667,11.14125,-0.02544753,0.29684,1.08313
55.767,11.14719,-0.02580557,0.30009,1.08304
55.867,11.15317,-0.02608082,0.30258,1.0829600000000001
55.967,11.159130000000001,-0.02593083,0.30495,1.0828799999999998
56.067,11.16499,-0.02553782,0.30879,1.08279
56.167,11.17075,-0.02547565,0.31218,1.08271
56.267,11.17647,-0.02603384,0.31351999999999997,1.08263
56.367,11.18218,-0.02635717,0.31564000000000003,1.08254
56.467,11.18788,-0.02621126,0.31940999999999997,1.08246
56.567,11.19355,-0.0264006,0.3221,1.08238
56.667,11.199160000000001,-0.02683276,0.32384,1.0823
56.767,11.2047,-0.02682893,0.32658000000000004,1.0822100000000001
56.867,11.21016,-0.0264039,0.32966999999999996,1.08213
56.967,11.21557,-0.02587589,0.33197,1.08205
57.067,11.22101,-0.02566386,0.33405,1.08196
57.167,11.226510000000001,-0.02586183,0.33666,1.08188
57.267,11.23196,-0.0257648,0.34002,1.0818
57.367,11.23733,-0.02516816,0.34353,1.08171
57.467,11.24266,-0.024727,0.34567,1.0816299999999999
57.567,11.24798,-0.02460463,0.34691,1.08155
57.667,11.253260000000001,-0.02442574,0.34962,1.08146
57.767,11.258510000000001,-0.02411173,0.35351,1.08138
57.867,11.263810000000001,-0.02381096,0.35649000000000003,1.0813
57.967,11.26912,-0.02359569,0.35856,1.08122
58.067,11.27435,-0.02349582,0.36078000000000005,1.08113
58.167,11.279530000000001,-0.02356357,0.36339,1.08105
58.267,11.28472,-0.02380253,0.36630999999999997,1.08097
58.367,11.28989,-0.02391199,0.36921,1.0808799999999998
58.467,11.29502,-0.02367913,0.37185999999999997,1.0808
58.567,11.30012,-0.02368941,0.37479,1.0807200000000001
58.667,11.30524,-0.02438763,0.37828,1.08064
58.767,11.31034,-0.02490548,0.38097,1.08055
58.867,11.315380000000001,-0.02452201,0.38198000000000004,1.08047
58.967,11.32038,-0.02399943,0.38314000000000004,1.08039
59.067,11.32535,-0.02404664,0.38599,1.08031
59.167,11.33031,-0.02423334,0.38934,1.0802200000000002
59.267,11.33525,-0.02410843,0.39193,1.0801399999999999
59.367,11.34019,-0.02390537,0.39398,1.08006
59.467,11.345130000000001,-0.02391579,0.396,1.07997
59.567,11.35003,-0.02413195,0.39851,1.07989
59.667,11.35487,-0.02443918,0.40171,1.07981
59.767,11.359689999999999,-0.02456541,0.40467,1.0797299999999999
59.867,11.36453,-0.0243231,0.40647,1.07964
59.967,11.36939,-0.02412251,0.40781999999999996,1.07956
60.067,11.37423,-0.02441666,0.40973999999999994,1.07948
60.167,11.37905,-0.02484593,0.41236999999999996,1.0794
60.267,11.38385,-0.0248539,0.41546000000000005,1.07931
60.367,11.38862,-0.02460868,0.41818999999999995,1.07923
60.467,11.39333,-0.02455811,0.41966000000000003,1.07915
60.567,11.398010000000001,-0.02471681,0.4207,1.07907
60.667,11.40269,-0.02485506,0.42299,1.0789799999999998
60.767,11.40739,-0.02485265,0.42625,1.0789
60.867,11.41208,-0.02468558,0.42863,1.0788200000000001
60.967,11.416739999999999,-0.02444181,0.42983000000000005,1.07874
61.067,11.421389999999999,-0.02433373,0.43141999999999997,1.07865
61.167,11.42602,-0.02441418,0.43406999999999996,1.07857
61.267,11.43063,-0.02445374,0.4368,1.07849
61.367,11.4352,-0.02430842,0.43885,1.07841
61.467,11.43978,-0.02413553,0.44047,1.07833
61.567,11.44437,-0.02408469,0.44208000000000003,1.0782399999999999
61.667,11.44897,-0.02403921,0.44385,1.07816
61.767,11.453560000000001,-0.02384105,0.4459,1.07808
61.867,11.45812,-0.02361769,0.44821000000000005,1.078
61.967,11.4626,-0.02361433,0.45071000000000006,1.0779100000000001
62.067,11.46705,-0.02376666,0.45332,1.0778299999999998
62.167,11.47152,-0.02376457,0.45595,1.07775
62.267,11.47604,-0.02355359,0.45847,1.0776700000000001
62.367,11.48057,-0.02348153,0.46062,1.07759
62.467,11.48508,-0.02374173,0.46237,1.0775
62.567,11.48956,-0.024009,0.46425,1.07742
62.667,11.494010000000001,-0.02397299,0.46671999999999997,1.07734
62.767,11.498439999999999,-0.02387749,0.46941000000000005,1.07726
62.867,11.50286,-0.02410961,0.47172,1.0771700000000002
62.967,11.50728,-0.02453107,0.47356000000000004,1.0770899999999999
63.067,11.5117,-0.02465719,0.4752,1.07701
63.167,11.516119999999999,-0.02447486,0.47701000000000005,1.07693
63.267,11.52053,-0.02461608,0.47953999999999997,1.07685
63.367,11.52493,-0.02538854,0.4829,1.07676
63.467,11.52932,-0.02606272,0.4859,1.0766799999999999
63.567,11.53368,-0.02592075,0.48744,1.0766
63.667,11.538,-0.02547775,0.488,1.0765200000000001
63.767,11.54228,-0.02569256,0.48872,1.07644
63.867,11.54653,-0.02666304,0.49,1.07636
63.967,11.55081,-0.02769769,0.49163999999999997,1.07627
64.067,11.55515,-0.02831905,0.49348000000000003,1.07619
64.167,11.55948,-0.02860969,0.49565,1.0761100000000001
64.267,11.56377,-0.02874314,0.49823999999999996,1.0760299999999998
64.367,11.56804,-0.02896433,0.50112,1.07595
64.467,11.57231,-0.02952351,0.5040899999999999,1.07586
64.567,11.57661,-0.03028418,0.50672,1.07578
64.667,11.58088,-0.03076295,0.50842,1.0757
64.767,11.58512,-0.03076966,0.5090399999999999,1.07562
64.867,11.58935,-0.03078152,0.50953,1.07554
64.967,11.593580000000001,-0.03123584,0.51079,1.07546
65.067,11.59781,-0.03175134,0.51269,1.0753700000000002
65.167,11.60201,-0.03164955,0.51474,1.0752899999999999
65.267,11.60617,-0.03089147,0.51676,1.07521
65.367,11.610330000000001,-0.03011257,0.51894,1.07513
65.467,11.614510000000001,-0.02974934,0.5213,1.07505
65.567,11.61868,-0.0295097,0.5234,1.07497
65.667,11.62285,-0.0290009,0.52473,1.0748799999999998
65.767,11.627,-0.02829333,0.52558,1.0748
65.867,11.63117,-0.02773965,0.52666,1.0747200000000001
65.967,11.63537,-0.02745822,0.52841,1.07464
66.067,11.639560000000001,-0.02714063,0.53067,1.07456
66.167,11.6437,-0.02651701,0.5332399999999999,1.0744799999999999
66.267,11.64782,-0.02577458,0.536,1.0744
66.367,11.65193,-0.02524645,0.53884,1.07431
66.467,11.656039999999999,-0.02497107,0.54145,1.07423
66.567,11.66013,-0.02466718,0.54324,1.07415
66.667,11.66418,-0.02414712,0.5439,1.07407
66.767,11.66823,-0.02362267,0.54423,1.07399
66.867,11.67232,-0.02338229,0.5452,1.0739100000000001
66.967,11.67646,-0.0234688,0.547,1.0738299999999998
67.067,11.68057,-0.02371801,0.5491199999999999,1.07374
67.167,11.68463,-0.02396273,0.5512,1.07366
67.267,11.68867,-0.02404499,0.5534,1.07358
67.367,11.692730000000001,-0.02383623,0.55588,1.0735
67.467,11.696810000000001,-0.02352706,0.5583899999999999,1.07342
67.567,11.70088,-0.02351002,0.5604399999999999,1.07334
67.667,11.70492,-0.02390308,0.56176,1.07326
67.767,11.708960000000001,-0.02423247,0.56272,1.07318
67.867,11.713,-0.02402583,0.56375,1.0730899999999999
67.967,11.71705,-0.02350102,0.56516,1.07301
68.067,11.721060000000001,-0.02323563,0.56718,1.07293
68.167,11.72503,-0.02346145,0.56972,1.07285
68.267,11.72899,-0.02376069,0.57202,1.07277
68.367,11.73296,-0.02371097,0.5733600000000001,1.07269
68.467,11.736939999999999,-0.02347768,0.57421,1.07261
68.567,11.74092,-0.02353128,0.57563,1.07253
68.667,11.74488,-0.02402175,0.57798,1.07244
68.767,11.74885,-0.02443778,0.58016,1.07236
68.867,11.75283,-0.02426475,0.58103,1.07228
68.967,11.75682,-0.02375798,0.58125,1.0722
69.067,11.76078,-0.02361184,0.5824699999999999,1.07212
69.167,11.7647,-0.02413675,0.5854199999999999,1.0720399999999999
69.267,11.76862,-0.0247694,0.58877,1.07196
69.367,11.77257,-0.02488058,0.591,1.07188
69.467,11.77655,-0.02449802,0.5919,1.0718
69.567,11.78052,-0.02409232,0.59214,1.07172
69.667,11.784460000000001,-0.02400523,0.5924,1.07164
69.767,11.78839,-0.0242063,0.59338,1.07155
69.867,11.79232,-0.0245953,0.59575,1.0714700000000001
69.967,11.79626,-0.02496017,0.59904,1.07139
70.067,11.80017,-0.02500074,0.60192,1.07131
70.167,11.80407,-0.02458174,0.60348,1.07123
70.267,11.807960000000001,-0.02415365,0.60438,1.07115
70.367,11.811860000000001,-0.02427176,0.60559,1.07107
70.467,11.81577,-0.02489028,0.60745,1.0709899999999999
70.567,11.81968,-0.02532461,0.60959,1.07091
70.667,11.82358,-0.02503814,0.61166,1.07083
70.767,11.82747,-0.02440781,0.61341,1.07075
70.867,11.83136,-0.02409344,0.61464,1.07067
70.967,11.83527,-0.02433074,0.61543,1.07059
71.067,11.839160000000001,-0.02472639,0.61627,1.0705
71.167,11.84302,-0.02488278,0.61759,1.0704200000000001
71.267,11.84687,-0.02476754,0.61938,1.07034
71.367,11.850719999999999,-0.02452032,0.6214,1.07026
71.467,11.8546,-0.0242924,0.62341,1.07018
71.567,11.85847,-0.0242596,0.62515,1.0701
71.667,11.86233,-0.02457878,0.62639,1.07002
71.767,11.86616,-0.02507693,0.62733,1.06994
71.867,11.86998,-0.02533006,0.62845,1.06986
71.967,11.8738,-0.02506071,0.63012,1.06978
72.067,11.87762,-0.02461091,0.6321,1.0697
72.167,11.88144,-0.02447169,0.63402,1.06962
72.267,11.88525,-0.02477692,0.63569,1.06954
72.367,11.88907,-0.025167,0.6371600000000001,1.06946
72.467,11.89289,-0.02528703,0.63849,1.06938
72.567,11.89672,-0.02512946,0.63983,1.0693
72.667,11.90053,-0.0248623,0.64136,1.06922
72.767,11.90435,-0.02463369,0.64318,1.06914
72.867,11.90815,-0.02453571,0.6451,1.0690600000000001
72.967,11.91196,-0.02464392,0.6469,1.0689799999999998
73.067,11.91575,-0.02487719,0.64846,1.0689
73.167,11.91954,-0.02500341,0.6497,1.06881
73.267,11.92331,-0.02484008,0.65063,1.06873
73.367,11.92708,-0.024526,0.65152,1.06865
73.467,11.93084,-0.02431438,0.65273,1.06857
73.567,11.9346,-0.02435187,0.65442,1.06849
73.667,11.938360000000001,-0.02456137,0.6563100000000001,1.06841
73.767,11.94212,-0.0248372,0.6581100000000001,1.06833
73.867,11.94587,-0.02506599,0.65987,1.06825
73.967,11.94961,-0.02512791,0.66193,1.06817
74.067,11.95335,-0.02494208,0.6645300000000001,1.06809
74.167,11.95708,-0.0246417,0.66713,1.0680100000000001
74.267,11.96082,-0.02443219,0.66893,1.0679299999999998
74.367,11.96457,-0.02443286,0.66962,1.06785
74.467,11.96832,-0.02457995,0.66994,1.06777
74.567,11.97208,-0.02478709,0.6707,1.06769
74.667,11.97582,-0.02498169,0.67198,1.06761
74.767,11.97955,-0.02510315,0.6732,1.0675299999999999
74.867,11.98327,-0.02511128,0.67391,1.06745
74.967,11.98698,-0.02508147,0.6745,1.0673700000000002
75.067,11.990689999999999,-0.02513022,0.6756800000000001,1.06729
75.167,11.99442,-0.02530499,0.67774,1.06721
75.267,11.99815,-0.0254933,0.68002,1.06713
75.367,12.00188,-0.02556471,0.68174,1.06705
75.467,12.00561,-0.0254931,0.68277,1.06697
75.567,12.00933,-0.0253555,0.6835899999999999,1.06689
75.667,12.01305,-0.02523339,0.6846800000000001,1.06681
75.767,12.01678,-0.02520888,0.68612,1.06673
75.867,12.0205,-0.02536426,0.68784,1.06665
75.967,12.02422,-0.02572824,0.68977,1.06657
76.067,12.02793,-0.02618553,0.69176,1.06649
76.167,12.03163,-0.02659786,0.69368,1.06641
76.267,12.03533,-0.02685811,0.6954899999999999,1.06633
76.367,12.03903,-0.02689548,0.69727,1.06625
76.467,12.04274,-0.02666533,0.69909,1.06618
76.567,12.04646,-0.02634121,0.70084,1.0661
76.667,12.05016,-0.02621244,0.70235,1.06602
76.767,12.05386,-0.02645832,0.7035100000000001,1.0659399999999999
76.867,12.05754,-0.02686909,0.70439,1.06586
76.967,12.06121,-0.0271526,0.70514,1.06578
77.067,12.06488,-0.02718605,0.70586,1.0657
77.167,12.06855,-0.02711218,0.7066399999999999,1.06562
77.267,12.072239999999999,-0.02709051,0.70758,1.06554
77.367,12.07594,-0.02718641,0.70873,1.06546
77.467,12.07964,-0.02739399,0.71015,1.06538
77.567,12.08332,-0.02768578,0.71186,1.0653
77.667,12.08699,-0.02792775,0.71377,1.06522
77.767,12.09066,-0.02795067,0.7157399999999999,1.06514
77.867,12.094330000000001,-0.02770152,0.7176,1.0650600000000001
77.967,12.098,-0.02740165,0.71914,1.06498
78.067,12.10166,-0.02730587,0.72016,1.0649
78.167,12.1053,-0.02749356,0.72077,1.06482
78.267,12.10895,-0.02784647,0.72142,1.06474
78.367,12.11262,-0.02823999,0.72254,1.06466
78.467,12.1163,-0.02859079,0.7240800000000001,1.0645799999999999
78.567,12.11998,-0.02883902,0.7257,1.0645
78.667,12.12363,-0.028941,0.72713,1.06443
78.767,12.12727,-0.02891767,0.72836,1.06435
78.867,12.1309,-0.0288065,0.72948,1.06427
78.967,12.13453,-0.02865594,0.73052,1.06419
79.067,12.138160000000001,-0.02853599,0.73143,1.0641100000000001
79.167,12.14179,-0.02851629,0.73218,1.06403
79.267,12.14542,-0.02859819,0.73288,1.06395
79.367,12.14905,-0.02871334,0.7338,1.06387
79.467,12.15269,-0.02879413,0.73517,1.06379
79.567,12.156310000000001,-0.02880831,0.7368399999999999,1.06371
79.667,12.15992,-0.02874235,0.73846,1.0636299999999999
79.767,12.16351,-0.02860006,0.7398100000000001,1.06355
79.867,12.167069999999999,-0.02845828,0.74121,1.0634700000000001
79.967,12.17062,-0.02841318,0.7431,1.0634
80.067,12.17417,-0.0285073,0.74564,1.06332
80.167,12.177719999999999,-0.02865506,0.74822,1.06324
80.267,12.18126,-0.02875341,0.75016,1.06316
80.367,12.1848,-0.02876291,0.75122,1.06308
80.467,12.18834,-0.02873705,0.75189,1.063
80.567,12.191880000000001,-0.02873605,0.75267,1.06292
80.667,12.19543,-0.02880707,0.75372,1.06284
80.767,12.19899,-0.02898524,0.75488,1.06276
80.867,12.20255,-0.02929084,0.75598,1.0626799999999998
80.967,12.20612,-0.02960381,0.75705,1.06261
81.067,12.2097,-0.02972492,0.75826,1.06253
81.167,12.213289999999999,-0.02951611,0.75969,1.06245
81.267,12.21688,-0.02915919,0.7611100000000001,1.06237
81.367,12.22048,-0.02893871,0.7621899999999999,1.06229
81.467,12.22407,-0.029036,0.76283,1.06221
81.567,12.22765,-0.02935299,0.76354,1.06213
81.667,12.23124,-0.02974552,0.7649600000000001,1.06205
81.767,12.23482,-0.03010762,0.76717,1.06197
81.867,12.2384,-0.03039067,0.76949,1.0619
81.967,12.24198,-0.03055266,0.77118,1.06182
82.067,12.24555,-0.03058572,0.77223,1.06174
82.167,12.24912,-0.03051176,0.7732100000000001,1.06166
82.267,12.25271,-0.03035947,0.77463,1.06158
82.367,12.25632,-0.03020741,0.77635,1.0615
82.467,12.25994,-0.03015937,0.77789,1.06142
82.567,12.263589999999999,-0.0302814,0.77893,1.06134
82.667,12.26724,-0.03048034,0.77976,1.0612700000000002
82.767,12.27087,-0.03062185,0.78087,1.0611899999999999
82.867,12.27448,-0.03064041,0.7824399999999999,1.06111
82.967,12.278080000000001,-0.03060784,0.78415,1.06103
83.067,12.28169,-0.03060919,0.78559,1.06095
83.167,12.28531,-0.03064608,0.78671,1.06087
83.267,12.28892,-0.03062935,0.78779,1.06079
83.367,12.29251,-0.03047652,0.78909,1.06072
83.467,12.29608,-0.03022064,0.79055,1.06064
83.567,12.29963,-0.02996271,0.79191,1.06056
83.667,12.303189999999999,-0.02979413,0.79295,1.0604799999999999
83.767,12.30674,-0.02974915,0.79382,1.0604
83.867,12.31027,-0.02984256,0.79475,1.0603200000000002
83.967,12.3138,-0.03006452,0.79591,1.06024
84.067,12.31732,-0.03032716,0.7972100000000001,1.06017
84.167,12.32086,-0.03052742,0.79852,1.06009
84.267,12.3244,-0.03060067,0.79975,1.0600100000000001
84.367,12.327960000000001,-0.03055855,0.80091,1.0599299999999998
84.467,12.3315,-0.03042276,0.80203,1.05985
84.567,12.33504,-0.03025291,0.80307,1.05977
84.667,12.33858,-0.03015476,0.80394,1.0597
84.767,12.34211,-0.03022822,0.8045399999999999,1.05962
84.867,12.34564,-0.03044328,0.80502,1.05954
84.967,12.349160000000001,-0.03066928,0.80574,1.05946
85.067,12.35267,-0.03078634,0.80698,1.05938
85.167,12.35618,-0.03078653,0.80857,1.0593
85.267,12.359689999999999,-0.03071765,0.81012,1.05923
85.367,12.36323,-0.03063248,0.8113100000000001,1.05915
85.467,12.366769999999999,-0.03060767,0.81223,1.0590700000000002
85.567,12.370289999999999,-0.03072755,0.81314,1.0589899999999999
85.667,12.37378,-0.03103166,0.8142,1.05891
85.767,12.37726,-0.03141969,0.8154,1.05884
85.867,12.38076,-0.03176442,0.81672,1.0587600000000001
85.967,12.38428,-0.03198569,0.81809,1.0586799999999998
86.067,12.38781,-0.03210388,0.8194100000000001,1.0586
86.167,12.39134,-0.0321522,0.82057,1.0585200000000001
86.267,12.39485,-0.0321591,0.8215899999999999,1.05845
86.367,12.39837,-0.0321465,0.82262,1.05837
86.467,12.40189,-0.03213298,0.82385,1.05829
86.567,12.40542,-0.03208115,0.8252200000000001,1.05821
86.667,12.40894,-0.03190256,0.8265299999999999,1.05813
86.767,12.41244,-0.03152636,0.8275899999999999,1.05806
86.867,12.41593,-0.03108401,0.82842,1.05798
86.967,12.41942,-0.03082704,0.8292299999999999,1.0579
87.067,12.4229,-0.03096008,0.83019,1.05782
87.167,12.42639,-0.03136438,0.83135,1.05774
87.267,12.429889999999999,-0.03178882,0.8326899999999999,1.05767
87.367,12.43339,-0.03203259,0.8341799999999999,1.05759
87.467,12.43689,-0.03211836,0.83572,1.05751
87.567,12.4404,-0.03213028,0.83716,1.0574299999999999
87.667,12.4439,-0.03213264,0.83841,1.05735
87.767,12.4474,-0.03213284,0.83955,1.05728
87.867,12.45088,-0.03212803,0.84067,1.0572
87.967,12.45435,-0.03209357,0.84183,1.05712
88.067,12.45781,-0.03196312,0.8430200000000001,1.05704
88.167,12.4613,-0.03166793,0.84419,1.05697
88.267,12.4648,-0.03124797,0.8453,1.0568899999999999
88.367,12.46831,-0.03089566,0.84624,1.05681
88.467,12.4718,-0.03080669,0.84693,1.05673
88.567,12.47526,-0.03100306,0.84746,1.05666
88.667,12.47872,-0.03134002,0.84808,1.0565799999999999
88.767,12.48218,-0.03167188,0.8490200000000001,1.0565
88.867,12.48565,-0.03193024,0.85029,1.0564200000000001
88.967,12.48912,-0.03210171,0.8517399999999999,1.05634
89.067,12.49259,-0.03217732,0.85321,1.05627
89.167,12.49606,-0.03217722,0.8545,1.05619
89.267,12.49953,-0.03213667,0.8554299999999999,1.05611
89.367,12.50301,-0.03209115,0.8558600000000001,1.05603
89.467,12.50649,-0.03207661,0.8562200000000001,1.05596
89.567,12.50997,-0.03212912,0.8571,1.05588
89.667,12.51344,-0.03226328,0.85887,1.0558
89.767,12.516910000000001,-0.03240526,0.8609600000000001,1.05572
89.867,12.520380000000001,-0.03245859,0.8625799999999999,1.05565
89.967,12.52386,-0.03237228,0.86324,1.0555700000000001
90.067,12.527339999999999,-0.03222673,0.8633200000000001,1.05549
90.167,12.53081,-0.03212547,0.86339,1.05542
90.267,12.53426,-0.03211767,0.86387,1.05534
90.367,12.53771,-0.03214228,0.8648600000000001,1.05526
90.467,12.541160000000001,-0.03212608,0.86645,1.05518
90.567,12.54461,-0.03206635,0.8684700000000001,1.05511
90.667,12.54807,-0.03206899,0.87039,1.05503
90.767,12.55154,-0.0322454,0.8716299999999999,1.05495
90.867,12.555,-0.03259283,0.87216,1.05487
90.967,12.55847,-0.03297609,0.87254,1.0548
91.067,12.56193,-0.03325813,0.87331,1.05472
91.167,12.565389999999999,-0.03339998,0.87451,1.05464
91.267,12.56885,-0.03344705,0.8757,1.05456
91.367,12.5723,-0.03344658,0.87646,1.05449
91.467,12.57576,-0.03343516,0.8769299999999999,1.05441
91.567,12.57921,-0.03344253,0.8775799999999999,1.05433
91.667,12.58265,-0.03349578,0.87882,1.05426
91.767,12.586089999999999,-0.03360137,0.88034,1.05418
91.867,12.58954,-0.03375572,0.8814799999999999,1.0541
91.967,12.59298,-0.03394522,0.8817299999999999,1.05403
92.067,12.59643,-0.03409627,0.8814299999999999,1.05395
92.167,12.59988,-0.03411298,0.88121,1.05387
92.267,12.60333,-0.03393537,0.8816,1.05379
92.367,12.60678,-0.03366312,0.8826200000000001,1.05372
92.467,12.61022,-0.03344009,0.88418,1.05364
92.567,12.61364,-0.03336639,0.8861100000000001,1.05356
92.667,12.61707,-0.03339722,0.8881100000000001,1.05349
92.767,12.6205,-0.03345783,0.88984,1.05341
92.867,12.62396,-0.03349083,0.89105,1.0533299999999999
92.967,12.627419999999999,-0.03348404,0.89175,1.05326
93.067,12.63087,-0.03343278,0.8919600000000001,1.05318
93.167,12.6343,-0.03336382,0.89186,1.0531
93.267,12.63773,-0.03336459,0.8919299999999999,1.05302
93.367,12.64115,-0.033528,0.89265,1.05295
93.467,12.64456,-0.03386224,0.89405,1.05287
93.567,12.64798,-0.03424492,0.89549,1.05279
93.667,12.65139,-0.03454454,0.8962700000000001,1.05272
93.767,12.654810000000001,-0.03470458,0.89628,1.05264
93.867,12.65822,-0.03476395,0.89615,1.05256
93.967,12.66164,-0.03476749,0.89656,1.05249
94.067,12.66506,-0.03475403,0.89769,1.05241
94.167,12.6685,-0.03475606,0.8992700000000001,1.05233
94.267,12.67194,-0.03480194,0.9009799999999999,1.05226
94.367,12.6754,-0.03485394,0.90254,1.05218
94.467,12.67885,-0.03481828,0.90371,1.0521
94.567,12.682269999999999,-0.03460945,0.9042899999999999,1.05203
94.667,12.68567,-0.03425952,0.9044700000000001,1.05195
94.767,12.689060000000001,-0.03387693,0.9047299999999999,1.05187
94.867,12.69246,-0.03356739,0.9055,1.0518
94.967,12.69588,-0.0333989,0.90671,1.05172
95.067,12.6993,-0.03341857,0.9080299999999999,1.05164
95.167,12.70272,-0.03365744,0.90915,1.0515700000000001
95.267,12.70613,-0.03402801,0.9099200000000001,1.05149
95.367,12.70953,-0.03438893,0.9102600000000001,1.05141
95.467,12.71293,-0.03461943,0.9101600000000001,1.05134
95.567,12.716330000000001,-0.03472507,0.9100600000000001,1.05126
95.667,12.71975,-0.03475888,0.91055,1.05119
95.767,12.72317,-0.03476764,0.91205,1.05111
95.867,12.72661,-0.0347663,0.9140299999999999,1.05103
95.967,12.73005,-0.03475989,0.9156799999999999,1.0509600000000001
96.067,12.73348,-0.03475349,0.91645,1.05088
96.167,12.73691,-0.03475227,0.91679,1.0508
96.267,12.74032,-0.03476145,0.91737,1.05073
96.367,12.743730000000001,-0.03477948,0.91861,1.05065
96.467,12.74714,-0.03478447,0.9200200000000001,1.05057
96.567,12.75056,-0.03475079,0.9209799999999999,1.0505
96.667,12.75399,-0.03468494,0.92117,1.0504200000000001
96.767,12.75741,-0.03467267,0.9211,1.05035
96.867,12.7608,-0.03481127,0.92138,1.05027
96.967,12.76414,-0.03512716,0.9222799999999999,1.05019
97.067,12.76746,-0.03550402,0.92335,1.0501200000000002
97.167,12.77079,-0.03580869,0.92406,1.0500399999999999
97.267,12.77415,-0.03594749,0.9242299999999999,1.04996
97.367,12.777519999999999,-0.03590631,0.9243299999999999,1.04989
97.467,12.78092,-0.03568111,0.9249299999999999,1.0498100000000001
97.567,12.78432,-0.03531668,0.92624,1.04974
97.667,12.78772,-0.03494761,0.9277700000000001,1.04966
97.767,12.79113,-0.03471665,0.9289799999999999,1.04958
97.867,12.79454,-0.03467502,0.92966,1.04951
97.967,12.79795,-0.03473167,0.9301299999999999,1.0494299999999999
98.067,12.80135,-0.03478467,0.93073,1.04936
98.167,12.804739999999999,-0.03478895,0.9315100000000001,1.04928
98.267,12.80813,-0.03477397,0.93215,1.0492
98.367,12.81153,-0.03477431,0.93227,1.04913
98.467,12.81493,-0.03482833,0.93196,1.04905
98.567,12.81834,-0.03497859,0.9318,1.04898
98.667,12.82173,-0.03526404,0.9323600000000001,1.0489
98.767,12.82512,-0.03563936,0.93363,1.04882
98.867,12.82852,-0.03597737,0.9350299999999999,1.04875
98.967,12.83192,-0.03615429,0.93599,1.04867
99.067,12.83533,-0.03616441,0.93642,1.0486
99.167,12.83874,-0.03610204,0.93668,1.0485200000000001
99.267,12.84212,-0.0360595,0.9371200000000001,1.04844
99.367,12.8455,-0.03605971,0.93779,1.04837
99.467,12.848889999999999,-0.03607592,0.9385600000000001,1.04829
99.567,12.8523,-0.03608246,0.93927,1.0482200000000002
99.667,12.85575,-0.03607829,0.93996,1.04814
99.767,12.8592,-0.03607796,0.94075,1.04807
99.867,12.86265,-0.03609891,0.94176,1.04799
99.967,12.86609,-0.03618023,0.9427700000000001,1.0479100000000001
100.067,12.86952,-0.03637159,0.94345,1.0478399999999999
100.167,12.87293,-0.03670315,0.94355,1.04776
100.267,12.876330000000001,-0.03708532,0.9433,1.04769
100.367,12.879719999999999,-0.03738321,0.94315,1.04761
100.467,12.88311,-0.03749227,0.94347,1.04754
100.567,12.8865,-0.03746434,0.94419,1.04746
100.667,12.8899,-0.03740137,0.9451299999999999,1.04738
100.767,12.8933,-0.03738364,0.9461,1.04731
100.867,12.89671,-0.03739656,0.94691,1.0472299999999999
100.967,12.90011,-0.03739954,0.94734,1.04716
101.067,12.90349,-0.03737032,0.94731,1.04708
101.167,12.90687,-0.03735331,0.9471299999999999,1.04701
101.267,12.910260000000001,-0.03740808,0.9472,1.04693
101.367,12.91366,-0.03757278,0.9477399999999999,1.0468600000000001
101.467,12.917060000000001,-0.03781729,0.9484299999999999,1.0467799999999998
101.567,12.92045,-0.03809793,0.94884,1.0467
101.667,12.92384,-0.03837181,0.94878,1.04663
101.767,12.92722,-0.03859811,0.94876,1.04655
101.867,12.9306,-0.03873642,0.9493799999999999,1.0464799999999999
101.967,12.934,-0.03877131,0.95091,1.0464
102.067,12.9374,-0.03874658,0.9528,1.04633
102.167,12.94079,-0.03871453,0.95437,1.04625
102.267,12.94417,-0.03870698,0.95521,1.0461799999999999
102.367,12.94755,-0.0387141,0.95544,1.0461
102.467,12.95093,-0.03872111,0.9552700000000001,1.04603
102.567,12.95432,-0.0387206,0.95491,1.04595
102.667,12.95771,-0.03871854,0.9546399999999999,1.04588
102.767,12.961110000000001,-0.03872221,0.9547399999999999,1.0458
102.867,12.96451,-0.03873081,0.95531,1.04572
102.967,12.9679,-0.03873081,0.9562,1.04565
103.067,12.97128,-0.03870814,0.9572200000000001,1.04557
103.167,12.97465,-0.03867491,0.9582700000000001,1.0455
103.267,12.978010000000001,-0.03867926,0.95931,1.04542
103.367,12.98138,-0.03877091,0.9603200000000001,1.04535
103.467,12.98475,-0.03896177,0.9612,1.0452700000000001
103.567,12.98812,-0.03921587,0.9617899999999999,1.0452
103.667,12.9915,-0.03949414,0.96191,1.04512
103.767,12.99488,-0.03975633,0.96168,1.04505
103.867,12.99826,-0.03996085,0.96159,1.0449700000000002
103.967,13.00164,-0.04006779,0.96211,1.0449
104.067,13.00502,-0.04008051,0.9632,1.04482
104.167,13.008389999999999,-0.04004731,0.9643,1.04475
104.267,13.01177,-0.04001719,0.96485,1.04467
104.367,13.01515,-0.04001068,0.96473,1.0446
104.467,13.01852,-0.04002159,0.9642299999999999,1.0445200000000001
104.567,13.0219,-0.04004227,0.9636600000000001,1.04445
104.667,13.025269999999999,-0.04005774,0.9632700000000001,1.04437
104.767,13.02864,-0.04004674,0.96329,1.0443
104.867,13.03202,-0.0399919,0.9638899999999999,1.0442200000000001
104.967,13.03541,-0.03993767,0.9649399999999999,1.04415
105.067,13.0388,-0.03997636,0.9660299999999999,1.04407
105.167,13.04218,-0.04019178,0.9668,1.044
105.267,13.045539999999999,-0.04054549,0.9672799999999999,1.0439200000000002
105.367,13.0489,-0.04091562,0.96778,1.04385
105.467,13.05225,-0.04118611,0.9685799999999999,1.04377
105.567,13.05562,-0.04132583,0.9695600000000001,1.0437
105.667,13.05899,-0.04135783,0.9702700000000001,1.04362
105.767,13.06236,-0.04130621,0.97035,1.04355
105.867,13.06574,-0.04119704,0.96995,1.04348
105.967,13.06913,-0.04105755,0.96954,1.0434
106.067,13.072510000000001,-0.04091444,0.96955,1.0433299999999999
106.167,13.07589,-0.04078954,0.96996,1.04325
106.267,13.07927,-0.04070213,0.97049,1.04318
106.367,13.08264,-0.04066768,0.97093,1.0431
106.467,13.086,-0.04067224,0.97124,1.04303
106.567,13.089360000000001,-0.04068803,0.97149,1.04295
106.667,13.09272,-0.0406911,0.97175,1.04288
106.767,13.09608,-0.04068555,0.9721200000000001,1.0428
106.867,13.09944,-0.04068772,0.9726899999999999,1.04273
106.967,13.102789999999999,-0.0407088,0.97352,1.04265
107.067,13.10615,-0.04072532,0.97435,1.0425799999999998
107.167,13.1095,-0.04069966,0.9748100000000001,1.04251
107.267,13.112870000000001,-0.04060415,0.9746299999999999,1.04243
107.367,13.116229999999998,-0.04047387,0.97414,1.04236
107.467,13.1196,-0.04036815,0.97393,1.0422799999999999
107.567,13.12296,-0.04033402,0.97445,1.04221
107.667,13.12633,-0.04034777,0.97545,1.04213
107.767,13.1297,-0.04036057,0.9764299999999999,1.04206
107.867,13.13308,-0.0403373,0.97701,1.04198
107.967,13.136460000000001,-0.04031526,0.9773700000000001,1.0419100000000001
108.067,13.13984,-0.04035538,0.97793,1.0418399999999999
108.167,13.1432,-0.04050373,0.97895,1.04176
108.267,13.146560000000001,-0.04073753,0.9800200000000001,1.04169
108.367,13.14993,-0.04101401,0.9805299999999999,1.0416100000000001
108.467,13.153310000000001,-0.04129079,0.9801,1.04154
108.567,13.15669,-0.04152697,0.97925,1.04146
108.667,13.160070000000001,-0.04168204,0.97875,1.04139
108.767,13.16344,-0.04173181,0.97911,1.04132
108.867,13.1668,-0.04171345,0.97993,1.04124
108.967,13.170179999999998,-0.0416786,0.9806,1.0411700000000002
109.067,13.173570000000002,-0.04166618,0.98067,1.04109
109.167,13.176960000000001,-0.04167154,0.98031,1.04102
109.267,13.18035,-0.04168073,0.97983,1.04094
109.367,13.183729999999999,-0.04168375,0.97951,1.04087
109.467,13.18709,-0.04168219,0.9795200000000001,1.0408
109.567,13.19046,-0.04167975,0.98001,1.04072
109.667,13.193829999999998,-0.041679,0.9809700000000001,1.04065
109.767,13.1972,-0.04167944,0.9819100000000001,1.04057
109.867,13.20057,-0.04168008,0.9822799999999999,1.0405
109.967,13.20394,-0.04168027,0.98183,1.04043
110.067,13.207310000000001,-0.04168015,0.98108,1.04035
110.167,13.21067,-0.04167998,0.98065,1.0402799999999999
110.267,13.214039999999999,-0.04167993,0.98085,1.0402
110.367,13.21742,-0.04167996,0.9813299999999999,1.04013
110.467,13.22079,-0.04168001,0.98164,1.04006
110.567,13.22417,-0.04168002,0.98157,1.03998
110.667,13.22754,-0.04168001,0.9814200000000001,1.0399100000000001
110.767,13.230920000000001,-0.04168,0.98155,1.03983
110.867,13.23431,-0.04168,0.9820700000000001,1.03976
110.967,13.237689999999999,-0.04168,0.98267,1.03969
111.067,13.241060000000001,-0.04168,0.98298,1.0396100000000001
111.167,13.24441,-0.04168,0.9829200000000001,1.03954
111.267,13.24775,-0.04168,0.9829100000000001,1.03946
111.367,13.25109,-0.04168,0.9833700000000001,1.03939
111.467,13.254439999999999,-0.04168,0.9843799999999999,1.03932
111.567,13.25779,-0.04168,0.98536,1.03924
111.667,13.26113,-0.04168,0.9857100000000001,1.0391700000000001
111.767,13.264479999999999,-0.04168,0.98526,1.0391
111.867,13.267829999999998,-0.04168,0.9845,1.03902
111.967,13.27118,-0.04168,0.9839600000000001,1.03895
112.067,13.27455,-0.04168,0.9839200000000001,1.0388700000000002
112.167,13.27793,-0.04168,0.98429,1.0388
112.267,13.281320000000001,-0.04168,0.9849399999999999,1.03873
112.367,13.28471,-0.04168001,0.98565,1.03865
112.467,13.288089999999999,-0.04168001,0.9861200000000001,1.0385799999999998
112.567,13.291479999999998,-0.04167999,0.9860200000000001,1.03851
112.667,13.29485,-0.04167997,0.98545,1.03843
112.767,13.29822,-0.04167997,0.98495,1.03836
112.867,13.30158,-0.04168004,0.9850700000000001,1.0382799999999999
112.967,13.30495,-0.04168012,0.9858299999999999,1.03821
113.067,13.3083,-0.0416801,0.98666,1.03814
113.167,13.31165,-0.04167984,0.98698,1.03806
113.267,13.314979999999998,-0.04167954,0.98672,1.03799
113.367,13.31831,-0.04167964,0.9863200000000001,1.0379200000000002
113.467,13.32165,-0.04168058,0.98625,1.0378399999999999
113.567,13.325,-0.04168172,0.98665,1.03777
113.667,13.328370000000001,-0.0416813,0.9873200000000001,1.0377
113.767,13.331729999999999,-0.04167772,0.9880700000000001,1.03762
113.867,13.3351,-0.04167355,0.9887600000000001,1.03755
113.967,13.338460000000001,-0.04167534,0.9893299999999999,1.03748
114.067,13.341820000000002,-0.04168901,0.98972,1.0374
114.167,13.345170000000001,-0.0417044,0.98992,1.0373299999999999
114.267,13.34852,-0.04169702,0.9899600000000001,1.03726
114.367,13.351870000000002,-0.04164527,0.98985,1.03718
114.467,13.355210000000001,-0.04158827,0.9896299999999999,1.03711
114.567,13.35855,-0.0416174,0.98936,1.03704
114.667,13.3619,-0.04181899,0.98908,1.03696
114.767,13.36525,-0.04216491,0.98885,1.0368899999999999
114.867,13.3686,-0.04253105,0.98872,1.03682
114.967,13.37195,-0.04279611,0.98874,1.03674
115.067,13.3753,-0.0429312,0.98892,1.03667
115.167,13.37865,-0.04298226,0.9892799999999999,1.0366
115.267,13.381979999999999,-0.0429959,0.9897799999999999,1.03652
115.367,13.38531,-0.04299668,0.9904,1.03645
115.467,13.388639999999999,-0.04299194,0.99105,1.0363799999999999
115.567,13.391979999999998,-0.04298825,0.99167,1.0363
115.667,13.395320000000002,-0.04298778,0.99215,1.03623
115.767,13.398679999999999,-0.04298922,0.99241,1.03616
115.867,13.40204,-0.04299117,0.99235,1.03609
115.967,13.40541,-0.04299227,0.9921,1.03601
116.067,13.40877,-0.0429912,0.9919100000000001,1.0359399999999999
116.167,13.41211,-0.04298697,0.9920100000000001,1.03587
116.267,13.41545,-0.04298302,0.99229,1.03579
116.367,13.41879,-0.04298594,0.9923799999999999,1.03572
116.467,13.42213,-0.043001,0.99193,1.03565
116.567,13.425479999999999,-0.04301558,0.99119,1.03557
116.667,13.42883,-0.04300455,0.9908100000000001,1.0355
116.767,13.432179999999999,-0.04294807,0.99136,1.0354299999999999
116.867,13.435529999999998,-0.04289447,0.99259,1.03536
116.967,13.438889999999999,-0.04293794,0.99364,1.03528
117.067,13.44225,-0.04316229,0.9937299999999999,1.03521
117.167,13.445620000000002,-0.04352172,0.9929899999999999,1.03514
117.267,13.448979999999999,-0.04388733,0.9921700000000001,1.03506
117.367,13.452329999999998,-0.04413894,0.99192,1.0349899999999999
117.467,13.45566,-0.04426202,0.9921399999999999,1.03492
117.567,13.45899,-0.04430518,0.9922799999999999,1.03485
117.667,13.4623,-0.04431546,0.9918399999999999,1.03477
117.767,13.465620000000001,-0.04431498,0.9909899999999999,1.0347
117.867,13.46895,-0.04431091,0.9903299999999999,1.03463
117.967,13.47229,-0.04430963,0.9903799999999999,1.03455
118.067,13.47565,-0.044311,0.9910899999999999,1.0344799999999998
118.167,13.479,-0.04431092,0.9920200000000001,1.03441
118.267,13.48235,-0.04430601,0.99277,1.03434
118.367,13.485679999999999,-0.044301,0.9932,1.03426
118.467,13.489,-0.04430538,0.9933799999999999,1.03419
118.567,13.492320000000001,-0.04432625,0.99335,1.0341200000000002
118.667,13.49564,-0.04434506,0.99319,1.03405
118.767,13.49896,-0.04432807,0.9929600000000001,1.03397
118.867,13.502279999999999,-0.04424607,0.9927299999999999,1.0339
118.967,13.50561,-0.04412091,0.9926799999999999,1.03383
119.067,13.50895,-0.0440057,0.9930399999999999,1.03376
119.167,13.512279999999999,-0.04394934,0.99398,1.03368
119.267,13.515620000000002,-0.04394968,0.99524,1.0336100000000001
119.367,13.51895,-0.04397321,0.9962200000000001,1.03354
119.467,13.522279999999999,-0.04398824,0.9964200000000001,1.03346
119.567,13.5256,-0.04398818,0.99603,1.03339
119.667,13.528920000000001,-0.04398188,0.9956799999999999,1.03332
119.767,13.53224,-0.0439778,0.99597,1.03325
119.867,13.53555,-0.04397778,0.99675,1.03318
119.967,13.538860000000001,-0.04397946,0.9974299999999999,1.0331
120.067,13.54217,-0.04398058,0.9974799999999999,1.03303
120.167,13.54549,-0.0439806,0.997,1.03296
120.267,13.548810000000001,-0.04398015,0.9965299999999999,1.0328899999999999
120.367,13.55214,-0.04397985,0.9965799999999999,1.03281
120.467,13.555470000000001,-0.04397984,0.9971,1.03274
120.567,13.55879,-0.04397996,0.99765,1.03267
120.667,13.56211,-0.04398004,0.9978100000000001,1.0326
120.767,13.565420000000001,-0.04398004,0.99755,1.03252
120.867,13.568729999999999,-0.04398001,0.9970899999999999,1.03245
120.967,13.57204,-0.04397999,0.9966200000000001,1.0323799999999999
121.067,13.57535,-0.04397999,0.99635,1.03231
121.167,13.578660000000001,-0.04398,0.99641,1.03224
121.267,13.58199,-0.04398,0.99692,1.03216
121.367,13.585320000000001,-0.04398,0.99775,1.03209
121.467,13.58866,-0.04398,0.99855,1.0320200000000002
121.567,13.59199,-0.04398,0.99897,1.03195
121.667,13.595329999999999,-0.04398,0.99902,1.03187
121.767,13.59866,-0.04398,0.99897,1.0318
121.867,13.60198,-0.04398,0.9990700000000001,1.03173
121.967,13.60529,-0.04398,0.9994,1.03166
122.067,13.6086,-0.04398,0.99987,1.03159
122.167,13.611889999999999,-0.04398,1.00042,1.03151
122.267,13.61517,-0.04398,1.00094,1.03144
122.367,13.61846,-0.04398,1.00132,1.0313700000000001
122.467,13.62175,-0.04398,1.0014399999999999,1.0313
122.567,13.625070000000001,-0.04398,1.00136,1.0312299999999999
122.667,13.62839,-0.04398,1.00125,1.03115
122.767,13.631720000000001,-0.04398,1.0013,1.03108
122.867,13.63504,-0.04398,1.00148,1.03101
122.967,13.63836,-0.04398,1.00163,1.03094
123.067,13.64168,-0.04398,1.00157,1.0308700000000002
123.167,13.64499,-0.04398,1.00137,1.0307899999999999
123.267,13.6483,-0.04398,1.00134,1.03072
123.367,13.65161,-0.04398,1.00177,1.03065
123.467,13.654929999999998,-0.04398,1.00262,1.0305799999999998
123.567,13.65825,-0.04398,1.00345,1.03051
123.667,13.661579999999999,-0.04398,1.00384,1.03043
123.767,13.66492,-0.04398,1.0038,1.03036
123.867,13.66825,-0.04398,1.00377,1.03029
123.967,13.671570000000001,-0.04398,1.00421,1.0302200000000001
124.067,13.674879999999998,-0.04398,1.00506,1.03015
124.167,13.67818,-0.04398,1.0057200000000002,1.0300799999999999
124.267,13.681479999999999,-0.04398,1.00557,1.03
124.367,13.68477,-0.04398001,1.00464,1.02993
124.467,13.688070000000002,-0.04398001,1.00368,1.02986
124.567,13.691360000000001,-0.04397999,1.00348,1.02979
124.667,13.69466,-0.04397996,1.00421,1.02972
124.767,13.69798,-0.04397997,1.00528,1.02965
124.867,13.70132,-0.04398003,1.00607,1.02957
124.967,13.704679999999998,-0.04398012,1.00633,1.0295
125.067,13.708039999999999,-0.04398011,1.0063600000000001,1.0294299999999998
125.167,13.711379999999998,-0.04397986,1.00647,1.02936
125.267,13.71469,-0.04397952,1.00675,1.02929
125.367,13.717989999999999,-0.04397957,1.0069700000000001,1.02922
125.467,13.7213,-0.04398048,1.00692,1.02914
125.567,13.724620000000002,-0.04398175,1.00665,1.0290700000000002
125.667,13.72795,-0.04398161,1.00658,1.029
125.767,13.73127,-0.04397826,1.00714,1.02893
125.867,13.734589999999999,-0.04397349,1.00829,1.02886
125.967,13.737910000000001,-0.04397392,1.0093299999999998,1.0287899999999999
126.067,13.741229999999998,-0.04398685,1.0095299999999998,1.02872
126.167,13.74455,-0.0440351,1.0087899999999999,1.02864
126.267,13.747860000000001,-0.04416334,1.00781,1.02857
126.367,13.751179999999998,-0.04441661,1.00739,1.0285
126.467,13.75448,-0.04477492,1.00784,1.02843
126.567,13.75779,-0.04512332,1.00878,1.02836
126.667,13.7611,-0.04534058,1.00979,1.02829
126.767,13.7644,-0.04538395,1.01058,1.0282200000000001
126.867,13.767710000000001,-0.04533304,1.01112,1.02815
126.967,13.771020000000002,-0.04527751,1.01137,1.02807
127.067,13.77431,-0.04526605,1.01134,1.028
127.167,13.777610000000001,-0.0452794,1.01109,1.02793
127.267,13.78091,-0.04529201,1.01068,1.02786
127.367,13.78421,-0.04529113,1.01021,1.02779
127.467,13.78752,-0.0452872,1.00991,1.02772
127.567,13.790820000000002,-0.04529299,1.0099799999999999,1.02765
127.667,13.794120000000001,-0.04530914,1.0104600000000001,1.02758
127.767,13.79742,-0.04531267,1.011,1.0275
127.867,13.800720000000002,-0.04527805,1.01124,1.0274299999999998
127.967,13.804020000000001,-0.04521384,1.0109700000000001,1.02736
128.067,13.807329999999999,-0.04520094,1.01043,1.02729
128.167,13.810629999999998,-0.04532925,1.00989,1.02722
128.267,13.81391,-0.0456301,1.00957,1.02715
128.367,13.8172,-0.04600042,1.00955,1.02708
128.467,13.820479999999998,-0.04631841,1.00991,1.02701
128.567,13.82376,-0.04650408,1.0106600000000001,1.02694
128.667,13.82704,-0.04658625,1.0117,1.02686
128.767,13.83032,-0.04661119,1.0129,1.0267899999999999
128.867,13.83358,-0.04661654,1.01406,1.02672
128.967,13.83685,-0.04661387,1.01478,1.02665
129.067,13.840129999999998,-0.04660991,1.01461,1.0265799999999998
129.167,13.843420000000002,-0.04660948,1.0134,1.02651
129.267,13.84671,-0.04661066,1.01193,1.02644
129.367,13.850010000000001,-0.04660999,1.01119,1.02637
129.467,13.8533,-0.04660579,1.01186,1.0263
129.567,13.856589999999999,-0.0466033,1.01319,1.02623
129.667,13.85987,-0.04660949,1.01414,1.02616
129.767,13.86316,-0.04663704,1.01393,1.0260799999999999
129.867,13.866439999999999,-0.04672437,1.0131,1.02601
129.967,13.869720000000001,-0.04691713,1.01255,1.02594
130.067,13.87299,-0.04723986,1.01296,1.02587
130.167,13.87626,-0.04760784,1.01394,1.0258
130.267,13.879529999999999,-0.04790111,1.01472,1.02573
130.367,13.8828,-0.04802147,1.0146700000000002,1.02566
130.467,13.886079999999998,-0.04800541,1.014,1.02559
130.567,13.88936,-0.04794083,1.01325,1.02552
130.667,13.892629999999999,-0.04790607,1.0129,1.02545
130.767,13.89591,-0.04790901,1.01298,1.02538
130.867,13.89918,-0.04792622,1.0132700000000001,1.02531
130.967,13.902460000000001,-0.04793626,1.0136100000000001,1.02524
131.067,13.905729999999998,-0.04793589,1.01391,1.0251700000000001
131.167,13.909,-0.04793129,1.0141,1.02509
131.267,13.912270000000001,-0.04792827,1.01414,1.02502
131.367,13.91555,-0.04792813,1.01405,1.02495
131.467,13.918820000000002,-0.04792944,1.01387,1.02488
131.567,13.922089999999999,-0.04793082,1.0136399999999999,1.02481
131.667,13.925370000000001,-0.0479314,1.01348,1.02474
131.767,13.92865,-0.04793074,1.01352,1.02467
131.867,13.931920000000002,-0.04792851,1.0139,1.0246
131.967,13.935189999999999,-0.04792633,1.0144600000000001,1.02453
132.067,13.93845,-0.04792741,1.0147899999999999,1.02446
132.167,13.94171,-0.04793459,1.01454,1.02439
132.267,13.94496,-0.04794301,1.01383,1.0243200000000001
132.367,13.948210000000001,-0.0479405,1.01331,1.02425
132.467,13.95147,-0.04791556,1.01358,1.0241799999999999
132.567,13.954720000000002,-0.04788304,1.01461,1.02411
132.667,13.95798,-0.04788781,1.01557,1.02404
132.767,13.961229999999999,-0.0479756,1.0156,1.02397
132.867,13.96449,-0.04815876,1.01457,1.0239
132.967,13.96775,-0.04840379,1.0133299999999998,1.02383
133.067,13.971,-0.04867389,1.0128,1.02376
133.167,13.97425,-0.04893244,1.01332,1.02369
133.267,13.9775,-0.04914316,1.01434,1.02362
133.367,13.98075,-0.04926995,1.01522,1.02355
133.467,13.983989999999999,-0.04930166,1.0155399999999999,1.02348
133.567,13.98724,-0.04927839,1.0154299999999998,1.0234
133.667,13.99049,-0.04924645,1.01504,1.0233299999999999
133.767,13.99373,-0.04923712,1.01455,1.02326
133.867,13.996970000000001,-0.04924292,1.01421,1.02319
133.967,14.000210000000001,-0.04925026,1.01424,1.02312
134.067,14.003470000000002,-0.04924992,1.01475,1.02305
134.167,14.00673,-0.0492471,1.01548,1.02298
134.267,14.00999,-0.04924996,1.0160799999999999,1.02291
134.367,14.01324,-0.04926223,1.0162799999999999,1.02284
134.467,14.01649,-0.04926957,1.01614,1.0227700000000002
134.567,14.01973,-0.04925308,1.01578,1.0227
134.667,14.022960000000001,-0.04919633,1.01535,1.02263
134.767,14.026179999999998,-0.04909554,1.01491,1.0225600000000001
134.867,14.02941,-0.04895102,1.01454,1.02249
134.967,14.032639999999999,-0.04877058,1.0143,1.02242
135.067,14.035879999999999,-0.04861431,1.01415,1.02235
135.167,14.039129999999998,-0.04856463,1.01401,1.0222799999999999
135.267,14.04238,-0.04869053,1.01384,1.02221
135.367,14.04563,-0.04893648,1.01367,1.02214
135.467,14.04889,-0.0491796,1.0136100000000001,1.02207
135.567,14.05214,-0.0493055,1.01373,1.022
135.667,14.05538,-0.04930968,1.014,1.02193
135.767,14.058629999999999,-0.04926022,1.01429,1.02186
135.867,14.06187,-0.04922368,1.01449,1.02179
135.967,14.06512,-0.04922049,1.01454,1.0217200000000002
136.067,14.06836,-0.04923329,1.01449,1.02165
136.167,14.071589999999999,-0.0492441,1.01436,1.02158
136.267,14.07482,-0.04924582,1.01425,1.0215100000000001
136.367,14.07805,-0.04924252,1.01429,1.02144
136.467,14.08129,-0.04923868,1.01464,1.02138
136.567,14.084529999999999,-0.04923701,1.01532,1.02131
136.667,14.087779999999999,-0.04923786,1.01621,1.02124
136.767,14.09102,-0.0492414,1.01718,1.0211700000000001
136.867,14.09424,-0.04924583,1.01807,1.0211
136.967,14.09746,-0.04924612,1.01865,1.0210299999999999
137.067,14.10069,-0.04923702,1.01871,1.02096
137.167,14.10394,-0.04922099,1.0182200000000001,1.0208899999999999
137.267,14.10718,-0.04921707,1.0176,1.02082
137.367,14.110420000000001,-0.04924641,1.0173,1.02075
137.467,14.11365,-0.04930623,1.0176100000000001,1.02068
137.567,14.11687,-0.04932864,1.01824,1.02061
137.667,14.1201,-0.04923474,1.01883,1.02054
137.767,14.12333,-0.04898941,1.01912,1.02047
137.867,14.126570000000001,-0.0487175,1.0192299999999999,1.0204
137.967,14.12981,-0.04858042,1.01938,1.02033
138.067,14.13305,-0.04869455,1.01973,1.02026
138.167,14.13628,-0.04896204,1.02017,1.02019
138.267,14.139510000000001,-0.04922139,1.0205,1.0201200000000001
138.367,14.14274,-0.04933555,1.02057,1.02005
138.467,14.145970000000002,-0.04932298,1.0204600000000001,1.0199799999999999
138.567,14.149189999999999,-0.04926306,1.02037,1.01991
138.667,14.152420000000001,-0.0492282,1.02047,1.0198399999999999
138.767,14.15564,-0.04922916,1.0208,1.01977
138.867,14.15886,-0.0492449,1.02131,1.0197100000000001
138.967,14.1621,-0.04925539,1.02194,1.0196399999999999
139.067,14.165339999999999,-0.04925583,1.02254,1.01957
139.167,14.168579999999999,-0.04925174,1.02285,1.0195
139.267,14.17182,-0.04924867,1.02264,1.0194299999999998
139.367,14.17505,-0.04924837,1.02194,1.01936
139.467,14.178279999999999,-0.04924942,1.02099,1.01929
139.567,14.18152,-0.04925032,1.02004,1.01922
139.667,14.18475,-0.04925045,1.01926,1.01915
139.767,14.18798,-0.04925019,1.0186899999999999,1.01908
139.867,14.19121,-0.04924993,1.0184,1.01901
139.967,14.194429999999999,-0.04924987,1.01842,1.01894
140.067,14.19764,-0.04924994,1.01884,1.0188700000000002
140.167,14.20086,-0.04925001,1.0197100000000001,1.0188
140.267,14.204089999999999,-0.04925003,1.0209,1.01874
140.367,14.207320000000001,-0.04925002,1.02197,1.01867
140.467,14.21054,-0.04925,1.02241,1.0186
140.567,14.213770000000002,-0.04924999,1.0220200000000002,1.01853
140.667,14.21699,-0.04924999,1.0212700000000001,1.0184600000000001
140.767,14.22021,-0.04925,1.0207600000000001,1.01839
140.867,14.22344,-0.04925,1.0209,1.0183200000000001
140.967,14.22666,-0.04925,1.02155,1.01825
141.067,14.22988,-0.04925,1.02243,1.0181799999999999
141.167,14.23311,-0.04925,1.02331,1.01811
141.267,14.236329999999999,-0.04925,1.02404,1.01804
141.367,14.23956,-0.04925,1.02449,1.0179799999999999
141.467,14.242779999999998,-0.04925,1.02459,1.01791
141.567,14.246,-0.04925,1.02447,1.0178399999999999
141.667,14.249220000000001,-0.04925,1.02437,1.01777
141.767,14.25242,-0.04925,1.02449,1.0177
141.867,14.255629999999998,-0.04925,1.0247600000000001,1.01763
141.967,14.25883,-0.04925,1.02495,1.01756
142.067,14.26205,-0.04925,1.02488,1.01749
142.167,14.265260000000001,-0.04925,1.02459,1.01742
142.267,14.26849,-0.04925,1.02431,1.01736
142.367,14.27171,-0.04925,1.02427,1.01729
142.467,14.274920000000002,-0.04925,1.02452,1.01722
142.567,14.278139999999999,-0.04925,1.02502,1.01715
142.667,14.28134,-0.04925,1.02569,1.01708
142.767,14.28454,-0.04925,1.02646,1.01701
142.867,14.28775,-0.04925,1.0272700000000001,1.01694
142.967,14.29096,-0.04925,1.02806,1.0168700000000002
143.067,14.294170000000001,-0.04925,1.02875,1.0168
143.167,14.29739,-0.04925,1.0292700000000001,1.01674
143.267,14.30061,-0.04925,1.02955,1.01667
143.367,14.303820000000002,-0.04925,1.0296,1.0166
143.467,14.30703,-0.04925,1.02959,1.01653
143.567,14.310229999999999,-0.04925,1.02975,1.0164600000000001
143.667,14.313429999999999,-0.04925,1.03019,1.01639
143.767,14.316629999999998,-0.04925,1.03067,1.0163200000000001
143.867,14.31984,-0.04925,1.03088,1.01626
143.967,14.323039999999999,-0.04925,1.0306,1.01619
144.067,14.326239999999999,-0.04925,1.03007,1.0161200000000001
144.167,14.32945,-0.04925,1.02965,1.01605
144.267,14.33265,-0.04925,1.02966,1.0159799999999999
144.367,14.335870000000002,-0.04925,1.03011,1.01591
144.467,14.33908,-0.04925,1.0308700000000002,1.0158399999999999
144.567,14.342310000000001,-0.04924999,1.0318200000000002,1.01578
144.667,14.34554,-0.04924998,1.03281,1.0157100000000001
144.767,14.34876,-0.04924999,1.03367,1.0156399999999999
144.867,14.35196,-0.04925003,1.03424,1.01557
144.967,14.35515,-0.04925007,1.03451,1.0155
145.067,14.358329999999999,-0.04925005,1.0345600000000001,1.0154299999999998
145.167,14.36152,-0.04924992,1.0344799999999998,1.01536
145.267,14.36471,-0.04924976,1.03439,1.0153
145.367,14.36791,-0.04924978,1.03441,1.0152299999999999
145.467,14.37111,-0.0492502,1.0346799999999998,1.01516
145.567,14.374310000000001,-0.04925085,1.0352299999999999,1.01509
145.667,14.377510000000001,-0.04925091,1.03591,1.01502
145.767,14.3807,-0.04924954,1.0365799999999998,1.01495
145.867,14.3839,-0.04924708,1.03711,1.01489
145.967,14.387089999999999,-0.0492464,1.03746,1.01482
146.067,14.390279999999999,-0.04925065,1.03757,1.01475
146.167,14.393479999999998,-0.04925979,1.03746,1.01468
146.267,14.39667,-0.04926388,1.0373299999999999,1.01461
146.367,14.399870000000002,-0.04925109,1.03742,1.01455
146.467,14.40305,-0.04921776,1.03789,1.0144799999999998
146.567,14.406239999999999,-0.04919742,1.03854,1.01441
146.667,14.409429999999999,-0.04923414,1.0390700000000002,1.01434
146.767,14.412629999999998,-0.04936461,1.03925,1.01427
146.867,14.415820000000002,-0.04957457,1.03915,1.0142
146.967,14.419020000000002,-0.04982833,1.039,1.01414
147.067,14.4222,-0.0500903,1.03901,1.01407
147.167,14.425370000000001,-0.05032697,1.03922,1.014
147.267,14.42855,-0.05050605,1.03957,1.01393
147.367,14.43172,-0.05059726,1.04,1.01386
147.467,14.4349,-0.0506079,1.04049,1.0138
147.567,14.43808,-0.05057895,1.04106,1.01373
147.667,14.44126,-0.05055202,1.0417399999999999,1.01366
147.767,14.44444,-0.05054672,1.0424799999999999,1.01359
147.867,14.447629999999998,-0.05055365,1.04315,1.01352
147.967,14.450820000000002,-0.05056151,1.0436299999999998,1.01346
148.067,14.454020000000002,-0.05056361,1.04388,1.01339
148.167,14.457220000000001,-0.05056201,1.04401,1.01332
148.267,14.460410000000001,-0.05055978,1.04414,1.01325
148.367,14.46359,-0.05055904,1.0443799999999999,1.01318
148.467,14.46677,-0.05055939,1.04471,1.01312
148.567,14.46995,-0.05055999,1.04508,1.01305
148.667,14.47315,-0.05056021,1.04546,1.01298
148.767,14.476360000000001,-0.05056012,1.0457100000000001,1.01291
148.867,14.47957,-0.05056,1.0457,1.01284
148.967,14.48276,-0.05056008,1.04536,1.01278
149.067,14.48595,-0.05056021,1.04495,1.01271
149.167,14.489139999999999,-0.0505601,1.04488,1.01264
149.267,14.492329999999999,-0.05055957,1.0454700000000001,1.01257
149.367,14.495529999999999,-0.05055906,1.04647,1.01251
149.467,14.49872,-0.05055942,1.0472700000000001,1.01244
149.567,14.50191,-0.05056135,1.0473299999999999,1.01237
149.667,14.50509,-0.05056345,1.04674,1.0123
149.767,14.50828,-0.05056268,1.0461,1.01223
149.867,14.511470000000001,-0.05055623,1.0460399999999999,1.01217
149.967,14.514660000000001,-0.05054785,1.04664,1.0121
150.067,14.51786,-0.05054866,1.04744,1.01203
150.167,14.52106,-0.05056981,1.04795,1.01196
150.267,14.52426,-0.05060237,1.048,1.0119
150.367,14.52745,-0.0506062,1.04787,1.01183
150.467,14.53065,-0.05053857,1.04793,1.01176
150.567,14.53384,-0.05037823,1.04836,1.01169
150.667,14.53703,-0.05015157,1.04905,1.01163
150.767,14.540220000000001,-0.0498914,1.0498299999999998,1.01156
150.867,14.54341,-0.04963131,1.05056,1.01149
150.967,14.54659,-0.0494075,1.05118,1.01142
151.067,14.549779999999998,-0.04925667,1.05164,1.01136
151.167,14.552979999999998,-0.04920389,1.05193,1.01129
151.267,14.556170000000002,-0.04921704,1.0521,1.01122
151.367,14.55936,-0.0492465,1.05223,1.01115
151.467,14.562529999999999,-0.04924968,1.05241,1.01109
151.567,14.56569,-0.04923608,1.05273,1.01102
151.667,14.56885,-0.04923863,1.0533,1.01095
151.767,14.57201,-0.04928536,1.05421,1.01088
151.867,14.57518,-0.04933927,1.05531,1.01082
151.967,14.57836,-0.04931792,1.05627,1.01075
152.067,14.581539999999999,-0.04914159,1.0567799999999998,1.01068
152.167,14.58472,-0.04882152,1.0568899999999999,1.01061
152.267,14.58789,-0.04846395,1.0569600000000001,1.01055
152.367,14.59106,-0.04817864,1.05741,1.0104799999999998
152.467,14.59423,-0.04801852,1.0583200000000001,1.01041
152.567,14.597389999999999,-0.04794899,1.05936,1.01034
152.667,14.60056,-0.047928,1.06013,1.0102799999999998
152.767,14.60374,-0.04792326,1.06043,1.01021
152.867,14.606910000000001,-0.04792581,1.06054,1.01014
152.967,14.610079999999998,-0.04793008,1.06082,1.0100799999999999
153.067,14.61323,-0.0479318,1.06149,1.01001
153.167,14.61636,-0.04793134,1.06237,1.00994
153.267,14.619489999999999,-0.04793016,1.06316,1.00987
153.367,14.62261,-0.04792955,1.0636299999999999,1.00981
153.467,14.625739999999999,-0.04792959,1.0638100000000001,1.0097399999999999
153.567,14.628879999999999,-0.0479299,1.06385,1.00967
153.667,14.63204,-0.0479301,1.0639,1.0096100000000001
153.767,14.6352,-0.04793012,1.0640399999999999,1.0095399999999999
153.867,14.63836,-0.04793004,1.06428,1.00947
153.967,14.641520000000002,-0.04792997,1.06465,1.0094
154.067,14.644670000000001,-0.04792996,1.06511,1.00934
154.167,14.64781,-0.04792998,1.06555,1.0092700000000001
154.267,14.65095,-0.04793,1.06588,1.0092
154.367,14.654079999999999,-0.04793001,1.06608,1.00914
154.467,14.657229999999998,-0.04793,1.06629,1.0090700000000001
154.567,14.66039,-0.04793,1.06665,1.009
154.667,14.663570000000002,-0.04793,1.06725,1.00894
154.767,14.66676,-0.04793,1.06797,1.0088700000000002
154.867,14.66995,-0.04793,1.06867,1.0088
154.967,14.673110000000001,-0.04793,1.06923,1.00873
155.067,14.67627,-0.04793,1.0695700000000001,1.0086700000000002
155.167,14.679429999999998,-0.04793,1.06965,1.0086
155.267,14.6826,-0.04793,1.06944,1.00853
155.367,14.68578,-0.04793,1.0690899999999999,1.00847
155.467,14.68896,-0.04793,1.0688,1.0084
155.567,14.69214,-0.04793,1.06877,1.00833
155.667,14.695310000000001,-0.04793,1.06908,1.00827
155.767,14.698479999999998,-0.04793,1.0697,1.0082
155.867,14.70166,-0.04793,1.0706,1.00813
155.967,14.70486,-0.04793,1.0716299999999999,1.00807
156.067,14.708070000000001,-0.04793,1.07254,1.008
156.167,14.711279999999999,-0.04793,1.07305,1.00793
156.267,14.7145,-0.04793001,1.07315,1.00787
156.367,14.7177,-0.04793001,1.0731,1.0078
156.467,14.720889999999999,-0.04792999,1.0732,1.00773
156.567,14.724070000000001,-0.04792997,1.07359,1.00767
156.667,14.727229999999999,-0.04792996,1.0741,1.0076
156.767,14.730410000000001,-0.04793001,1.0745200000000001,1.00753
156.867,14.7336,-0.0479301,1.07475,1.00747
156.967,14.7368,-0.04793014,1.07483,1.0074
157.067,14.74,-0.04793,1.07489,1.0073299999999998
157.167,14.743210000000001,-0.04792966,1.07503,1.00727
157.267,14.746410000000001,-0.04792947,1.0754700000000001,1.0072
157.367,14.7496,-0.04792988,1.07643,1.0071299999999999
157.467,14.752770000000002,-0.04793112,1.0780399999999999,1.0070700000000001
157.567,14.75593,-0.04793202,1.0797299999999999,1.007
157.667,14.759079999999999,-0.04793093,1.08071,1.0069299999999999
157.767,14.76224,-0.04792666,1.08029,1.0068700000000002
157.867,14.765410000000001,-0.04792268,1.07893,1.0068
157.967,14.768579999999998,-0.04792516,1.0777700000000001,1.00673
158.067,14.77175,-0.04793946,1.07788,1.0066700000000002
158.167,14.77491,-0.04795603,1.07928,1.0066
158.267,14.778070000000001,-0.04795222,1.0810600000000001,1.00653
158.367,14.781229999999999,-0.04790607,1.0823200000000002,1.00647
158.467,14.784379999999999,-0.04783993,1.08266,1.0064
158.567,14.787529999999999,-0.04783546,1.08245,1.00634
158.667,14.7907,-0.04797821,1.0821100000000001,1.00627
158.767,14.793870000000002,-0.04830787,1.08194,1.0062
158.867,14.79705,-0.04876741,1.08208,1.00614
158.967,14.800229999999999,-0.04928751,1.08264,1.00607
159.067,14.80339,-0.04979982,1.08364,1.006
159.167,14.80654,-0.05023906,1.08483,1.00594
159.267,14.8097,-0.05054055,1.08591,1.00587
159.367,14.81284,-0.05065781,1.08661,1.0058
159.467,14.81599,-0.05064173,1.08701,1.0057399999999999
159.567,14.81915,-0.05057566,1.0872700000000002,1.00567
159.667,14.8223,-0.05053613,1.08754,1.0056100000000001
159.767,14.825460000000001,-0.0505359,1.08789,1.0055399999999999
159.867,14.82862,-0.05055288,1.0883,1.00547
159.967,14.831779999999998,-0.0505655,1.0887799999999999,1.0054100000000001
160.067,14.83494,-0.0505669,1.0893,1.00534
160.167,14.8381,-0.0505627,1.08986,1.00528
160.267,14.84125,-0.05055887,1.09043,1.00521
160.367,14.8444,-0.05055817,1.0909799999999998,1.00514
160.467,14.847560000000001,-0.05055916,1.09146,1.00508
160.567,14.85072,-0.05056014,1.0918299999999999,1.00501
160.667,14.853879999999998,-0.05056015,1.0921100000000001,1.00494
160.767,14.85705,-0.05055985,1.0925,1.00488
160.867,14.860220000000002,-0.05056005,1.09317,1.00481
160.967,14.863370000000002,-0.05056109,1.0942100000000001,1.00475
161.067,14.866520000000001,-0.05056172,1.09532,1.00468
161.167,14.869660000000001,-0.05056033,1.09609,1.00461
161.267,14.87282,-0.05055619,1.09626,1.00455
161.367,14.87597,-0.05055323,1.09616,1.0044799999999998
161.467,14.87912,-0.05055699,1.09637,1.00442
161.567,14.88226,-0.05057139,1.09735,1.00435
161.667,14.8854,-0.05058477,1.09885,1.0042799999999998
161.767,14.888539999999999,-0.05057676,1.10016,1.0042200000000001
161.867,14.89168,-0.05052938,1.10065,1.00415
161.967,14.894820000000001,-0.05047316,1.1003100000000001,1.00409
162.067,14.89797,-0.05048304,1.09978,1.0040200000000001
162.167,14.901129999999998,-0.05063424,1.09968,1.00396
162.267,14.904279999999998,-0.05093381,1.1002,1.00389
162.367,14.90744,-0.05128949,1.1008799999999999,1.0038200000000002
162.467,14.9106,-0.05160132,1.1011799999999998,1.00376
162.567,14.91376,-0.05180033,1.1008799999999999,1.00369
162.667,14.916910000000001,-0.05188877,1.10041,1.00363
162.767,14.92007,-0.0518788,1.10029,1.00356
162.867,14.923229999999998,-0.05178956,1.1008799999999999,1.00349
162.967,14.9264,-0.05166634,1.10196,1.0034299999999998
163.067,14.92956,-0.05156051,1.10315,1.00336
163.167,14.93271,-0.0515148,1.10415,1.0033
163.267,14.93585,-0.05151904,1.10486,1.0032299999999998
163.367,14.939,-0.05154308,1.10532,1.0031700000000001
163.467,14.94214,-0.0515587,1.10555,1.0031
163.567,14.94529,-0.05155967,1.10562,1.00304
163.667,14.94845,-0.0515534,1.10563,1.0029700000000001
163.767,14.951620000000002,-0.05154733,1.10568,1.0029
163.867,14.9548,-0.05154514,1.10585,1.00284
163.967,14.957970000000001,-0.05154688,1.1062299999999998,1.0027700000000002
164.067,14.961139999999999,-0.05155238,1.10689,1.00271
164.167,14.96429,-0.05155873,1.10778,1.00264
164.267,14.96744,-0.0515591,1.1086200000000002,1.00258
164.367,14.970579999999998,-0.05154637,1.1091600000000001,1.00251
164.467,14.973720000000002,-0.05152318,1.1092600000000001,1.00244
164.567,14.97686,-0.05151486,1.10917,1.0023799999999998
164.667,14.98,-0.05155,1.10915,1.00231
164.767,14.98315,-0.0516448,1.10942,1.00225
164.867,14.986310000000001,-0.05176604,1.10985,1.0021799999999998
164.967,14.989479999999999,-0.05186812,1.11026,1.0021200000000001
165.067,14.99265,-0.05191268,1.11048,1.00205
165.167,14.99581,-0.0519092,1.11064,1.00199
165.267,14.99898,-0.05188661,1.11093,1.0019200000000001
165.367,15.00213,-0.05187202,1.1115700000000002,1.00186
165.467,15.00526,-0.05187132,1.1124399999999999,1.00179
165.567,15.0084,-0.05187706,1.1132799999999998,1.00173
165.667,15.011529999999999,-0.05188174,1.11379,1.00166
165.767,15.01467,-0.05188247,1.11396,1.00159
165.867,15.01781,-0.0518811,1.1139700000000001,1.00153
165.967,15.02096,-0.05187967,1.11406,1.00146
166.067,15.02411,-0.05187932,1.11435,1.0014
166.167,15.02726,-0.05187962,1.11489,1.0013299999999998
166.267,15.03041,-0.05188004,1.11566,1.00127
166.367,15.03355,-0.05188018,1.11663,1.0012
166.467,15.03669,-0.05188012,1.11761,1.00114
166.567,15.039829999999998,-0.05188,1.11837,1.0010700000000001
166.667,15.04296,-0.05187996,1.11875,1.00101
166.767,15.04609,-0.05187998,1.11889,1.00094
166.867,15.049220000000002,-0.05188,1.1189799999999999,1.00088
166.967,15.05236,-0.05187997,1.11922,1.00081
167.067,15.055520000000001,-0.05187993,1.1195899999999999,1.00075
167.167,15.058670000000001,-0.05187995,1.12002,1.00068
167.267,15.061829999999999,-0.0518801,1.12039,1.00062
167.367,15.064979999999998,-0.05188028,1.12077,1.00055
167.467,15.068129999999998,-0.05188023,1.12129,1.0004899999999999
167.567,15.071279999999998,-0.05187973,1.12211,1.00042
167.667,15.07443,-0.05187902,1.1231799999999998,1.0003600000000001
167.767,15.077570000000001,-0.05187899,1.12421,1.00029
167.867,15.0807,-0.05188052,1.12489,1.00023
167.967,15.083820000000001,-0.05188326,1.12511,1.00016
168.067,15.086929999999999,-0.05188417,1.12516,1.0001
168.167,15.09005,-0.05187988,1.1254,1.00003
168.267,15.093179999999998,-0.05186982,1.12602,0.99997
168.367,15.09631,-0.05186406,1.12666,0.9999
168.467,15.09944,-0.05187522,1.1268200000000002,0.99984
168.567,15.10255,-0.05191592,1.1261,0.99977
168.667,15.10564,-0.05199878,1.12484,0.99971
168.767,15.10875,-0.05213638,1.1237,0.99964
168.867,15.111870000000001,-0.05233866,1.1232799999999998,0.9995799999999999
168.967,15.115029999999999,-0.05257543,1.12372,0.99951
169.067,15.118179999999999,-0.05278543,1.12476,0.99945
169.167,15.12134,-0.05290802,1.1261299999999999,0.9993799999999999
169.267,15.12447,-0.05293066,1.12755,0.9993200000000001
169.367,15.1276,-0.05289942,1.12868,0.99925
169.467,15.130729999999998,-0.05286378,1.12921,0.9991899999999999
169.567,15.133870000000002,-0.05285388,1.1291,0.9991200000000001
169.667,15.137,-0.05286066,1.12896,0.9990600000000001
169.767,15.140139999999999,-0.05287031,1.12943,0.9989899999999999
169.867,15.143279999999999,-0.0528727,1.13091,0.9989299999999999
169.967,15.14642,-0.05287064,1.13273,0.9988600000000001
170.067,15.149560000000001,-0.05286972,1.13405,0.9988
170.167,15.15269,-0.05287405,1.1341700000000001,0.9987299999999999
170.267,15.15582,-0.05287856,1.1334799999999998,0.9986700000000001
170.367,15.15894,-0.0528747,1.13277,0.99861
170.467,15.162070000000002,-0.05285572,1.13277,0.99854
170.567,15.1652,-0.05283618,1.13351,0.9984799999999999
170.667,15.168339999999999,-0.05284453,1.1346,0.99841
170.767,15.171479999999999,-0.05290818,1.1356,0.99835
170.867,15.174629999999999,-0.05302052,1.13626,0.99828
170.967,15.177779999999998,-0.0531382,1.13649,0.9982200000000001
171.067,15.18092,-0.05321635,1.13619,0.99815
171.167,15.18406,-0.05323549,1.1354799999999998,0.9980899999999999
171.267,15.1872,-0.05321989,1.13483,0.99802
171.367,15.19035,-0.05319814,1.1347200000000002,0.9979600000000001
171.467,15.193520000000001,-0.05319056,1.13543,0.9979
171.567,15.19669,-0.05319366,1.1366399999999999,0.9978299999999999
171.667,15.19984,-0.05319975,1.13788,0.99777
171.767,15.202960000000001,-0.05320249,1.1388,0.9977
171.867,15.20607,-0.05320203,1.13939,0.99764
171.967,15.20917,-0.05320038,1.13978,0.9975700000000001
172.067,15.212279999999998,-0.0531994,1.14008,0.99751
172.167,15.21541,-0.05319939,1.14044,0.99744
172.267,15.218539999999999,-0.05319981,1.1410200000000001,0.9973799999999999
172.367,15.221670000000001,-0.05320013,1.14198,0.9973200000000001
172.467,15.2248,-0.05320018,1.1432,0.99725
172.567,15.227929999999999,-0.05320007,1.1443299999999998,0.9971899999999999
172.667,15.23105,-0.05319997,1.1450200000000001,0.9971200000000001
172.767,15.234160000000001,-0.05319995,1.14517,0.9970600000000001
172.867,15.237279999999998,-0.05319997,1.14509,0.9969899999999999
172.967,15.2404,-0.0532,1.1451200000000001,0.9969299999999999
173.067,15.243529999999998,-0.05320001,1.14549,0.9968600000000001
173.167,15.24665,-0.05320001,1.14619,0.9968
173.267,15.24978,-0.0532,1.14715,0.99674
173.367,15.2529,-0.0532,1.1482700000000001,0.9966700000000001
173.467,15.256020000000001,-0.0532,1.14939,0.99661
173.567,15.259139999999999,-0.0532,1.15029,0.99654
173.667,15.262270000000001,-0.0532,1.1508,0.9964799999999999
173.767,15.2654,-0.0532,1.15097,0.9964200000000001
173.867,15.26852,-0.0532,1.15094,0.99635
173.967,15.27164,-0.0532,1.15086,0.99629
174.067,15.27474,-0.0532,1.1508200000000002,0.9962200000000001
174.167,15.27784,-0.0532,1.15078,0.99616
174.267,15.28095,-0.0532,1.15075,0.9960899999999999
174.367,15.284070000000002,-0.0532,1.15075,0.99603
174.467,15.2872,-0.0532,1.15087,0.99597
174.567,15.290329999999999,-0.0532,1.15124,0.9959
174.667,15.293470000000001,-0.0532,1.15186,0.99584
174.767,15.2966,-0.0532,1.15256,0.99577
174.867,15.29972,-0.0532,1.15309,0.99571
174.967,15.302829999999998,-0.0532,1.1532799999999999,0.99565
175.067,15.30595,-0.0532,1.15337,0.9955799999999999
175.167,15.30906,-0.0532,1.15371,0.9955200000000001
175.267,15.312170000000002,-0.0532,1.1546100000000001,0.99545
175.367,15.31529,-0.0532,1.15585,0.99539
175.467,15.31841,-0.0532,1.1569,0.9953299999999999
175.567,15.321539999999999,-0.0532,1.15726,0.99526
175.667,15.324679999999999,-0.05320001,1.1569200000000002,0.9952
175.767,15.327810000000001,-0.05320001,1.15635,0.99513
175.867,15.33095,-0.05319999,1.1560700000000002,0.9950700000000001
175.967,15.33409,-0.05319998,1.15631,0.9950100000000001
176.067,15.33722,-0.05319997,1.15688,0.9949399999999999
176.167,15.34035,-0.05320001,1.15754,0.9948799999999999
176.267,15.343470000000002,-0.05320008,1.15811,0.99482
176.367,15.346589999999999,-0.05320011,1.15858,0.99475
176.467,15.3497,-0.05320002,1.159,0.99469
176.567,15.352820000000001,-0.05319977,1.15941,0.9946200000000001
176.667,15.355939999999999,-0.05319959,1.15993,0.99456
176.767,15.359079999999999,-0.05319981,1.16068,0.9945
176.867,15.36222,-0.05320067,1.16177,0.9944299999999999
176.967,15.36536,-0.05320147,1.16299,0.9943700000000001
177.067,15.3685,-0.05320102,1.16396,0.99431
177.167,15.371620000000002,-0.05319822,1.16431,0.99424
177.267,15.37473,-0.05319479,1.16408,0.99418
177.367,15.37783,-0.05319513,1.1636799999999998,0.99411
177.467,15.380939999999999,-0.05320389,1.16352,0.99405
177.567,15.38406,-0.05323874,1.1637899999999999,0.9939899999999999
177.667,15.387189999999999,-0.05333933,1.16428,0.99392
177.767,15.390320000000001,-0.0535474,1.16475,0.9938600000000001
177.867,15.39345,-0.05387152,1.16501,0.9938
177.967,15.396579999999998,-0.05422239,1.16516,0.9937299999999999
178.067,15.39971,-0.0544927,1.1653,0.99367
178.167,15.402829999999998,-0.05459871,1.16556,0.99361
178.267,15.40595,-0.05458144,1.16606,0.99354
178.367,15.409070000000002,-0.05452313,1.1669200000000002,0.9934799999999999
178.467,15.412189999999999,-0.0544989,1.1682299999999999,0.99341
178.567,15.41531,-0.05451123,1.1697799999999998,0.99335
178.667,15.418429999999999,-0.05451995,1.17116,0.99329
178.767,15.421529999999999,-0.05448675,1.17201,0.9932200000000001
178.867,15.42462,-0.0544307,1.1722700000000001,0.99316
178.967,15.427710000000001,-0.05442918,1.1722700000000001,0.9931
179.067,15.430810000000001,-0.05456164,1.17232,0.99303
179.167,15.433929999999998,-0.0548482,1.17261,0.99297
179.267,15.43706,-0.05519717,1.1730399999999999,0.9929100000000001
179.367,15.440179999999998,-0.0555045,1.1735,0.99284
179.467,15.44329,-0.05569428,1.17391,0.9927799999999999
179.567,15.44638,-0.05578561,1.17439,0.99272
179.667,15.44948,-0.05581765,1.17508,0.99265
179.767,15.452570000000001,-0.05582631,1.17608,0.99259
179.867,15.455670000000001,-0.05582584,1.17715,0.9925299999999999
179.967,15.458770000000001,-0.05582157,1.17795,0.99246
180.067,15.461870000000001,-0.05581858,1.17815,0.9924
180.167,15.464979999999999,-0.05581828,1.1778899999999999,0.99234
180.267,15.46809,-0.05581932,1.1776799999999998,0.9922700000000001
180.367,15.4712,-0.05582028,1.17803,0.99221
180.467,15.474310000000001,-0.05582049,1.1790399999999999,0.99215
180.567,15.47741,-0.05582026,1.18025,0.99208
180.667,15.48051,-0.05581996,1.18118,0.9920200000000001
180.767,15.483620000000002,-0.05581987,1.18157,0.9919600000000001
180.867,15.486720000000002,-0.05581991,1.18173,0.9918899999999999
180.967,15.489820000000002,-0.05582,1.18204,0.9918299999999999
181.067,15.49293,-0.05582003,1.18277,0.99177
181.167,15.49603,-0.05582003,1.18356,0.9917100000000001
181.267,15.499120000000001,-0.05582,1.1839,0.99164
181.367,15.50221,-0.05581999,1.1833200000000001,0.9915799999999999
181.467,15.5053,-0.05581999,1.18213,0.9915200000000001
181.567,15.508389999999999,-0.05582,1.18109,0.99145
181.667,15.511479999999999,-0.05582,1.18092,0.99139
181.767,15.514579999999999,-0.05581999,1.18179,0.9913299999999999
181.867,15.517679999999999,-0.05581999,1.18327,0.99126
181.967,15.52077,-0.05582,1.1849,0.9912
182.067,15.52386,-0.05582003,1.18628,0.9911399999999999
182.167,15.52694,-0.05582004,1.18709,0.9910700000000001
182.267,15.53002,-0.05582,1.18702,0.9910100000000001
182.367,15.5331,-0.05581991,1.1859600000000001,0.99095
182.467,15.5362,-0.05581986,1.18461,0.9908899999999999
182.567,15.53929,-0.05581995,1.18385,0.99082
182.667,15.54239,-0.05582025,1.1844299999999999,0.9907600000000001
182.767,15.54549,-0.05582051,1.186,0.9907
182.867,15.548589999999999,-0.05582033,1.1877,0.9906299999999999
182.967,15.551689999999999,-0.05581937,1.1886700000000001,0.9905700000000001
183.067,15.5548,-0.05581823,1.18882,0.99051
183.167,15.5579,-0.05581839,1.18868,0.99045
183.267,15.560989999999999,-0.0558213,1.1888100000000001,0.9903799999999999
183.367,15.564070000000001,-0.05582588,1.1894200000000001,0.9903200000000001
183.467,15.56715,-0.05582695,1.1901700000000002,0.99026
183.567,15.570229999999999,-0.05581897,1.19068,0.99019
183.667,15.573310000000001,-0.05578985,1.19074,0.99013
183.767,15.5764,-0.05570647,1.19068,0.9900700000000001
183.867,15.579479999999998,-0.05553153,1.19097,0.9900100000000001
183.967,15.58255,-0.05524067,1.1919600000000001,0.9899399999999999
184.067,15.58562,-0.05489667,1.19331,0.98988
184.167,15.5887,-0.05459821,1.19436,0.98982
184.267,15.59179,-0.0544385,1.1945299999999999,0.98975
184.367,15.59489,-0.05442028,1.19395,0.98969
184.467,15.59799,-0.05447269,1.19334,0.9896299999999999
184.567,15.60109,-0.0545234,1.19344,0.9895700000000001
184.667,15.604170000000002,-0.05453541,1.19448,0.9895
184.767,15.60726,-0.05452401,1.19595,0.98944
184.867,15.61035,-0.05450868,1.19727,0.9893799999999999
184.967,15.61345,-0.05450323,1.19807,0.9893200000000001
185.067,15.61655,-0.0545053,1.19852,0.98925
185.167,15.619660000000001,-0.05450961,1.19887,0.98919
185.267,15.622760000000001,-0.05451172,1.19934,0.98913
185.367,15.625860000000001,-0.05451149,1.19995,0.9890700000000001
185.467,15.62895,-0.05451035,1.2006299999999999,0.989
185.567,15.63205,-0.0545096,1.2013200000000002,0.9889399999999999
185.667,15.63515,-0.05450956,1.20189,0.98888
185.767,15.63825,-0.05450984,1.20222,0.98882
185.867,15.641329999999998,-0.05451008,1.2021600000000001,0.98875
185.967,15.644420000000002,-0.05451012,1.20179,0.98869
186.067,15.6475,-0.05451005,1.2014200000000002,0.9886299999999999
186.167,15.65059,-0.05451,1.20139,0.9885700000000001
186.267,15.65369,-0.05451002,1.20186,0.9885
186.367,15.656789999999999,-0.05451004,1.20259,0.98844
186.467,15.6599,-0.05451,1.20329,0.9883799999999999
186.567,15.663,-0.05450986,1.20371,0.9883200000000001
186.667,15.6661,-0.05450976,1.20386,0.98825
186.767,15.6692,-0.0545099,1.20379,0.98819
186.867,15.6723,-0.05451042,1.20355,0.98813
186.967,15.6754,-0.05451091,1.20327,0.9880700000000001
187.067,15.67849,-0.05451063,1.20306,0.988
187.167,15.681579999999999,-0.05450895,1.20308,0.9879399999999999
187.267,15.68465,-0.05450686,1.2033200000000002,0.98788
187.367,15.687729999999998,-0.05450697,1.2037200000000001,0.98782
187.467,15.69081,-0.05451189,1.20417,0.98775
187.567,15.69391,-0.05452014,1.2046299999999999,0.98769
187.667,15.69701,-0.05452257,1.20516,0.9876299999999999
187.767,15.7001,-0.0545092,1.20584,0.9875700000000001
187.867,15.70319,-0.05447869,1.20668,0.98751
187.967,15.70628,-0.05446111,1.2075799999999999,0.98744
188.067,15.70936,-0.05449362,1.2083899999999999,0.9873799999999999
188.167,15.712439999999999,-0.05460828,1.20899,0.9873200000000001
188.267,15.715520000000001,-0.05479847,1.20945,0.98726
188.367,15.7186,-0.05503991,1.20989,0.98719
188.467,15.72168,-0.05530753,1.21044,0.98713
188.567,15.72476,-0.05556227,1.21109,0.9870700000000001
188.667,15.727839999999999,-0.05575273,1.2117200000000001,0.98701
188.767,15.730929999999999,-0.05582783,1.2122,0.98695
188.867,15.734010000000001,-0.05579439,1.21246,0.98688
188.967,15.7371,-0.05575705,1.2126,0.98682
189.067,15.74019,-0.05582988,1.21271,0.9867600000000001
189.167,15.74329,-0.05608161,1.21288,0.9867
189.267,15.746379999999998,-0.05643021,1.21316,0.98664
189.367,15.74947,-0.05676242,1.21361,0.9865700000000001
189.467,15.75255,-0.05698002,1.21428,0.98651
189.567,15.75562,-0.057087,1.2151399999999999,0.98645
189.667,15.7587,-0.05712987,1.2161600000000001,0.98639
189.767,15.76179,-0.05715326,1.21728,0.9863299999999999
189.867,15.764879999999998,-0.05716919,1.2182899999999999,0.98626
189.967,15.767970000000002,-0.05716318,1.21884,0.9862
190.067,15.77106,-0.05712055,1.21858,0.98614
190.167,15.77414,-0.05705954,1.21757,0.98608
190.267,15.777220000000002,-0.0570479,1.2164700000000002,0.9860200000000001
190.367,15.780289999999999,-0.05715746,1.2159799999999998,0.98595
190.467,15.78336,-0.05742278,1.21653,0.9858899999999999
190.567,15.786439999999999,-0.05776577,1.21779,0.9858299999999999
190.667,15.78951,-0.0580872,1.2192399999999999,0.98577
190.767,15.79258,-0.05830137,1.22044,0.9857100000000001
190.867,15.79565,-0.05841075,1.2213200000000002,0.98564
190.967,15.798720000000001,-0.05845312,1.22197,0.9855799999999999
191.067,15.8018,-0.05846526,1.2224700000000002,0.9855200000000001
191.167,15.804879999999999,-0.05846665,1.22282,0.98546
191.267,15.807979999999999,-0.05846284,1.223,0.9854
191.367,15.81107,-0.05845895,1.22298,0.98534
191.467,15.814160000000001,-0.05845775,1.22281,0.9852700000000001
191.567,15.81725,-0.05845851,1.22272,0.98521
191.667,15.82034,-0.0584602,1.2229299999999999,0.98515
191.767,15.82342,-0.05846177,1.22356,0.9850899999999999
191.867,15.8265,-0.05846221,1.22431,0.98503
191.967,15.82957,-0.05846047,1.22482,0.9849700000000001
192.067,15.83264,-0.05845619,1.2248299999999999,0.9849
192.167,15.83571,-0.05845298,1.2245,0.9848399999999999
192.267,15.838779999999998,-0.05845596,1.22419,0.9847799999999999
192.367,15.84185,-0.05847145,1.22422,0.98472
192.467,15.844920000000002,-0.05852352,1.22464,0.9846600000000001
192.567,15.848,-0.05864982,1.22528,0.9846
192.667,15.851070000000002,-0.05888736,1.22595,0.9845299999999999
192.767,15.85414,-0.05922076,1.22658,0.9844700000000001
192.867,15.857220000000002,-0.05955675,1.22722,0.98441
192.967,15.860289999999999,-0.05979574,1.22795,0.98435
193.067,15.863370000000002,-0.05987578,1.2288299999999999,0.98429
193.167,15.86645,-0.05984866,1.22981,0.9842299999999999
193.267,15.869539999999999,-0.05978757,1.23084,0.98416
193.367,15.872620000000001,-0.05975619,1.23187,0.9841
193.467,15.8757,-0.05975826,1.23275,0.9840399999999999
193.567,15.878789999999999,-0.05977421,1.23328,0.98398
193.667,15.881870000000001,-0.05978535,1.23329,0.9839200000000001
193.767,15.88495,-0.05978649,1.23288,0.9838600000000001
193.867,15.888029999999999,-0.05978264,1.23235,0.9838
193.967,15.891110000000001,-0.05977903,1.2319799999999999,0.9837299999999999
194.067,15.89419,-0.05977826,1.23197,0.98367
194.167,15.897260000000001,-0.0597791,1.23231,0.98361
194.267,15.900329999999999,-0.05978007,1.23299,0.98355
194.367,15.90339,-0.05978016,1.23397,0.98349
194.467,15.90645,-0.05977986,1.23515,0.9834299999999999
194.567,15.909510000000001,-0.05977991,1.2363899999999999,0.9833700000000001
194.667,15.91257,-0.05978084,1.23758,0.9833
194.767,15.915629999999998,-0.05978174,1.23863,0.98324
194.867,15.91869,-0.05978111,1.23945,0.9831799999999999
194.967,15.92176,-0.05977766,1.23996,0.9831200000000001
195.067,15.92482,-0.05977365,1.2401799999999998,0.98306
195.167,15.92789,-0.05977423,1.2402,0.983
195.267,15.93097,-0.05978453,1.24011,0.9829399999999999
195.367,15.93405,-0.05980078,1.24001,0.98288
195.467,15.937129999999998,-0.05980474,1.23995,0.9828100000000001
195.567,15.9402,-0.05977681,1.2400200000000001,0.98275
195.667,15.943270000000002,-0.05971599,1.2402600000000001,0.98269
195.767,15.94633,-0.05968228,1.24065,0.9826299999999999
195.867,15.94938,-0.05974826,1.24112,0.98257
195.967,15.95245,-0.05997182,1.24165,0.98251
196.067,15.95551,-0.0603022,1.24225,0.98245
196.167,15.95859,-0.06063978,1.24299,0.98239
196.267,15.96166,-0.06088836,1.2439200000000001,0.9823299999999999
196.367,15.964739999999999,-0.06102175,1.24492,0.98226
196.467,15.96781,-0.06107686,1.24569,0.9822
196.567,15.970870000000001,-0.06109271,1.24594,0.98214
196.667,15.973920000000001,-0.06109646,1.24563,0.98208
196.767,15.97696,-0.06109423,1.2451299999999998,0.9820200000000001
196.867,15.979989999999999,-0.06109001,1.24485,0.98196
196.967,15.983020000000002,-0.06108718,1.2451,0.9819
197.067,15.98605,-0.06108666,1.24576,0.9818399999999999
197.167,15.98908,-0.06108878,1.24658,0.9817799999999999
197.267,15.9921,-0.06109353,1.24735,0.9817100000000001
197.367,15.99513,-0.06109767,1.24794,0.98165
197.467,15.998170000000002,-0.06109599,1.24832,0.98159
197.567,16.00122,-0.06108354,1.24843,0.9815299999999999
197.667,16.004279999999998,-0.06106618,1.2483899999999999,0.9814700000000001
197.767,16.00735,-0.0610639,1.2484600000000001,0.98141
197.867,16.01043,-0.06109756,1.2489700000000001,0.98135
197.967,16.01349,-0.06116383,1.2500200000000001,0.98129
198.067,16.01655,-0.06119506,1.25127,0.9812299999999999
198.167,16.0196,-0.06111306,1.25229,0.9811700000000001
198.267,16.02264,-0.06086167,1.25275,0.98111
198.367,16.02567,-0.06051537,1.25274,0.9810399999999999
198.467,16.02871,-0.06019662,1.25254,0.98098
198.567,16.03177,-0.06002147,1.2524,0.9809200000000001
198.667,16.03484,-0.06000026,1.2525,0.9808600000000001
198.767,16.03791,-0.06005698,1.25294,0.9808
198.867,16.040979999999998,-0.06011366,1.25381,0.98074
198.967,16.04404,-0.06012827,1.25502,0.9806799999999999
199.067,16.0471,-0.06011652,1.25621,0.98062
199.167,16.05015,-0.06009935,1.25699,0.98056
199.267,16.0532,-0.06009257,1.25714,0.9805
199.367,16.05626,-0.06009437,1.25698,0.98044
199.467,16.05933,-0.06009912,1.2569700000000001,0.9803799999999999
199.567,16.06241,-0.06010178,1.25748,0.9803200000000001
199.667,16.0655,-0.06010174,1.2582799999999998,0.98025
199.767,16.06859,-0.06010053,1.25882,0.98019
199.867,16.071679999999997,-0.06009961,1.2586,0.98013
199.967,16.07477,-0.06009949,1.2577399999999999,0.9800700000000001
200.067,16.07786,-0.06009978,1.25694,0.98001
200.167,16.08095,-0.06010007,1.2568700000000002,0.97995
200.267,16.08405,-0.06010014,1.25775,0.9798899999999999
200.367,16.08715,-0.06010008,1.259,0.97983
200.467,16.09025,-0.0601,1.25996,0.97977
200.567,16.093329999999998,-0.06009997,1.2601799999999999,0.9797100000000001
200.667,16.0964,-0.06009998,1.2599799999999999,0.97965
200.767,16.09946,-0.0601,1.25977,0.97959
200.867,16.102520000000002,-0.06009999,1.25994,0.9795299999999999
200.967,16.10559,-0.06009997,1.2603600000000001,0.9794700000000001
201.067,16.10865,-0.06009998,1.26073,0.97941
201.167,16.111729999999998,-0.06010005,1.26075,0.97935
201.267,16.114810000000002,-0.06010013,1.2604899999999999,0.97929
201.367,16.11789,-0.06010012,1.26033,0.9792200000000001
201.467,16.12096,-0.06009991,1.26064,0.97916
201.567,16.124029999999998,-0.06009958,1.26156,0.9791
201.667,16.1271,-0.06009949,1.2628,0.9790399999999999
201.767,16.13017,-0.06010005,1.26405,0.97898
201.867,16.13324,-0.06010129,1.26504,0.9789200000000001
201.967,16.13632,-0.06010198,1.26569,0.9788600000000001
202.067,16.13939,-0.06010064,1.26597,0.9788
202.167,16.14246,-0.06009638,1.26585,0.9787399999999999
202.267,16.14551,-0.06009272,1.26559,0.9786799999999999
202.367,16.14856,-0.06009514,1.26552,0.97862
202.467,16.1516,-0.0601085,1.26597,0.97856
202.567,16.15464,-0.06012484,1.26691,0.9785
202.667,16.15769,-0.06012421,1.26796,0.97844
202.767,16.16074,-0.06008645,1.26874,0.9783799999999999
202.867,16.16381,-0.06002157,1.26911,0.9783200000000001
202.967,16.16688,-0.05999928,1.26939,0.97826
203.067,16.16994,-0.06009631,1.2699799999999999,0.9782
203.167,16.17299,-0.06035915,1.27111,0.97814
203.267,16.17604,-0.06070577,1.27231,0.97808
203.367,16.17909,-0.06102007,1.27295,0.9780200000000001
203.467,16.18215,-0.06119881,1.2724799999999998,0.97796
203.567,16.18521,-0.06127053,1.27118,0.9779
203.667,16.188270000000003,-0.06134078,1.2698399999999999,0.9778399999999999
203.767,16.191329999999997,-0.06151348,1.26924,0.97778
203.867,16.19438,-0.06180924,1.26962,0.97772
203.967,16.197429999999997,-0.06215007,1.2705899999999999,0.9776600000000001
204.067,16.20049,-0.06245238,1.2717200000000002,0.9776
204.167,16.20355,-0.06265973,1.2726899999999999,0.97754
204.267,16.20661,-0.06278364,1.27342,0.9774799999999999
204.367,16.209670000000003,-0.06284606,1.27388,0.9774200000000001
204.467,16.21273,-0.06286805,1.27405,0.97736
204.567,16.21579,-0.06286584,1.27404,0.9773
204.667,16.21884,-0.06285399,1.27398,0.97724
204.767,16.2219,-0.0628463,1.27401,0.9771799999999999
204.867,16.22495,-0.06284604,1.2742200000000001,0.9771200000000001
204.967,16.22801,-0.06284878,1.27461,0.97706
205.067,16.231070000000003,-0.06284999,1.27524,0.977
205.167,16.23414,-0.06284834,1.27607,0.9769399999999999
205.267,16.23721,-0.06284726,1.2769700000000002,0.97688
205.367,16.24028,-0.06285058,1.27783,0.97682
205.467,16.24334,-0.06285899,1.27855,0.9767600000000001
205.567,16.2464,-0.06286368,1.27915,0.9767
205.667,16.24946,-0.06285402,1.27966,0.97664
205.767,16.25251,-0.06282396,1.28011,0.9765799999999999
205.867,16.255570000000002,-0.06279884,1.2805,0.97652
205.967,16.25862,-0.06281723,1.28083,0.97646
206.067,16.26168,-0.06291585,1.2811,0.9764
206.167,16.26475,-0.0630961,1.2813700000000001,0.97634
206.267,16.26781,-0.06332846,1.28175,0.9762799999999999
206.367,16.270870000000002,-0.06358233,1.28239,0.9762200000000001
206.467,16.27392,-0.06382732,1.2832700000000001,0.97616
206.567,16.276970000000002,-0.06403338,1.2842,0.9761
206.667,16.28002,-0.06417052,1.28494,0.97604
206.767,16.283070000000002,-0.06422029,1.28534,0.97598
206.867,16.28613,-0.06420981,1.28549,0.9759200000000001
206.967,16.289189999999998,-0.06417739,1.28556,0.9758600000000001
207.067,16.29225,-0.06415809,1.2857100000000001,0.9758
207.167,16.29531,-0.06415754,1.28598,0.9757399999999999
207.267,16.29836,-0.06416565,1.28637,0.9756799999999999
207.367,16.30141,-0.06417239,1.28685,0.97562
207.467,16.304470000000002,-0.06417365,1.28738,0.97556
207.567,16.30752,-0.06417184,1.28789,0.9755
207.667,16.310570000000002,-0.0641697,1.2882799999999999,0.97544
207.767,16.31362,-0.06416903,1.28849,0.9753799999999999
207.867,16.316670000000002,-0.06416937,1.28846,0.9753200000000001
207.967,16.31972,-0.06416996,1.28814,0.97526
208.067,16.322770000000002,-0.06417018,1.2875299999999998,0.9752
208.167,16.32582,-0.06417009,1.2868600000000001,0.97514
208.267,16.328879999999998,-0.06416999,1.28645,0.97508
208.367,16.33194,-0.06417013,1.2865799999999998,0.9750200000000001
208.467,16.335,-0.0641704,1.28721,0.97496
208.567,16.338060000000002,-0.06417037,1.28807,0.9749
208.667,16.34112,-0.06416963,1.2888899999999999,0.9748399999999999
208.767,16.344179999999998,-0.06416849,1.2894700000000001,0.97478
208.867,16.34723,-0.06416826,1.2897299999999998,0.9747299999999999
208.967,16.350279999999998,-0.06417032,1.2896100000000001,0.97467
209.067,16.35333,-0.06417466,1.2891299999999999,0.9746100000000001
209.167,16.35639,-0.06417696,1.28863,0.97455
209.267,16.35944,-0.06417207,1.2885,0.97449
209.367,16.3625,-0.06415191,1.28904,0.9744299999999999
209.467,16.365560000000002,-0.06408781,1.29005,0.9743700000000001
209.567,16.36862,-0.0639423,1.29112,0.97431
209.667,16.371679999999998,-0.06368167,1.29183,0.97425
209.767,16.37474,-0.06334131,1.29213,0.97419
209.867,16.3778,-0.06301749,1.2923200000000001,0.9741299999999999
209.967,16.380860000000002,-0.06280794,1.2926600000000001,0.9740700000000001
210.067,16.38393,-0.06275315,1.29328,0.97401
210.167,16.387,-0.06279155,1.2940399999999999,0.97395
210.267,16.390060000000002,-0.06285098,1.29473,0.9738899999999999
210.367,16.39311,-0.06287551,1.2952299999999999,0.97383
210.467,16.396160000000002,-0.06287002,1.29555,0.97377
210.567,16.3992,-0.06285368,1.29572,0.9737100000000001
210.667,16.402260000000002,-0.06284399,1.2958,0.9736600000000001
210.767,16.40532,-0.06284373,1.29585,0.9736
210.867,16.408379999999998,-0.06284783,1.29593,0.97354
210.967,16.41144,-0.06285123,1.29611,0.9734799999999999
211.067,16.41449,-0.0628519,1.29639,0.9734200000000001
211.167,16.41754,-0.06285099,1.29674,0.97336
211.267,16.42059,-0.06284981,1.2971,0.9733
211.367,16.42363,-0.06284928,1.29746,0.97324
211.467,16.42667,-0.06284937,1.29792,0.9731799999999999
211.567,16.42972,-0.06284993,1.29857,0.9731200000000001
211.667,16.432760000000002,-0.06285074,1.2994700000000001,0.97306
211.767,16.43581,-0.06285121,1.30045,0.973
211.867,16.438860000000002,-0.06285063,1.3012299999999999,0.9729399999999999
211.967,16.44191,-0.06284844,1.30158,0.9728899999999999
212.067,16.444960000000002,-0.06284614,1.30152,0.97283
212.167,16.44801,-0.06284668,1.30126,0.97277
212.267,16.451060000000002,-0.06285297,1.30103,0.9727100000000001
212.367,16.45411,-0.06286248,1.3009700000000002,0.97265
212.467,16.457160000000002,-0.06286459,1.3010899999999999,0.97259
212.567,16.46021,-0.06284803,1.30138,0.9725299999999999
212.667,16.463260000000002,-0.06281236,1.30185,0.9724700000000001
212.767,16.4663,-0.06279241,1.30247,0.97241
212.867,16.46934,-0.06283022,1.30319,0.97235
212.967,16.472379999999998,-0.06296511,1.304,0.97229
213.067,16.47542,-0.06321567,1.3047600000000001,0.97224
213.167,16.478460000000002,-0.06359075,1.30536,0.9721799999999999
213.267,16.48151,-0.06409636,1.30566,0.9721200000000001
213.367,16.48457,-0.06467299,1.30568,0.97206
213.467,16.48763,-0.06519479,1.30561,0.972
213.567,16.490679999999998,-0.06553343,1.30564,0.9719399999999999
213.667,16.49371,-0.06563137,1.30588,0.97188
213.767,16.49674,-0.0655791,1.30634,0.9718200000000001
213.867,16.49977,-0.06548567,1.30698,0.9717600000000001
213.967,16.50281,-0.06544192,1.30777,0.9717
214.067,16.505860000000002,-0.06544714,1.30857,0.97165
214.167,16.5089,-0.06547194,1.30925,0.97159
214.267,16.51195,-0.06548856,1.30964,0.9715299999999999
214.367,16.51499,-0.06549011,1.30974,0.9714700000000001
214.467,16.51803,-0.06548415,1.3096299999999998,0.97141
214.567,16.52107,-0.0654785,1.3094,0.97135
214.667,16.52413,-0.0654771,1.30921,0.97129
214.767,16.527179999999998,-0.06547834,1.3093299999999999,0.9712299999999999
214.867,16.53024,-0.06548011,1.31002,0.9711700000000001
214.967,16.53329,-0.06548085,1.3114299999999999,0.9711200000000001
215.067,16.53633,-0.06548071,1.31316,0.97106
215.167,16.53937,-0.06548013,1.31477,0.971
215.267,16.54241,-0.06547958,1.31585,0.9709399999999999
215.367,16.54545,-0.06547933,1.31643,0.97088
215.467,16.54849,-0.06547961,1.31673,0.9708200000000001
215.567,16.55153,-0.06548058,1.3169899999999999,0.9707600000000001
215.667,16.554579999999998,-0.0654817,1.31725,0.9707
215.767,16.55762,-0.06548167,1.31738,0.97065
215.867,16.560660000000002,-0.06547919,1.3172700000000002,0.97059
215.967,16.5637,-0.06547482,1.31689,0.9705299999999999
216.067,16.56673,-0.06547308,1.31651,0.97047
216.167,16.569760000000002,-0.06547904,1.3164,0.97041
216.267,16.572779999999998,-0.06549463,1.31676,0.97035
216.367,16.57581,-0.06550604,1.31741,0.97029
216.467,16.57884,-0.06549442,1.31805,0.97024
216.567,16.581879999999998,-0.0654445,1.31837,0.9701799999999999
216.667,16.58494,-0.06539028,1.31841,0.9701200000000001
216.767,16.587989999999998,-0.06540186,1.3184,0.97006
216.867,16.59104,-0.06554907,1.3185799999999999,0.97
216.967,16.594079999999998,-0.06583888,1.3190899999999999,0.9699399999999999
217.067,16.59712,-0.06618257,1.31984,0.96988
217.167,16.60016,-0.06648337,1.32073,0.96983
217.267,16.60322,-0.06667061,1.32165,0.96977
217.367,16.606279999999998,-0.06676259,1.32239,0.9697100000000001
217.467,16.60932,-0.06679657,1.3227,0.96965
217.567,16.61236,-0.06680719,1.3224200000000002,0.96959
217.667,16.615370000000002,-0.06680823,1.3218299999999998,0.9695299999999999
217.767,16.618389999999998,-0.06680354,1.3214,0.96947
217.867,16.62141,-0.0667969,1.32162,0.9694200000000001
217.967,16.62445,-0.06679206,1.32254,0.96936
218.067,16.627489999999998,-0.0667927,1.32379,0.9693
218.167,16.63053,-0.06680252,1.32494,0.96924
218.267,16.633570000000002,-0.06681923,1.32571,0.9691799999999999
218.367,16.63661,-0.06682631,1.32616,0.9691200000000001
218.467,16.63965,-0.06680516,1.32637,0.9690700000000001
218.567,16.64268,-0.06674743,1.32644,0.96901
218.667,16.64572,-0.0667032,1.3264799999999999,0.96895
218.767,16.64876,-0.06674321,1.32657,0.9688899999999999
218.867,16.6518,-0.06693237,1.32682,0.96883
218.967,16.65485,-0.06724574,1.3272,0.96877
219.067,16.65789,-0.06758773,1.3276299999999999,0.96872
219.167,16.66094,-0.06786153,1.32799,0.9686600000000001
219.267,16.66398,-0.06801822,1.32826,0.9686
219.367,16.66703,-0.06808842,1.32849,0.96854
219.467,16.670070000000003,-0.06811025,1.32873,0.9684799999999999
219.567,16.67312,-0.06811578,1.32904,0.9684200000000001
219.667,16.67616,-0.06811454,1.3293700000000002,0.9683700000000001
219.767,16.6792,-0.06811084,1.32969,0.96831
219.867,16.68223,-0.06810862,1.32996,0.96825
219.967,16.68525,-0.06810853,1.3302399999999999,0.96819
220.067,16.68828,-0.06810945,1.33066,0.9681299999999999
220.167,16.69131,-0.06811027,1.33132,0.9680700000000001
220.267,16.69435,-0.06811048,1.3322,0.9680200000000001
220.367,16.69739,-0.06811028,1.33305,0.96796
220.467,16.70044,-0.06810995,1.33366,0.9679
220.567,16.70349,-0.0681097,1.33388,0.9678399999999999
220.667,16.70654,-0.06810965,1.3339299999999998,0.96778
220.767,16.70959,-0.06810993,1.33402,0.96773
220.867,16.71264,-0.06811055,1.33435,0.96767
220.967,16.71568,-0.068111,1.3347200000000001,0.9676100000000001
221.067,16.718729999999997,-0.06811059,1.3348200000000001,0.96755
221.167,16.72176,-0.06810872,1.33436,0.96749
221.267,16.7248,-0.06810659,1.33358,0.9674299999999999
221.367,16.727829999999997,-0.06810685,1.33314,0.9673799999999999
221.467,16.73086,-0.06811235,1.33372,0.9673200000000001
221.567,16.7339,-0.0681404,1.3354700000000002,0.96726
221.667,16.73694,-0.06823385,1.33762,0.9672
221.767,16.73998,-0.06843816,1.3393,0.96714
221.867,16.74302,-0.06877335,1.3398700000000001,0.96709
221.967,16.74607,-0.0691556,1.3396,0.96703
222.067,16.74911,-0.06947463,1.3389799999999998,0.9669700000000001
222.167,16.75215,-0.06963133,1.33847,0.96691
222.267,16.7552,-0.06963925,1.33828,0.96685
222.367,16.75824,-0.06957697,1.33851,0.9668
222.467,16.76128,-0.06952258,1.33922,0.9667399999999999
222.567,16.76432,-0.06951111,1.3403,0.9666799999999999
222.667,16.76736,-0.06952457,1.3413899999999999,0.96662
222.767,16.7704,-0.06954173,1.3421100000000001,0.96657
222.867,16.77346,-0.06954783,1.3423100000000001,0.9665100000000001
222.967,16.77652,-0.06954557,1.3423200000000002,0.96645
223.067,16.77958,-0.06954059,1.34261,0.96639
223.167,16.782629999999997,-0.0695378,1.34352,0.9663299999999999
223.267,16.78568,-0.06953771,1.34476,0.9662799999999999
223.367,16.78872,-0.06953919,1.34581,0.9662200000000001
223.467,16.79177,-0.06954109,1.34619,0.96616
223.567,16.79482,-0.06954234,1.3459,0.9661
223.667,16.79787,-0.06954189,1.34533,0.96604
223.767,16.800910000000002,-0.06953873,1.3448799999999999,0.96599
223.867,16.80394,-0.06953403,1.3447799999999999,0.96593
223.967,16.80697,-0.0695327,1.34494,0.9658700000000001
224.067,16.81,-0.06954,1.34524,0.9658100000000001
224.167,16.81305,-0.06956634,1.34559,0.9657600000000001
224.267,16.8161,-0.06964266,1.3459299999999998,0.9657
224.367,16.81916,-0.06980503,1.3462100000000001,0.9656399999999999
224.467,16.8222,-0.07008137,1.3464200000000002,0.9655799999999999
224.567,16.82524,-0.07042159,1.34659,0.96552
224.667,16.82828,-0.07073246,1.3467799999999999,0.96547
224.767,16.83132,-0.07092235,1.3470799999999998,0.96541
224.867,16.83435,-0.0709671,1.34746,0.96535
224.967,16.83739,-0.0709228,1.34781,0.96529
225.067,16.840429999999998,-0.07085023,1.34799,0.96524
225.167,16.84347,-0.07079943,1.34798,0.9651799999999999
225.267,16.846510000000002,-0.07079225,1.3479700000000001,0.9651200000000001
225.367,16.84955,-0.07084596,1.34819,0.96506
225.467,16.8526,-0.07097412,1.34881,0.96501
225.567,16.85564,-0.07116715,1.34969,0.96495
225.667,16.85868,-0.07140654,1.35055,0.9648899999999999
225.767,16.861720000000002,-0.07167316,1.35113,0.96483
225.867,16.86476,-0.07193778,1.3513899999999999,0.96478
225.967,16.86779,-0.07216265,1.3514700000000002,0.96472
226.067,16.870810000000002,-0.07230996,1.35153,0.9646600000000001
226.167,16.873829999999998,-0.07236325,1.35166,0.9646
226.267,16.876839999999998,-0.07234539,1.3518700000000001,0.96455
226.367,16.87986,-0.07228351,1.35214,0.96449
226.467,16.88289,-0.0722089,1.35247,0.9644299999999999
226.567,16.88593,-0.07217215,1.35283,0.9643700000000001
226.667,16.88897,-0.07222936,1.35325,0.9643200000000001
226.767,16.89201,-0.07242985,1.35371,0.96426
226.867,16.89505,-0.07274192,1.35427,0.9642
226.967,16.89809,-0.07308088,1.35501,0.96414
227.067,16.901120000000002,-0.07336207,1.35601,0.96409
227.167,16.90415,-0.07354532,1.3572,0.9640299999999999
227.267,16.90718,-0.07365321,1.3583100000000001,0.9639700000000001
227.367,16.9102,-0.07371304,1.35903,0.96391
227.467,16.91323,-0.0737456,1.35919,0.96386
227.567,16.91626,-0.07375024,1.35895,0.9638
227.667,16.91929,-0.07372194,1.35858,0.9637399999999999
227.767,16.922320000000003,-0.07366102,1.35829,0.96368
227.867,16.92536,-0.07361188,1.35812,0.9636299999999999
227.967,16.92839,-0.07364067,1.35802,0.96357
228.067,16.93143,-0.07381089,1.3579299999999999,0.9635100000000001
228.167,16.93446,-0.07411198,1.3579,0.96345
228.267,16.93749,-0.07445348,1.35806,0.9634
228.367,16.94051,-0.0747411,1.35855,0.96334
228.467,16.94353,-0.07491493,1.35938,0.9632799999999999
228.567,16.94655,-0.07499857,1.36025,0.9632299999999999
228.667,16.94957,-0.07502809,1.36081,0.9631700000000001
228.767,16.95259,-0.07503628,1.3608,0.96311
228.867,16.95562,-0.07503581,1.36038,0.96305
228.967,16.958660000000002,-0.07503169,1.3599,0.963
229.067,16.96171,-0.0750287,1.35968,0.96294
229.167,16.964760000000002,-0.07502836,1.35981,0.96288
229.267,16.96781,-0.07502931,1.3602100000000001,0.96283
229.367,16.97085,-0.07503014,1.36076,0.9627700000000001
229.467,16.973879999999998,-0.07503015,1.36134,0.9627100000000001
229.567,16.9769,-0.07502988,1.36181,0.96265
229.667,16.97993,-0.07502999,1.36204,0.9626
229.767,16.98295,-0.07503085,1.36192,0.96254
229.867,16.985979999999998,-0.07503155,1.36163,0.9624799999999999
229.967,16.989,-0.07503079,1.36137,0.9624299999999999
230.067,16.99203,-0.07502758,1.3613600000000001,0.9623700000000001
230.167,16.995060000000002,-0.07502424,1.3616700000000002,0.96231
230.267,16.998089999999998,-0.07502519,1.36226,0.96225
230.367,17.00113,-0.07503519,1.36311,0.9622
230.467,17.004170000000002,-0.07507204,1.3641,0.96214
230.567,17.00722,-0.0751719,1.36501,0.9620799999999999
230.667,17.01026,-0.07537227,1.3656,0.9620299999999999
230.767,17.0133,-0.0756822,1.36576,0.9619700000000001
230.867,17.01632,-0.07602284,1.36575,0.96191
230.967,17.01935,-0.07629839,1.36594,0.96186
231.067,17.02238,-0.07642632,1.3666,0.9618
231.167,17.02541,-0.07642712,1.36758,0.9617399999999999
231.267,17.02846,-0.07636949,1.3685100000000001,0.96168
231.367,17.0315,-0.07632077,1.36904,0.9616299999999999
231.467,17.03456,-0.07630889,1.36911,0.96157
231.567,17.03761,-0.0763217,1.3689799999999999,0.9615100000000001
231.667,17.04065,-0.07634525,1.3689200000000001,0.96146
231.767,17.043689999999998,-0.07636577,1.36909,0.9614
231.867,17.04671,-0.07636983,1.3693899999999999,0.96134
231.967,17.04974,-0.07634407,1.36973,0.96129
232.067,17.05276,-0.07628533,1.36999,0.9612299999999999
232.167,17.05578,-0.07624348,1.37006,0.9611700000000001
232.267,17.05881,-0.07628558,1.3698299999999999,0.9611200000000001
232.367,17.06184,-0.07647288,1.36923,0.96106
232.467,17.064870000000003,-0.07678148,1.36839,0.961
232.567,17.06791,-0.07712293,1.36765,0.96094
232.667,17.07095,-0.07740778,1.36733,0.9608899999999999
232.767,17.07399,-0.07759107,1.3675700000000002,0.96083
232.867,17.07703,-0.07770077,1.3682,0.9607700000000001
232.967,17.08008,-0.07777161,1.3690200000000001,0.96072
233.067,17.08312,-0.07782661,1.36982,0.9606600000000001
233.167,17.086170000000003,-0.07784534,1.37039,0.9606
233.267,17.08921,-0.07779732,1.3705100000000001,0.96055
233.367,17.09224,-0.07766118,1.37001,0.96049
233.467,17.09526,-0.07749815,1.36917,0.9604299999999999
233.567,17.09828,-0.07741326,1.36849,0.9603799999999999
233.667,17.10131,-0.07750892,1.36846,0.9603200000000001
233.767,17.10434,-0.07778991,1.36916,0.96026
233.867,17.10737,-0.07814441,1.37012,0.96021
233.967,17.1104,-0.07845384,1.37085,0.96015
234.067,17.113429999999997,-0.07863822,1.37105,0.96009
234.167,17.11646,-0.07872227,1.37094,0.96004
234.267,17.11949,-0.07874831,1.37084,0.9599799999999999
234.367,17.12252,-0.07875489,1.37103,0.9599200000000001
234.467,17.12555,-0.07875517,1.37152,0.9598700000000001
234.567,17.12858,-0.07875194,1.37227,0.95981
234.667,17.131610000000002,-0.07874794,1.3731799999999998,0.95975
234.767,17.13464,-0.07874541,1.37412,0.9597
234.867,17.13767,-0.07874613,1.37484,0.9596399999999999
234.967,17.1407,-0.07875184,1.3751200000000001,0.9595799999999999
235.067,17.14374,-0.07876075,1.3748799999999999,0.9595299999999999
235.167,17.14679,-0.07876387,1.3744100000000001,0.95947
235.267,17.149829999999998,-0.07875135,1.37402,0.95941
235.367,17.15287,-0.07871997,1.37398,0.95936
235.467,17.1559,-0.07869798,1.37427,0.9593
235.567,17.158929999999998,-0.07872292,1.3748200000000002,0.95925
235.667,17.16196,-0.0788293,1.37552,0.95919
235.767,17.165,-0.0790136,1.37629,0.9591299999999999
235.867,17.168029999999998,-0.07924646,1.37704,0.9590799999999999
235.967,17.17105,-0.07949802,1.3776700000000002,0.9590200000000001
236.067,17.17406,-0.07973883,1.37812,0.95896
236.167,17.17707,-0.07994002,1.37835,0.95891
236.267,17.18009,-0.08007281,1.3783299999999998,0.95885
236.367,17.18313,-0.08012037,1.3780700000000001,0.9587899999999999
236.467,17.18618,-0.08010958,1.37779,0.9587399999999999
236.567,17.189220000000002,-0.08007725,1.37775,0.95868
236.667,17.19227,-0.08005709,1.37816,0.95862
236.767,17.19531,-0.08005533,1.3788799999999999,0.95857
236.867,17.198339999999998,-0.08006389,1.37958,0.9585100000000001
236.967,17.20137,-0.08007632,1.37995,0.9584600000000001
237.067,17.2044,-0.08013765,1.37988,0.9584
237.167,17.20743,-0.08035119,1.37953,0.95834
237.267,17.21047,-0.08082322,1.37906,0.95829
237.367,17.2135,-0.08156874,1.37863,0.9582299999999999
237.467,17.21653,-0.08237042,1.3784100000000001,0.9581700000000001
237.567,17.21957,-0.08297446,1.37856,0.9581200000000001
237.667,17.22259,-0.08317973,1.37921,0.95806
237.767,17.225620000000003,-0.08311047,1.38015,0.958
237.867,17.22864,-0.08301514,1.38109,0.95795
237.967,17.23166,-0.08313116,1.38172,0.9578899999999999
238.067,17.234679999999997,-0.08348884,1.3819700000000001,0.9578399999999999
238.167,17.2377,-0.0839367,1.38198,0.95778
238.267,17.24073,-0.08431757,1.3818700000000002,0.9577200000000001
238.367,17.24376,-0.0845398,1.3817700000000002,0.95767
