##Temp./°C,Time/min,Mass loss(subtr.2)/mg,DSC(subtr.2)/(mW/mg),Sensit./(uV/mW)
48.836,10.01,-0.02643,0.01167803,1.08886
48.936,10.32135,-0.02674877,0.01897359,1.08877
49.036,10.39415,-0.02664244,0.02437797,1.08869
49.136,10.43639,-0.02682319,0.03054651,1.0886
49.236,10.4727,-0.02644469,0.03732575,1.0885200000000002
49.336,10.50305,-0.02601991,0.04368598,1.08844
49.436,10.53031,-0.0263287,0.04856556,1.08835
49.536,10.55363,-0.02582656,0.0536719,1.08827
49.636,10.5751,-0.02680342,0.06065562,1.08818
49.736,10.595080000000001,-0.02747736,0.0643453,1.0881
49.836,10.61353,-0.02784757,0.07194752,1.0880100000000001
49.936,10.63076,-0.02714152,0.07561405,1.0879299999999998
50.036,10.6474,-0.02708894,0.07932311,1.08785
50.136,10.66273,-0.02740531,0.08696084,1.08776
50.236,10.67735,-0.02663942,0.09070444,1.08768
50.336,10.69116,-0.02712196,0.09472088,1.08759
50.436,10.704889999999999,-0.0260725,0.1015,1.08751
50.536,10.717830000000001,-0.02673115,0.10692,1.08742
50.636,10.73028,-0.02633691,0.10902,1.08734
50.736,10.74232,-0.02705749,0.1143,1.0872600000000001
50.836,10.75417,-0.02612768,0.11886,1.08717
50.936,10.76565,-0.02698583,0.12383,1.08709
51.036,10.77684,-0.02673263,0.12789,1.087
51.136,10.78757,-0.0281627,0.1339,1.08692
51.236,10.7981,-0.02783746,0.13767000000000001,1.08684
51.336,10.8083,-0.028694,0.14088,1.08675
51.436,10.81836,-0.02944668,0.14598,1.08667
51.536,10.82837,-0.02893595,0.15031,1.0865799999999999
51.636,10.83804,-0.02960769,0.1537,1.0865
51.736,10.84751,-0.02859214,0.15761,1.0864200000000002
51.836,10.856810000000001,-0.02845485,0.16053,1.08633
51.936,10.865860000000001,-0.02899182,0.16416,1.08625
52.036,10.874830000000001,-0.02835667,0.16774,1.08616
52.136,10.88366,-0.02836254,0.17176,1.08608
52.236,10.892330000000001,-0.02846911,0.17719000000000001,1.086
52.336,10.901,-0.02702871,0.18112,1.08591
52.436,10.90948,-0.027603,0.18347,1.0858299999999999
52.536,10.91775,-0.02751147,0.1872,1.08574
52.636,10.92595,-0.02677184,0.19180999999999998,1.08566
52.736,10.93411,-0.02724606,0.19537000000000002,1.08558
52.836,10.942160000000001,-0.02774954,0.19852999999999998,1.08549
52.936,10.95009,-0.02686735,0.20293,1.08541
53.036,10.957880000000001,-0.02757252,0.20713,1.08532
53.136,10.96548,-0.02825372,0.20992,1.08524
53.236,10.97301,-0.02799222,0.21272,1.0851600000000001
53.336,10.98049,-0.02777729,0.21652,1.08507
53.436,10.98771,-0.02855873,0.22038000000000002,1.08499
53.536,10.99491,-0.02809625,0.22424000000000002,1.08491
53.636,11.00208,-0.02736874,0.22773000000000002,1.0848200000000001
53.736,11.009139999999999,-0.0278911,0.23058,1.08474
53.836,11.01614,-0.02812626,0.23309000000000002,1.08466
53.936,11.02304,-0.02774754,0.23561999999999997,1.08457
54.036,11.02984,-0.02752226,0.23885,1.08449
54.136,11.036610000000001,-0.02823372,0.24331,1.0844
54.236,11.04332,-0.02814838,0.2474,1.0843200000000002
54.336,11.04998,-0.02731125,0.25001,1.0842399999999999
54.436,11.056610000000001,-0.02756485,0.25163,1.08415
54.536,11.06321,-0.02797845,0.25472,1.08407
54.636,11.06974,-0.02776971,0.25899,1.08399
54.736,11.07616,-0.02723636,0.26174000000000003,1.0839
54.836,11.082510000000001,-0.02742574,0.26450999999999997,1.08382
54.936,11.08883,-0.02808264,0.26791,1.08374
55.036,11.0951,-0.02740609,0.2702,1.08365
55.136,11.10132,-0.02658621,0.27271999999999996,1.0835700000000001
55.236,11.10748,-0.02696557,0.27683,1.08349
55.336,11.11357,-0.02736484,0.28099,1.0834
55.436,11.11963,-0.02722213,0.28374,1.08332
55.536,11.12571,-0.02682147,0.28473000000000004,1.08324
55.636,11.13177,-0.02687857,0.28672,1.08315
55.736,11.13773,-0.02744586,0.29091,1.08307
55.836,11.14362,-0.02732644,0.2943,1.08299
55.936,11.149460000000001,-0.02678157,0.29639,1.0829
56.036,11.15525,-0.02695977,0.29868,1.0828200000000001
56.136,11.161019999999999,-0.02750574,0.30165,1.08274
56.236,11.16682,-0.0277743,0.30508,1.08265
56.336,11.17259,-0.02764386,0.30798000000000003,1.08257
56.436,11.178289999999999,-0.02746978,0.31042,1.08249
56.536,11.18395,-0.02794348,0.3137,1.0824
56.636,11.18958,-0.02851004,0.31686,1.0823200000000002
56.736,11.195160000000001,-0.02821417,0.31835,1.0822399999999999
56.836,11.20074,-0.027857,0.32033,1.08215
56.936,11.2063,-0.0282767,0.32448,1.08207
57.036,11.211780000000001,-0.02891858,0.32795,1.08199
57.136,11.21717,-0.02926305,0.3295,1.08191
57.236,11.222560000000001,-0.02922882,0.33148,1.08182
57.336,11.22797,-0.02916017,0.33458000000000004,1.08174
57.436,11.233360000000001,-0.02973052,0.33738,1.08166
57.536,11.238719999999999,-0.03044606,0.33956,1.0815700000000001
57.636,11.244060000000001,-0.03016085,0.34164,1.08149
57.736,11.24939,-0.02943683,0.34378000000000003,1.08141
57.836,11.254719999999999,-0.02943618,0.34605,1.08132
57.936,11.260010000000001,-0.02983034,0.34907,1.08124
58.036,11.26522,-0.02993032,0.35306,1.0811600000000001
58.136,11.270380000000001,-0.02970498,0.35601,1.0810799999999998
58.236,11.27554,-0.02935642,0.35659,1.08099
58.336,11.280710000000001,-0.02930771,0.35745,1.08091
58.436,11.28588,-0.02969651,0.36057,1.08083
58.536,11.29102,-0.02978229,0.36409,1.08074
58.636,11.2961,-0.02923754,0.36661,1.08066
58.736,11.301169999999999,-0.02898027,0.3692,1.0805799999999999
58.836,11.30626,-0.02944195,0.3726,1.0805
58.936,11.31129,-0.02971672,0.37601,1.08041
59.036,11.31625,-0.02934614,0.37865,1.08033
59.136,11.32121,-0.02903107,0.3801,1.08025
59.236,11.3262,-0.02914108,0.38058000000000003,1.08017
59.336,11.33117,-0.0291356,0.38153000000000004,1.08008
59.436,11.336110000000001,-0.02875109,0.38375,1.08
59.536,11.341,-0.02849658,0.38642,1.07992
59.636,11.34587,-0.02863991,0.38891,1.07984
59.736,11.350710000000001,-0.0287155,0.39152,1.07975
59.836,11.35554,-0.02842916,0.39436,1.0796700000000001
59.936,11.36035,-0.0281847,0.39687,1.07959
60.036,11.365160000000001,-0.02830846,0.39866,1.0795
60.136,11.36994,-0.02851845,0.40014,1.07942
60.236,11.37468,-0.0285232,0.4018,1.07934
60.336,11.379389999999999,-0.02849966,0.40371,1.07926
60.436,11.38411,-0.02868215,0.40584000000000003,1.07917
60.536,11.388819999999999,-0.02892379,0.40821999999999997,1.0790899999999999
60.636,11.39352,-0.02897759,0.41085,1.07901
60.736,11.39824,-0.02894108,0.41334,1.07893
60.836,11.40298,-0.02906448,0.41515,1.07885
60.936,11.40771,-0.02925898,0.41641999999999996,1.07876
61.036,11.41239,-0.02920867,0.41778000000000004,1.0786799999999999
61.136,11.417019999999999,-0.02894993,0.41976,1.0786
61.236,11.421619999999999,-0.0288586,0.42276,1.0785200000000001
61.336,11.42624,-0.02901591,0.42644,1.07843
61.436,11.43083,-0.02904892,0.42938000000000004,1.07835
61.536,11.4354,-0.02876949,0.43081,1.07827
61.636,11.43998,-0.02851038,0.43171000000000004,1.07819
61.736,11.44461,-0.02855884,0.43312,1.0781
61.836,11.44924,-0.02871587,0.43528,1.07802
61.936,11.45379,-0.0287127,0.43815,1.07794
62.036,11.4583,-0.02863309,0.441,1.07786
62.136,11.462819999999999,-0.02868579,0.44292,1.07778
62.236,11.46735,-0.02882324,0.44388,1.07769
62.336,11.47189,-0.02881774,0.44456,1.07761
62.436,11.4764,-0.02863933,0.44566000000000006,1.0775299999999999
62.536,11.4809,-0.02850869,0.44798999999999994,1.07745
62.636,11.485380000000001,-0.02858199,0.45151,1.07736
62.736,11.48983,-0.02883704,0.45436000000000004,1.07728
62.836,11.49425,-0.02918307,0.45507,1.0772
62.936,11.49865,-0.02932908,0.45505,1.07712
63.036,11.503039999999999,-0.02898621,0.45631000000000005,1.07704
63.136,11.50742,-0.02848522,0.45893999999999996,1.07695
63.236,11.5118,-0.02851099,0.46183,1.07687
63.336,11.51618,-0.02906163,0.46441000000000004,1.07679
63.436,11.520539999999999,-0.02926538,0.46676000000000006,1.07671
63.536,11.5249,-0.02866396,0.46902,1.07663
63.636,11.52923,-0.02809659,0.47131999999999996,1.07654
63.736,11.53353,-0.02842518,0.47373999999999994,1.07646
63.836,11.53783,-0.02913047,0.47603,1.07638
63.936,11.54216,-0.02915532,0.47785,1.0763
64.036,11.546510000000001,-0.02849739,0.47913999999999995,1.0762200000000002
64.136,11.55085,-0.02821461,0.48017,1.0761399999999999
64.236,11.55515,-0.02880184,0.48118,1.07605
64.336,11.55942,-0.02938061,0.48238000000000003,1.07597
64.436,11.56369,-0.02911582,0.48391999999999996,1.07589
64.536,11.56795,-0.02856711,0.48578999999999994,1.07581
64.636,11.57221,-0.02876326,0.48789,1.0757299999999999
64.736,11.57646,-0.0296558,0.49004,1.07564
64.836,11.58071,-0.03017454,0.492,1.07556
64.936,11.58494,-0.02976198,0.49368999999999996,1.07548
65.036,11.58917,-0.02921654,0.4955,1.0754
65.136,11.59338,-0.02938352,0.49773999999999996,1.07532
65.236,11.59758,-0.02995946,0.5,1.07524
65.336,11.60178,-0.03014886,0.50153,1.07515
65.436,11.60597,-0.02976773,0.50237,1.07507
65.536,11.61017,-0.02938216,0.50349,1.07499
65.636,11.61435,-0.02942009,0.50557,1.07491
65.736,11.61852,-0.02965736,0.50797,1.07483
65.836,11.62267,-0.0297482,0.5098199999999999,1.07475
65.936,11.6268,-0.02963633,0.51125,1.07466
66.036,11.63092,-0.02946351,0.51305,1.0745799999999999
66.136,11.63504,-0.02935165,0.51548,1.0745
66.236,11.63916,-0.02937306,0.51771,1.0744200000000002
66.336,11.64325,-0.02956843,0.5189199999999999,1.07434
66.436,11.64734,-0.02978744,0.51955,1.07426
66.536,11.65142,-0.02979661,0.52058,1.07418
66.636,11.65552,-0.02957023,0.52235,1.07409
66.736,11.6596,-0.02939306,0.5241899999999999,1.0740100000000001
66.836,11.66365,-0.02949226,0.52552,1.0739299999999998
66.936,11.6677,-0.02964788,0.52682,1.07385
67.036,11.67174,-0.02950211,0.52886,1.0737700000000001
67.136,11.6758,-0.02909673,0.53157,1.07369
67.236,11.679860000000001,-0.0289534,0.53381,1.07361
67.336,11.683910000000001,-0.02942439,0.53475,1.0735299999999999
67.436,11.68794,-0.02998173,0.5350199999999999,1.07344
67.536,11.69196,-0.02988326,0.53563,1.07336
67.636,11.69595,-0.02913455,0.53703,1.07328
67.736,11.69996,-0.02851313,0.5390699999999999,1.0732
67.836,11.70397,-0.02860813,0.5415300000000001,1.07312
67.936,11.708,-0.02908244,0.54394,1.07304
68.036,11.71204,-0.02937635,0.54579,1.0729600000000001
68.136,11.71608,-0.02930707,0.54704,1.0728799999999998
68.236,11.7201,-0.02906327,0.54813,1.07279
68.336,11.7241,-0.02883759,0.5494100000000001,1.07271
68.436,11.72809,-0.0287789,0.55096,1.07263
68.536,11.7321,-0.02901258,0.55279,1.07255
68.636,11.73611,-0.02938814,0.55469,1.07247
68.736,11.74012,-0.02949547,0.5562600000000001,1.07239
68.836,11.74409,-0.02909464,0.55723,1.07231
68.936,11.74805,-0.02860708,0.55792,1.07223
69.036,11.752,-0.02858056,0.55876,1.07215
69.136,11.755939999999999,-0.02899686,0.56008,1.07206
69.236,11.75988,-0.02927984,0.5621,1.07198
69.336,11.763819999999999,-0.02899598,0.56486,1.0719
69.436,11.76776,-0.02843931,0.5675899999999999,1.07182
69.536,11.77171,-0.02809228,0.56934,1.07174
69.636,11.77567,-0.02809639,0.57001,1.07166
69.736,11.779630000000001,-0.02818732,0.57058,1.07158
69.836,11.78357,-0.02813357,0.57185,1.0715
69.936,11.787510000000001,-0.02800432,0.57355,1.07142
70.036,11.79144,-0.02796607,0.57503,1.07134
70.136,11.79538,-0.02808012,0.57612,1.07126
70.236,11.79929,-0.02825839,0.57728,1.07118
70.336,11.80317,-0.02840609,0.57895,1.0710899999999999
70.436,11.807030000000001,-0.02846098,0.58092,1.07101
70.536,11.81091,-0.02837541,0.5827,1.07093
70.636,11.814810000000001,-0.02820398,0.58405,1.07085
70.736,11.818710000000001,-0.02820924,0.58514,1.07077
70.836,11.822569999999999,-0.0286428,0.58624,1.07069
70.936,11.826410000000001,-0.029336,0.58753,1.07061
71.036,11.83025,-0.02984901,0.58915,1.07053
71.136,11.83411,-0.02988601,0.59112,1.07045
71.236,11.83798,-0.02964122,0.59295,1.07037
71.336,11.84185,-0.0294041,0.59406,1.07029
71.436,11.84572,-0.02931887,0.59458,1.07021
71.536,11.84958,-0.02937579,0.59542,1.07013
71.636,11.85342,-0.02954651,0.59725,1.07005
71.736,11.85725,-0.02974004,0.59947,1.06997
71.836,11.861089999999999,-0.02984419,0.60104,1.06988
71.936,11.864930000000001,-0.029791,0.60164,1.0698
72.036,11.868780000000001,-0.02959097,0.60215,1.06972
72.136,11.872630000000001,-0.02927385,0.60353,1.06964
72.236,11.87646,-0.0289918,0.60565,1.06956
72.336,11.88028,-0.02897246,0.6077600000000001,1.06948
72.436,11.88407,-0.0293178,0.60928,1.0694
72.536,11.88786,-0.0297221,0.61033,1.06932
72.636,11.89167,-0.02980832,0.61116,1.06924
72.736,11.895480000000001,-0.02952529,0.61202,1.06916
72.836,11.899289999999999,-0.02920525,0.6131800000000001,1.06908
72.936,11.90307,-0.02915634,0.61482,1.069
73.036,11.906839999999999,-0.02936031,0.61663,1.06892
73.136,11.91061,-0.0296581,0.61808,1.06884
73.236,11.9144,-0.02992278,0.6189100000000001,1.06876
73.336,11.91819,-0.03010869,0.61949,1.0686799999999999
73.436,11.92197,-0.03018518,0.6203,1.0686
73.536,11.92575,-0.03017654,0.62155,1.0685200000000001
73.636,11.92952,-0.03015893,0.62315,1.06844
73.736,11.93332,-0.03019859,0.6250399999999999,1.06836
73.836,11.93713,-0.03029183,0.6271100000000001,1.06828
73.936,11.94093,-0.03040969,0.62926,1.0682
74.036,11.94473,-0.03053251,0.6313,1.0681200000000002
74.136,11.94852,-0.03065895,0.6328199999999999,1.0680399999999999
74.236,11.95227,-0.03078683,0.63345,1.06796
74.336,11.956,-0.03087019,0.63347,1.06788
74.436,11.95973,-0.03082985,0.63364,1.0678
74.536,11.963460000000001,-0.0306254,0.63458,1.06772
74.636,11.9672,-0.03041334,0.6362399999999999,1.06764
74.736,11.970939999999999,-0.03040981,0.63831,1.06756
74.836,11.974689999999999,-0.03066461,0.6405,1.06748
74.936,11.97843,-0.03090642,0.64245,1.0674
75.036,11.98216,-0.03084771,0.64384,1.06732
75.136,11.98589,-0.03053358,0.64464,1.06724
75.236,11.98961,-0.03027984,0.64503,1.06716
75.336,11.99335,-0.03033493,0.6452600000000001,1.06708
75.436,11.9971,-0.03053605,0.64576,1.067
75.536,12.000860000000001,-0.03058179,0.6470199999999999,1.06692
75.636,12.004610000000001,-0.03034031,0.64907,1.06684
75.736,12.00836,-0.03003021,0.6510600000000001,1.06676
75.836,12.0121,-0.02989902,0.65204,1.0666799999999999
75.936,12.015830000000001,-0.02994441,0.65222,1.0666
76.036,12.01955,-0.02995221,0.65272,1.0665200000000001
76.136,12.02326,-0.02975058,0.65446,1.06644
76.236,12.02697,-0.02945048,0.65682,1.06636
76.336,12.030669999999999,-0.02926376,0.65866,1.06628
76.436,12.03437,-0.02931182,0.6594,1.0662
76.536,12.03807,-0.02950347,0.65979,1.0661200000000002
76.636,12.04177,-0.02971873,0.66074,1.0660399999999999
76.736,12.04548,-0.02987904,0.66237,1.06596
76.836,12.04919,-0.0299497,0.664,1.06588
76.936,12.05289,-0.02991297,0.66497,1.0658
77.036,12.05659,-0.02986743,0.66543,1.06572
77.136,12.06029,-0.02996663,0.66591,1.06564
77.236,12.063989999999999,-0.03027976,0.66677,1.06556
77.336,12.067680000000001,-0.03060825,0.66799,1.06548
77.436,12.07136,-0.03070475,0.66943,1.0654
77.536,12.07502,-0.03051095,0.67098,1.06532
77.636,12.07869,-0.03023506,0.6724899999999999,1.06524
77.736,12.08235,-0.03009476,0.67385,1.06516
77.836,12.08602,-0.03017217,0.67504,1.0650899999999999
77.936,12.08968,-0.03045609,0.6761199999999999,1.06501
78.036,12.09333,-0.03091263,0.6771699999999999,1.06493
78.136,12.09698,-0.03139971,0.6783100000000001,1.06485
78.236,12.10062,-0.03174045,0.67969,1.06477
78.336,12.10427,-0.0318346,0.6813100000000001,1.06469
78.436,12.10792,-0.03176741,0.68277,1.06461
78.536,12.11156,-0.03165116,0.68365,1.06453
78.636,12.11518,-0.03158271,0.68401,1.06445
78.736,12.11881,-0.03164037,0.6844899999999999,1.06437
78.836,12.12244,-0.03188579,0.6857,1.06429
78.936,12.12608,-0.03220262,0.68761,1.06421
79.036,12.129719999999999,-0.03236101,0.68982,1.06413
79.136,12.13336,-0.03219153,0.69189,1.06405
79.236,12.137,-0.03183817,0.6935100000000001,1.06397
79.336,12.14063,-0.03154314,0.69438,1.0639
79.436,12.14427,-0.03145816,0.6945100000000001,1.06382
79.536,12.147910000000001,-0.03151792,0.69462,1.06374
79.636,12.15155,-0.03162549,0.69548,1.06366
79.736,12.15518,-0.03169186,0.69721,1.06358
79.836,12.15881,-0.03163759,0.69912,1.0635
79.936,12.16243,-0.03139919,0.70048,1.06342
80.036,12.16606,-0.03108853,0.70125,1.06334
80.136,12.16969,-0.03092931,0.7017399999999999,1.06326
80.236,12.17332,-0.03108899,0.70229,1.06318
80.336,12.17695,-0.03143456,0.7031,1.0631
80.436,12.18058,-0.03173627,0.70434,1.06302
80.536,12.18421,-0.03184062,0.70597,1.06295
80.636,12.18783,-0.031784,0.7074,1.06287
80.736,12.19145,-0.0316322,0.70796,1.06279
80.836,12.19506,-0.03146259,0.7076600000000001,1.06271
80.936,12.19867,-0.03136758,0.70739,1.06263
81.036,12.20227,-0.03143133,0.708,1.06255
81.136,12.205869999999999,-0.03161489,0.7095600000000001,1.06247
81.236,12.20947,-0.03179202,0.7115100000000001,1.06239
81.336,12.21306,-0.03185609,0.71336,1.06231
81.436,12.21664,-0.03183522,0.7149300000000001,1.06224
81.536,12.22022,-0.03180981,0.71617,1.06216
81.636,12.22378,-0.03183005,0.7171,1.06208
81.736,12.22734,-0.03184512,0.7179800000000001,1.062
81.836,12.2309,-0.03178367,0.71913,1.06192
81.936,12.23446,-0.03163361,0.7206100000000001,1.06184
82.036,12.23803,-0.0314973,0.72201,1.06176
82.136,12.241589999999999,-0.03148674,0.72288,1.06168
82.236,12.24515,-0.03161241,0.72325,1.0616
82.336,12.24873,-0.03176851,0.7237100000000001,1.0615299999999999
82.436,12.25233,-0.03185031,0.7247899999999999,1.06145
82.536,12.255939999999999,-0.03184739,0.72637,1.0613700000000001
82.636,12.25955,-0.03181365,0.72782,1.06129
82.736,12.263119999999999,-0.03179669,0.72865,1.06121
82.836,12.26667,-0.03179989,0.72918,1.06113
82.936,12.27021,-0.03181063,0.73001,1.06105
83.036,12.273760000000001,-0.03183571,0.73155,1.06098
83.136,12.27732,-0.03194689,0.7335,1.0609
83.236,12.28087,-0.03222866,0.73544,1.06082
83.336,12.284419999999999,-0.03265495,0.737,1.06074
83.436,12.28797,-0.03298167,0.7379899999999999,1.06066
83.536,12.29153,-0.03294691,0.73823,1.0605799999999999
83.636,12.2951,-0.0325411,0.73795,1.0605
83.736,12.29867,-0.03205762,0.73785,1.06043
83.836,12.30222,-0.03179301,0.73861,1.06035
83.936,12.305760000000001,-0.03184348,0.74016,1.06027
84.036,12.3093,-0.03216104,0.74187,1.06019
84.136,12.31288,-0.03267675,0.7431800000000001,1.06011
84.236,12.316469999999999,-0.03319199,0.74406,1.06003
84.336,12.32005,-0.0334507,0.7447,1.05996
84.436,12.32361,-0.0332825,0.74526,1.05988
84.536,12.32715,-0.03284593,0.74593,1.0598
84.636,12.330680000000001,-0.03237809,0.74687,1.05972
84.736,12.33423,-0.03206191,0.7481800000000001,1.05964
84.836,12.337760000000001,-0.03195724,0.7498100000000001,1.05956
84.936,12.341289999999999,-0.03210535,0.75171,1.05949
85.036,12.34479,-0.03247255,0.75364,1.05941
85.136,12.348289999999999,-0.03291854,0.7551100000000001,1.0593299999999999
85.236,12.3518,-0.03329771,0.75567,1.05925
85.336,12.355310000000001,-0.03352682,0.75544,1.0591700000000002
85.436,12.358830000000001,-0.033583,0.75513,1.0590899999999999
85.536,12.36236,-0.03345272,0.7554,1.05902
85.636,12.36588,-0.03320153,0.75637,1.05894
85.736,12.3694,-0.03294574,0.75776,1.0588600000000001
85.836,12.37292,-0.03279201,0.75932,1.0587799999999998
85.936,12.376430000000001,-0.03277652,0.76093,1.0587
86.036,12.37994,-0.03290633,0.76252,1.05863
86.136,12.38343,-0.03316881,0.76402,1.05855
86.236,12.38692,-0.03346853,0.76541,1.05847
86.336,12.390419999999999,-0.03368832,0.76668,1.05839
86.436,12.393939999999999,-0.03375504,0.7678,1.05831
86.536,12.39747,-0.03371907,0.76872,1.05824
86.636,12.40099,-0.0336521,0.76941,1.05816
86.736,12.40449,-0.03361087,0.76988,1.05808
86.836,12.40798,-0.0336255,0.7703399999999999,1.058
86.936,12.411480000000001,-0.03372177,0.77098,1.05792
87.036,12.41499,-0.03387261,0.77187,1.05785
87.136,12.4185,-0.03398633,0.7729199999999999,1.05777
87.236,12.422,-0.03397336,0.7740199999999999,1.05769
87.336,12.4255,-0.03384602,0.77517,1.05761
87.436,12.428980000000001,-0.03370125,0.7764300000000001,1.0575299999999999
87.536,12.43246,-0.03362975,0.77786,1.05746
87.636,12.435939999999999,-0.03363402,0.7792600000000001,1.05738
87.736,12.43943,-0.03366559,0.78033,1.0573
87.836,12.44293,-0.03368142,0.78083,1.05722
87.936,12.446439999999999,-0.03367852,0.78098,1.05715
88.036,12.44995,-0.0336701,0.7811600000000001,1.0570700000000002
88.136,12.45345,-0.03366676,0.7817,1.0569899999999999
88.236,12.45693,-0.03366796,0.78263,1.05691
88.336,12.460410000000001,-0.03367021,0.78386,1.05683
88.436,12.46388,-0.03367102,0.7853,1.0567600000000001
88.536,12.46735,-0.03367064,0.78674,1.0566799999999998
88.636,12.47083,-0.0336698,0.78796,1.0566
88.736,12.4743,-0.03366916,0.78884,1.0565200000000001
88.836,12.477780000000001,-0.03366928,0.7895800000000001,1.05645
88.936,12.48126,-0.03367067,0.7903600000000001,1.05637
89.036,12.48473,-0.03367251,0.7912899999999999,1.05629
89.136,12.48819,-0.03367208,0.79235,1.05621
89.236,12.49165,-0.03366826,0.79351,1.0561399999999999
89.336,12.49511,-0.03370444,0.79468,1.05606
89.436,12.498569999999999,-0.03387115,0.7957,1.05598
89.536,12.50203,-0.03424939,0.79643,1.0559
89.636,12.5055,-0.0347332,0.79694,1.0558299999999998
89.736,12.50896,-0.0350676,0.79748,1.05575
89.836,12.51243,-0.03502155,0.7982600000000001,1.05567
89.936,12.515889999999999,-0.03465273,0.7993399999999999,1.05559
90.036,12.51935,-0.03418864,0.80067,1.05552
90.136,12.52283,-0.03384073,0.80219,1.05544
90.236,12.52631,-0.03369132,0.8036399999999999,1.05536
90.336,12.52978,-0.03376702,0.80471,1.05528
90.436,12.53324,-0.03407059,0.80524,1.05521
90.536,12.53668,-0.03449067,0.80566,1.05513
90.636,12.54012,-0.03488138,0.8066300000000001,1.05505
90.736,12.543569999999999,-0.03513235,0.8085,1.05498
90.836,12.54702,-0.03526127,0.8105899999999999,1.0549
90.936,12.55049,-0.03531474,0.81198,1.05482
91.036,12.55397,-0.03535112,0.8122,1.05474
91.136,12.55745,-0.03545988,0.8119,1.05467
91.236,12.56093,-0.03573465,0.81195,1.05459
91.336,12.5644,-0.03618032,0.81277,1.05451
91.436,12.56785,-0.03663753,0.81407,1.05443
91.536,12.5713,-0.03693158,0.8154600000000001,1.05436
91.636,12.57474,-0.03699669,0.81671,1.0542799999999999
91.736,12.57818,-0.03691762,0.81776,1.0542
91.836,12.58162,-0.0367887,0.8185899999999999,1.05413
91.936,12.58505,-0.03666606,0.81926,1.05405
92.036,12.58849,-0.03656453,0.81991,1.05397
92.136,12.59193,-0.0364968,0.8206899999999999,1.05389
92.236,12.595369999999999,-0.03647381,0.82165,1.05382
92.336,12.59882,-0.03650506,0.8227399999999999,1.05374
92.436,12.602260000000001,-0.03659717,0.8239299999999999,1.05366
92.536,12.60572,-0.03672273,0.8251200000000001,1.05359
92.636,12.609169999999999,-0.0368318,0.8262,1.05351
92.736,12.61262,-0.03688018,0.82706,1.0534299999999999
92.836,12.616060000000001,-0.03687581,0.8277100000000001,1.05336
92.936,12.61951,-0.0368528,0.82819,1.05328
93.036,12.62296,-0.036841,0.8285899999999999,1.0532
93.136,12.62641,-0.0368427,0.82899,1.05313
93.236,12.62985,-0.0368497,0.8295,1.05305
93.336,12.633280000000001,-0.0368548,0.83021,1.0529700000000002
93.436,12.63671,-0.03685527,0.83105,1.0528899999999999
93.536,12.640130000000001,-0.03684967,0.83193,1.05282
93.636,12.64354,-0.03683943,0.83278,1.05274
93.736,12.64697,-0.03683609,0.8336399999999999,1.05266
93.836,12.6504,-0.0368535,0.83457,1.05259
93.936,12.653839999999999,-0.03688977,0.8355799999999999,1.05251
94.036,12.65729,-0.03689838,0.83655,1.05243
94.136,12.660730000000001,-0.03682513,0.8373299999999999,1.05236
94.236,12.66415,-0.03664394,0.8378700000000001,1.0522799999999999
94.336,12.667580000000001,-0.03638962,0.8383799999999999,1.0522
94.436,12.67102,-0.03610491,0.8390700000000001,1.05213
94.536,12.67447,-0.03583262,0.8400200000000001,1.05205
94.636,12.67793,-0.03561571,0.84104,1.05197
94.736,12.68138,-0.03549611,0.8419,1.0519
94.836,12.68482,-0.03547671,0.84254,1.05182
94.936,12.688260000000001,-0.03550964,0.8431,1.05174
95.036,12.69168,-0.03554468,0.84373,1.05167
95.136,12.6951,-0.03555608,0.84449,1.05159
95.236,12.69852,-0.03554308,0.8453700000000001,1.05151
95.336,12.701939999999999,-0.03550754,0.84635,1.05144
95.436,12.70537,-0.03547685,0.8474,1.05136
95.536,12.708789999999999,-0.0354998,0.8485,1.05129
95.636,12.7122,-0.03562175,0.84962,1.05121
95.736,12.7156,-0.03583736,0.8507100000000001,1.05113
95.836,12.719,-0.03610668,0.8517299999999999,1.05106
95.936,12.72241,-0.03638903,0.8526299999999999,1.05098
96.036,12.72583,-0.03664237,0.85346,1.0509
96.136,12.72925,-0.03682394,0.85436,1.05083
96.236,12.732660000000001,-0.03689855,0.8553799999999999,1.05075
96.336,12.73606,-0.03689108,0.8563799999999999,1.05067
96.436,12.739460000000001,-0.03685486,0.85708,1.0506
96.536,12.74287,-0.03683667,0.85726,1.0505200000000001
96.636,12.74628,-0.03683959,0.85714,1.05045
96.736,12.7497,-0.0368493,0.8571200000000001,1.05037
96.836,12.7531,-0.03685369,0.8575299999999999,1.05029
96.936,12.7565,-0.03685268,0.85831,1.0502200000000002
97.036,12.759889999999999,-0.03685007,0.85931,1.05014
97.136,12.76329,-0.03684895,0.8603799999999999,1.05006
97.236,12.766689999999999,-0.03684925,0.8614,1.04999
97.336,12.77008,-0.03685002,0.8623,1.0499100000000001
97.436,12.773480000000001,-0.03685048,0.86305,1.0498399999999999
97.536,12.77688,-0.03685046,0.86379,1.04976
97.636,12.78028,-0.03684994,0.8647600000000001,1.04968
97.736,12.78368,-0.03684912,0.86603,1.04961
97.836,12.78708,-0.03684891,0.8673700000000001,1.0495299999999999
97.936,12.79048,-0.03685034,0.86845,1.04945
98.036,12.79388,-0.03685376,0.86911,1.04938
98.136,12.79728,-0.03685769,0.8695799999999999,1.0493
98.236,12.80069,-0.03686035,0.87013,1.0492299999999999
98.336,12.804089999999999,-0.03686086,0.8709100000000001,1.04915
98.436,12.80749,-0.0368603,0.87172,1.0490700000000002
98.536,12.8109,-0.03686003,0.87231,1.049
98.636,12.81431,-0.03686054,0.8725700000000001,1.04892
98.736,12.817730000000001,-0.03686071,0.8726700000000001,1.04885
98.836,12.82114,-0.03685928,0.8728,1.04877
98.936,12.82456,-0.03685689,0.8731200000000001,1.0487
99.036,12.827960000000001,-0.03685707,0.87371,1.04862
99.136,12.83135,-0.03686345,0.87464,1.04854
99.236,12.83473,-0.03687234,0.8757799999999999,1.04847
99.336,12.83811,-0.03687064,0.87671,1.04839
99.436,12.8415,-0.03684555,0.877,1.0483200000000001
99.536,12.84492,-0.03681325,0.8767,1.04824
99.636,12.84833,-0.03682369,0.87639,1.04816
99.736,12.85174,-0.03692665,0.87669,1.04809
99.836,12.855139999999999,-0.0371274,0.8776700000000001,1.04801
99.936,12.85852,-0.03738793,0.8788799999999999,1.0479399999999999
100.036,12.86191,-0.03766837,0.8799,1.04786
100.136,12.865310000000001,-0.03792723,0.88066,1.04779
100.236,12.8687,-0.03812162,0.8814200000000001,1.0477100000000001
100.336,12.87209,-0.03821241,0.8824200000000001,1.0476299999999998
100.436,12.87549,-0.03821392,0.8835799999999999,1.04756
100.536,12.87888,-0.0381798,0.8846299999999999,1.04748
100.636,12.88226,-0.03816088,0.8852899999999999,1.04741
100.736,12.88565,-0.03816464,0.8856200000000001,1.0473299999999999
100.836,12.88903,-0.03817073,0.8859,1.04726
100.936,12.89242,-0.0381614,0.8863700000000001,1.04718
101.036,12.89581,-0.03814844,0.8870299999999999,1.04711
101.136,12.8992,-0.03816042,0.88771,1.04703
101.236,12.90259,-0.038217,0.8882700000000001,1.04695
101.336,12.90597,-0.03826207,0.8887299999999999,1.04688
101.436,12.90934,-0.03820205,0.8892200000000001,1.0468
101.536,12.91271,-0.03796147,0.88981,1.04673
101.636,12.916080000000001,-0.03759877,0.8904,1.04665
101.736,12.91946,-0.03723162,0.8907799999999999,1.0465799999999998
101.836,12.922839999999999,-0.03696658,0.8908299999999999,1.0465
101.936,12.926219999999999,-0.03683559,0.89085,1.04643
102.036,12.92961,-0.03684066,0.8912700000000001,1.04635
102.136,12.933,-0.03697789,0.89243,1.0462799999999999
102.236,12.93638,-0.03721059,0.89395,1.0462
102.336,12.93977,-0.03749052,0.89518,1.0461200000000002
102.436,12.94316,-0.0377706,0.89564,1.04605
102.536,12.94655,-0.0380096,0.8955700000000001,1.04597
102.636,12.94994,-0.03816803,0.89543,1.0459
102.736,12.953330000000001,-0.03822082,0.89561,1.04582
102.836,12.956719999999999,-0.03820383,0.89604,1.04575
102.936,12.96012,-0.03816907,0.89656,1.04567
103.036,12.963519999999999,-0.03815637,0.89704,1.0456
103.136,12.96691,-0.03816156,0.8974200000000001,1.04552
103.236,12.9703,-0.0381706,0.8976700000000001,1.04545
103.336,12.97368,-0.03817334,0.8978299999999999,1.0453700000000001
103.436,12.97706,-0.0381717,0.8980299999999999,1.0453
103.536,12.98044,-0.0381699,0.8984700000000001,1.04522
103.636,12.98382,-0.03817046,0.89925,1.04515
103.736,12.9872,-0.03817125,0.90025,1.0450700000000002
103.836,12.99059,-0.03816936,0.90136,1.045
103.936,12.993960000000001,-0.03816462,0.90243,1.04492
104.036,12.99733,-0.03816348,0.90336,1.04485
104.136,13.00071,-0.03817342,0.9040600000000001,1.04477
104.236,13.0041,-0.03821422,0.90446,1.0447
104.336,13.007489999999999,-0.03833239,0.90464,1.04462
104.436,13.010869999999999,-0.03857743,0.90469,1.04455
104.536,13.01424,-0.03894094,0.9046799999999999,1.04447
104.636,13.0176,-0.0393041,0.9046700000000001,1.0444
104.736,13.02097,-0.03953662,0.9047200000000001,1.0443200000000001
104.836,13.02435,-0.03958567,0.9048799999999999,1.04425
104.936,13.02772,-0.03953376,0.90517,1.04417
105.036,13.031089999999999,-0.03947631,0.9056,1.0441
105.136,13.03444,-0.03946445,0.9061600000000001,1.0440200000000002
105.236,13.0378,-0.03947876,0.9068299999999999,1.04395
105.336,13.041160000000001,-0.03949376,0.90756,1.04387
105.436,13.04452,-0.03949643,0.90833,1.0438
105.536,13.047889999999999,-0.03949253,0.9091600000000001,1.04372
105.636,13.05127,-0.03948927,0.91004,1.04365
105.736,13.05464,-0.03948959,0.91085,1.04357
105.836,13.058019999999999,-0.03949053,0.91127,1.0435
105.936,13.0614,-0.03948879,0.9109700000000001,1.04342
106.036,13.06478,-0.0394852,0.91015,1.04335
106.136,13.06816,-0.03948573,0.9096799999999999,1.0432700000000001
106.236,13.071539999999999,-0.0394974,0.91045,1.0432
106.336,13.074910000000001,-0.03954783,0.91235,1.04313
106.436,13.07828,-0.03968775,0.9142,1.04305
106.536,13.081660000000001,-0.03996547,0.9148,1.04298
106.636,13.08504,-0.04034156,0.91406,1.0429
106.736,13.08842,-0.04068677,0.91309,1.04283
106.836,13.0918,-0.04087356,0.91296,1.04275
106.936,13.09517,-0.04088926,0.9137700000000001,1.0426799999999998
107.036,13.09855,-0.04082679,0.91469,1.0426
107.136,13.10193,-0.0407792,0.9149299999999999,1.04253
107.236,13.105310000000001,-0.04077588,0.91445,1.04245
107.336,13.10869,-0.04079317,0.9139,1.0423799999999999
107.436,13.112070000000001,-0.0408069,0.91391,1.0423
107.536,13.11545,-0.04080893,0.9144899999999999,1.04223
107.636,13.118839999999999,-0.04080308,0.9152600000000001,1.04216
107.736,13.122229999999998,-0.04079006,0.9158200000000001,1.04208
107.836,13.125620000000001,-0.0407294,0.9161600000000001,1.04201
107.936,13.129010000000001,-0.0405534,0.9164899999999999,1.04193
108.036,13.13239,-0.04021063,0.91699,1.04186
108.136,13.13575,-0.03981891,0.91753,1.04178
108.236,13.13911,-0.03959411,0.91776,1.0417100000000001
108.336,13.14246,-0.03972259,0.9174,1.04164
108.436,13.14581,-0.04010927,0.9167799999999999,1.04156
108.536,13.14916,-0.04050782,0.91655,1.04149
108.636,13.15252,-0.04069693,0.91727,1.04141
108.736,13.155879999999998,-0.04068471,0.9186799999999999,1.04134
108.836,13.15925,-0.04059704,0.92009,1.04126
108.936,13.16261,-0.04054823,0.92086,1.04119
109.036,13.16598,-0.04055245,0.92089,1.04112
109.136,13.16934,-0.04057603,0.92032,1.04104
109.236,13.17271,-0.04058871,0.9193600000000001,1.0409700000000002
109.336,13.176079999999999,-0.04058738,0.91851,1.0408899999999999
109.436,13.17946,-0.04058091,0.9184100000000001,1.04082
109.536,13.182839999999999,-0.04057722,0.9195399999999999,1.04074
109.636,13.18621,-0.04057737,0.9213399999999999,1.04067
109.736,13.189589999999999,-0.04057966,0.92285,1.0406
109.836,13.192960000000001,-0.04058235,0.9232600000000001,1.0405200000000001
109.936,13.19633,-0.04058337,0.92284,1.04045
110.036,13.199689999999999,-0.04058053,0.9222600000000001,1.04037
110.136,13.20306,-0.04057321,0.9220700000000001,1.0403
110.236,13.206420000000001,-0.04056913,0.9222,1.04023
110.336,13.20979,-0.04057869,0.9224100000000001,1.04015
110.436,13.21315,-0.0406055,0.9225200000000001,1.04008
110.536,13.216520000000001,-0.04062001,0.92255,1.04
110.636,13.219879999999998,-0.04058269,0.92261,1.03993
110.736,13.223239999999999,-0.040482,0.9228,1.03986
110.836,13.2266,-0.04043072,0.9230700000000001,1.03978
110.936,13.22996,-0.04057606,0.9233600000000001,1.0397100000000001
111.036,13.23332,-0.04101398,0.92363,1.0396299999999998
111.136,13.2367,-0.04162693,0.9239200000000001,1.03956
111.236,13.240070000000001,-0.04224181,0.92432,1.03949
111.336,13.243429999999998,-0.04271828,0.92485,1.03941
111.436,13.246789999999999,-0.04303892,0.9254399999999999,1.03934
111.536,13.250160000000001,-0.04321518,0.926,1.0392700000000001
111.636,13.25353,-0.04326723,0.9264399999999999,1.03919
111.736,13.256910000000001,-0.04324563,0.92669,1.03912
111.836,13.26029,-0.04320751,0.9267200000000001,1.03904
111.936,13.263670000000001,-0.04319461,0.9265399999999999,1.0389700000000002
112.036,13.26705,-0.04320086,0.9263600000000001,1.0389
112.136,13.270420000000001,-0.04321095,0.9264,1.03882
112.236,13.273779999999999,-0.04321416,0.92681,1.03875
112.336,13.27713,-0.04321239,0.9274,1.0386799999999998
112.436,13.280489999999999,-0.04320971,0.9279299999999999,1.0386
112.536,13.28385,-0.04320889,0.92824,1.03853
112.636,13.287220000000001,-0.04320938,0.9283299999999999,1.03845
112.736,13.29059,-0.04321009,0.92822,1.0383799999999999
112.836,13.29395,-0.04321031,0.92799,1.03831
112.936,13.297310000000001,-0.04321017,0.92789,1.03823
113.036,13.30066,-0.04320997,0.92816,1.03816
113.136,13.304020000000001,-0.04320989,0.92885,1.03809
113.236,13.307379999999998,-0.04320993,0.9295399999999999,1.03801
113.336,13.31074,-0.04321003,0.9297200000000001,1.0379399999999999
113.436,13.314110000000001,-0.04321013,0.92924,1.03787
113.536,13.317479999999998,-0.04321013,0.92863,1.03779
113.636,13.320839999999999,-0.04320992,0.9285100000000001,1.03772
113.736,13.32419,-0.04320958,0.92911,1.03765
113.836,13.327539999999999,-0.04320955,0.9299299999999999,1.03757
113.936,13.3309,-0.0432103,0.9303899999999999,1.0375
114.036,13.334270000000002,-0.04321155,0.93022,1.0374299999999999
114.136,13.337639999999999,-0.04321163,0.92974,1.03735
114.236,13.34099,-0.04320875,0.9293100000000001,1.03728
114.336,13.344339999999999,-0.04320411,0.92917,1.03721
114.436,13.347679999999999,-0.04320394,0.9293299999999999,1.0371299999999999
114.536,13.351029999999998,-0.04321485,0.9297700000000001,1.03706
114.636,13.3544,-0.04323209,0.93037,1.0369899999999999
114.736,13.35777,-0.04323204,0.93091,1.03691
114.836,13.361120000000001,-0.0431901,0.9311299999999999,1.03684
114.936,13.36447,-0.04312595,0.9310200000000001,1.03677
115.036,13.3678,-0.04312756,0.93095,1.03669
115.136,13.371139999999999,-0.04328727,0.9313100000000001,1.03662
115.236,13.374479999999998,-0.04361401,0.9322,1.03655
115.336,13.37783,-0.04399012,0.9332,1.03647
115.436,13.381179999999999,-0.04428861,0.93391,1.0364
115.536,13.384529999999998,-0.04445022,0.93415,1.03633
115.636,13.38788,-0.04451586,0.93414,1.03625
115.736,13.391229999999998,-0.04453413,0.93411,1.0361799999999999
115.836,13.394570000000002,-0.04453703,0.93422,1.03611
115.936,13.397910000000001,-0.04453304,0.93445,1.03603
116.036,13.40125,-0.04452875,0.93481,1.03596
116.136,13.404589999999999,-0.04452764,0.93519,1.03589
116.236,13.40794,-0.04452876,0.9353600000000001,1.03582
116.336,13.41129,-0.04453083,0.9350799999999999,1.0357399999999999
116.436,13.414639999999999,-0.04453243,0.9344,1.03567
116.536,13.41799,-0.04453196,0.93376,1.0356
116.636,13.42133,-0.04452789,0.93361,1.03552
116.736,13.42465,-0.04452256,0.9340299999999999,1.03545
116.836,13.427979999999998,-0.04452332,0.9345399999999999,1.03538
116.936,13.431320000000001,-0.04453748,0.9347,1.0353
117.036,13.43467,-0.04455712,0.9344299999999999,1.0352299999999999
117.136,13.43803,-0.04455418,0.9342299999999999,1.03516
117.236,13.441370000000001,-0.04450082,0.9346,1.03509
117.336,13.444679999999998,-0.04442731,0.93553,1.03501
117.436,13.447989999999999,-0.04443733,0.9363100000000001,1.03494
117.536,13.451310000000001,-0.04463623,0.93624,1.0348700000000002
117.636,13.45465,-0.04500826,0.9352600000000001,1.0348
117.736,13.458,-0.04537759,0.93424,1.03472
117.836,13.46134,-0.04556072,0.9341,1.03465
117.936,13.46468,-0.04550251,0.93501,1.0345799999999998
118.036,13.468010000000001,-0.04531408,0.93624,1.0345
118.136,13.47135,-0.0451162,0.9370200000000001,1.03443
118.236,13.47468,-0.04497549,0.9370299999999999,1.03436
118.336,13.478029999999999,-0.04488886,0.9365899999999999,1.03429
118.436,13.481370000000002,-0.04484851,0.9360299999999999,1.03421
118.536,13.484720000000001,-0.04484238,0.93561,1.03414
118.636,13.48807,-0.04485309,0.93545,1.03407
118.736,13.49141,-0.04486315,0.93566,1.034
118.836,13.49474,-0.04486474,0.93621,1.0339200000000002
118.936,13.498070000000002,-0.04486185,0.9368700000000001,1.03385
119.036,13.5014,-0.04485916,0.93742,1.03378
119.136,13.50474,-0.04485874,0.9377,1.0337100000000001
119.236,13.50808,-0.04485951,0.93763,1.0336299999999998
119.336,13.511429999999999,-0.04486023,0.93716,1.03356
119.436,13.51477,-0.04486034,0.9364399999999999,1.03349
119.536,13.5181,-0.04486013,0.9359299999999999,1.03342
119.636,13.521429999999999,-0.04485994,0.9361,1.03334
119.736,13.52475,-0.04485991,0.9369,1.0332700000000001
119.836,13.528070000000001,-0.04485997,0.93774,1.0332
119.936,13.531379999999999,-0.04486002,0.9379799999999999,1.0331299999999999
120.036,13.5347,-0.04486003,0.93752,1.03305
120.136,13.53803,-0.04486001,0.9369,1.03298
120.236,13.54135,-0.04486,0.9366899999999999,1.03291
120.336,13.544670000000002,-0.04486,0.93701,1.03284
120.436,13.548,-0.04486,0.9374,1.0327600000000001
120.536,13.551329999999998,-0.04486,0.93735,1.0326899999999999
120.636,13.55466,-0.04485999,0.93689,1.03262
120.736,13.55799,-0.04485999,0.93665,1.03255
120.836,13.5613,-0.04486002,0.9373,1.03247
120.936,13.56461,-0.04486006,0.93885,1.0324
121.036,13.567910000000001,-0.04486006,0.9404299999999999,1.03233
121.136,13.57122,-0.04485994,0.94111,1.03226
121.236,13.57453,-0.04485977,0.9406399999999999,1.03219
121.336,13.57784,-0.04485978,0.9396899999999999,1.03211
121.436,13.581170000000002,-0.04486021,0.939,1.03204
121.536,13.584489999999999,-0.04486085,0.9388700000000001,1.03197
121.636,13.58782,-0.04486083,0.9389799999999999,1.0319
121.736,13.59113,-0.04485924,0.93894,1.0318200000000002
121.836,13.594439999999999,-0.04485684,0.9386200000000001,1.03175
121.936,13.59774,-0.04485684,0.9383100000000001,1.03168
122.036,13.60105,-0.04486261,0.9383,1.0316100000000001
122.136,13.604370000000001,-0.04487162,0.93875,1.03154
122.236,13.60769,-0.04487185,0.9395,1.03146
122.336,13.61101,-0.0448507,0.94042,1.03139
122.436,13.614310000000001,-0.04481687,0.9413100000000001,1.03132
122.536,13.61761,-0.04481474,0.9419700000000001,1.03125
122.636,13.620920000000002,-0.0448918,0.94221,1.03118
122.736,13.624229999999999,-0.04506731,0.94201,1.0311
122.836,13.62755,-0.04530956,0.94178,1.03103
122.936,13.63086,-0.04558148,0.9419299999999999,1.03096
123.036,13.634170000000001,-0.04584525,0.9426100000000001,1.0308899999999999
123.136,13.637479999999998,-0.04606154,0.94337,1.03082
123.236,13.640789999999999,-0.04619109,0.94375,1.03074
123.336,13.644110000000001,-0.04622192,0.9435399999999999,1.03067
123.436,13.647429999999998,-0.04619673,0.9431299999999999,1.0306
123.536,13.65075,-0.04616461,0.94299,1.03053
123.636,13.65407,-0.04615603,0.94331,1.03046
123.736,13.657379999999998,-0.04616265,0.94376,1.03039
123.836,13.660689999999999,-0.04617137,0.9439299999999999,1.03031
123.936,13.664,-0.04617386,0.94363,1.03024
124.036,13.6673,-0.04617215,0.9432,1.03017
124.136,13.670620000000001,-0.04616962,0.943,1.0301
124.236,13.67394,-0.04616862,0.94324,1.03003
124.336,13.677270000000002,-0.046169,0.9436700000000001,1.02995
124.436,13.6806,-0.04617027,0.94399,1.02988
124.536,13.683910000000001,-0.04617169,0.94405,1.0298100000000001
124.636,13.68721,-0.04617187,0.94404,1.0297399999999999
124.736,13.69051,-0.04616938,0.94419,1.02967
124.836,13.693810000000001,-0.04616473,0.94465,1.0296
124.936,13.697120000000002,-0.04616345,0.9452799999999999,1.02952
125.036,13.700429999999999,-0.04617184,0.9459200000000001,1.02945
125.136,13.70375,-0.04618898,0.94645,1.02938
125.236,13.707070000000002,-0.04619428,0.9468700000000001,1.02931
125.336,13.71039,-0.04616386,0.9472,1.02924
125.436,13.7137,-0.0460999,0.9474600000000001,1.0291700000000001
125.536,13.71701,-0.04607842,0.9476399999999999,1.0291
125.636,13.720310000000001,-0.0461884,0.94773,1.02902
125.736,13.72362,-0.04647386,0.94775,1.02895
125.836,13.726920000000002,-0.04684313,0.9477899999999999,1.02888
125.936,13.730220000000001,-0.04717901,0.94796,1.02881
126.036,13.73351,-0.04740696,0.94829,1.02874
126.136,13.73681,-0.04759216,0.9485600000000001,1.02867
126.236,13.740089999999999,-0.04782841,0.9485,1.0286
126.336,13.743379999999998,-0.04817136,0.9479799999999999,1.02852
126.436,13.746670000000002,-0.04853683,0.94724,1.02845
126.536,13.749970000000001,-0.04880856,0.94665,1.0283799999999998
126.636,13.753279999999998,-0.0489036,0.9464799999999999,1.02831
126.736,13.75659,-0.04887528,0.94657,1.02824
126.836,13.759879999999999,-0.0488118,0.9466600000000001,1.02817
126.936,13.76315,-0.04878473,0.94658,1.0281
127.036,13.76641,-0.04879141,0.9464100000000001,1.0280200000000002
127.136,13.769670000000001,-0.04880859,0.9463,1.02795
127.236,13.772960000000001,-0.04881657,0.9464,1.02788
127.336,13.77626,-0.04881511,0.9465899999999999,1.0278100000000001
127.436,13.779570000000001,-0.0488105,0.9466899999999999,1.0277399999999999
127.536,13.782879999999999,-0.04880818,0.94658,1.02767
127.636,13.786170000000002,-0.04880847,0.9463799999999999,1.0276
127.736,13.78946,-0.04880979,0.94631,1.0275299999999998
127.836,13.79275,-0.04881074,0.9465600000000001,1.02746
127.936,13.79604,-0.04881089,0.94704,1.02738
128.036,13.799320000000002,-0.04881024,0.94755,1.02731
128.136,13.8026,-0.0488089,0.9479299999999999,1.02724
128.236,13.80587,-0.04880802,0.9481799999999999,1.0271700000000001
128.336,13.80915,-0.04880917,0.94837,1.0271
128.436,13.812429999999999,-0.04881342,0.9485600000000001,1.0270299999999999
128.536,13.815710000000001,-0.04881698,0.94871,1.02696
128.636,13.81899,-0.04881347,0.94868,1.0268899999999999
128.736,13.82228,-0.04879429,0.9483600000000001,1.02682
128.836,13.82557,-0.04872722,0.9479799999999999,1.02674
128.936,13.828870000000002,-0.04856585,0.9479299999999999,1.02667
129.036,13.83216,-0.04827153,0.9485399999999999,1.0266
129.136,13.83545,-0.04790156,0.94949,1.02653
129.236,13.838729999999998,-0.04757703,0.9500200000000001,1.02646
129.336,13.84201,-0.04741196,0.94942,1.02639
129.436,13.845289999999999,-0.04740406,0.94794,1.0263200000000001
129.536,13.84857,-0.04746489,0.94655,1.02625
129.636,13.85184,-0.04750751,0.94616,1.0261799999999999
129.736,13.855129999999999,-0.04750741,0.94684,1.02611
129.836,13.858410000000001,-0.04749307,0.9478700000000001,1.02604
129.936,13.8617,-0.04749331,0.94857,1.02596
130.036,13.864970000000001,-0.04750751,0.94876,1.02589
130.136,13.86825,-0.04750686,0.9487899999999999,1.0258200000000002
130.236,13.87152,-0.04746341,0.94899,1.02575
130.336,13.87478,-0.04740359,0.9494299999999999,1.02568
130.436,13.878039999999999,-0.04741341,0.9497700000000001,1.0256100000000001
130.536,13.8813,-0.04757975,0.9497200000000001,1.02554
130.636,13.88456,-0.04790296,0.94919,1.02547
130.736,13.88783,-0.04827064,0.94844,1.0254
130.836,13.891110000000001,-0.04856387,0.9477200000000001,1.0253299999999999
130.936,13.894379999999998,-0.04872562,0.9472,1.02526
131.036,13.89766,-0.04879357,0.94691,1.02519
131.136,13.90094,-0.0488133,0.94683,1.02512
131.236,13.90421,-0.04881704,0.9469700000000001,1.02505
131.336,13.90748,-0.04881356,0.9472700000000001,1.02498
131.436,13.910739999999999,-0.04880928,0.9476899999999999,1.0249
131.536,13.914,-0.04880813,0.94816,1.02483
131.636,13.91726,-0.048809,0.94855,1.0247600000000001
131.736,13.920520000000002,-0.04881013,0.94875,1.0246899999999999
131.836,13.923779999999999,-0.04881038,0.9486899999999999,1.02462
131.936,13.92705,-0.04881013,0.9484600000000001,1.02455
132.036,13.9303,-0.04881001,0.94815,1.0244799999999998
132.136,13.93356,-0.04881035,0.94784,1.02441
132.236,13.93682,-0.04881058,0.94744,1.02434
132.336,13.940079999999998,-0.04880997,0.94686,1.02427
132.436,13.94334,-0.04880833,0.9460799999999999,1.0242
132.536,13.94661,-0.04880751,0.94545,1.02413
132.636,13.949879999999999,-0.04880983,0.94537,1.02406
132.736,13.95315,-0.048816,0.9461299999999999,1.02399
132.836,13.95641,-0.04881948,0.94739,1.0239200000000002
132.936,13.959670000000001,-0.04881174,0.9486700000000001,1.02385
133.036,13.96294,-0.04878915,0.94952,1.02378
133.136,13.96621,-0.04877464,0.94988,1.0237100000000001
133.236,13.969479999999999,-0.04880015,0.94978,1.0236399999999999
133.336,13.97275,-0.04888946,0.94929,1.02357
133.436,13.97601,-0.04901364,0.9485399999999999,1.0235
133.536,13.979270000000001,-0.0491227,0.94768,1.0234299999999998
133.636,13.982529999999999,-0.04917286,0.9468799999999999,1.02336
133.736,13.98579,-0.04917062,0.94634,1.02329
133.836,13.98906,-0.04914659,0.9462700000000001,1.02322
133.936,13.992329999999999,-0.04912941,0.94683,1.02315
134.036,13.995610000000001,-0.04912698,0.94778,1.02308
134.136,13.998879999999998,-0.04913538,0.9486399999999999,1.02301
134.236,14.00216,-0.04915006,0.94895,1.02294
134.336,14.005429999999999,-0.04916043,0.9486899999999999,1.0228700000000002
134.436,14.00869,-0.04915195,0.9481299999999999,1.0228
134.536,14.01196,-0.04911277,0.94755,1.02273
134.636,14.015220000000001,-0.04907253,0.94709,1.0226600000000001
134.736,14.01849,-0.04909284,0.9468200000000001,1.0225899999999999
134.836,14.02176,-0.04923191,0.9468,1.02252
134.936,14.025020000000001,-0.04946677,0.94701,1.02244
135.036,14.02829,-0.04970089,0.94734,1.02237
135.136,14.03155,-0.04983796,0.9477,1.0223
135.236,14.03481,-0.04985682,0.9479799999999999,1.02224
135.336,14.038070000000001,-0.04981637,0.94804,1.02217
135.436,14.041329999999999,-0.04977852,0.9477700000000001,1.0221
135.536,14.04459,-0.04977179,0.94724,1.02203
135.636,14.04785,-0.04978208,0.94675,1.02196
135.736,14.051110000000001,-0.04979266,0.9466200000000001,1.02189
135.836,14.05436,-0.04979487,0.9468799999999999,1.0218200000000002
135.936,14.05761,-0.04979228,0.94711,1.02175
136.036,14.06086,-0.04978949,0.9468700000000001,1.02168
136.136,14.0641,-0.04978905,0.94605,1.0216100000000001
136.236,14.06734,-0.04978974,0.94521,1.02154
136.336,14.07059,-0.04978992,0.94496,1.02147
136.436,14.073839999999999,-0.04978894,0.94555,1.0214
136.536,14.0771,-0.04978843,0.9464100000000001,1.0213299999999998
136.636,14.08036,-0.04979039,0.94684,1.02126
136.736,14.0836,-0.04979494,0.94644,1.02119
136.836,14.086839999999999,-0.04979679,0.9456200000000001,1.02112
136.936,14.09007,-0.04978971,0.94495,1.02105
137.036,14.0933,-0.04977266,0.94483,1.02098
137.136,14.09653,-0.04976398,0.9450700000000001,1.02091
137.236,14.099770000000001,-0.0497866,0.9453299999999999,1.02084
137.336,14.103010000000001,-0.04985794,0.9453600000000001,1.0207700000000002
137.436,14.10626,-0.04996825,0.94527,1.0207
137.536,14.10951,-0.05009936,0.9453299999999999,1.02063
137.636,14.11275,-0.05023311,0.9457200000000001,1.0205600000000001
137.736,14.11599,-0.05035149,0.9462299999999999,1.02049
137.836,14.11922,-0.05043654,0.9465,1.02042
137.936,14.12246,-0.05047329,0.94624,1.02035
138.036,14.1257,-0.05047187,0.94565,1.0202799999999999
138.136,14.12894,-0.05045502,0.9452200000000001,1.02021
138.236,14.13217,-0.05044412,0.94537,1.02014
138.336,14.13541,-0.05044383,0.94601,1.02007
138.436,14.138639999999999,-0.05044822,0.9467,1.02
138.536,14.14187,-0.05045144,0.9470200000000001,1.01994
138.636,14.1451,-0.05045172,0.94699,1.01987
138.736,14.14834,-0.0504506,0.9469700000000001,1.0198
138.836,14.15158,-0.05044965,0.9473299999999999,1.01973
138.936,14.154829999999999,-0.05044952,0.9480299999999999,1.01966
139.036,14.158079999999998,-0.05044981,0.94865,1.01959
139.136,14.16131,-0.05045009,0.9487700000000001,1.01952
139.236,14.16453,-0.05045015,0.94834,1.01945
139.336,14.16775,-0.05045008,0.94783,1.01938
139.436,14.17099,-0.05044997,0.9477200000000001,1.01931
139.536,14.17423,-0.05044991,0.94816,1.01924
139.636,14.177489999999999,-0.05044992,0.94875,1.0191700000000001
139.736,14.18075,-0.05045004,0.9490299999999999,1.0191
139.836,14.18401,-0.05045021,0.94878,1.0190299999999999
139.936,14.18726,-0.05045024,0.9482200000000001,1.01896
140.036,14.190489999999999,-0.05044992,0.94762,1.0189
140.136,14.193710000000001,-0.0504493,0.9472299999999999,1.01883
140.236,14.196929999999998,-0.05044908,0.94711,1.01876
140.336,14.20015,-0.05045009,0.9473600000000001,1.0186899999999999
140.436,14.20338,-0.0504524,0.94794,1.01862
140.536,14.206620000000001,-0.05045349,0.9485600000000001,1.01855
140.636,14.20985,-0.05045031,0.94886,1.0184799999999998
140.736,14.213070000000002,-0.05044185,0.9486,1.01841
140.836,14.216289999999999,-0.05043677,0.9480700000000001,1.01834
140.936,14.219510000000001,-0.0504465,0.94773,1.01827
141.036,14.22274,-0.05047694,0.94796,1.0182
141.136,14.225979999999998,-0.05049896,0.94857,1.01814
141.236,14.229220000000002,-0.05046972,0.94916,1.01807
141.336,14.232429999999999,-0.05035144,0.94936,1.018
141.436,14.235629999999999,-0.05014961,0.94924,1.01793
141.536,14.23884,-0.04989163,0.94909,1.01786
141.636,14.24206,-0.04960574,0.94916,1.01779
141.736,14.245289999999999,-0.04932875,0.94947,1.0177200000000002
141.836,14.248529999999999,-0.04910342,0.9498700000000001,1.01765
141.936,14.25177,-0.04897082,0.9502,1.01758
142.036,14.25501,-0.04893804,0.95035,1.0175100000000001
142.136,14.258239999999999,-0.04898217,0.95024,1.01745
142.236,14.261470000000001,-0.04907911,0.94981,1.01738
142.336,14.26469,-0.0491999,0.94919,1.01731
142.436,14.2679,-0.04931019,0.9487399999999999,1.01724
142.536,14.27111,-0.04937574,0.94884,1.0171700000000001
142.636,14.274320000000001,-0.04938701,0.94955,1.0171
142.736,14.27752,-0.04937134,0.9504600000000001,1.0170299999999999
142.836,14.280729999999998,-0.04935899,0.95114,1.01696
142.936,14.28395,-0.04936465,0.95135,1.01689
143.036,14.28718,-0.04937089,0.95129,1.01683
143.136,14.2904,-0.04935631,0.9512,1.01676
143.236,14.293629999999999,-0.0493176,0.9512799999999999,1.0166899999999999
143.336,14.29685,-0.04930133,0.9515899999999999,1.01662
143.436,14.300070000000002,-0.0493626,0.9521799999999999,1.01655
143.536,14.3033,-0.04953484,0.9530200000000001,1.0164799999999998
143.636,14.30652,-0.04977041,0.9536899999999999,1.01641
143.736,14.309729999999998,-0.05000266,0.95373,1.01635
143.836,14.31293,-0.05017518,0.95283,1.0162799999999999
143.936,14.316120000000002,-0.05028419,0.9515100000000001,1.01621
144.036,14.319320000000001,-0.05034282,0.9505600000000001,1.01614
144.136,14.32255,-0.05036433,0.95068,1.01607
144.236,14.325779999999998,-0.05036278,0.9516399999999999,1.016
144.336,14.329020000000002,-0.05035261,0.95283,1.01593
144.436,14.332239999999999,-0.05034714,0.9536899999999999,1.01587
144.536,14.33544,-0.05034806,0.9541299999999999,1.0158
144.636,14.338629999999998,-0.05035011,0.9543799999999999,1.01573
144.736,14.34181,-0.05034832,0.95465,1.01566
144.836,14.34501,-0.05034424,0.95496,1.01559
144.936,14.3482,-0.05034489,0.9551200000000001,1.01552
145.036,14.351410000000001,-0.05035792,0.95495,1.01545
145.136,14.354610000000001,-0.05040626,0.95452,1.01539
145.236,14.357820000000002,-0.05053077,0.95416,1.01532
145.336,14.36103,-0.05077245,0.9542200000000001,1.01525
145.436,14.36423,-0.05111684,0.9548,1.01518
145.536,14.36744,-0.05146055,0.95562,1.01511
145.636,14.37064,-0.05169249,0.95636,1.01504
145.736,14.37385,-0.05175624,0.9568200000000001,1.01498
145.836,14.37706,-0.05171698,0.95706,1.01491
145.936,14.38025,-0.05165633,0.9572,1.01484
146.036,14.38344,-0.05163426,0.95731,1.0147700000000002
146.136,14.386629999999998,-0.05164248,0.9574299999999999,1.0147
146.236,14.38982,-0.05165924,0.95757,1.01463
146.336,14.393020000000002,-0.05166665,0.95775,1.01457
146.436,14.396239999999999,-0.05166516,0.95791,1.0145
146.536,14.39945,-0.05166065,0.9579700000000001,1.01443
146.636,14.402660000000001,-0.05165829,0.95788,1.01436
146.736,14.405870000000002,-0.05165849,0.9577100000000001,1.01429
146.836,14.40906,-0.05165969,0.9576,1.01423
146.936,14.41226,-0.05166043,0.95768,1.01416
147.036,14.41545,-0.05166044,0.9579200000000001,1.01409
147.136,14.41865,-0.05166013,0.95824,1.0140200000000001
147.236,14.42184,-0.0516599,0.95855,1.01395
147.336,14.42505,-0.05165988,0.9587899999999999,1.01388
147.436,14.42825,-0.05165996,0.95893,1.0138200000000002
147.536,14.431460000000001,-0.05166002,0.95895,1.01375
147.636,14.434660000000001,-0.05166004,0.9588899999999999,1.01368
147.736,14.437870000000002,-0.05166002,0.9588700000000001,1.0136100000000001
147.836,14.44106,-0.05166,0.95905,1.0135399999999999
147.936,14.44425,-0.05165999,0.95945,1.01348
148.036,14.447429999999999,-0.05166,0.95994,1.0134100000000001
148.136,14.45062,-0.05166,0.96039,1.01334
148.236,14.45382,-0.05166001,0.9607399999999999,1.0132700000000001
148.336,14.45703,-0.05166001,0.9611200000000001,1.0132
148.436,14.46023,-0.05166,0.9617,1.01314
148.536,14.463420000000001,-0.05165999,0.96254,1.0130700000000001
148.636,14.46662,-0.05165998,0.96339,1.013
148.736,14.46981,-0.05166,0.96393,1.0129299999999999
148.836,14.47301,-0.05166005,0.96395,1.0128700000000002
148.936,14.4762,-0.05166007,0.9637399999999999,1.0128
149.036,14.4794,-0.05166002,0.9637100000000001,1.01273
149.136,14.48259,-0.05165986,0.96424,1.0126600000000001
149.236,14.485779999999998,-0.05165973,0.96514,1.0125899999999999
149.336,14.488970000000002,-0.05165987,0.9660299999999999,1.01253
149.436,14.492170000000002,-0.05166043,0.96655,1.0124600000000001
149.536,14.495379999999999,-0.05166097,0.9666799999999999,1.01239
149.636,14.49859,-0.05166064,0.96665,1.01232
149.736,14.50179,-0.05165871,0.9666600000000001,1.01226
149.836,14.50499,-0.05165651,0.9667399999999999,1.01219
149.936,14.50818,-0.05165715,0.9667399999999999,1.0121200000000001
150.036,14.511370000000001,-0.0516636,0.9665299999999999,1.01205
150.136,14.514560000000001,-0.05167234,0.96616,1.0119799999999999
150.236,14.51775,-0.05167204,0.9658899999999999,1.0119200000000002
150.336,14.52094,-0.05165116,0.96599,1.01185
150.436,14.52414,-0.0516174,0.96655,1.01178
150.536,14.52733,-0.05161159,0.96729,1.01171
150.636,14.530529999999999,-0.05167774,0.9679,1.01165
150.736,14.53372,-0.05183915,0.9682,1.01158
150.836,14.53692,-0.05206809,0.9683700000000001,1.0115100000000001
150.936,14.54011,-0.05232913,0.9686100000000001,1.01144
151.036,14.54331,-0.05258724,0.96905,1.01138
151.136,14.5465,-0.05280881,0.96952,1.01131
151.236,14.5497,-0.05296058,0.96975,1.01124
151.336,14.5529,-0.05301874,0.9695799999999999,1.0111700000000001
151.436,14.5561,-0.05300968,0.96921,1.01111
151.536,14.559289999999999,-0.05297639,0.969,1.01104
151.636,14.562470000000001,-0.0529576,0.9692299999999999,1.0109700000000001
151.736,14.56564,-0.05295822,0.9697600000000001,1.0109
151.836,14.56882,-0.05296696,0.97025,1.01084
151.936,14.57199,-0.05297303,0.9703700000000001,1.0107700000000002
152.036,14.575170000000002,-0.05297355,0.9702200000000001,1.0107
152.136,14.578339999999999,-0.0529713,0.9702,1.01063
152.236,14.58151,-0.05296914,0.97067,1.01057
152.336,14.584679999999999,-0.05296843,0.9716299999999999,1.0105
152.436,14.58785,-0.05296901,0.9726799999999999,1.01043
152.536,14.59102,-0.05297061,0.97339,1.01037
152.636,14.59421,-0.05297236,0.9736100000000001,1.0103
152.736,14.5974,-0.05297247,0.97359,1.01023
152.836,14.600589999999999,-0.05296902,0.9736600000000001,1.01016
152.936,14.60377,-0.05296279,0.97395,1.0101
153.036,14.60694,-0.05296073,0.97424,1.01003
153.136,14.610120000000002,-0.05297069,0.97421,1.00996
153.236,14.6133,-0.05299355,0.97372,1.0099
153.336,14.61648,-0.05300539,0.97308,1.00983
153.436,14.619660000000001,-0.05297674,0.9727100000000001,1.00976
153.536,14.62284,-0.05288713,0.97296,1.00969
153.636,14.62601,-0.05276583,0.9738,1.00963
153.736,14.62919,-0.05265927,0.97503,1.00956
153.836,14.63236,-0.05260867,0.97646,1.00949
153.936,14.63553,-0.05260907,0.9777399999999999,1.0094299999999998
154.036,14.6387,-0.05263133,0.97844,1.00936
154.136,14.641860000000001,-0.05264736,0.97815,1.00929
154.236,14.645029999999998,-0.05264888,0.9771,1.00922
154.336,14.6482,-0.05264331,0.9759899999999999,1.00916
154.436,14.651370000000002,-0.0526384,0.97552,1.00909
154.536,14.65456,-0.05263752,0.9759,1.00902
154.636,14.657739999999999,-0.05263886,0.97672,1.00896
154.736,14.66092,-0.05264031,0.97754,1.00889
154.836,14.66409,-0.05264068,0.9781,1.00882
154.936,14.667270000000002,-0.05264037,0.9784,1.00876
155.036,14.67045,-0.05263995,0.9785,1.0086899999999999
155.136,14.67363,-0.05263982,0.9785,1.00862
155.236,14.676820000000001,-0.05263988,0.97867,1.00855
155.336,14.68,-0.05264,0.9792700000000001,1.0084899999999999
155.436,14.68317,-0.05264005,0.98045,1.00842
155.536,14.686329999999998,-0.05264004,0.98177,1.00835
155.636,14.68949,-0.05264,0.9826600000000001,1.00829
155.736,14.69266,-0.05263998,0.98265,1.0082200000000001
155.836,14.695829999999999,-0.05263998,0.9820200000000001,1.00815
155.936,14.699010000000001,-0.05263999,0.98134,1.00809
156.036,14.70219,-0.05264001,0.98116,1.0080200000000001
156.136,14.705370000000002,-0.05264002,0.98155,1.00795
156.236,14.70856,-0.05264001,0.9823200000000001,1.00789
156.336,14.711739999999999,-0.05263997,0.9833,1.0078200000000002
156.436,14.714929999999999,-0.05263992,0.9841799999999999,1.00775
156.536,14.71812,-0.05263993,0.9846,1.00769
156.636,14.7213,-0.05264007,0.98421,1.0076200000000002
156.736,14.724470000000002,-0.05264027,0.98315,1.00755
156.836,14.72764,-0.05264027,0.98219,1.00749
156.936,14.73081,-0.05263983,0.98213,1.00742
157.036,14.733989999999999,-0.05263908,0.9832299999999999,1.00735
157.136,14.73717,-0.0526389,0.9847299999999999,1.00729
157.236,14.74036,-0.05264026,0.98572,1.00722
157.336,14.74355,-0.05264308,0.98572,1.00715
157.436,14.746739999999999,-0.05264426,0.9853,1.00709
157.536,14.749929999999999,-0.05264017,0.9852799999999999,1.00702
157.636,14.753110000000001,-0.05262984,0.9862,1.00695
157.736,14.756279999999999,-0.0526237,0.98766,1.00689
157.836,14.75945,-0.05263522,0.9889700000000001,1.00682
157.936,14.762620000000002,-0.05267186,0.98955,1.00675
158.036,14.76578,-0.0527005,0.9896,1.0066899999999999
158.136,14.76895,-0.0526711,0.9896299999999999,1.00662
158.236,14.772120000000001,-0.0525392,0.9900899999999999,1.0065600000000001
158.336,14.7753,-0.05232505,0.9908299999999999,1.0064899999999999
158.436,14.77849,-0.05209045,0.9913,1.00642
158.536,14.78168,-0.05189603,0.99098,1.0063600000000001
158.636,14.78486,-0.05176536,0.9900100000000001,1.00629
158.736,14.788039999999999,-0.05168731,0.98913,1.0062200000000001
158.836,14.791210000000001,-0.05164945,0.9891200000000001,1.00616
158.936,14.79437,-0.05164002,0.9901,1.00609
159.036,14.79751,-0.05164818,0.99136,1.0060200000000001
159.136,14.80066,-0.05166319,0.99216,1.00596
159.236,14.803820000000002,-0.05167518,0.9921200000000001,1.00589
159.336,14.80698,-0.05167626,0.9917600000000001,1.00583
159.436,14.810139999999999,-0.05165876,0.9917100000000001,1.00576
159.536,14.8133,-0.05162433,0.99241,1.00569
159.636,14.816460000000001,-0.05160727,0.99359,1.00563
159.736,14.81962,-0.05164906,0.9948299999999999,1.00556
159.836,14.822779999999998,-0.05178267,0.99575,1.00549
159.936,14.82594,-0.05199224,0.99626,1.0054299999999998
160.036,14.8291,-0.05224449,0.9963700000000001,1.00536
160.136,14.83225,-0.05250614,0.99608,1.0053
160.236,14.8354,-0.05274403,0.9955799999999999,1.0052299999999998
160.336,14.83855,-0.05292505,0.99513,1.00516
160.436,14.84171,-0.05301807,0.9949600000000001,1.0051
160.536,14.844879999999998,-0.05302969,0.99518,1.0050299999999999
160.636,14.84805,-0.05300034,0.99571,1.0049700000000001
160.736,14.851220000000001,-0.05297121,0.99649,1.0049
160.836,14.854379999999999,-0.05296322,0.99739,1.00483
160.936,14.85754,-0.05296995,0.99821,1.0047700000000002
161.036,14.8607,-0.05298303,0.99876,1.0047
161.136,14.86386,-0.0529942,0.99895,1.00464
161.236,14.867020000000002,-0.05299536,0.99898,1.00457
161.336,14.870170000000002,-0.05297845,0.99908,1.0045
161.436,14.873320000000001,-0.05294488,0.9994,1.00444
161.536,14.87646,-0.05292822,0.9998299999999999,1.00437
161.636,14.8796,-0.05296883,1.0002,1.00431
161.736,14.882760000000001,-0.05309904,1.00039,1.00424
161.836,14.88591,-0.05330421,1.00043,1.00417
161.936,14.88906,-0.05355264,1.00043,1.00411
162.036,14.892220000000002,-0.05381251,1.00051,1.00404
162.136,14.89536,-0.0540506,1.00068,1.0039799999999999
162.236,14.89851,-0.05423292,1.00092,1.00391
162.336,14.901660000000001,-0.05432733,1.00118,1.00384
162.436,14.904810000000001,-0.05433953,1.00149,1.00378
162.536,14.90797,-0.05431058,1.00189,1.00371
162.636,14.91114,-0.05428245,1.00241,1.00365
162.736,14.91431,-0.05427628,1.00305,1.00358
162.836,14.91748,-0.05428301,1.00376,1.00352
162.936,14.920639999999999,-0.05429126,1.0044799999999998,1.00345
163.036,14.9238,-0.05429375,1.00512,1.00338
163.136,14.92695,-0.05429229,1.00557,1.00332
163.236,14.93011,-0.05428994,1.0057,1.00325
163.336,14.93326,-0.05428901,1.00549,1.00319
163.436,14.936420000000002,-0.05428928,1.00531,1.00312
163.536,14.939589999999999,-0.05428993,1.0056200000000002,1.00306
163.636,14.942739999999999,-0.05429025,1.00673,1.00299
163.736,14.9459,-0.05429022,1.00833,1.00292
163.836,14.94905,-0.05429005,1.00981,1.00286
163.936,14.952210000000001,-0.05428994,1.01064,1.00279
164.036,14.95536,-0.05428993,1.01074,1.00273
164.136,14.958520000000002,-0.05428998,1.0103,1.00266
164.236,14.96168,-0.05429002,1.00952,1.0026
164.336,14.964839999999999,-0.05429004,1.00868,1.00253
164.436,14.968,-0.05429003,1.0081200000000001,1.00247
164.536,14.971160000000001,-0.05428998,1.0081799999999999,1.0024
164.636,14.97432,-0.05428991,1.0089,1.00233
164.736,14.977479999999998,-0.05428991,1.0098200000000002,1.00227
164.836,14.98064,-0.05429004,1.01047,1.0022
164.936,14.98381,-0.05429029,1.0105899999999999,1.00214
165.036,14.986979999999999,-0.05429036,1.01035,1.00207
165.136,14.99014,-0.05428997,1.01001,1.00201
165.236,14.99329,-0.05428907,1.0098,1.00194
165.336,14.99644,-0.05428859,1.00994,1.0018799999999999
165.436,14.999579999999998,-0.05428967,1.01065,1.00181
165.536,15.002720000000002,-0.05429287,1.01207,1.00175
165.636,15.00585,-0.05429526,1.01375,1.00168
165.736,15.009,-0.0542926,1.0150299999999999,1.0016100000000001
165.836,15.01215,-0.05428172,1.01534,1.00155
165.936,15.0153,-0.05427114,1.01478,1.00148
166.036,15.018460000000001,-0.05427665,1.01391,1.00142
166.136,15.02161,-0.05431247,1.0132700000000001,1.00135
166.236,15.02476,-0.05435626,1.0131700000000001,1.00129
166.336,15.02791,-0.05435023,1.01365,1.00122
166.436,15.031070000000001,-0.05423609,1.0147700000000002,1.00116
166.536,15.034229999999999,-0.05401406,1.01635,1.00109
166.636,15.03739,-0.05377363,1.01796,1.0010299999999999
166.736,15.04055,-0.05361172,1.01911,1.00096
166.836,15.0437,-0.05359492,1.01956,1.0009
166.936,15.04686,-0.05371684,1.01958,1.0008299999999999
167.036,15.05,-0.05396033,1.01955,1.0007700000000002
167.136,15.05315,-0.05429592,1.0197399999999999,1.0007
167.236,15.056289999999999,-0.05464488,1.0200200000000001,1.00064
167.336,15.059429999999999,-0.05491623,1.02016,1.0005700000000002
167.436,15.062570000000001,-0.05503405,1.01997,1.00051
167.536,15.065710000000001,-0.05502729,1.01955,1.00044
167.636,15.06885,-0.05496944,1.0191299999999999,1.0003799999999998
167.736,15.07199,-0.05493024,1.0189,1.00031
167.836,15.07513,-0.05492735,1.01902,1.00025
167.936,15.078270000000002,-0.05494181,1.0196100000000001,1.0001799999999998
168.036,15.08141,-0.05495421,1.02078,1.0001200000000001
168.136,15.08456,-0.05495639,1.02234,1.00005
168.236,15.087720000000001,-0.05495297,1.02378,0.9999899999999999
168.336,15.09087,-0.05494923,1.0245600000000001,0.99992
168.436,15.09401,-0.05494823,1.02451,0.9998600000000001
168.536,15.09715,-0.05494899,1.02405,0.99979
168.636,15.10029,-0.05495008,1.02368,0.9997299999999999
168.736,15.103420000000002,-0.05495047,1.02376,0.99966
168.836,15.10655,-0.05495033,1.02423,0.9996
168.936,15.109679999999999,-0.05495002,1.02498,0.9995299999999999
169.036,15.112810000000001,-0.05494988,1.02586,0.9994700000000001
169.136,15.11595,-0.0549499,1.02667,0.9994
169.236,15.119079999999999,-0.05494998,1.02715,0.99934
169.336,15.12222,-0.05495003,1.02712,0.9992700000000001
169.436,15.12535,-0.05495003,1.02681,0.99921
169.536,15.12848,-0.05495001,1.02668,0.9991399999999999
169.636,15.13161,-0.05494999,1.0272,0.99908
169.736,15.13473,-0.05494999,1.02827,0.9990100000000001
169.836,15.13786,-0.05495,1.02926,0.99895
169.936,15.141,-0.05495,1.02952,0.9988799999999999
170.036,15.14414,-0.05495,1.02892,0.99882
170.136,15.147279999999999,-0.05495,1.0281200000000001,0.99875
170.236,15.150429999999998,-0.05495,1.02787,0.99869
170.336,15.153570000000002,-0.05495,1.0285799999999998,0.9986299999999999
170.436,15.15671,-0.05495,1.02975,0.99856
170.536,15.15985,-0.05495,1.03072,0.9985
170.636,15.162989999999999,-0.05494999,1.031,0.9984299999999999
170.736,15.166129999999999,-0.05494999,1.03086,0.9983700000000001
170.836,15.169260000000001,-0.05494999,1.03074,0.9983
170.936,15.1724,-0.05495002,1.0310700000000002,0.99824
171.036,15.17554,-0.05495004,1.0318200000000002,0.9981700000000001
171.136,15.178679999999998,-0.05495002,1.03274,0.99811
171.236,15.181820000000002,-0.05494994,1.03357,0.9980399999999999
171.336,15.18495,-0.05494985,1.03421,0.99798
171.436,15.188089999999999,-0.05494987,1.03467,0.9979100000000001
171.536,15.19123,-0.05495013,1.03496,0.99785
171.636,15.194370000000001,-0.05495051,1.03512,0.99779
171.736,15.19752,-0.05495054,1.03528,0.99772
171.836,15.200660000000001,-0.05494974,1.0355299999999998,0.99766
171.936,15.2038,-0.05494831,1.03591,0.99759
172.036,15.206929999999998,-0.05494783,1.0362799999999999,0.9975299999999999
172.136,15.21006,-0.05495008,1.03645,0.99746
172.236,15.2132,-0.05495536,1.03634,0.9974
172.336,15.21633,-0.05495834,1.03616,0.99734
172.436,15.219470000000001,-0.05495237,1.0362200000000001,0.9972700000000001
172.536,15.222610000000001,-0.05493379,1.03675,0.99721
172.636,15.22574,-0.05491915,1.03757,0.9971399999999999
172.736,15.228879999999998,-0.05493324,1.03839,0.99708
172.836,15.23201,-0.0549984,1.0388899999999999,0.9970100000000001
172.936,15.23515,-0.05510529,1.0391,0.99695
173.036,15.23829,-0.05522275,1.03926,0.9968799999999999
173.136,15.24143,-0.05532034,1.0396,0.99682
173.236,15.244570000000001,-0.05540004,1.04013,0.9967600000000001
173.336,15.247710000000001,-0.0555004,1.04061,0.99669
173.436,15.25085,-0.05566158,1.0407799999999998,0.9966299999999999
173.536,15.253979999999999,-0.05588767,1.04061,0.99656
173.636,15.25711,-0.05611646,1.04043,0.9965
173.736,15.26024,-0.05627864,1.04065,0.99644
173.836,15.263379999999998,-0.05633065,1.04148,0.9963700000000001
173.936,15.26651,-0.05631067,1.0426600000000001,0.99631
174.036,15.269639999999999,-0.05627302,1.0438,0.99624
174.136,15.27276,-0.05626275,1.04459,0.99618
174.236,15.275879999999999,-0.05627213,1.0449700000000002,0.99611
174.336,15.279,-0.05627485,1.04498,0.99605
174.436,15.28212,-0.05624866,1.04467,0.9959899999999999
174.536,15.28524,-0.05621629,1.0442799999999999,0.99592
174.636,15.28837,-0.05622863,1.04417,0.9958600000000001
174.736,15.29149,-0.05633497,1.0446799999999998,0.99579
174.836,15.294620000000002,-0.05653282,1.04574,0.9957299999999999
174.936,15.29774,-0.05676483,1.04687,0.99567
175.036,15.30086,-0.05697125,1.04759,0.9956
175.136,15.303989999999999,-0.05711605,1.0477,0.99554
175.236,15.30711,-0.05720597,1.04754,0.9954700000000001
175.336,15.31024,-0.05725226,1.0475,0.99541
175.436,15.31337,-0.05726657,1.04785,0.99535
175.536,15.31649,-0.05726179,1.04843,0.9952799999999999
175.636,15.31961,-0.0572511,1.049,0.9952200000000001
175.736,15.32272,-0.05724579,1.04938,0.99515
175.836,15.325829999999998,-0.0572463,1.04962,0.9950899999999999
175.936,15.32894,-0.05724913,1.0499100000000001,0.99503
176.036,15.33205,-0.05725098,1.05039,0.9949600000000001
176.136,15.335170000000002,-0.0572511,1.05092,0.9949
176.236,15.338289999999999,-0.0572504,1.05115,0.99484
176.336,15.34141,-0.05724979,1.05077,0.99477
176.436,15.344529999999999,-0.05724969,1.04987,0.99471
176.536,15.34765,-0.05724985,1.049,0.99464
176.636,15.35077,-0.05725003,1.0487600000000001,0.9945799999999999
176.736,15.35389,-0.05725009,1.04941,0.9945200000000001
176.836,15.35701,-0.05725005,1.05055,0.99445
176.936,15.36014,-0.05725,1.0517100000000001,0.99439
177.036,15.36328,-0.05724998,1.05254,0.9943299999999999
177.136,15.36643,-0.05724998,1.05311,0.99426
177.236,15.369570000000001,-0.05725,1.0535700000000001,0.9942
177.336,15.372710000000001,-0.05725001,1.0540399999999999,0.99413
177.436,15.37584,-0.05725001,1.0544799999999999,0.9940700000000001
177.536,15.37897,-0.05725,1.05477,0.9940100000000001
177.636,15.3821,-0.05725,1.0548,0.9939399999999999
177.736,15.38522,-0.05725,1.0546200000000001,0.9938799999999999
177.836,15.38835,-0.05725,1.05436,0.99382
177.936,15.39146,-0.05725,1.05418,0.99375
178.036,15.394570000000002,-0.05725,1.05417,0.99369
178.136,15.39768,-0.05725,1.05443,0.9936299999999999
178.236,15.400789999999999,-0.05725,1.05505,0.99356
178.336,15.40391,-0.05725,1.05598,0.9935
178.436,15.40704,-0.05725,1.0569899999999999,0.9934299999999999
178.536,15.410179999999999,-0.05725,1.0578100000000001,0.9933700000000001
178.636,15.41332,-0.05725,1.0582799999999999,0.99331
178.736,15.41647,-0.05725,1.05857,0.99324
178.836,15.4196,-0.05725,1.05891,0.99318
178.936,15.42273,-0.05725,1.05949,0.9931200000000001
179.036,15.42585,-0.05725,1.06016,0.99305
179.136,15.428970000000001,-0.05725,1.06066,0.9929899999999999
179.236,15.432089999999999,-0.05725,1.06074,0.99293
179.336,15.435210000000001,-0.05725,1.06057,0.9928600000000001
179.436,15.438329999999999,-0.05725,1.06056,0.9928
179.536,15.44145,-0.05725,1.06112,0.99274
179.636,15.44457,-0.05725,1.06217,0.99267
179.736,15.44769,-0.05725,1.06316,0.99261
179.836,15.45081,-0.05725,1.06349,0.99255
179.936,15.45391,-0.05725,1.0629899999999999,0.9924799999999999
180.036,15.457020000000002,-0.05725,1.06231,0.9924200000000001
180.136,15.46013,-0.05725,1.06218,0.99236
180.236,15.463239999999999,-0.05725,1.0630600000000001,0.99229
180.336,15.46635,-0.05725,1.0645200000000001,0.99223
180.436,15.469470000000001,-0.05725,1.0659,0.9921700000000001
180.536,15.47259,-0.05725,1.06663,0.9921
180.636,15.475710000000001,-0.05725,1.06673,0.9920399999999999
180.736,15.478829999999999,-0.05725,1.06644,0.99198
180.836,15.48196,-0.05725,1.06603,0.9919100000000001
180.936,15.485079999999998,-0.05725,1.06578,0.99185
181.036,15.48821,-0.05725,1.06602,0.99179
181.136,15.49133,-0.05725,1.06707,0.99172
181.236,15.49445,-0.05724999,1.06874,0.99166
181.336,15.49756,-0.05724999,1.07033,0.9916
181.436,15.50066,-0.05725001,1.07105,0.99154
181.536,15.50376,-0.05725004,1.07059,0.9914700000000001
181.636,15.50685,-0.05725005,1.06962,0.99141
181.736,15.50995,-0.05725,1.06889,0.99135
181.836,15.51305,-0.05724989,1.06901,0.9912799999999999
181.936,15.51615,-0.05724982,1.0697,0.9912200000000001
182.036,15.519260000000001,-0.05724993,1.0705,0.99116
182.136,15.52236,-0.05725032,1.071,0.9910899999999999
182.236,15.52546,-0.05725066,1.0712,0.99103
182.336,15.52856,-0.05725044,1.07135,0.99097
182.436,15.531670000000002,-0.05724919,1.0716700000000001,0.9909
182.536,15.53478,-0.0572477,1.07219,0.9908399999999999
182.636,15.537889999999999,-0.05724791,1.07274,0.9907799999999999
182.736,15.541,-0.05725171,1.07315,0.99072
182.836,15.54411,-0.05725766,1.07338,0.99065
182.936,15.54721,-0.05725891,1.0735700000000001,0.99059
183.036,15.550320000000001,-0.05724814,1.0739,0.9905299999999999
183.136,15.553420000000001,-0.05722575,1.07444,0.99046
183.236,15.556529999999999,-0.05721485,1.0749799999999998,0.9904
183.336,15.559629999999999,-0.05724275,1.07524,0.99034
183.436,15.56272,-0.05732878,1.07505,0.9902799999999999
183.536,15.56581,-0.05744644,1.07474,0.99021
183.636,15.5689,-0.05755289,1.07484,0.99015
183.736,15.57199,-0.05760838,1.0758,0.9900899999999999
183.836,15.5751,-0.05761258,1.07742,0.9900200000000001
183.936,15.5782,-0.05759226,1.07897,0.9899600000000001
184.036,15.5813,-0.0575743,1.0797700000000001,0.9899
184.136,15.5844,-0.05757073,1.0797,0.9898399999999999
184.236,15.5875,-0.05757534,1.07931,0.98977
184.336,15.5906,-0.05758078,1.07924,0.9897100000000001
184.436,15.5937,-0.05758235,1.07981,0.98965
184.536,15.596810000000001,-0.05758138,1.08066,0.98959
184.636,15.599910000000001,-0.05758002,1.08136,0.9895200000000001
184.736,15.603010000000001,-0.05757993,1.08158,0.98946
184.836,15.606110000000001,-0.05758044,1.08149,0.9894
184.936,15.609210000000001,-0.05758029,1.08139,0.98934
185.036,15.61231,-0.05757852,1.08155,0.9892700000000001
185.136,15.6154,-0.05757668,1.08195,0.98921
185.236,15.6185,-0.05757766,1.0824,0.98915
185.336,15.6216,-0.05758405,1.08275,0.98908
185.436,15.6247,-0.05759199,1.08299,0.9890200000000001
185.536,15.62779,-0.0575914,1.0832700000000002,0.9889600000000001
185.636,15.630870000000002,-0.05757217,1.08376,0.9889
185.736,15.63395,-0.0575405,1.08449,0.9888299999999999
185.836,15.63703,-0.05753154,1.0852899999999999,0.98877
185.936,15.64011,-0.05758342,1.08598,0.9887100000000001
186.036,15.6432,-0.05772241,1.08643,0.98865
186.136,15.6463,-0.05793229,1.0867,0.9885799999999999
186.236,15.6494,-0.05818735,1.08692,0.9885200000000001
186.336,15.6525,-0.05846468,1.0871899999999999,0.98846
186.436,15.655610000000001,-0.0587619,1.08748,0.9884
186.536,15.658710000000001,-0.05908567,1.08771,0.98834
186.636,15.6618,-0.05944046,1.0878,0.9882700000000001
186.736,15.66489,-0.05979495,1.08778,0.98821
186.836,15.667979999999998,-0.06008906,1.08775,0.98815
186.936,15.67106,-0.0602627,1.08784,0.9880899999999999
187.036,15.67414,-0.06030259,1.08809,0.9880200000000001
187.136,15.677229999999998,-0.060266,1.08845,0.9879600000000001
187.236,15.680320000000002,-0.06021606,1.08885,0.9879
187.336,15.68341,-0.060198,1.08925,0.9878399999999999
187.436,15.68651,-0.06020448,1.0896700000000001,0.98777
187.536,15.6896,-0.06021853,1.0901299999999998,0.9877100000000001
187.636,15.6927,-0.06022553,1.09063,0.98765
187.736,15.6958,-0.06022492,1.0910799999999998,0.98759
187.836,15.698889999999999,-0.06022121,1.09136,0.9875200000000001
187.936,15.701979999999999,-0.06021871,1.09133,0.98746
188.036,15.705060000000001,-0.06021848,1.09115,0.9874
188.136,15.70814,-0.06021939,1.0910799999999998,0.98734
188.236,15.71122,-0.06022028,1.09142,0.9872799999999999
188.336,15.7143,-0.06022053,1.09222,0.98721
188.436,15.717379999999999,-0.06022034,1.09321,0.98715
188.536,15.72047,-0.06021993,1.0941,0.9870899999999999
188.636,15.72357,-0.06021953,1.0947,0.98703
188.736,15.72667,-0.06021944,1.09513,0.9869700000000001
188.836,15.729779999999998,-0.06021993,1.09554,0.9869
188.936,15.732870000000002,-0.06022109,1.0960299999999998,0.9868399999999999
189.036,15.73596,-0.06022187,1.0965,0.9867799999999999
189.136,15.73904,-0.06022088,1.09676,0.98672
189.236,15.742120000000002,-0.06021712,1.09666,0.98665
189.336,15.74519,-0.0602134,1.09635,0.98659
189.436,15.748270000000002,-0.06021493,1.09615,0.9865299999999999
189.536,15.75136,-0.06022655,1.0964,0.9864700000000001
189.636,15.75446,-0.06024217,1.09713,0.98641
189.736,15.75756,-0.06024286,1.09808,0.98634
189.836,15.76065,-0.06020914,1.09894,0.9862799999999999
189.936,15.763739999999999,-0.06014838,1.09953,0.9862200000000001
190.036,15.766829999999999,-0.06012605,1.09986,0.98616
190.136,15.769910000000001,-0.06021522,1.09998,0.9861
190.236,15.773,-0.06046251,1.09998,0.9860399999999999
190.336,15.77609,-0.06079956,1.10016,0.9859700000000001
190.436,15.77917,-0.06112681,1.10086,0.9859100000000001
190.536,15.78226,-0.06135364,1.10235,0.98585
190.636,15.78534,-0.06147248,1.10415,0.9857899999999999
190.736,15.788429999999998,-0.06152058,1.1053899999999999,0.9857299999999999
190.836,15.791520000000002,-0.06153503,1.1052,0.9856600000000001
190.936,15.794620000000002,-0.06153745,1.10368,0.9856
191.036,15.797720000000002,-0.0615337,1.10189,0.98554
191.136,15.80081,-0.06152893,1.1009200000000001,0.9854799999999999
191.236,15.803889999999999,-0.06152659,1.1012899999999999,0.9854200000000001
191.336,15.806970000000002,-0.06152699,1.10247,0.98535
191.436,15.81005,-0.06153007,1.1038299999999999,0.98529
191.536,15.81313,-0.06153493,1.10483,0.9852299999999999
191.636,15.81621,-0.06153743,1.1054899999999999,0.9851700000000001
191.736,15.819289999999999,-0.06153265,1.10591,0.98511
191.836,15.822370000000001,-0.06151312,1.1062,0.98505
191.936,15.825460000000001,-0.06145063,1.1064399999999999,0.98498
192.036,15.82855,-0.06130686,1.10667,0.98492
192.136,15.831629999999999,-0.06104685,1.10695,0.9848600000000001
192.236,15.83472,-0.0607046,1.1072799999999998,0.9848
192.336,15.8378,-0.06037806,1.1076,0.98474
192.436,15.840879999999999,-0.06016693,1.1078700000000001,0.9846799999999999
192.536,15.84395,-0.06011222,1.1081,0.98461
192.636,15.84702,-0.06015142,1.10838,0.98455
192.736,15.8501,-0.06021151,1.10884,0.98449
192.836,15.853179999999998,-0.0602363,1.10954,0.9844299999999999
192.936,15.85626,-0.06023067,1.1103399999999999,0.9843700000000001
193.036,15.85934,-0.06021341,1.11106,0.98431
193.136,15.862420000000002,-0.06020163,1.11156,0.98425
193.236,15.8655,-0.06019952,1.11179,0.9841799999999999
193.336,15.86858,-0.06020524,1.11184,0.9841200000000001
193.436,15.87166,-0.06021665,1.11174,0.98406
193.536,15.87474,-0.06022693,1.11162,0.984
193.636,15.87783,-0.06022491,1.11165,0.9839399999999999
193.736,15.88091,-0.06019931,1.11198,0.98388
193.836,15.883989999999999,-0.06013895,1.11265,0.9838100000000001
193.936,15.88708,-0.06003281,1.11342,0.98375
194.036,15.89016,-0.05986992,1.11405,0.98369
194.136,15.89325,-0.05965247,1.1143399999999999,0.9836299999999999
194.236,15.896339999999999,-0.05942776,1.11429,0.98357
194.336,15.899420000000001,-0.0592527,1.11395,0.98351
194.436,15.9025,-0.05917508,1.1133899999999999,0.98345
194.536,15.90557,-0.05917753,1.11287,0.98339
194.636,15.90864,-0.05921448,1.11275,0.9833200000000001
194.736,15.911710000000001,-0.05924192,1.11334,0.98326
194.836,15.914779999999999,-0.05924559,1.11459,0.9832
194.936,15.917860000000001,-0.05923688,1.11608,0.98314
195.036,15.920929999999998,-0.05922797,1.11741,0.98308
195.136,15.924,-0.05922561,1.11832,0.9830200000000001
195.236,15.92707,-0.05922741,1.11885,0.9829600000000001
195.336,15.930129999999998,-0.05923009,1.11904,0.9828899999999999
195.436,15.9332,-0.05923117,1.11899,0.98283
195.536,15.93627,-0.05923091,1.1189,0.98277
195.636,15.93934,-0.05923014,1.119,0.9827100000000001
195.736,15.942420000000002,-0.05922966,1.11948,0.98265
195.836,15.94549,-0.0592296,1.12014,0.98259
195.936,15.948570000000002,-0.05922984,1.1206200000000002,0.9825299999999999
196.036,15.95165,-0.05923021,1.12058,0.9824700000000001
196.136,15.95474,-0.0592305,1.1201,0.98241
196.236,15.957820000000002,-0.05923043,1.11961,0.98234
196.336,15.96089,-0.05922971,1.1195899999999999,0.9822799999999999
196.436,15.96396,-0.0592286,1.1202,0.9822200000000001
196.536,15.96703,-0.0592283,1.12111,0.98216
196.636,15.9701,-0.0592301,1.12194,0.9821
196.736,15.973170000000001,-0.05923416,1.1224,0.9820399999999999
196.836,15.97625,-0.05923653,1.1226,0.98198
196.936,15.979320000000001,-0.05923231,1.1227,0.9819200000000001
197.036,15.98238,-0.05921843,1.1228799999999999,0.9818600000000001
197.136,15.985439999999999,-0.05920619,1.12321,0.9817899999999999
197.236,15.98851,-0.05921373,1.1237700000000002,0.9817299999999999
197.336,15.991579999999999,-0.05925857,1.12459,0.98167
197.436,15.994670000000001,-0.05934437,1.1255700000000002,0.98161
197.536,15.997760000000001,-0.0594614,1.12646,0.98155
197.636,16.00085,-0.05959947,1.127,0.98149
197.736,16.00392,-0.05975914,1.12711,0.9814299999999999
197.836,16.00699,-0.05996051,1.127,0.9813700000000001
197.936,16.01006,-0.06022573,1.12694,0.98131
198.036,16.01314,-0.06055902,1.12713,0.98125
198.136,16.01622,-0.06089679,1.12753,0.98119
198.236,16.01931,-0.06115947,1.1280299999999999,0.9811200000000001
198.336,16.022389999999998,-0.06127888,1.12853,0.98106
198.436,16.025470000000002,-0.06127821,1.12897,0.981
198.536,16.02854,-0.06122454,1.1292799999999998,0.9809399999999999
198.636,16.03162,-0.0611831,1.12942,0.98088
198.736,16.034689999999998,-0.06117686,1.1294899999999999,0.98082
198.836,16.037760000000002,-0.06118937,1.12974,0.9807600000000001
198.936,16.04083,-0.06120271,1.1304100000000001,0.9807
199.036,16.04389,-0.06120647,1.1315,0.98064
199.136,16.04695,-0.06120396,1.13253,0.9805799999999999
199.236,16.05001,-0.06119999,1.13296,0.9805200000000001
199.336,16.053079999999998,-0.06119833,1.13246,0.98046
199.436,16.05615,-0.06119868,1.1314799999999998,0.98039
199.536,16.05922,-0.06119976,1.1307200000000002,0.9803299999999999
199.636,16.062279999999998,-0.06120039,1.1307399999999999,0.9802700000000001
199.736,16.06534,-0.0612004,1.1314799999999998,0.98021
199.836,16.06841,-0.06120013,1.13252,0.98015
199.936,16.07149,-0.06119994,1.13342,0.98009
200.036,16.07457,-0.06119994,1.13401,0.98003
200.136,16.07766,-0.0612,1.1343299999999998,0.9799700000000001
200.236,16.08073,-0.06119998,1.13445,0.9799100000000001
200.336,16.08379,-0.06119986,1.1344299999999998,0.97985
200.436,16.08684,-0.06119979,1.13435,0.9797899999999999
200.536,16.08989,-0.06119999,1.1342700000000001,0.9797299999999999
200.636,16.09296,-0.06120051,1.13425,0.97967
200.736,16.096020000000003,-0.06120087,1.13435,0.9796100000000001
200.836,16.0991,-0.06120039,1.13459,0.97955
200.936,16.10217,-0.06119861,1.13501,0.97949
201.036,16.10523,-0.06119688,1.13554,0.9794299999999999
201.136,16.1083,-0.06119762,1.13606,0.97936
201.236,16.11136,-0.06120311,1.13644,0.9793
201.336,16.114420000000003,-0.06121052,1.13669,0.97924
201.436,16.11748,-0.0612111,1.13696,0.9791799999999999
201.536,16.12053,-0.06119588,1.13741,0.9791200000000001
201.636,16.1236,-0.06118252,1.13814,0.97906
201.736,16.12666,-0.06125263,1.139,0.979
201.836,16.12973,-0.06149718,1.13984,0.9789399999999999
201.936,16.1328,-0.06197243,1.14052,0.97888
202.036,16.13588,-0.06255382,1.141,0.97882
202.136,16.13895,-0.06305804,1.14127,0.9787600000000001
202.236,16.142020000000002,-0.06331641,1.14133,0.9787
202.336,16.14508,-0.06333618,1.1413,0.97864
202.436,16.148139999999998,-0.06324081,1.14137,0.9785799999999999
202.536,16.1512,-0.06315423,1.14173,0.9785200000000001
202.636,16.15426,-0.06313507,1.14239,0.97846
202.736,16.157320000000002,-0.0631557,1.14309,0.9784
202.836,16.16038,-0.06318255,1.1436,0.97834
202.936,16.163429999999998,-0.06319209,1.14376,0.9782799999999999
203.036,16.16649,-0.06318855,1.14383,0.9782200000000001
203.136,16.16955,-0.06318092,1.1441,0.97816
203.236,16.172620000000002,-0.06317701,1.14479,0.9781
203.336,16.17569,-0.06317725,1.14572,0.9780399999999999
203.436,16.17876,-0.06317925,1.14654,0.97798
203.536,16.181829999999998,-0.06318069,1.1469200000000002,0.9779200000000001
203.636,16.1849,-0.0631809,1.1469,0.9778600000000001
203.736,16.18796,-0.06318042,1.14678,0.9778
203.836,16.19102,-0.06317982,1.14688,0.9777399999999999
203.936,16.19408,-0.06317951,1.14729,0.9776799999999999
204.036,16.197129999999998,-0.06317956,1.1477700000000002,0.97762
204.136,16.2002,-0.06318004,1.14802,0.97756
204.236,16.20327,-0.06318083,1.14788,0.9775
204.336,16.20634,-0.06318122,1.14763,0.97744
204.436,16.209410000000002,-0.06318038,1.14761,0.9773799999999999
204.536,16.21247,-0.06317782,1.1481,0.97731
204.636,16.21554,-0.06317568,1.14895,0.97725
204.736,16.2186,-0.06317719,1.14978,0.97719
204.836,16.22165,-0.0631852,1.1502299999999999,0.9771299999999999
204.936,16.22471,-0.06319479,1.15026,0.9770700000000001
205.036,16.22777,-0.06319403,1.15005,0.97701
205.136,16.230829999999997,-0.06317097,1.14984,0.97695
205.236,16.23389,-0.06313262,1.14978,0.9768899999999999
205.336,16.23696,-0.06312081,1.1498700000000002,0.97683
205.436,16.240029999999997,-0.06318111,1.15012,0.97677
205.536,16.24311,-0.06334169,1.15056,0.9767100000000001
205.636,16.24618,-0.06356329,1.15119,0.9766600000000001
205.736,16.24925,-0.06379025,1.1520700000000001,0.9766
205.836,16.25232,-0.06397129,1.15319,0.97654
205.936,16.25538,-0.06409207,1.1543299999999999,0.9764799999999999
206.036,16.25844,-0.06415698,1.15514,0.9764200000000001
206.136,16.2615,-0.06417117,1.15529,0.97636
206.236,16.264570000000003,-0.0641556,1.15479,0.9763
206.336,16.26763,-0.06414734,1.15398,0.97624
206.436,16.27069,-0.06418406,1.15323,0.9761799999999999
206.536,16.27375,-0.064279,1.1528,0.9761200000000001
206.636,16.27681,-0.06439468,1.15272,0.97606
206.736,16.279870000000003,-0.06448732,1.153,0.976
206.836,16.28293,-0.06452355,1.15359,0.9759399999999999
206.936,16.286,-0.06451722,1.15438,0.97588
207.036,16.28906,-0.06449554,1.15519,0.97582
207.136,16.29213,-0.06448363,1.15585,0.9757600000000001
207.236,16.2952,-0.06448487,1.15631,0.9757
207.336,16.298270000000002,-0.06448956,1.15658,0.97564
207.436,16.30133,-0.06448812,1.15665,0.9755799999999999
207.536,16.304389999999998,-0.06448063,1.15666,0.97552
207.636,16.30745,-0.06447863,1.15689,0.97546
207.736,16.31051,-0.0644943,1.15763,0.9754
207.836,16.31356,-0.06452648,1.1589399999999999,0.97534
207.936,16.31661,-0.06454126,1.1603299999999999,0.9752799999999999
208.036,16.31966,-0.06449977,1.16121,0.9752200000000001
208.136,16.32272,-0.06437126,1.16114,0.97516
208.236,16.325779999999998,-0.06417033,1.1604700000000001,0.9751
208.336,16.32884,-0.06392734,1.15982,0.97504
208.436,16.331889999999998,-0.0636727,1.1597600000000001,0.97498
208.536,16.33493,-0.06343697,1.16031,0.9749200000000001
208.636,16.337979999999998,-0.06325085,1.16108,0.9748600000000001
208.736,16.34104,-0.06314458,1.16167,0.9748
208.836,16.3441,-0.06312154,1.16188,0.9747399999999999
208.936,16.347160000000002,-0.06314412,1.1618600000000001,0.9746799999999999
209.036,16.35022,-0.06317125,1.16174,0.97462
209.136,16.353279999999998,-0.06317454,1.1616600000000001,0.97456
209.236,16.35633,-0.06316627,1.1617,0.97451
209.336,16.359370000000002,-0.0631669,1.16191,0.97445
209.436,16.36242,-0.06319647,1.16234,0.97439
209.536,16.365479999999998,-0.06327186,1.16286,0.9743299999999999
209.636,16.36854,-0.06340854,1.1632799999999999,0.9742700000000001
209.736,16.3716,-0.063621,1.16343,0.97421
209.836,16.374660000000002,-0.0639034,1.16331,0.97415
209.936,16.37771,-0.06423079,1.1631200000000002,0.97409
210.036,16.380770000000002,-0.06457742,1.16304,0.97403
210.136,16.38381,-0.06491749,1.16319,0.9739700000000001
210.236,16.386860000000002,-0.065225,1.16354,0.97391
210.336,16.38991,-0.06547393,1.16404,0.97385
210.436,16.392970000000002,-0.06564499,1.16464,0.9737899999999999
210.536,16.39602,-0.0657481,1.1652799999999999,0.9737299999999999
210.636,16.399079999999998,-0.06580118,1.1659,0.97367
210.736,16.40215,-0.06582172,1.16645,0.9736100000000001
210.836,16.40521,-0.06582274,1.1669,0.97356
210.936,16.408260000000002,-0.06581468,1.1672,0.9735
211.036,16.41131,-0.06580775,1.16733,0.97344
211.136,16.41435,-0.0658064,1.16734,0.9733799999999999
211.236,16.4174,-0.06580817,1.16737,0.9733200000000001
211.336,16.42044,-0.0658102,1.16757,0.97326
211.436,16.42349,-0.06581062,1.16801,0.9732
211.536,16.42654,-0.06581016,1.1685299999999998,0.97314
211.636,16.42959,-0.06580995,1.1689200000000002,0.97308
211.736,16.43264,-0.06581084,1.16903,0.9730200000000001
211.836,16.43569,-0.06581181,1.169,0.97296
211.936,16.43874,-0.06581115,1.16907,0.9729
212.036,16.44181,-0.0658074,1.16946,0.9728399999999999
212.136,16.444879999999998,-0.06580307,1.17009,0.9727899999999999
212.236,16.44794,-0.0658038,1.17065,0.9727299999999999
212.336,16.45101,-0.06581518,1.17079,0.97267
212.436,16.45405,-0.06583294,1.17049,0.9726100000000001
212.536,16.4571,-0.06583737,1.1702299999999999,0.97255
212.636,16.46015,-0.06580742,1.17048,0.97249
212.736,16.46321,-0.06574127,1.17154,0.9724299999999999
212.836,16.46627,-0.06570342,1.17299,0.9723700000000001
212.936,16.46933,-0.06577275,1.17425,0.97231
213.036,16.47239,-0.06601196,1.1748100000000001,0.97225
213.136,16.47544,-0.0663569,1.17475,0.97219
213.236,16.47849,-0.06668351,1.1744299999999999,0.97214
213.336,16.48154,-0.06687176,1.17418,0.9720799999999999
213.436,16.4846,-0.06690067,1.17418,0.9720200000000001
213.536,16.48765,-0.06684689,1.1744700000000001,0.97196
213.636,16.49071,-0.06679096,1.17506,0.9719
213.736,16.49377,-0.06678005,1.1759,0.9718399999999999
213.836,16.49683,-0.06679298,1.1767299999999998,0.97178
213.936,16.49989,-0.06680022,1.17731,0.97172
214.036,16.50295,-0.06678218,1.17746,0.9716600000000001
214.136,16.50601,-0.06676362,1.17736,0.9716
214.236,16.50907,-0.06678165,1.17731,0.97155
214.336,16.51213,-0.06687101,1.17757,0.97149
214.436,16.51519,-0.06704117,1.17814,0.9714299999999999
214.536,16.51824,-0.06728655,1.1788100000000001,0.9713700000000001
214.636,16.52129,-0.06760058,1.17941,0.97131
214.736,16.52435,-0.06794875,1.1798799999999998,0.97125
214.836,16.5274,-0.06826243,1.18034,0.97119
214.936,16.53044,-0.06847097,1.18088,0.9711299999999999
215.036,16.533479999999997,-0.06853714,1.18154,0.9710799999999999
215.136,16.53651,-0.06851094,1.18208,0.9710200000000001
215.236,16.53956,-0.06845642,1.18224,0.97096
215.336,16.54262,-0.06842911,1.18181,0.9709
215.436,16.54569,-0.06843136,1.18097,0.9708399999999999
215.536,16.54875,-0.06844518,1.18002,0.97078
215.636,16.55181,-0.06845345,1.1792799999999999,0.97072
215.736,16.55485,-0.06845255,1.17896,0.9706600000000001
215.836,16.55789,-0.06844951,1.17918,0.9706100000000001
215.936,16.56094,-0.06845184,1.18006,0.97055
216.036,16.564,-0.06848052,1.18146,0.97049
216.136,16.56707,-0.06857885,1.1828100000000001,0.9704299999999999
216.236,16.57013,-0.06879224,1.18353,0.9703700000000001
216.336,16.57319,-0.06913213,1.18327,0.97031
216.436,16.57624,-0.06949073,1.18261,0.97025
216.536,16.57929,-0.06973407,1.1823,0.97019
216.636,16.58233,-0.06974571,1.1830200000000002,0.97014
216.736,16.585379999999997,-0.0695541,1.1844700000000001,0.9700799999999999
216.836,16.58843,-0.06925918,1.1858899999999999,0.9700200000000001
216.936,16.591479999999997,-0.06895968,1.18656,0.96996
217.036,16.59453,-0.06871239,1.18628,0.9699
217.136,16.597579999999997,-0.06853052,1.18543,0.9698399999999999
217.236,16.600620000000003,-0.06842519,1.18442,0.96978
217.336,16.60367,-0.06839487,1.18359,0.96973
217.436,16.60671,-0.06841023,1.18308,0.96967
217.536,16.60975,-0.06843818,1.1830399999999999,0.9696100000000001
217.636,16.6128,-0.06845114,1.18355,0.96955
217.736,16.61584,-0.0684494,1.18449,0.96949
217.836,16.61889,-0.06844219,1.18565,0.9694299999999999
217.936,16.62194,-0.06843814,1.18682,0.9693799999999999
218.036,16.624979999999997,-0.0684387,1.1878600000000001,0.9693200000000001
218.136,16.628020000000003,-0.06844024,1.18862,0.96926
218.236,16.63106,-0.0684391,1.18897,0.9692
218.336,16.63409,-0.0684352,1.18892,0.96914
218.436,16.63712,-0.06843381,1.18869,0.9690799999999999
218.536,16.64015,-0.06844061,1.18854,0.9690200000000001
218.636,16.643179999999997,-0.06846719,1.1886299999999999,0.9689700000000001
218.736,16.64622,-0.06854548,1.18887,0.96891
218.836,16.64926,-0.06871181,1.18913,0.96885
218.936,16.65229,-0.06899301,1.18928,0.9687899999999999
219.036,16.65532,-0.0693348,1.18937,0.96873
219.136,16.65835,-0.0696418,1.18959,0.96867
219.236,16.66139,-0.06982093,1.1900700000000002,0.96862
219.336,16.66443,-0.06985426,1.19079,0.9685600000000001
219.436,16.667479999999998,-0.06980805,1.19147,0.9685
219.536,16.67052,-0.06975294,1.19187,0.96844
219.636,16.673560000000002,-0.06973552,1.1918799999999998,0.9683799999999999
219.736,16.6766,-0.06974422,1.19176,0.9683299999999999
219.836,16.67964,-0.06975884,1.19184,0.9682700000000001
219.936,16.68269,-0.06976267,1.1923700000000002,0.96821
220.036,16.68574,-0.06975885,1.19318,0.96815
220.136,16.68879,-0.06975756,1.19391,0.96809
220.236,16.69184,-0.06976784,1.19424,0.96803
220.336,16.694879999999998,-0.06978223,1.1941,0.96798
220.436,16.69793,-0.0697806,1.19361,0.9679200000000001
220.536,16.700979999999998,-0.06974301,1.19289,0.96786
220.636,16.70404,-0.069683,1.19213,0.9678
220.736,16.70709,-0.06966764,1.19166,0.9677399999999999
220.836,16.71015,-0.06976873,1.1918,0.9676899999999999
220.936,16.7132,-0.07002553,1.1927299999999998,0.9676299999999999
221.036,16.71625,-0.07036468,1.19408,0.96757
221.136,16.7193,-0.07068851,1.19537,0.96751
221.236,16.722360000000002,-0.07090973,1.19615,0.96745
221.336,16.72542,-0.07102487,1.19644,0.96739
221.436,16.72847,-0.07107106,1.19646,0.96734
221.536,16.73153,-0.07108504,1.19641,0.9672799999999999
221.636,16.734579999999998,-0.07108771,1.19646,0.9672200000000001
221.736,16.73763,-0.07108419,1.19669,0.96716
221.836,16.74067,-0.07107891,1.19721,0.9671
221.936,16.7437,-0.07107537,1.1979899999999999,0.96705
222.036,16.74673,-0.0710751,1.19878,0.96699
222.136,16.749760000000002,-0.07107942,1.19927,0.96693
222.236,16.75279,-0.07108819,1.19926,0.9668700000000001
222.336,16.75582,-0.07109413,1.19894,0.9668100000000001
222.436,16.75885,-0.07108765,1.1986,0.9667600000000001
222.536,16.76189,-0.07106107,1.19855,0.9667
222.636,16.76493,-0.07103243,1.19881,0.9666399999999999
222.736,16.767979999999998,-0.07103851,1.19925,0.9665799999999999
222.836,16.77102,-0.07111606,1.19971,0.9665299999999999
222.936,16.774070000000002,-0.07127722,1.2001600000000001,0.96647
223.036,16.77712,-0.07149622,1.20076,0.96641
223.136,16.780170000000002,-0.07174403,1.20166,0.96635
223.236,16.78321,-0.07199142,1.2029299999999998,0.96629
223.336,16.78625,-0.07220848,1.20422,0.96624
223.436,16.78929,-0.07236514,1.20513,0.9661799999999999
223.536,16.79232,-0.07243631,1.20528,0.9661200000000001
223.636,16.79535,-0.07243814,1.2048299999999998,0.96606
223.736,16.798389999999998,-0.07240718,1.20417,0.966
223.836,16.80143,-0.07237941,1.20369,0.96595
223.936,16.804470000000002,-0.07237122,1.20353,0.9658899999999999
224.036,16.80752,-0.07237778,1.2035200000000001,0.96583
224.136,16.81055,-0.07239319,1.20349,0.96577
224.236,16.813579999999998,-0.07240959,1.20339,0.96572
224.336,16.81661,-0.07241446,1.20343,0.9656600000000001
224.436,16.81964,-0.07239466,1.20385,0.9656
224.536,16.822670000000002,-0.07235155,1.20481,0.96554
224.636,16.82572,-0.07237015,1.20597,0.96549
224.736,16.828770000000002,-0.07256528,1.2068299999999998,0.9654299999999999
224.836,16.83182,-0.07303991,1.20691,0.9653700000000001
224.936,16.83488,-0.07371622,1.20633,0.96531
225.036,16.83794,-0.07437602,1.20564,0.96525
225.136,16.840989999999998,-0.07479955,1.20543,0.9652
225.236,16.84405,-0.07490309,1.20586,0.96514
225.336,16.8471,-0.07481812,1.2065,0.9650799999999999
225.436,16.85016,-0.07469516,1.20685,0.9650200000000001
225.536,16.85322,-0.07464757,1.2066,0.9649700000000001
225.636,16.856270000000002,-0.07466111,1.2061899999999999,0.96491
225.736,16.85932,-0.07469418,1.20618,0.96485
225.836,16.86236,-0.07470969,1.20705,0.9647899999999999
225.936,16.865389999999998,-0.07470625,1.2084700000000002,0.9647399999999999
226.036,16.86842,-0.07469955,1.20974,0.96468
226.136,16.871470000000002,-0.07470464,1.2101899999999999,0.96462
226.236,16.87453,-0.07471888,1.20967,0.9645600000000001
226.336,16.87761,-0.07472102,1.2086299999999999,0.9645100000000001
226.436,16.880670000000002,-0.07468909,1.20754,0.96445
226.536,16.88372,-0.07462887,1.20676,0.96439
226.636,16.88676,-0.07460489,1.20646,0.9643299999999999
226.736,16.8898,-0.07468915,1.20675,0.9642799999999999
226.836,16.89284,-0.07493047,1.2076799999999999,0.9642200000000001
226.936,16.895889999999998,-0.07526498,1.2088700000000001,0.96416
227.036,16.89894,-0.07559471,1.20983,0.9641
227.136,16.902,-0.07582797,1.21011,0.96405
227.236,16.90506,-0.07595046,1.2098200000000001,0.96399
227.336,16.90812,-0.0759996,1.2094799999999999,0.96393
227.436,16.911170000000002,-0.0760134,1.20959,0.9638700000000001
227.536,16.9142,-0.07601617,1.21031,0.9638200000000001
227.636,16.91723,-0.07601352,1.21135,0.9637600000000001
227.736,16.92026,-0.07600975,1.21236,0.9637
227.836,16.9233,-0.07600806,1.2131,0.9636399999999999
227.936,16.92634,-0.0760083,1.21359,0.96359
228.036,16.92938,-0.07600966,1.21389,0.9635299999999999
228.136,16.93242,-0.07601132,1.21407,0.96347
228.236,16.93546,-0.07601227,1.21414,0.96342
228.336,16.93848,-0.07601143,1.21407,0.96336
228.436,16.94151,-0.07600786,1.21384,0.9633
228.536,16.94453,-0.07600355,1.21357,0.96324
228.636,16.94756,-0.0760035,1.2135200000000002,0.96319
228.736,16.95059,-0.07601284,1.21394,0.9631299999999999
228.836,16.95364,-0.07604539,1.21488,0.9630700000000001
228.936,16.95668,-0.07613456,1.21594,0.96301
229.036,16.95971,-0.07631644,1.2166299999999999,0.96296
229.136,16.96273,-0.07661102,1.21659,0.9629
229.236,16.96575,-0.07695229,1.21611,0.9628399999999999
229.336,16.96876,-0.07724569,1.21571,0.9627899999999999
229.436,16.97179,-0.0774023,1.21586,0.96273
229.536,16.97484,-0.07742096,1.21656,0.96267
229.636,16.97789,-0.07736972,1.21743,0.9626100000000001
229.736,16.980929999999997,-0.07731806,1.21809,0.9625600000000001
229.836,16.983970000000003,-0.07730423,1.21834,0.9625
229.936,16.98701,-0.07731448,1.21831,0.96244
230.036,16.99004,-0.07733016,1.2181600000000001,0.96239
230.136,16.99307,-0.07733671,1.21805,0.9623299999999999
230.236,16.99611,-0.07733534,1.21814,0.9622700000000001
230.336,16.99915,-0.07733104,1.21859,0.96221
230.436,17.0022,-0.07732844,1.21953,0.96216
230.536,17.00525,-0.07732834,1.2206700000000001,0.9621
230.636,17.0083,-0.0773294,1.2215,0.96204
230.736,17.01135,-0.07733031,1.22154,0.96199
230.836,17.01439,-0.0773305,1.22078,0.96193
230.936,17.017429999999997,-0.07733027,1.21981,0.9618700000000001
231.036,17.02047,-0.07732996,1.21923,0.9618200000000001
231.136,17.02352,-0.07732983,1.21941,0.9617600000000001
231.236,17.02657,-0.07732985,1.2200600000000001,0.9617
231.336,17.02962,-0.07732998,1.2208299999999999,0.9616399999999999
231.436,17.03267,-0.07733015,1.22138,0.96159
231.536,17.0357,-0.07733025,1.22161,0.9615299999999999
231.636,17.03874,-0.07733014,1.2215,0.96147
231.736,17.04178,-0.07732972,1.22105,0.96142
231.836,17.044829999999997,-0.07732925,1.2203899999999999,0.96136
231.936,17.04787,-0.07732932,1.2197200000000001,0.9613
232.036,17.05092,-0.0773305,1.21929,0.96125
232.136,17.05397,-0.07733238,1.2192399999999999,0.96119
232.236,17.057010000000002,-0.07733291,1.21955,0.9611299999999999
232.336,17.06005,-0.0773299,1.22024,0.9610799999999999
232.436,17.06309,-0.07732297,1.22125,0.9610200000000001
232.536,17.06612,-0.07731865,1.22243,0.96096
232.636,17.06915,-0.07732513,1.22358,0.96091
232.736,17.07218,-0.07735164,1.22452,0.96085
232.836,17.07522,-0.07741731,1.2252,0.9607899999999999
232.936,17.07825,-0.07754684,1.22561,0.9607399999999999
233.036,17.08129,-0.07776401,1.22574,0.96068
233.136,17.08432,-0.07805866,1.2256799999999999,0.96062
233.236,17.08734,-0.07837936,1.22556,0.9605600000000001
233.336,17.09037,-0.0786722,1.22556,0.9605100000000001
233.436,17.09339,-0.07890276,1.22574,0.96045
233.536,17.096420000000002,-0.07909112,1.22591,0.96039
233.636,17.099439999999998,-0.07926683,1.22584,0.96034
233.736,17.10247,-0.07945574,1.22538,0.9602799999999999
233.836,17.10551,-0.07965812,1.2247,0.9602200000000001
233.936,17.108539999999998,-0.07986326,1.22414,0.9601700000000001
234.036,17.11157,-0.08006098,1.22405,0.96011
234.136,17.1146,-0.08025282,1.22445,0.96005
234.236,17.11763,-0.08045152,1.22512,0.96
234.336,17.12066,-0.08067016,1.22581,0.95994
234.436,17.1237,-0.0809056,1.2263600000000001,0.95988
234.536,17.126739999999998,-0.08112032,1.22682,0.95983
234.636,17.12978,-0.08127245,1.22728,0.9597700000000001
234.736,17.13281,-0.08133136,1.2277799999999999,0.9597100000000001
234.836,17.13583,-0.08132277,1.22824,0.9596600000000001
234.936,17.13886,-0.08128986,1.22852,0.9596
235.036,17.14187,-0.08127332,1.22852,0.95955
235.136,17.14489,-0.08127854,1.22832,0.95949
235.236,17.147920000000003,-0.08128529,1.2281600000000001,0.9594299999999999
235.336,17.15095,-0.08127307,1.22827,0.9593799999999999
235.436,17.15399,-0.08124317,1.22869,0.9593200000000001
235.536,17.15703,-0.08123269,1.22917,0.95926
235.636,17.16007,-0.08128203,1.22943,0.95921
235.736,17.1631,-0.08141905,1.22929,0.95915
235.836,17.166120000000003,-0.08162456,1.22898,0.95909
235.936,17.16915,-0.0818684,1.2288299999999999,0.95904
236.036,17.17217,-0.08212043,1.22915,0.9589799999999999
236.136,17.17521,-0.08235102,1.2299,0.9589200000000001
236.236,17.17825,-0.08253079,1.23091,0.9588700000000001
236.336,17.181279999999997,-0.08263121,1.23196,0.95881
236.436,17.18432,-0.08265216,1.2329,0.95875
236.536,17.18735,-0.0826284,1.2336200000000002,0.9587
236.636,17.19039,-0.08259679,1.234,0.9586399999999999
236.736,17.19342,-0.08258366,1.234,0.9585899999999999
236.836,17.196460000000002,-0.08258648,1.23376,0.9585299999999999
236.936,17.1995,-0.08259784,1.2334399999999999,0.95847
