##Temp./°C,Time/min,DSC(subtr.2)/(mW/mg),Mass loss(subtr.2)/mg,Sensit./(uV/mW)
49.6,10.00917,0.03015711,-0.07371,1.07521
49.7,10.412360000000001,0.03484025,-0.07535859,1.0751600000000001
49.8,10.50986,0.04044248,-0.07553864,1.0751
49.9,10.57784,0.04437733,-0.07711986,1.07505
50.0,10.633,0.05107358,-0.07678586,1.075
50.1,10.68023,0.05265333,-0.07843641,1.07495
50.2,10.72262,0.05989657,-0.07796306,1.07489
50.3,10.759839999999999,0.06273007,-0.07867432,1.07484
50.4,10.794,0.06475153,-0.07891348,1.07479
50.5,10.82622,0.068996,-0.07880975,1.07474
50.6,10.85641,0.07135995,-0.07939967,1.07469
50.7,10.884789999999999,0.07695933,-0.08003728,1.07463
50.8,10.91187,0.07985193,-0.07977607,1.0745799999999999
50.9,10.93769,0.08222352,-0.07879735,1.07453
51.0,10.96265,0.08437683,-0.07876647,1.0744799999999999
51.1,10.98682,0.08947279,-0.07889837,1.07443
51.2,11.01,0.09245851,-0.0789441,1.07437
51.3,11.0322,0.0927578,-0.07806808,1.0743200000000002
51.4,11.05408,0.09653595,-0.07741601,1.07427
51.5,11.075289999999999,0.0990606,-0.07788894,1.0742200000000002
51.6,11.09598,0.10172,-0.07783236,1.07417
51.7,11.11616,0.10533,-0.0770359,1.0741100000000001
51.8,11.13563,0.10612,-0.07725945,1.07406
51.9,11.15475,0.10732,-0.07864883,1.0740100000000001
52.0,11.17366,0.10998,-0.07840826,1.07396
52.1,11.192169999999999,0.11315,-0.07861366,1.0739
52.2,11.2103,0.11512,-0.07901947,1.07385
52.3,11.228060000000001,0.11950999999999999,-0.07877174,1.0738
52.4,11.24549,0.12075,-0.08017499,1.07375
52.5,11.26266,0.12177,-0.07922894,1.0737
52.6,11.27966,0.12495999999999999,-0.08042265,1.07364
52.7,11.29617,0.12713,-0.08081236,1.07359
52.8,11.31265,0.12705,-0.08112695,1.07354
52.9,11.32879,0.13037,-0.08120432,1.07349
53.0,11.345089999999999,0.13309,-0.08084087,1.07344
53.1,11.36099,0.1352,-0.08142513,1.07338
53.2,11.37655,0.13474,-0.08089774,1.07333
53.3,11.39194,0.13554000000000002,-0.08223749,1.07328
53.4,11.40724,0.13965999999999998,-0.08101177,1.07323
53.5,11.422360000000001,0.14101,-0.082048,1.07318
53.6,11.437439999999999,0.1411,-0.08079852,1.07312
53.7,11.45232,0.14439000000000002,-0.08214882,1.07307
53.8,11.46691,0.14731,-0.08088671,1.07302
53.9,11.481580000000001,0.14834,-0.08219299,1.07297
54.0,11.49596,0.14931,-0.08084673,1.07292
54.1,11.51038,0.15033,-0.08235608,1.0728600000000001
54.2,11.52443,0.15261,-0.08109267,1.07281
54.3,11.53828,0.15549000000000002,-0.08209275,1.07276
54.4,11.551910000000001,0.15512,-0.08058391,1.07271
54.5,11.56594,0.15599000000000002,-0.08175661,1.07265
54.6,11.57975,0.15914,-0.08069692,1.0726
54.7,11.59343,0.16054000000000002,-0.0815812,1.07255
54.8,11.60698,0.16151,-0.08219023,1.0725
54.9,11.62048,0.16372,-0.08210494,1.07245
55.0,11.63381,0.16465,-0.08134771,1.07239
55.1,11.64713,0.16427999999999998,-0.08214427,1.07234
55.2,11.66019,0.1684,-0.08227607,1.07229
55.3,11.67332,0.16882,-0.08259625,1.0722399999999999
55.4,11.68656,0.17046,-0.08242407,1.07219
55.5,11.69952,0.17294,-0.08317172,1.07213
55.6,11.7126,0.17195,-0.08394877,1.07208
55.7,11.72545,0.17545999999999998,-0.08283925,1.0720299999999998
55.8,11.73846,0.17353,-0.08382876,1.07198
55.9,11.751330000000001,0.17553,-0.08369884,1.0719299999999998
56.0,11.76388,0.17615999999999998,-0.08253001,1.07187
56.1,11.77643,0.17917,-0.08363802,1.07182
56.2,11.78915,0.17885,-0.08358187,1.0717700000000001
56.3,11.80182,0.18072,-0.08314296,1.07172
56.4,11.81437,0.1806,-0.08430376,1.0716700000000001
56.5,11.82691,0.18266,-0.08366256,1.07161
56.6,11.839369999999999,0.18245999999999998,-0.08281596,1.07156
56.7,11.85184,0.18514,-0.08396886,1.07151
56.8,11.86427,0.18852,-0.08327649,1.07146
56.9,11.87657,0.18835,-0.08271317,1.07141
57.0,11.88879,0.18797,-0.0834379,1.07135
57.1,11.90104,0.18805,-0.0840881,1.0713
57.2,11.91339,0.18865,-0.08309297,1.07125
57.3,11.9256,0.1917,-0.08256422,1.0712
57.4,11.93788,0.19041,-0.08334673,1.07115
57.5,11.94993,0.19180999999999998,-0.08255157,1.0710899999999999
57.6,11.962439999999999,0.19082000000000002,-0.08261915,1.07104
57.7,11.97478,0.19355,-0.08256387,1.0709899999999999
57.8,11.986930000000001,0.1941,-0.08281164,1.07094
57.9,11.9989,0.19608,-0.08325642,1.07089
58.0,12.0109,0.19565,-0.08255173,1.07083
58.1,12.022839999999999,0.19725,-0.08255042,1.0707799999999998
58.2,12.03473,0.19835999999999998,-0.08311389,1.07073
58.3,12.04665,0.19997,-0.08389933,1.0706799999999999
58.4,12.05851,0.20104,-0.08390035,1.07063
58.5,12.07037,0.20139,-0.08381542,1.07057
58.6,12.08235,0.2013,-0.08286653,1.0705200000000001
58.7,12.09432,0.20406,-0.08365003,1.07047
58.8,12.10617,0.20406,-0.08394322,1.0704200000000001
58.9,12.11782,0.20377,-0.08390624,1.07037
59.0,12.129539999999999,0.20536,-0.08354201,1.07031
59.1,12.14126,0.20606999999999998,-0.08266837,1.07026
59.2,12.15294,0.20569,-0.08382359,1.07021
59.3,12.164539999999999,0.20826999999999998,-0.08391809,1.07016
59.4,12.17618,0.21039000000000002,-0.08371496,1.0701100000000001
59.5,12.18782,0.21001,-0.08321747,1.07005
59.6,12.19926,0.20909,-0.0841356,1.07
59.7,12.21079,0.20989000000000002,-0.08409712,1.06995
59.8,12.22229,0.21353000000000003,-0.08425281,1.0699
59.9,12.23381,0.21328000000000003,-0.08434147,1.06985
60.0,12.24532,0.21398000000000003,-0.08409561,1.06979
60.1,12.256730000000001,0.21408000000000002,-0.0841358,1.06974
60.2,12.2682,0.2149,-0.08412955,1.06969
60.3,12.27962,0.21575999999999998,-0.08413019,1.06964
60.4,12.291080000000001,0.21541,-0.08412559,1.06959
60.5,12.30246,0.21727,-0.08416002,1.0695299999999999
60.6,12.31381,0.21800999999999998,-0.08394748,1.06948
60.7,12.32526,0.21841,-0.08397373,1.0694299999999999
60.8,12.33657,0.22025,-0.08413966,1.06938
60.9,12.34788,0.21811999999999998,-0.08412585,1.06933
61.0,12.35918,0.22100999999999998,-0.0841205,1.0692700000000002
61.1,12.37058,0.22071999999999997,-0.08489144,1.06922
61.2,12.38181,0.2209,-0.08490411,1.0691700000000002
61.3,12.39302,0.22209,-0.08403912,1.06912
61.4,12.4043,0.22221,-0.08406414,1.06907
61.5,12.4156,0.22305999999999998,-0.08475493,1.06901
61.6,12.42682,0.22305999999999998,-0.08541154,1.0689600000000001
61.7,12.438089999999999,0.2229,-0.08550268,1.06891
61.8,12.44937,0.2256,-0.08444413,1.0688600000000001
61.9,12.46059,0.2271,-0.08409943,1.06881
62.0,12.471630000000001,0.22663000000000003,-0.08432383,1.06875
62.1,12.48288,0.22621,-0.08533467,1.0687
62.2,12.494010000000001,0.22866,-0.08538747,1.06865
62.3,12.50516,0.22941,-0.08446876,1.0686
62.4,12.51635,0.23067,-0.08409967,1.06855
62.5,12.52741,0.2287,-0.0840665,1.0685
62.6,12.53845,0.23013000000000003,-0.08505626,1.06844
62.7,12.54958,0.2316,-0.08545164,1.06839
62.8,12.56068,0.23231999999999997,-0.08544659,1.06834
62.9,12.571710000000001,0.23135999999999998,-0.08547037,1.06829
63.0,12.58277,0.23217,-0.08614297,1.0682399999999999
63.1,12.593810000000001,0.23228000000000001,-0.08686279,1.06818
63.2,12.6049,0.23365,-0.0866942,1.06813
63.3,12.615960000000001,0.23333,-0.08703293,1.06808
63.4,12.62703,0.23643000000000003,-0.08683362,1.06803
63.5,12.63802,0.23512,-0.08674964,1.06798
63.6,12.64896,0.23465999999999998,-0.08676106,1.06792
63.7,12.659989999999999,0.23626,-0.08677191,1.06787
63.8,12.6711,0.23745,-0.0871952,1.06782
63.9,12.682319999999999,0.23865999999999998,-0.08726087,1.06777
64.0,12.69324,0.24070999999999998,-0.08668154,1.06772
64.1,12.70427,0.23851999999999998,-0.08677922,1.06766
64.2,12.71527,0.23673000000000002,-0.08675567,1.06761
64.3,12.726189999999999,0.23953000000000002,-0.08676066,1.06756
64.4,12.737119999999999,0.24035,-0.08676064,1.06751
64.5,12.74817,0.23986999999999997,-0.08675825,1.06746
64.6,12.75912,0.24194000000000002,-0.08676038,1.0674
64.7,12.770010000000001,0.24231999999999998,-0.08678892,1.06735
64.8,12.78098,0.24276999999999999,-0.08755949,1.0673
64.9,12.791910000000001,0.24308000000000002,-0.08811862,1.06725
65.0,12.80293,0.24395,-0.08805611,1.0672
65.1,12.813889999999999,0.24564,-0.08807383,1.06715
65.2,12.824810000000001,0.2459,-0.08806832,1.0670899999999999
65.3,12.83571,0.24573000000000003,-0.08807334,1.06704
65.4,12.846630000000001,0.24598000000000003,-0.08805937,1.0669899999999999
65.5,12.857610000000001,0.24586,-0.08809972,1.06694
65.6,12.86856,0.24755,-0.08775257,1.06689
65.7,12.87932,0.24725999999999998,-0.08808393,1.06683
65.8,12.890189999999999,0.24768,-0.08807422,1.0667799999999998
65.9,12.90104,0.24836,-0.08808104,1.06673
66.0,12.912,0.24945,-0.08808737,1.0666799999999999
66.1,12.92286,0.25054,-0.08804051,1.06663
66.2,12.93374,0.25044,-0.0883208,1.06657
66.3,12.94461,0.24941999999999998,-0.08913585,1.0665200000000001
66.4,12.95547,0.25111,-0.08952574,1.06647
66.5,12.9663,0.25011,-0.08867735,1.0664200000000001
66.6,12.97719,0.24991999999999998,-0.08808376,1.06637
66.7,12.98806,0.25046,-0.0880694,1.0663200000000002
66.8,12.99895,0.25272,-0.08806918,1.06626
66.9,13.0098,0.25309,-0.08845607,1.06621
67.0,13.02058,0.25235,-0.08945069,1.06616
67.1,13.03153,0.25338,-0.08936738,1.0661100000000001
67.2,13.04232,0.25537,-0.08939681,1.06606
67.3,13.05313,0.25535,-0.08938794,1.066
67.4,13.06395,0.25631,-0.08939138,1.06595
67.5,13.07478,0.25666,-0.08938619,1.0659
67.6,13.08562,0.25694,-0.08940394,1.06585
67.7,13.09644,0.25861999999999996,-0.08934108,1.0658
67.8,13.107270000000002,0.25826,-0.08989244,1.06575
67.9,13.11801,0.25824,-0.09066794,1.06569
68.0,13.1288,0.25841,-0.09071308,1.06564
68.1,13.13957,0.26045999999999997,-0.09071033,1.06559
68.2,13.15042,0.25971,-0.09071617,1.06554
68.3,13.16111,0.26095999999999997,-0.09122469,1.06549
68.4,13.17189,0.26124,-0.09211337,1.0654299999999999
68.5,13.182620000000002,0.26098000000000005,-0.09196264,1.06538
68.6,13.19329,0.26273,-0.09126792,1.0653299999999999
68.7,13.20399,0.26238,-0.09060794,1.06528
68.8,13.21476,0.2627,-0.09071866,1.06523
68.9,13.22556,0.26238,-0.09070892,1.0651700000000002
69.0,13.23621,0.265,-0.09064968,1.06512
69.1,13.24681,0.26655,-0.0911701,1.0650700000000002
69.2,13.257520000000001,0.2664,-0.09175311,1.06502
69.3,13.26821,0.26721999999999996,-0.09078296,1.06497
69.4,13.27886,0.26618,-0.09070425,1.06492
69.5,13.289489999999999,0.26697,-0.09070852,1.0648600000000001
69.6,13.30011,0.26963000000000004,-0.09071101,1.06481
69.7,13.31081,0.26925,-0.09070954,1.06476
69.8,13.32148,0.27176,-0.09071039,1.06471
69.9,13.33215,0.27263000000000004,-0.0907087,1.06466
70.0,13.34278,0.27164,-0.09071572,1.0646
70.1,13.35343,0.2706,-0.09068552,1.06455
70.2,13.36411,0.27247,-0.0908114,1.0645
70.3,13.374720000000002,0.27152,-0.09013572,1.06445
70.4,13.385279999999998,0.27346,-0.08977482,1.0644
70.5,13.395920000000002,0.27255999999999997,-0.09055603,1.06435
70.6,13.40657,0.2724,-0.0907385,1.06429
70.7,13.417060000000001,0.27412,-0.09070386,1.0642399999999999
70.8,13.4276,0.27376,-0.09071127,1.06419
70.9,13.438120000000001,0.27371999999999996,-0.09070955,1.0641399999999999
71.0,13.448839999999999,0.27318000000000003,-0.09071034,1.06409
71.1,13.459529999999999,0.27454,-0.09071154,1.06403
71.2,13.47013,0.27725,-0.0906936,1.06398
71.3,13.48078,0.27718000000000004,-0.0908235,1.0639299999999998
71.4,13.4913,0.27839,-0.09183701,1.06388
71.5,13.501920000000002,0.27906,-0.0920269,1.0638299999999998
71.6,13.51255,0.2792,-0.092018,1.06378
71.7,13.52312,0.28039000000000003,-0.09202063,1.06372
71.8,13.533679999999999,0.27934000000000003,-0.09201945,1.0636700000000001
71.9,13.54424,0.27945,-0.09202165,1.06362
72.0,13.554860000000001,0.27999,-0.09201363,1.0635700000000001
72.1,13.565389999999999,0.28181,-0.09212424,1.06352
72.2,13.576020000000002,0.28219,-0.09308076,1.0634700000000001
72.3,13.586689999999999,0.28431999999999996,-0.0933883,1.06341
72.4,13.597270000000002,0.28283,-0.09333026,1.06336
72.5,13.60785,0.28228000000000003,-0.09334171,1.06331
72.6,13.61846,0.28475,-0.09333982,1.06326
72.7,13.62909,0.28576999999999997,-0.09333998,1.06321
72.8,13.63959,0.28723000000000004,-0.0933395,1.06315
72.9,13.6502,0.28701,-0.09334541,1.0631
73.0,13.660689999999999,0.28863,-0.09381104,1.06305
73.1,13.67118,0.28728000000000004,-0.09472722,1.063
73.2,13.681679999999998,0.28919,-0.0946269,1.06295
73.3,13.69225,0.28964,-0.09465657,1.0629
73.4,13.702829999999999,0.28912,-0.09464815,1.06284
73.5,13.713289999999999,0.28909,-0.09465049,1.06279
73.6,13.72384,0.28841999999999995,-0.09464987,1.06274
73.7,13.734370000000002,0.29048,-0.09465003,1.06269
73.8,13.744860000000001,0.29303,-0.09464999,1.06264
73.9,13.755329999999999,0.29181999999999997,-0.09465,1.06259
74.0,13.76568,0.29269,-0.09465002,1.06253
74.1,13.776,0.29215,-0.09464992,1.0624799999999999
74.2,13.78625,0.29255,-0.09465029,1.06243
74.3,13.796629999999999,0.29420999999999997,-0.09464902,1.0623799999999999
74.4,13.80719,0.29495,-0.09465833,1.06233
74.5,13.817639999999999,0.29475999999999997,-0.09466041,1.06227
74.6,13.828120000000002,0.29462,-0.09465968,1.0622200000000002
74.7,13.83862,0.29769,-0.09466057,1.06217
74.8,13.849079999999999,0.2956,-0.09465963,1.0621200000000002
74.9,13.859589999999999,0.29635,-0.09502676,1.06207
75.0,13.870070000000002,0.2966,-0.09602406,1.06202
75.1,13.880529999999998,0.29836,-0.09596419,1.06196
75.2,13.891010000000001,0.29878000000000005,-0.09598291,1.0619100000000001
75.3,13.90145,0.29785,-0.09599005,1.06186
75.4,13.911879999999998,0.299,-0.09592868,1.0618100000000001
75.5,13.922410000000001,0.3009,-0.09624526,1.06176
75.6,13.93283,0.30006,-0.09717985,1.06171
75.7,13.94325,0.30141999999999997,-0.09729698,1.06165
75.8,13.95375,0.30094,-0.0972882,1.0616
75.9,13.96429,0.30036999999999997,-0.09729046,1.06155
76.0,13.974920000000001,0.30162,-0.09728989,1.0615
76.1,13.98562,0.30043000000000003,-0.09729004,1.06145
76.2,13.9963,0.302,-0.09728996,1.0614
76.3,14.006870000000001,0.30238000000000004,-0.09729012,1.06134
76.4,14.017270000000002,0.30230999999999997,-0.09728961,1.06129
76.5,14.02776,0.30238000000000004,-0.09729118,1.06124
76.6,14.038229999999999,0.30577,-0.09728675,1.0611899999999999
76.7,14.04868,0.30487,-0.09758122,1.06114
76.8,14.05915,0.30594,-0.09860913,1.0610899999999999
76.9,14.06954,0.3043,-0.09860462,1.06103
77.0,14.079939999999999,0.30548000000000003,-0.09861279,1.06098
77.1,14.09041,0.30854000000000004,-0.09860879,1.06093
77.2,14.10082,0.30832,-0.09861095,1.0608799999999998
77.3,14.111229999999999,0.30778,-0.09860711,1.06083
77.4,14.121620000000002,0.30908,-0.09862284,1.06077
77.5,14.13176,0.3088,-0.09855821,1.06072
77.6,14.14199,0.30969,-0.09883952,1.06067
77.7,14.152389999999999,0.31193000000000004,-0.09980036,1.0606200000000001
77.8,14.16285,0.31125,-0.09993752,1.06057
77.9,14.17319,0.31068,-0.09992796,1.0605200000000001
78.0,14.183489999999999,0.31216,-0.09993054,1.06046
78.1,14.193879999999998,0.31028,-0.09992986,1.06041
78.2,14.204229999999999,0.31083,-0.09993004,1.06036
78.3,14.214520000000002,0.31418,-0.09992999,1.06031
78.4,14.224870000000001,0.31308,-0.09993001,1.06026
78.5,14.23525,0.31279,-0.09993,1.06021
78.6,14.24562,0.31345,-0.09993,1.06015
78.7,14.255970000000001,0.31337,-0.09993,1.0601
78.8,14.2664,0.31372,-0.09993002,1.06005
78.9,14.2768,0.31404,-0.09992994,1.06
79.0,14.287170000000001,0.31606999999999996,-0.09993022,1.05995
79.1,14.29755,0.31503000000000003,-0.09992931,1.0599
79.2,14.30799,0.31821,-0.09993204,1.05984
79.3,14.31836,0.31801999999999997,-0.09992434,1.05979
79.4,14.32875,0.31624,-0.09994163,1.05974
79.5,14.339360000000001,0.31772,-0.09960223,1.05969
79.6,14.349979999999999,0.3187,-0.10032,1.05964
79.7,14.360339999999999,0.31769000000000003,-0.10095,1.05959
79.8,14.370610000000001,0.32016,-0.10086,1.0595299999999999
79.9,14.380939999999999,0.31968,-0.10057,1.05948
80.0,14.39136,0.32165,-0.10053,1.0594299999999999
80.1,14.401679999999999,0.32193,-0.10022,1.05938
80.2,14.411979999999998,0.32038,-0.10023,1.0593299999999999
80.3,14.422410000000001,0.32036,-0.1004,1.05928
80.4,14.43276,0.32352,-0.1012,1.05922
80.5,14.4431,0.32221,-0.10162,1.0591700000000002
80.6,14.453429999999999,0.32393,-0.10156,1.05912
80.7,14.463729999999998,0.32356999999999997,-0.10157000000000001,1.0590700000000002
80.8,14.473989999999999,0.32452,-0.10157000000000001,1.05902
80.9,14.484229999999998,0.32604,-0.10157000000000001,1.05897
81.0,14.4945,0.32595999999999997,-0.10157000000000001,1.05892
81.1,14.5048,0.32650999999999997,-0.10159,1.0588600000000001
81.2,14.51503,0.327,-0.10151,1.05881
81.3,14.52532,0.32775,-0.10196000000000001,1.0587600000000001
81.4,14.53558,0.32837,-0.10249000000000001,1.05871
81.5,14.545810000000001,0.32789,-0.10259000000000001,1.05866
81.6,14.55609,0.3292,-0.10247,1.05861
81.7,14.5664,0.32876,-0.10324000000000001,1.05855
81.8,14.5767,0.33023,-0.1041,1.0585
81.9,14.58697,0.33016999999999996,-0.10421,1.05845
82.0,14.5972,0.33037,-0.10419,1.0584
82.1,14.607429999999999,0.33216999999999997,-0.10419,1.05835
82.2,14.617679999999998,0.33228,-0.1042,1.0583
82.3,14.627939999999999,0.33304,-0.10415999999999999,1.05824
82.4,14.638229999999998,0.33071999999999996,-0.10477,1.05819
82.5,14.648579999999999,0.33452,-0.10549000000000001,1.0581399999999999
82.6,14.65889,0.33531,-0.10550999999999999,1.05809
82.7,14.66916,0.33476999999999996,-0.10550999999999999,1.0580399999999999
82.8,14.679470000000002,0.33519,-0.10550999999999999,1.05799
82.9,14.689739999999999,0.33724,-0.10550999999999999,1.05793
83.0,14.700079999999998,0.33692,-0.10550999999999999,1.05788
83.1,14.710370000000001,0.33502,-0.10550999999999999,1.0578299999999998
83.2,14.72064,0.33823000000000003,-0.10550999999999999,1.05778
83.3,14.7309,0.33721999999999996,-0.10550999999999999,1.0577299999999998
83.4,14.74114,0.33835,-0.10550999999999999,1.05768
83.5,14.751479999999999,0.3387,-0.10550999999999999,1.05762
83.6,14.7618,0.34042,-0.1055,1.0575700000000001
83.7,14.772070000000001,0.34042,-0.10555,1.05752
83.8,14.78229,0.34194,-0.10534,1.0574700000000001
83.9,14.792589999999999,0.34223000000000003,-0.10474000000000001,1.05742
84.0,14.8029,0.34337,-0.10511,1.0573700000000001
84.1,14.813139999999999,0.34306,-0.10559,1.05732
84.2,14.8234,0.34376999999999996,-0.1055,1.05726
84.3,14.83366,0.34501,-0.10555,1.05721
84.4,14.843860000000001,0.34258,-0.10543,1.05716
84.5,14.85405,0.3438,-0.10595999999999998,1.05711
84.6,14.86426,0.34635,-0.10677,1.05706
84.7,14.87445,0.34638,-0.10684,1.05701
84.8,14.884689999999999,0.34683,-0.10683,1.05695
84.9,14.89495,0.34789000000000003,-0.10683,1.0569
85.0,14.905120000000002,0.34815,-0.10683,1.05685
85.1,14.915320000000001,0.34945,-0.10683,1.0568
85.2,14.92547,0.34908,-0.10684,1.05675
85.3,14.935670000000002,0.34873000000000004,-0.10680999999999999,1.0567
85.4,14.945889999999999,0.3503,-0.10702,1.05664
85.5,14.95606,0.35206,-0.10743,1.05659
85.6,14.9662,0.35457,-0.10745999999999999,1.05654
85.7,14.976370000000001,0.35279,-0.10792,1.05649
85.8,14.98655,0.35105,-0.1087,1.05644
85.9,14.99671,0.35305,-0.10884,1.05639
86.0,15.006829999999999,0.35275,-0.1088,1.05634
86.1,15.017029999999998,0.35403,-0.10883,1.0562799999999999
86.2,15.027289999999999,0.35720999999999997,-0.10876,1.05623
86.3,15.037429999999999,0.36041,-0.10937000000000001,1.05618
86.4,15.047579999999998,0.3567,-0.10948,1.05613
86.5,15.05778,0.35783000000000004,-0.10945999999999999,1.05608
86.6,15.06795,0.35625,-0.10945999999999999,1.05603
86.7,15.07807,0.35846,-0.10945999999999999,1.05597
86.8,15.08823,0.35878000000000004,-0.10945999999999999,1.05592
86.9,15.098310000000001,0.35949000000000003,-0.10945999999999999,1.05587
87.0,15.10851,0.36144,-0.10945999999999999,1.05582
87.1,15.118689999999999,0.36033000000000004,-0.10947,1.05577
87.2,15.128789999999999,0.35946,-0.10944000000000001,1.05572
87.3,15.13905,0.36243000000000003,-0.11044000000000001,1.05567
87.4,15.149170000000002,0.36136999999999997,-0.11077999999999999,1.05561
87.5,15.159370000000001,0.36195,-0.11077999999999999,1.05556
87.6,15.169479999999998,0.36213,-0.11114,1.05551
87.7,15.1796,0.36254000000000003,-0.11212000000000001,1.05546
87.8,15.18966,0.36371,-0.11209000000000001,1.05541
87.9,15.199810000000001,0.36546999999999996,-0.1121,1.05536
88.0,15.2099,0.36486,-0.1121,1.0553
88.1,15.22003,0.36476,-0.1121,1.05525
88.2,15.23008,0.36521,-0.1121,1.0552
88.3,15.24015,0.3656,-0.11209000000000001,1.05515
88.4,15.250210000000001,0.36543000000000003,-0.11214,1.0551
88.5,15.260320000000002,0.36917,-0.11285,1.05505
88.6,15.270370000000002,0.36809000000000003,-0.11344000000000001,1.055
88.7,15.28045,0.36733000000000005,-0.1134,1.05494
88.8,15.290479999999999,0.36726,-0.11342,1.0548899999999999
88.9,15.300679999999998,0.36763,-0.11337,1.05484
89.0,15.31073,0.36734,-0.11307,1.05479
89.1,15.320789999999999,0.36780999999999997,-0.11304000000000002,1.05474
89.2,15.33085,0.37015,-0.11272,1.05469
89.3,15.340879999999999,0.36991999999999997,-0.11275999999999999,1.05463
89.4,15.35089,0.37051,-0.11275,1.0545799999999999
89.5,15.36096,0.36974,-0.11275,1.05453
89.6,15.370970000000002,0.37132,-0.11275,1.0544799999999999
89.7,15.38101,0.37226,-0.11275,1.05443
89.8,15.391020000000001,0.37077,-0.11275,1.0543799999999999
89.9,15.40102,0.3701,-0.11275,1.05433
90.0,15.411079999999998,0.37301999999999996,-0.11275,1.05427
90.1,15.42107,0.3727,-0.11275999999999999,1.0542200000000002
90.2,15.43111,0.37219,-0.11327000000000001,1.05417
90.3,15.44116,0.37293000000000004,-0.11415,1.0541200000000002
90.4,15.45116,0.37382,-0.11405,1.05407
90.5,15.461229999999999,0.37361,-0.11408,1.0540200000000002
90.6,15.47124,0.3736,-0.11407,1.05397
90.7,15.48122,0.37534,-0.11407,1.0539100000000001
90.8,15.49121,0.37361,-0.11408,1.05386
90.9,15.50129,0.37443000000000004,-0.11404,1.0538100000000001
91.0,15.51126,0.37231,-0.11420999999999999,1.05376
91.1,15.52125,0.37373,-0.11529,1.0537100000000001
91.2,15.531239999999999,0.37537,-0.11623,1.05366
91.3,15.541229999999999,0.37566,-0.11674000000000001,1.05361
91.4,15.55127,0.3762,-0.11669000000000002,1.05355
91.5,15.56125,0.37390999999999996,-0.1167,1.0535
91.6,15.57126,0.37373,-0.1167,1.05345
91.7,15.58125,0.37583,-0.1167,1.0534
91.8,15.591270000000002,0.37544,-0.1167,1.05335
91.9,15.601329999999999,0.37733,-0.1167,1.0533
92.0,15.61135,0.37739,-0.1167,1.05324
92.1,15.621329999999999,0.37443000000000004,-0.11671,1.05319
92.2,15.6314,0.37565,-0.11667999999999999,1.05314
92.3,15.641379999999998,0.37688,-0.11679,1.0530899999999999
92.4,15.651320000000002,0.37653000000000003,-0.11754,1.05304
92.5,15.66131,0.37525,-0.11805999999999998,1.0529899999999999
92.6,15.6713,0.37515,-0.11800999999999999,1.05294
92.7,15.68125,0.3768,-0.11802,1.05288
92.8,15.691289999999999,0.37776,-0.11802,1.05283
92.9,15.7013,0.37724,-0.11802,1.0527799999999998
93.0,15.711179999999999,0.37618,-0.11802,1.05273
93.1,15.72115,0.37593000000000004,-0.11802,1.0526799999999998
93.2,15.731129999999999,0.37694,-0.11803,1.05263
93.3,15.74105,0.37594,-0.11798,1.0525799999999998
93.4,15.75104,0.37905,-0.11815999999999999,1.0525200000000001
93.5,15.76099,0.3764,-0.11914000000000001,1.05247
93.6,15.770979999999998,0.37746999999999997,-0.11935,1.0524200000000001
93.7,15.7809,0.37733,-0.11934000000000002,1.05237
93.8,15.79084,0.37732,-0.11934000000000002,1.0523200000000001
93.9,15.80078,0.37701999999999997,-0.11934000000000002,1.05227
94.0,15.81073,0.37751,-0.11934000000000002,1.0522200000000002
94.1,15.82066,0.37744,-0.11935,1.05216
94.2,15.83053,0.37608,-0.11932000000000001,1.05211
94.3,15.84043,0.37594,-0.11943,1.05206
94.4,15.85029,0.37478,-0.12042,1.0520100000000001
94.5,15.86025,0.37479,-0.12065999999999999,1.05196
94.6,15.87021,0.37681,-0.12065999999999999,1.0519100000000001
94.7,15.88011,0.3757,-0.12065999999999999,1.05186
94.8,15.89006,0.37742,-0.12065999999999999,1.0518
94.9,15.899920000000002,0.37923,-0.12065999999999999,1.05175
95.0,15.90976,0.37779,-0.12065999999999999,1.0517
95.1,15.91976,0.37535,-0.12065999999999999,1.05165
95.2,15.92963,0.37487,-0.12065999999999999,1.0516
95.3,15.939520000000002,0.37383,-0.12065999999999999,1.05155
95.4,15.94943,0.37459000000000003,-0.12065999999999999,1.0515
95.5,15.95936,0.37383,-0.12065999999999999,1.05144
95.6,15.96923,0.37226,-0.12065999999999999,1.05139
95.7,15.97914,0.37463,-0.12065999999999999,1.05134
95.8,15.98903,0.37213,-0.12065999999999999,1.05129
95.9,15.99893,0.37354,-0.12097000000000001,1.05124
96.0,16.00887,0.37364,-0.12195,1.05119
96.1,16.0187,0.37185999999999997,-0.12197999999999999,1.05114
96.2,16.02865,0.37192,-0.12194,1.05108
96.3,16.03872,0.37396999999999997,-0.12290999999999999,1.05103
96.4,16.04866,0.3737,-0.12328,1.05098
96.5,16.058629999999997,0.37306,-0.12328,1.05093
96.6,16.06857,0.37083,-0.12328,1.05088
96.7,16.07846,0.37253000000000003,-0.12328,1.05083
96.8,16.08837,0.3721,-0.12328,1.0507799999999998
96.9,16.09824,0.3706,-0.12328,1.05073
97.0,16.10819,0.37294,-0.12328,1.05067
97.1,16.11812,0.37182,-0.12328,1.05062
97.2,16.128020000000003,0.3711,-0.12328,1.05057
97.3,16.13791,0.37109000000000003,-0.12328,1.0505200000000001
97.4,16.14786,0.37111,-0.12328,1.05047
97.5,16.15779,0.36937,-0.12328,1.0504200000000001
97.6,16.16763,0.37094,-0.12328,1.05037
97.7,16.17752,0.37035,-0.12328,1.05031
97.8,16.18744,0.368,-0.12328,1.05026
97.9,16.19735,0.36946999999999997,-0.12328,1.05021
98.0,16.20727,0.3697,-0.12328,1.05016
98.1,16.21712,0.36977,-0.12327,1.05011
98.2,16.227,0.36954000000000004,-0.12345999999999999,1.05006
98.3,16.23692,0.36921,-0.12443,1.05001
98.4,16.24672,0.36730999999999997,-0.12465,1.04995
98.5,16.25654,0.36724,-0.12459,1.0499
98.6,16.26641,0.36791999999999997,-0.1246,1.04985
98.7,16.2763,0.36754000000000003,-0.1246,1.0498
98.8,16.2862,0.36701,-0.12460999999999998,1.04975
98.9,16.29606,0.36544,-0.12455,1.0497
99.0,16.305989999999998,0.36606,-0.125,1.04965
99.1,16.31589,0.36578,-0.12577,1.0496
99.2,16.32576,0.36728,-0.12596,1.04954
99.3,16.335639999999998,0.36423,-0.12591,1.04949
99.4,16.34551,0.3631,-0.12592,1.04944
99.5,16.35537,0.36232,-0.12591,1.04939
99.6,16.36522,0.36267,-0.12602,1.04934
99.7,16.3751,0.3637,-0.12688,1.04929
99.8,16.38499,0.36385,-0.12732000000000002,1.04924
99.9,16.39486,0.36413,-0.12722,1.04918
100.0,16.40475,0.36432,-0.12725,1.04913
100.1,16.4146,0.36183000000000004,-0.12724000000000002,1.04908
100.2,16.42451,0.36224,-0.12724000000000002,1.04903
100.3,16.43445,0.3626,-0.12724000000000002,1.04898
100.4,16.4443,0.35983000000000004,-0.12724000000000002,1.04893
100.5,16.454179999999997,0.35963,-0.12724000000000002,1.04888
100.6,16.46409,0.3606,-0.12724000000000002,1.04883
100.7,16.47395,0.35978000000000004,-0.12724000000000002,1.04877
100.8,16.48377,0.3582,-0.12724000000000002,1.04872
100.9,16.493570000000002,0.35868,-0.12724000000000002,1.04867
101.0,16.503429999999998,0.36004,-0.12725,1.04862
101.1,16.51323,0.36034,-0.1272,1.04857
101.2,16.52303,0.35965,-0.12742,1.0485200000000001
101.3,16.53286,0.35917,-0.12819,1.04847
101.4,16.542720000000003,0.35791999999999996,-0.1286,1.04841
101.5,16.552629999999997,0.35771,-0.12853,1.04836
101.6,16.56249,0.35859,-0.12857000000000002,1.04831
101.7,16.57235,0.35741999999999996,-0.12847999999999998,1.04826
101.8,16.58219,0.3568,-0.12809,1.04821
101.9,16.59206,0.35855,-0.12788,1.04816
102.0,16.60193,0.35743,-0.12784,1.04811
102.1,16.61177,0.35559,-0.12809,1.04806
102.2,16.62163,0.35470999999999997,-0.12905,1.048
102.3,16.631429999999998,0.35472,-0.12922,1.04795
102.4,16.6412,0.35552,-0.12921,1.0479
102.5,16.65105,0.3556,-0.12921,1.04785
102.6,16.66086,0.35593,-0.12921,1.0478
102.7,16.67065,0.3547,-0.12921,1.04775
102.8,16.68051,0.35431,-0.12921,1.0477
102.9,16.69033,0.35343,-0.12921,1.04764
103.0,16.70022,0.35425,-0.12921,1.04759
103.1,16.71007,0.3521,-0.12921,1.04754
103.2,16.71998,0.35088,-0.12921,1.04749
103.3,16.72991,0.35147,-0.12922,1.04744
103.4,16.73975,0.35105,-0.12959,1.04739
103.5,16.74964,0.35058,-0.13055999999999998,1.04734
103.6,16.759439999999998,0.35134,-0.1312,1.04729
103.7,16.76923,0.35133000000000003,-0.13184,1.0472299999999999
103.8,16.77907,0.35008,-0.13184,1.04718
103.9,16.788970000000003,0.3499,-0.13184,1.04713
104.0,16.7988,0.35012,-0.13184,1.04708
104.1,16.8086,0.34911,-0.13184,1.04703
104.2,16.8184,0.34814,-0.13184,1.04698
104.3,16.82819,0.34897,-0.13184,1.04693
104.4,16.83803,0.34906,-0.13184,1.04688
104.5,16.8479,0.34719,-0.13184,1.04682
104.6,16.857689999999998,0.3478,-0.13184,1.04677
104.7,16.8675,0.34689000000000003,-0.13184,1.04672
104.8,16.87735,0.34706,-0.13184,1.04667
104.9,16.887179999999997,0.34536,-0.13183,1.04662
105.0,16.89702,0.346,-0.13185999999999998,1.04657
105.1,16.90684,0.34488,-0.13176,1.0465200000000001
105.2,16.91669,0.34544,-0.13257,1.04647
105.3,16.92654,0.3445,-0.13321,1.04641
105.4,16.9363,0.34424,-0.13267,1.04636
105.5,16.94611,0.34288,-0.13246,1.04631
105.6,16.95589,0.34331,-0.13251,1.04626
105.7,16.965529999999998,0.34405,-0.1325,1.04621
105.8,16.97514,0.34507,-0.1325,1.04616
105.9,16.9849,0.34441,-0.1325,1.04611
106.0,16.99474,0.34302,-0.1325,1.04606
106.1,17.00456,0.3429,-0.1325,1.046
106.2,17.01442,0.34143,-0.1325,1.04595
106.3,17.02426,0.3412,-0.1325,1.0459
106.4,17.03416,0.3416,-0.13249,1.04585
106.5,17.04406,0.33944,-0.13255999999999998,1.0458
106.6,17.0539,0.3403,-0.13333,1.04575
106.7,17.06375,0.34056,-0.13391,1.0457
106.8,17.073629999999998,0.33869,-0.1338,1.04565
106.9,17.08343,0.33857,-0.13380999999999998,1.04559
107.0,17.09321,0.33875,-0.13389,1.04554
107.1,17.10308,0.33859,-0.13443,1.04549
107.2,17.11295,0.33765,-0.13487000000000002,1.04544
107.3,17.12278,0.33837,-0.13479000000000002,1.04539
107.4,17.132620000000003,0.33685,-0.13480999999999999,1.04534
107.5,17.14249,0.33646,-0.13480999999999999,1.04529
107.6,17.15239,0.33658000000000005,-0.13480999999999999,1.04524
107.7,17.16228,0.33636,-0.13480999999999999,1.04518
107.8,17.17223,0.3347,-0.13480999999999999,1.04513
107.9,17.182270000000003,0.33516999999999997,-0.13480999999999999,1.04508
108.0,17.19227,0.33419,-0.13480999999999999,1.04503
108.1,17.20203,0.33269,-0.13480999999999999,1.04498
108.2,17.21189,0.33321999999999996,-0.13480999999999999,1.04493
108.3,17.22166,0.33423,-0.13480999999999999,1.04488
108.4,17.231460000000002,0.33375,-0.13483,1.04483
108.5,17.24128,0.3322,-0.13534000000000002,1.0447799999999998
108.6,17.25105,0.33191,-0.13619,1.04472
108.7,17.26087,0.33218000000000003,-0.1361,1.04467
108.8,17.2707,0.33193,-0.13613,1.04462
108.9,17.2805,0.33091,-0.13610999999999998,1.04457
109.0,17.29029,0.33225,-0.13615,1.0445200000000001
109.1,17.30015,0.3324,-0.13646,1.04447
109.2,17.30997,0.33292,-0.13644,1.0444200000000001
109.3,17.319770000000002,0.33171999999999996,-0.13644,1.04437
109.4,17.329620000000002,0.32981,-0.13644,1.04431
109.5,17.33943,0.32988,-0.13644,1.04426
109.6,17.349239999999998,0.33005999999999996,-0.13644,1.04421
109.7,17.359,0.32954,-0.13644,1.04416
109.8,17.36879,0.32838,-0.13644,1.04411
109.9,17.37859,0.32552,-0.13644,1.04406
110.0,17.38851,0.32903000000000004,-0.13644,1.04401
110.1,17.39834,0.32852,-0.13644,1.04396
110.2,17.40815,0.32663000000000003,-0.13644,1.0439
110.3,17.41795,0.32600999999999997,-0.13645,1.04385
110.4,17.42774,0.32582,-0.13641,1.0438
110.5,17.43759,0.32606,-0.13697,1.04375
110.6,17.44744,0.32676,-0.13769,1.0437
110.7,17.457279999999997,0.32426,-0.13777999999999999,1.04365
110.8,17.46714,0.32427,-0.13775,1.0436
110.9,17.477,0.32691,-0.13776,1.04355
111.0,17.48684,0.32641,-0.13775,1.0435
111.1,17.49672,0.32588,-0.13777999999999999,1.04344
111.2,17.50658,0.32569000000000004,-0.13767000000000001,1.04339
111.3,17.51641,0.32399,-0.13848,1.04334
111.4,17.526220000000002,0.32255,-0.13906,1.04329
111.5,17.53604,0.32515,-0.13908,1.04324
111.6,17.54587,0.32577,-0.13908,1.04319
111.7,17.55566,0.32382,-0.13908,1.04314
111.8,17.56551,0.32358000000000003,-0.13908,1.04309
111.9,17.57538,0.32328,-0.13908,1.04304
112.0,17.58522,0.32341,-0.13908,1.04298
112.1,17.595,0.32201,-0.13909000000000002,1.04293
112.2,17.60475,0.31899,-0.13903,1.04288
112.3,17.61458,0.32029,-0.13937,1.04283
112.4,17.62444,0.32142,-0.14015,1.0427799999999998
112.5,17.63424,0.32023,-0.14045,1.04273
112.6,17.64409,0.32008000000000003,-0.14039000000000001,1.0426799999999998
112.7,17.65391,0.32208000000000003,-0.14040999999999998,1.04263
112.8,17.66366,0.32119000000000003,-0.14038,1.04257
112.9,17.67342,0.32019000000000003,-0.14046,1.0425200000000001
113.0,17.68317,0.32145,-0.14015,1.04247
113.1,17.69293,0.31944,-0.13967000000000002,1.0424200000000001
113.2,17.7027,0.31981,-0.13976,1.04237
113.3,17.71251,0.32023,-0.13974,1.0423200000000001
113.4,17.72233,0.31987,-0.13971,1.04227
113.5,17.73215,0.32011999999999996,-0.13987,1.0422200000000001
113.6,17.74202,0.32011999999999996,-0.14062,1.04217
113.7,17.751820000000002,0.31675,-0.1411,1.04211
113.8,17.76163,0.31893,-0.14104,1.04206
113.9,17.77145,0.32025,-0.14105,1.04201
114.0,17.78118,0.31982,-0.14105,1.04196
114.1,17.79097,0.31889,-0.14105,1.0419100000000001
114.2,17.80076,0.3181,-0.14105,1.04186
114.3,17.810570000000002,0.31803000000000003,-0.14105,1.0418100000000001
114.4,17.82037,0.31824,-0.14105,1.04176
114.5,17.83012,0.31769000000000003,-0.14105,1.0417100000000001
114.6,17.839879999999997,0.31625,-0.14105,1.04165
114.7,17.84968,0.31856999999999996,-0.14105,1.0416
114.8,17.85947,0.31911999999999996,-0.14105,1.04155
114.9,17.869239999999998,0.31608,-0.14105,1.0415
115.0,17.87904,0.31664000000000003,-0.14105,1.04145
115.1,17.88886,0.31740999999999997,-0.14105,1.0414
115.2,17.89865,0.31687,-0.14105,1.04135
115.3,17.90842,0.3174,-0.14105,1.0413
115.4,17.9182,0.31729,-0.14105,1.04125
115.5,17.92801,0.3174,-0.14105,1.04119
115.6,17.9378,0.3178,-0.14105,1.04114
115.7,17.9475,0.31588,-0.14105,1.04109
115.8,17.95722,0.31639,-0.14105,1.04104
115.9,17.96695,0.318,-0.14105,1.0409899999999999
116.0,17.97671,0.31733,-0.14105,1.04094
116.1,17.98648,0.31635,-0.14105,1.0408899999999999
116.2,17.996229999999997,0.31522,-0.14105,1.04084
116.3,18.005979999999997,0.31519,-0.14105,1.0407899999999999
116.4,18.01577,0.31479,-0.14105,1.04073
116.5,18.02555,0.31611,-0.14105,1.0406799999999998
116.6,18.0353,0.31645999999999996,-0.14106,1.04063
116.7,18.04508,0.3156,-0.141,1.0405799999999998
116.8,18.05487,0.31439,-0.14135999999999999,1.04053
116.9,18.064610000000002,0.31305,-0.14214000000000002,1.0404799999999998
117.0,18.07435,0.31382,-0.14242,1.04043
117.1,18.08416,0.31434,-0.14236,1.0403799999999999
117.2,18.09391,0.31475,-0.14237,1.04033
117.3,18.10361,0.31643000000000004,-0.14237,1.04027
117.4,18.11337,0.31616,-0.14237,1.0402200000000001
117.5,18.12312,0.31488,-0.14237,1.04017
117.6,18.1328,0.31540999999999997,-0.14237,1.0401200000000002
117.7,18.14252,0.31642,-0.14238,1.04007
117.8,18.15229,0.31639,-0.14232999999999998,1.0400200000000002
117.9,18.16206,0.31514000000000003,-0.14254,1.03997
118.0,18.17181,0.31378,-0.1431,1.0399200000000002
118.1,18.1816,0.31508,-0.14301,1.03987
118.2,18.191329999999997,0.31688,-0.14303,1.03982
118.3,18.20107,0.31639,-0.14303,1.03976
118.4,18.21085,0.31754,-0.14303,1.0397100000000001
118.5,18.220589999999998,0.31446,-0.14303,1.03966
118.6,18.23029,0.31745999999999996,-0.14302,1.0396100000000001
118.7,18.24004,0.31711,-0.14307,1.03956
118.8,18.2498,0.31611,-0.14371,1.03951
118.9,18.25956,0.31596,-0.14404,1.03946
119.0,18.26926,0.31506,-0.14501,1.03941
119.1,18.279020000000003,0.31399,-0.145,1.03936
119.2,18.28878,0.31501,-0.145,1.0393
119.3,18.29855,0.317,-0.145,1.03925
119.4,18.30827,0.31451,-0.14499,1.0392
119.5,18.318070000000002,0.31574,-0.14503,1.03915
119.6,18.32787,0.3152,-0.14445999999999998,1.0391
119.7,18.33765,0.31434,-0.1437,1.03905
119.8,18.34749,0.31603000000000003,-0.14418,1.039
119.9,18.35727,0.31606999999999996,-0.14493,1.03895
120.0,18.367,0.31292,-0.14502,1.0389
120.1,18.37676,0.31418,-0.14499,1.03885
120.2,18.3865,0.3134,-0.145,1.0387899999999999
120.3,18.39625,0.31403000000000003,-0.14499,1.03874
120.4,18.40606,0.31476,-0.14502,1.03869
120.5,18.41581,0.31522,-0.14493,1.03864
120.6,18.42555,0.31553000000000003,-0.14544,1.03859
120.7,18.4353,0.31406,-0.14570999999999998,1.03854
120.8,18.44505,0.31498000000000004,-0.14564000000000002,1.03849
120.9,18.45485,0.31468,-0.14565999999999998,1.03844
121.0,18.46462,0.31334,-0.14565999999999998,1.03839
121.1,18.47441,0.31256,-0.14565999999999998,1.03834
121.2,18.48422,0.31289,-0.14565999999999998,1.0382799999999999
121.3,18.49399,0.3123,-0.14565999999999998,1.03823
121.4,18.50374,0.31135999999999997,-0.14567,1.0381799999999999
121.5,18.5135,0.31295,-0.14562999999999998,1.03813
121.6,18.52329,0.31208,-0.14579,1.03808
121.7,18.533,0.3113,-0.14603,1.03803
121.8,18.54277,0.31135,-0.14598,1.03798
121.9,18.55252,0.30932,-0.14599,1.03793
122.0,18.562179999999998,0.30877,-0.14599,1.03788
122.1,18.57193,0.30824,-0.14599,1.03783
122.2,18.58165,0.30805,-0.14599,1.03777
122.3,18.59141,0.30827,-0.14597000000000002,1.03772
122.4,18.60117,0.30883,-0.14604,1.03767
122.5,18.61086,0.30861,-0.14635,1.03762
122.6,18.62056,0.30645,-0.14631,1.03757
122.7,18.63029,0.30821,-0.14632,1.03752
122.8,18.64003,0.30773,-0.14632,1.0374700000000001
122.9,18.6497,0.30818,-0.14632,1.03742
123.0,18.65945,0.30831,-0.14632,1.0373700000000001
123.1,18.66919,0.30651,-0.14632,1.03732
123.2,18.6789,0.30594,-0.14632,1.03726
123.3,18.6886,0.30805,-0.14632,1.03721
123.4,18.698339999999998,0.3048,-0.14632,1.03716
123.5,18.70808,0.30424,-0.14632,1.03711
123.6,18.71773,0.30526,-0.14632,1.03706
123.7,18.72741,0.30491999999999997,-0.14633,1.03701
123.8,18.73708,0.3042,-0.14628,1.03696
123.9,18.74679,0.30332,-0.14678,1.03691
124.0,18.75647,0.30164,-0.14751,1.0368600000000001
124.1,18.76621,0.30122,-0.14765999999999999,1.03681
124.2,18.7759,0.30053,-0.14762,1.03675
124.3,18.78558,0.30113,-0.14762999999999998,1.0367
124.4,18.795289999999998,0.30075999999999997,-0.14762999999999998,1.03665
124.5,18.80497,0.30098,-0.14762999999999998,1.0366
124.6,18.81467,0.30046999999999996,-0.14762999999999998,1.03655
124.7,18.8244,0.3011,-0.14762999999999998,1.0365
124.8,18.834139999999998,0.30157,-0.14762999999999998,1.03645
124.9,18.8439,0.29991,-0.14762999999999998,1.0364
125.0,18.853720000000003,0.2995,-0.14762999999999998,1.03635
125.1,18.86354,0.29944,-0.14762999999999998,1.0363
125.2,18.873260000000002,0.29841,-0.14762999999999998,1.03624
125.3,18.88299,0.29634,-0.14762999999999998,1.03619
125.4,18.89274,0.29607,-0.14762999999999998,1.03614
125.5,18.90247,0.2968,-0.14762999999999998,1.03609
125.6,18.9122,0.29743,-0.14762999999999998,1.03604
125.7,18.9219,0.29867,-0.14762999999999998,1.03599
125.8,18.93168,0.29830999999999996,-0.14762999999999998,1.0359399999999999
125.9,18.94141,0.29688000000000003,-0.14762999999999998,1.03589
126.0,18.95116,0.29355,-0.14762999999999998,1.0358399999999999
126.1,18.960929999999998,0.29494000000000004,-0.14762999999999998,1.03579
126.2,18.970660000000002,0.29409,-0.14762999999999998,1.0357299999999998
126.3,18.98043,0.29331999999999997,-0.14762999999999998,1.03568
126.4,18.99019,0.29369,-0.14762999999999998,1.0356299999999998
126.5,18.99994,0.29468,-0.14762999999999998,1.03558
126.6,19.00968,0.29247,-0.14762999999999998,1.0355299999999998
126.7,19.01945,0.29038,-0.14762999999999998,1.03548
126.8,19.02919,0.2951,-0.14762999999999998,1.0354299999999999
126.9,19.03891,0.29093,-0.14762999999999998,1.03538
127.0,19.04866,0.29323,-0.14733,1.0353299999999999
127.1,19.058320000000002,0.29105,-0.14670999999999998,1.03528
127.2,19.068,0.29218,-0.14631,1.0352299999999999
127.3,19.07767,0.29241999999999996,-0.14685,1.0351700000000001
127.4,19.087329999999998,0.29109,-0.14757,1.03512
127.5,19.097,0.29072,-0.14765999999999999,1.0350700000000002
127.6,19.10675,0.28845,-0.14762999999999998,1.03502
127.7,19.116429999999998,0.28999,-0.14764000000000002,1.0349700000000002
127.8,19.12612,0.29245,-0.14764000000000002,1.03492
127.9,19.135839999999998,0.2902,-0.14764000000000002,1.0348700000000002
128.0,19.14558,0.28686,-0.14764000000000002,1.03482
128.1,19.15536,0.28773000000000004,-0.14764000000000002,1.03477
128.2,19.16505,0.28768,-0.14764000000000002,1.03472
128.3,19.1747,0.28696,-0.14762999999999998,1.03467
128.4,19.18441,0.28738,-0.14767,1.03461
128.5,19.194110000000002,0.28869,-0.14755,1.0345600000000001
128.6,19.20382,0.28756,-0.14806,1.03451
128.7,19.21358,0.28549,-0.14887999999999998,1.03446
128.8,19.2233,0.28617,-0.14897,1.03441
128.9,19.233,0.28573000000000004,-0.14895999999999998,1.03436
129.0,19.242720000000002,0.28648,-0.14895999999999998,1.03431
129.1,19.25239,0.2868,-0.14895999999999998,1.03426
129.2,19.262079999999997,0.28496,-0.14895999999999998,1.03421
129.3,19.27185,0.28635,-0.14895999999999998,1.03416
129.4,19.281589999999998,0.28611,-0.14895999999999998,1.03411
129.5,19.291320000000002,0.28486999999999996,-0.14895999999999998,1.03405
129.6,19.30104,0.28659,-0.14895999999999998,1.034
129.7,19.310760000000002,0.28406,-0.14895999999999998,1.03395
129.8,19.32039,0.28292,-0.14895999999999998,1.0339
129.9,19.33011,0.28286,-0.14895999999999998,1.03385
130.0,19.33981,0.28341,-0.14895999999999998,1.0338
130.1,19.34956,0.28299,-0.14895999999999998,1.03375
130.2,19.35925,0.28251,-0.14895999999999998,1.0337
130.3,19.36894,0.28417,-0.14895999999999998,1.03365
130.4,19.37852,0.28212,-0.14894000000000002,1.0336
130.5,19.388270000000002,0.28151,-0.14954,1.03355
130.6,19.39796,0.28317,-0.15023,1.03349
130.7,19.40768,0.28292,-0.15028,1.03344
130.8,19.417370000000002,0.28187,-0.15027000000000001,1.03339
130.9,19.42703,0.28098,-0.15027000000000001,1.03334
131.0,19.43672,0.28269,-0.15027000000000001,1.03329
131.1,19.44641,0.28221999999999997,-0.15027000000000001,1.03324
131.2,19.45608,0.2821,-0.15027000000000001,1.03319
131.3,19.465770000000003,0.28199,-0.15027000000000001,1.03314
131.4,19.47543,0.28146,-0.15027000000000001,1.03309
131.5,19.48503,0.28114,-0.15027000000000001,1.03304
131.6,19.49462,0.2795,-0.15027000000000001,1.0329899999999999
131.7,19.5043,0.27899,-0.15027000000000001,1.03293
131.8,19.51396,0.28001,-0.15027000000000001,1.03288
131.9,19.52361,0.28174,-0.15027000000000001,1.03283
132.0,19.53335,0.28262,-0.15027000000000001,1.03278
132.1,19.54301,0.28094,-0.15027000000000001,1.03273
132.2,19.55261,0.27962,-0.15027000000000001,1.0326799999999998
132.3,19.56224,0.2789,-0.15027000000000001,1.03263
132.4,19.57187,0.27884000000000003,-0.15027000000000001,1.0325799999999998
132.5,19.58154,0.27939,-0.15027000000000001,1.03253
132.6,19.59135,0.27853,-0.15027000000000001,1.0324799999999998
132.7,19.600939999999998,0.2774,-0.15027000000000001,1.03243
132.8,19.610529999999997,0.27944,-0.15027000000000001,1.0323799999999999
132.9,19.62017,0.28003,-0.15027000000000001,1.0323200000000001
133.0,19.62986,0.27852,-0.15027000000000001,1.03227
133.1,19.63952,0.27793,-0.15026,1.0322200000000001
133.2,19.64914,0.27903,-0.15027000000000001,1.03217
133.3,19.65876,0.27815,-0.15122,1.0321200000000001
133.4,19.66845,0.27831999999999996,-0.15159,1.03207
133.5,19.67807,0.27731999999999996,-0.15159,1.0320200000000002
133.6,19.687739999999998,0.27524,-0.15159,1.03197
133.7,19.6974,0.27868000000000004,-0.15159,1.0319200000000002
133.8,19.7071,0.27783,-0.15159,1.03187
133.9,19.71678,0.27798,-0.15159,1.0318200000000002
134.0,19.72648,0.27748,-0.15159,1.03176
134.1,19.73614,0.27469,-0.15159,1.0317100000000001
134.2,19.745720000000002,0.27657,-0.15159,1.03166
134.3,19.755370000000003,0.27789,-0.15159,1.0316100000000001
134.4,19.76504,0.27656,-0.1516,1.03156
134.5,19.77467,0.2769,-0.15150999999999998,1.03151
134.6,19.78431,0.27613000000000004,-0.15072,1.03146
134.7,19.79399,0.27614,-0.15018,1.03141
134.8,19.80366,0.27638,-0.1503,1.03136
134.9,19.81334,0.27625,-0.15026,1.03131
135.0,19.82303,0.27718000000000004,-0.15027000000000001,1.03126
135.1,19.83267,0.27687,-0.15027000000000001,1.03121
135.2,19.842270000000003,0.27745,-0.15027000000000001,1.03115
135.3,19.8519,0.27823000000000003,-0.15027000000000001,1.0311
135.4,19.86155,0.27888,-0.15027000000000001,1.03105
135.5,19.87126,0.27581,-0.15027000000000001,1.031
135.6,19.88095,0.27594,-0.15028,1.03095
135.7,19.89059,0.27573000000000003,-0.15025,1.0309
135.8,19.90025,0.27521,-0.15032,1.03085
135.9,19.90992,0.27625,-0.15137,1.0308
136.0,19.919520000000002,0.27514,-0.15259,1.03075
136.1,19.92916,0.27573000000000003,-0.15257,1.0307
136.2,19.938779999999998,0.27616,-0.15257,1.03065
136.3,19.94847,0.27479000000000003,-0.15257,1.0306
136.4,19.958170000000003,0.27657,-0.15257,1.03054
136.5,19.96786,0.27382,-0.15257,1.03049
136.6,19.97757,0.27673000000000003,-0.15257,1.03044
136.7,19.98728,0.27571,-0.15257,1.03039
136.8,19.99695,0.27647,-0.15257,1.03034
136.9,20.00654,0.27478,-0.15257,1.03029
137.0,20.01621,0.27531,-0.15257,1.03024
137.1,20.025879999999997,0.2739,-0.15257,1.03019
137.2,20.03552,0.27508,-0.15257,1.03014
137.3,20.045170000000002,0.2757,-0.15257,1.03009
137.4,20.054879999999997,0.27389,-0.15257,1.03004
137.5,20.06464,0.27464,-0.15257,1.02999
137.6,20.07432,0.27432,-0.15257,1.0299399999999999
137.7,20.08391,0.27418000000000003,-0.15257,1.02988
137.8,20.093529999999998,0.27408000000000005,-0.15257,1.02983
137.9,20.103189999999998,0.27447,-0.15257,1.02978
138.0,20.11286,0.27574,-0.15256,1.02973
138.1,20.122529999999998,0.27398,-0.1526,1.02968
138.2,20.13221,0.27438,-0.15242999999999998,1.0296299999999998
138.3,20.14184,0.27435,-0.15169000000000002,1.02958
138.4,20.15152,0.27391,-0.1512,1.0295299999999998
138.5,20.16121,0.27428,-0.15125999999999998,1.02948
138.6,20.17084,0.27285,-0.15125,1.0294299999999998
138.7,20.18051,0.27301,-0.15125,1.02938
138.8,20.19012,0.27478,-0.15125,1.0293299999999999
138.9,20.19975,0.2731,-0.15125,1.0292700000000001
139.0,20.20946,0.27373000000000003,-0.15125,1.02922
139.1,20.219170000000002,0.27316999999999997,-0.15125,1.0291700000000001
139.2,20.228839999999998,0.27205999999999997,-0.15125,1.02912
139.3,20.23851,0.27355999999999997,-0.15125,1.0290700000000002
139.4,20.248179999999998,0.27205,-0.15125999999999998,1.02902
139.5,20.25783,0.27196,-0.15122,1.0289700000000002
139.6,20.26747,0.27104,-0.15177000000000002,1.02892
139.7,20.2771,0.27262,-0.15249000000000001,1.0288700000000002
139.8,20.2868,0.2752,-0.15259,1.02882
139.9,20.29651,0.27502,-0.15256,1.02877
140.0,20.306179999999998,0.27232,-0.15258,1.02872
140.1,20.315820000000002,0.27229000000000003,-0.15245,1.02867
140.2,20.32546,0.27284,-0.15157,1.02861
140.3,20.33511,0.2713,-0.15117,1.0285600000000001
140.4,20.34475,0.27153,-0.15127000000000002,1.02851
140.5,20.35444,0.27247,-0.15124,1.02846
140.6,20.36409,0.27064,-0.15125,1.02841
140.7,20.3737,0.27098,-0.15124,1.02836
140.8,20.383370000000003,0.2716,-0.1513,1.02831
140.9,20.39301,0.27105,-0.15198,1.02826
141.0,20.40268,0.27101,-0.15267,1.02821
141.1,20.4124,0.27005,-0.15254,1.02816
141.2,20.42207,0.27242,-0.15258,1.02811
141.3,20.43168,0.27126999999999996,-0.15257,1.02806
141.4,20.44126,0.27098,-0.15257,1.02801
141.5,20.45092,0.27111,-0.15257,1.02795
141.6,20.46058,0.26937,-0.15257,1.0279
141.7,20.47025,0.26874000000000003,-0.15257,1.02785
141.8,20.479879999999998,0.26993,-0.15257,1.0278
141.9,20.48948,0.27016,-0.15257,1.02775
142.0,20.49908,0.268,-0.15257,1.0277
142.1,20.50871,0.26958000000000004,-0.15257,1.02765
142.2,20.5184,0.27076999999999996,-0.15257,1.0276
142.3,20.52808,0.27076999999999996,-0.15257,1.02755
142.4,20.53771,0.26921,-0.15257,1.0275
142.5,20.54739,0.27042,-0.15257,1.02745
142.6,20.55707,0.27068000000000003,-0.15257,1.0274
142.7,20.56671,0.27123,-0.15257,1.02735
142.8,20.57637,0.27033,-0.15257,1.02729
142.9,20.58601,0.26987,-0.15257,1.02724
143.0,20.595660000000002,0.27004,-0.15256,1.02719
143.1,20.60535,0.26981,-0.15267999999999998,1.02714
143.2,20.61502,0.26935,-0.15352000000000002,1.02709
143.3,20.62465,0.27016,-0.15395999999999999,1.02704
143.4,20.63424,0.26965,-0.15386,1.02699
143.5,20.64394,0.26918000000000003,-0.15388,1.02694
143.6,20.65367,0.26952,-0.15389,1.0268899999999999
143.7,20.66331,0.26878,-0.15383,1.02684
143.8,20.67295,0.26928,-0.15409,1.0267899999999999
143.9,20.6826,0.26843,-0.15472,1.02674
144.0,20.69225,0.26778,-0.15489,1.0266899999999999
144.1,20.701929999999997,0.26939,-0.15487,1.02664
144.2,20.71162,0.27023,-0.15487,1.0265799999999998
144.3,20.72131,0.27211,-0.15487,1.02653
144.4,20.73102,0.26821,-0.15487,1.0264799999999998
144.5,20.740679999999998,0.26966,-0.15487,1.02643
144.6,20.750320000000002,0.26952,-0.15487,1.0263799999999998
144.7,20.75999,0.26895,-0.15487,1.02633
144.8,20.76964,0.26986,-0.15487,1.0262799999999999
144.9,20.7793,0.26911999999999997,-0.15487,1.02623
145.0,20.788970000000003,0.26933,-0.15487,1.0261799999999999
145.1,20.79863,0.26891,-0.15487,1.02613
145.2,20.808239999999998,0.27139,-0.15487,1.0260799999999999
145.3,20.81786,0.27171,-0.15487,1.02603
145.4,20.82744,0.27105,-0.15487,1.02598
145.5,20.83708,0.27133,-0.15487,1.02593
145.6,20.84679,0.2702,-0.15487,1.02587
145.7,20.856379999999998,0.27019,-0.15488,1.0258200000000002
145.8,20.86603,0.27016999999999997,-0.15484,1.02577
145.9,20.87568,0.26878,-0.15498,1.02572
146.0,20.88533,0.2691,-0.15424000000000002,1.02567
146.1,20.89501,0.27094,-0.15379,1.02562
146.2,20.90466,0.27183,-0.15399000000000002,1.02557
146.3,20.91429,0.27135,-0.15474000000000002,1.02552
146.4,20.92393,0.27146,-0.15533,1.02547
146.5,20.93356,0.27099,-0.15504,1.02542
146.6,20.943170000000002,0.27049,-0.15485,1.0253700000000001
146.7,20.9528,0.27232,-0.15489,1.02532
146.8,20.96242,0.27397,-0.15488,1.0252700000000001
146.9,20.97202,0.27418000000000003,-0.15488,1.02522
147.0,20.981679999999997,0.27246,-0.15488,1.02516
147.1,20.991310000000002,0.27102,-0.15488,1.02511
147.2,21.00088,0.26994,-0.15488,1.02506
147.3,21.010579999999997,0.26935,-0.15488,1.02501
147.4,21.02026,0.27015,-0.15488,1.02496
147.5,21.029889999999998,0.26887,-0.15488,1.02491
147.6,21.03952,0.2691,-0.15488,1.02486
147.7,21.049120000000002,0.26893,-0.15488,1.02481
147.8,21.05875,0.27082,-0.15488,1.0247600000000001
147.9,21.06845,0.26869,-0.15488,1.02471
148.0,21.07801,0.26995,-0.15488,1.0246600000000001
148.1,21.08772,0.27195,-0.15488,1.02461
148.2,21.09732,0.27099,-0.15488,1.0245600000000001
148.3,21.1069,0.27151,-0.15488,1.02451
148.4,21.11654,0.2708,-0.15488,1.02445
148.5,21.12615,0.26969,-0.15488,1.0244
148.6,21.13575,0.2718,-0.15488,1.02435
148.7,21.1454,0.27255999999999997,-0.15488,1.0243
148.8,21.155,0.27061,-0.15488,1.02425
148.9,21.16464,0.27074000000000004,-0.15488,1.0242
149.0,21.17432,0.27065,-0.15488,1.02415
149.1,21.18398,0.26953,-0.15488,1.0241
149.2,21.19363,0.27008000000000004,-0.15488,1.02405
149.3,21.203310000000002,0.27093,-0.15489,1.024
149.4,21.212989999999998,0.2709,-0.15484,1.02395
149.5,21.22259,0.27205,-0.15503,1.0239
149.6,21.232229999999998,0.27293,-0.15582000000000001,1.02385
149.7,21.2419,0.27101,-0.15613,1.0238
149.8,21.25155,0.27126999999999996,-0.15533,1.02375
149.9,21.26119,0.27149,-0.15484,1.02369
150.0,21.27082,0.2721,-0.15489,1.0236399999999999
150.1,21.28042,0.27066,-0.15488,1.02359
150.2,21.29004,0.27147,-0.15488,1.02354
150.3,21.29956,0.27326999999999996,-0.15488,1.02349
150.4,21.30925,0.27414,-0.15488,1.02344
150.5,21.31899,0.27234,-0.15488,1.02339
150.6,21.32863,0.27026999999999995,-0.15488,1.02334
150.7,21.33824,0.27192,-0.15488,1.02329
150.8,21.347839999999998,0.27324,-0.15488,1.02324
150.9,21.35741,0.27287,-0.15488,1.02319
151.0,21.367070000000002,0.27233,-0.15488,1.02314
151.1,21.37669,0.27296,-0.15488,1.02309
151.2,21.38632,0.27323000000000003,-0.15488,1.02304
151.3,21.39591,0.27410999999999996,-0.15488,1.02299
151.4,21.40549,0.27543,-0.15488,1.02294
151.5,21.41504,0.27347,-0.15489,1.02288
151.6,21.4245,0.27188,-0.15486,1.02283
151.7,21.43405,0.27271999999999996,-0.15495,1.02278
151.8,21.44368,0.27307,-0.15459,1.02273
151.9,21.4533,0.27258000000000004,-0.15415,1.02268
152.0,21.46294,0.27333,-0.15424000000000002,1.02263
152.1,21.47259,0.27434000000000003,-0.15422,1.0225799999999998
152.2,21.482210000000002,0.27385,-0.15422,1.02253
152.3,21.49183,0.27344,-0.15424000000000002,1.0224799999999998
152.4,21.501520000000003,0.27248,-0.15477,1.02243
152.5,21.51122,0.27383,-0.15561,1.0223799999999998
152.6,21.52083,0.27309,-0.15550999999999998,1.02233
152.7,21.5304,0.2733,-0.15553,1.0222799999999999
152.8,21.54009,0.27596,-0.15553,1.02223
152.9,21.54976,0.27343,-0.15553,1.0221799999999999
153.0,21.55944,0.2734,-0.15553,1.0221200000000001
153.1,21.5691,0.2745,-0.15553,1.02207
153.2,21.57878,0.27605,-0.15553,1.0220200000000002
153.3,21.58841,0.27324,-0.15553,1.02197
153.4,21.59807,0.27262,-0.15553,1.0219200000000002
153.5,21.607689999999998,0.27316999999999997,-0.15553,1.02187
153.6,21.61735,0.27375,-0.15552,1.0218200000000002
153.7,21.62704,0.2741,-0.15555,1.02177
153.8,21.63682,0.27476999999999996,-0.1553,1.0217200000000002
153.9,21.64657,0.27405999999999997,-0.15492999999999998,1.02167
154.0,21.65615,0.27307,-0.15485,1.02162
154.1,21.665760000000002,0.2741,-0.1549,1.02157
154.2,21.67538,0.2751,-0.15477,1.02152
154.3,21.68495,0.2746,-0.15542,1.02147
154.4,21.69462,0.27351,-0.15613,1.02142
154.5,21.70425,0.27394,-0.1562,1.0213700000000001
154.6,21.713820000000002,0.27515,-0.15619,1.02131
154.7,21.72343,0.27521,-0.15619,1.02126
154.8,21.73303,0.2752,-0.1562,1.02121
154.9,21.742639999999998,0.27612,-0.15616,1.02116
155.0,21.75226,0.27564,-0.15555,1.02111
155.1,21.7619,0.27395,-0.15478,1.02106
155.2,21.771520000000002,0.27504,-0.15489,1.02101
155.3,21.7811,0.2757,-0.15487,1.02096
155.4,21.79066,0.27583,-0.15486,1.02091
155.5,21.800279999999997,0.27555,-0.15491,1.02086
155.6,21.809820000000002,0.27683,-0.15558,1.02081
155.7,21.8195,0.27366,-0.1562,1.0207600000000001
155.8,21.829060000000002,0.27337,-0.15619,1.02071
155.9,21.838720000000002,0.27449,-0.15619,1.0206600000000001
156.0,21.8483,0.27453,-0.15619,1.02061
156.1,21.85784,0.27525,-0.15619,1.0205600000000001
156.2,21.86753,0.27716999999999997,-0.15617999999999999,1.0205
156.3,21.87717,0.27707,-0.15621,1.02045
156.4,21.886779999999998,0.27573000000000003,-0.1561,1.0204
156.5,21.896379999999997,0.27421999999999996,-0.15693,1.02035
156.6,21.9059,0.27464,-0.15724000000000002,1.0203
156.7,21.91548,0.27706,-0.15715,1.02025
156.8,21.92513,0.27726999999999996,-0.15718,1.0202
156.9,21.93471,0.27626,-0.15717,1.02015
157.0,21.94432,0.27548,-0.15717,1.0201
157.1,21.95393,0.27553,-0.15718,1.02005
157.2,21.96351,0.2761,-0.15715,1.02
157.3,21.97309,0.27653,-0.15725,1.01995
157.4,21.98266,0.27687,-0.15688,1.0199
157.5,21.992279999999997,0.27678,-0.15599000000000002,1.01985
157.6,22.00186,0.27816,-0.15585,1.0198
157.7,22.01144,0.27889,-0.15586,1.01975
157.8,22.02109,0.27907,-0.15586,1.0197
157.9,22.03064,0.27949,-0.15586,1.0196399999999999
158.0,22.04026,0.27821,-0.15586,1.01959
158.1,22.04984,0.2795,-0.15586,1.01954
158.2,22.05944,0.27797,-0.15586,1.01949
158.3,22.069029999999998,0.2771,-0.15586,1.01944
158.4,22.078670000000002,0.27706,-0.15586,1.01939
158.5,22.08827,0.27864,-0.15587,1.01934
158.6,22.09788,0.27974,-0.15583,1.01929
158.7,22.10751,0.2792,-0.15637,1.01924
158.8,22.117160000000002,0.27831999999999996,-0.15709,1.01919
158.9,22.1268,0.27863000000000004,-0.15719,1.01914
159.0,22.13638,0.27819,-0.15716,1.01909
159.1,22.14601,0.27785,-0.15717,1.01904
159.2,22.15556,0.28005,-0.15717,1.01899
159.3,22.16508,0.27802,-0.15717,1.01894
159.4,22.17466,0.27653,-0.15719,1.01889
159.5,22.184260000000002,0.27809,-0.15711,1.01884
159.6,22.19385,0.27795,-0.15741,1.0187899999999999
159.7,22.20346,0.27764,-0.15716,1.01873
159.8,22.21312,0.27753,-0.15628,1.01868
159.9,22.22277,0.27781999999999996,-0.15617999999999999,1.01863
160.0,22.23238,0.27799,-0.15619,1.0185799999999998
160.1,22.24204,0.27752,-0.15619,1.01853
160.2,22.25168,0.27819,-0.15621,1.0184799999999998
160.3,22.26127,0.27831,-0.15672,1.01843
160.4,22.27086,0.28053,-0.15758,1.0183799999999998
160.5,22.28042,0.27914,-0.15749000000000002,1.01833
160.6,22.28997,0.27712,-0.15750999999999998,1.0182799999999999
160.7,22.29954,0.27665,-0.15750999999999998,1.01823
160.8,22.309179999999998,0.27631,-0.15750999999999998,1.0181799999999999
160.9,22.318820000000002,0.27831999999999996,-0.15750999999999998,1.01813
161.0,22.32839,0.27885,-0.15750999999999998,1.0180799999999999
161.1,22.337989999999998,0.27753,-0.15750999999999998,1.01803
161.2,22.347579999999997,0.27818000000000004,-0.15750999999999998,1.0179799999999999
161.3,22.3572,0.27741,-0.15750999999999998,1.01793
161.4,22.36685,0.27678,-0.15750999999999998,1.01787
161.5,22.376479999999997,0.27816,-0.15750999999999998,1.0178200000000002
161.6,22.38608,0.27834000000000003,-0.15750999999999998,1.01777
161.7,22.395670000000003,0.27791,-0.15750999999999998,1.0177200000000002
161.8,22.40522,0.27808,-0.15750999999999998,1.01767
161.9,22.41478,0.27813000000000004,-0.15750999999999998,1.01762
162.0,22.42437,0.27837,-0.15750999999999998,1.01757
162.1,22.43395,0.27918000000000004,-0.15750999999999998,1.01752
162.2,22.4435,0.28003,-0.15750999999999998,1.01747
162.3,22.45305,0.27971999999999997,-0.15750999999999998,1.01742
162.4,22.46264,0.27962,-0.15750999999999998,1.01737
162.5,22.47223,0.2806,-0.15750999999999998,1.01732
162.6,22.48187,0.27974,-0.15750999999999998,1.0172700000000001
162.7,22.49154,0.27871,-0.15750999999999998,1.01722
162.8,22.50115,0.27921,-0.15752,1.0171700000000001
162.9,22.51076,0.27948,-0.15748,1.01712
163.0,22.52032,0.27871999999999997,-0.15759,1.0170700000000001
163.1,22.52984,0.28076,-0.15855,1.01702
163.2,22.53947,0.28244,-0.15883,1.01696
163.3,22.54903,0.28098,-0.15883,1.01691
163.4,22.558629999999997,0.28105,-0.15882000000000002,1.01686
163.5,22.568179999999998,0.27838,-0.15887,1.01681
163.6,22.577779999999997,0.2782,-0.15822999999999998,1.01676
163.7,22.58742,0.27766,-0.15817,1.01671
163.8,22.59698,0.28043,-0.15791,1.0166600000000001
163.9,22.60659,0.28137,-0.15782000000000002,1.01661
164.0,22.61625,0.28228000000000003,-0.15785,1.0165600000000001
164.1,22.62583,0.28015999999999996,-0.15784,1.01651
164.2,22.635379999999998,0.27921999999999997,-0.15783,1.0164600000000001
164.3,22.64496,0.28044,-0.15788,1.01641
164.4,22.65459,0.2802,-0.15766,1.01636
164.5,22.66421,0.27965999999999996,-0.15748,1.01631
164.6,22.673820000000003,0.2796,-0.15752,1.01626
164.7,22.68342,0.28043,-0.15750999999999998,1.01621
164.8,22.69298,0.28073000000000004,-0.15750999999999998,1.01616
164.9,22.70253,0.28009,-0.15750999999999998,1.01611
165.0,22.71208,0.28081,-0.15750999999999998,1.01606
165.1,22.72167,0.28074,-0.15753,1.016
165.2,22.731279999999998,0.28053,-0.15804,1.01595
165.3,22.74084,0.28208,-0.15889,1.0159
165.4,22.75045,0.28436999999999996,-0.1588,1.01585
165.5,22.76011,0.28288,-0.15882000000000002,1.0158
165.6,22.76971,0.28048,-0.15882000000000002,1.01575
165.7,22.77939,0.28075,-0.15882000000000002,1.0157
165.8,22.788970000000003,0.28092,-0.15882000000000002,1.01565
165.9,22.798579999999998,0.28312,-0.15882000000000002,1.0156
166.0,22.80825,0.28339000000000003,-0.15882000000000002,1.01555
166.1,22.81784,0.28364,-0.15882000000000002,1.0155
166.2,22.82749,0.28081999999999996,-0.15882000000000002,1.01545
166.3,22.83717,0.28231999999999996,-0.15882000000000002,1.0154
166.4,22.84681,0.28245,-0.15882000000000002,1.01535
166.5,22.85644,0.28431,-0.15882000000000002,1.0153
166.6,22.86605,0.28313,-0.15882000000000002,1.01525
166.7,22.87564,0.28336,-0.15882000000000002,1.0152
166.8,22.88525,0.28331,-0.15882000000000002,1.01515
166.9,22.89488,0.28131999999999996,-0.15882000000000002,1.0151
167.0,22.90447,0.28174,-0.15882000000000002,1.01504
167.1,22.914089999999998,0.28257,-0.15882000000000002,1.01499
167.2,22.92374,0.28187,-0.15882000000000002,1.01494
167.3,22.93336,0.2809,-0.15882000000000002,1.01489
167.4,22.94304,0.28128000000000003,-0.15882000000000002,1.01484
167.5,22.95275,0.28349,-0.15882000000000002,1.0147899999999999
167.6,22.96235,0.28218000000000004,-0.15882000000000002,1.01474
167.7,22.97192,0.27926,-0.15880999999999998,1.0146899999999999
167.8,22.98151,0.28148,-0.15884,1.01464
167.9,22.99113,0.28299,-0.15874000000000002,1.0145899999999999
168.0,23.00074,0.28319,-0.15803,1.01454
168.1,23.01035,0.2792,-0.15747,1.01449
168.2,23.01995,0.28088,-0.15750999999999998,1.01444
168.3,23.02958,0.28146,-0.1575,1.01439
168.4,23.03916,0.28055,-0.1575,1.01434
168.5,23.0488,0.28065,-0.1575,1.01429
168.6,23.058410000000002,0.28384000000000004,-0.1575,1.01424
168.7,23.067989999999998,0.27999,-0.15774000000000002,1.01419
168.8,23.07761,0.28345,-0.15871,1.01414
168.9,23.08721,0.28309,-0.15886,1.01409
169.0,23.096829999999997,0.28271,-0.15880999999999998,1.01403
169.1,23.10645,0.28186,-0.15882000000000002,1.0139799999999999
169.2,23.11607,0.28319,-0.15883,1.01393
169.3,23.12566,0.28501,-0.15877,1.01388
169.4,23.135289999999998,0.2826,-0.15915,1.01383
169.5,23.14487,0.2829,-0.15997999999999998,1.01378
169.6,23.15444,0.28363,-0.1599,1.01373
169.7,23.16402,0.2832,-0.15908,1.01368
169.8,23.17359,0.28612,-0.15877,1.01363
169.9,23.183239999999998,0.28526,-0.15883,1.01358
170.0,23.19285,0.28305,-0.15882000000000002,1.0135299999999998
170.1,23.20242,0.28447,-0.15882000000000002,1.01348
170.2,23.21203,0.2822,-0.15883,1.0134299999999998
170.3,23.22156,0.28145,-0.15878,1.01338
170.4,23.23121,0.28194,-0.15838,1.0133299999999998
170.5,23.24085,0.28165,-0.15822999999999998,1.01328
170.6,23.250420000000002,0.28217,-0.15887,1.0132299999999999
170.7,23.26003,0.28209,-0.15880999999999998,1.01318
170.8,23.269660000000002,0.28334000000000004,-0.15882000000000002,1.0131299999999999
170.9,23.2793,0.2826,-0.15882000000000002,1.01308
171.0,23.28893,0.28353,-0.15882000000000002,1.01302
171.1,23.29854,0.2841,-0.15882000000000002,1.0129700000000001
171.2,23.308120000000002,0.28445,-0.15882000000000002,1.01292
171.3,23.31767,0.28249,-0.15884,1.0128700000000002
171.4,23.3273,0.28296,-0.15874000000000002,1.01282
171.5,23.33689,0.28546,-0.15962,1.0127700000000002
171.6,23.34639,0.28483,-0.15987,1.01272
171.7,23.35592,0.28401,-0.15979000000000002,1.0126700000000002
171.8,23.365479999999998,0.28215,-0.15982000000000002,1.01262
171.9,23.37505,0.28226999999999997,-0.15980999999999998,1.01257
172.0,23.384629999999998,0.28378000000000003,-0.15980999999999998,1.01252
172.1,23.3942,0.28509,-0.15980999999999998,1.01247
172.2,23.40377,0.28533000000000003,-0.15980999999999998,1.01242
172.3,23.41336,0.2855,-0.15980999999999998,1.01237
172.4,23.42296,0.28502,-0.15982000000000002,1.01232
172.5,23.432560000000002,0.28323000000000004,-0.15979000000000002,1.01227
172.6,23.44211,0.28383,-0.1599,1.0122200000000001
172.7,23.45166,0.28397,-0.16017,1.01217
172.8,23.461270000000003,0.2845,-0.16013,1.0121200000000001
172.9,23.47077,0.28376999999999997,-0.16014,1.01207
173.0,23.480320000000003,0.28431,-0.16014,1.0120200000000001
173.1,23.48988,0.28456,-0.16014,1.01196
173.2,23.49941,0.28386999999999996,-0.16014,1.01191
173.3,23.50901,0.28518000000000004,-0.16014,1.01186
173.4,23.518629999999998,0.28559,-0.16014,1.01181
173.5,23.52831,0.28562,-0.16013,1.01176
173.6,23.537860000000002,0.28542,-0.16018,1.01171
173.7,23.54748,0.28578000000000003,-0.15958,1.01166
173.8,23.55715,0.28551,-0.15946,1.0116100000000001
173.9,23.56683,0.28415,-0.1595,1.01156
174.0,23.576439999999998,0.28422,-0.15949000000000002,1.0115100000000001
174.1,23.58605,0.28446,-0.15949000000000002,1.01146
174.2,23.595679999999998,0.28626999999999997,-0.15949000000000002,1.0114100000000001
174.3,23.60528,0.2874,-0.15949000000000002,1.01136
174.4,23.61488,0.28697,-0.15947999999999998,1.01131
174.5,23.624470000000002,0.28762,-0.15952,1.01126
174.6,23.6341,0.28719,-0.15933,1.01121
174.7,23.64374,0.2867,-0.15913,1.01116
174.8,23.65335,0.28747,-0.15917,1.01111
174.9,23.66294,0.28761,-0.15916,1.01106
175.0,23.67255,0.28749,-0.15916,1.01101
175.1,23.6822,0.28644000000000003,-0.15916,1.01096
175.2,23.69184,0.2853,-0.15916,1.01091
175.3,23.70148,0.28555,-0.15916,1.01085
175.4,23.711129999999997,0.28683000000000003,-0.15916,1.0108
175.5,23.72072,0.2851,-0.15916,1.01075
175.6,23.73029,0.28584,-0.15916,1.0107
175.7,23.73986,0.28506,-0.15916,1.01065
175.8,23.74951,0.28789000000000003,-0.15916,1.0106
175.9,23.7591,0.28785,-0.15916,1.01055
176.0,23.7687,0.2862,-0.15916,1.0105
176.1,23.7783,0.28595,-0.15916,1.01045
176.2,23.78795,0.28645,-0.15916,1.0104
176.3,23.79761,0.28753,-0.15916,1.01035
176.4,23.80721,0.28826,-0.15917,1.0103
176.5,23.81684,0.28784,-0.15911,1.01025
176.6,23.82647,0.28653,-0.15963,1.0102
176.7,23.83607,0.28724,-0.16005999999999998,1.01015
176.8,23.84565,0.28839000000000004,-0.16038,1.0101
176.9,23.85526,0.28773000000000004,-0.16047999999999998,1.01005
177.0,23.86487,0.28748,-0.1605,1.01
177.1,23.874489999999998,0.28681999999999996,-0.16029000000000002,1.00995
177.2,23.884120000000003,0.28774,-0.16011,1.0099
177.3,23.89369,0.2886,-0.16015,1.00985
177.4,23.903270000000003,0.28776,-0.16014,1.0098
177.5,23.91284,0.28813,-0.16014,1.0097399999999999
177.6,23.92239,0.28672,-0.16014,1.00969
177.7,23.93199,0.28642,-0.16015,1.0096399999999999
177.8,23.941589999999998,0.28811,-0.16009,1.00959
177.9,23.95116,0.28675,-0.16029000000000002,1.0095399999999999
178.0,23.960729999999998,0.28886999999999996,-0.16124000000000002,1.00949
178.1,23.97028,0.28928000000000004,-0.16146,1.00944
178.2,23.97984,0.29143,-0.16146,1.00939
178.3,23.98937,0.29001,-0.16146,1.00934
178.4,23.998910000000002,0.28819,-0.16146,1.00929
178.5,24.00842,0.28964,-0.16145,1.00924
178.6,24.018,0.28978000000000004,-0.16151,1.00919
178.7,24.02759,0.29185,-0.16062,1.00914
178.8,24.03717,0.28913,-0.16015,1.00909
178.9,24.04674,0.2893,-0.16014,1.00904
179.0,24.05632,0.28912,-0.16014,1.00899
179.1,24.06587,0.29009,-0.16014,1.00894
179.2,24.07545,0.28933000000000003,-0.16015,1.00889
179.3,24.08502,0.28806,-0.16009,1.00884
179.4,24.09458,0.28836999999999996,-0.16043,1.0087899999999999
179.5,24.10414,0.29009,-0.16119,1.00874
179.6,24.11366,0.29274,-0.16151,1.0086899999999999
179.7,24.12319,0.29277,-0.16145,1.00864
179.8,24.13276,0.29081999999999997,-0.16146,1.00858
179.9,24.142310000000002,0.29019,-0.16149000000000002,1.00853
180.0,24.15191,0.2905,-0.16205999999999998,1.0084799999999998
180.1,24.1615,0.29119,-0.16285,1.00843
180.2,24.171039999999998,0.29098,-0.16275,1.0083799999999998
180.3,24.18064,0.29027,-0.16277,1.00833
180.4,24.1902,0.28998,-0.16277,1.0082799999999998
180.5,24.19964,0.29024,-0.16277,1.00823
180.6,24.20918,0.29059,-0.16277,1.0081799999999999
180.7,24.218770000000003,0.28905,-0.16277,1.00813
180.8,24.2283,0.29234,-0.16278,1.0080799999999999
180.9,24.23779,0.29156,-0.1625,1.00803
181.0,24.247329999999998,0.2921,-0.16216,1.0079799999999999
181.1,24.25684,0.29263,-0.16211,1.00793
181.2,24.266370000000002,0.29228000000000004,-0.16212000000000001,1.0078799999999999
181.3,24.27596,0.2921,-0.16212000000000001,1.00783
181.4,24.28552,0.29175,-0.16212000000000001,1.00778
181.5,24.29501,0.29184,-0.16212000000000001,1.00773
181.6,24.30451,0.29298,-0.16212000000000001,1.00768
181.7,24.31407,0.29329,-0.16212000000000001,1.00763
181.8,24.323629999999998,0.29366,-0.16212000000000001,1.00758
181.9,24.3332,0.29401,-0.16212000000000001,1.00753
182.0,24.342779999999998,0.29334,-0.16213,1.00748
182.1,24.352320000000002,0.29436,-0.1621,1.00742
182.2,24.361829999999998,0.29505,-0.16217,1.00737
182.3,24.37141,0.29314,-0.16195,1.00732
182.4,24.38099,0.29298,-0.161,1.00727
182.5,24.390539999999998,0.29575,-0.1608,1.00722
182.6,24.40014,0.29475999999999997,-0.1608,1.0071700000000001
182.7,24.40985,0.29448,-0.1608,1.00712
182.8,24.419420000000002,0.29412,-0.1608,1.0070700000000001
182.9,24.42897,0.29414,-0.1608,1.00702
183.0,24.43852,0.29518,-0.1608,1.0069700000000001
183.1,24.4481,0.29664,-0.16080999999999998,1.00692
183.2,24.457639999999998,0.29534,-0.16094,1.0068700000000002
183.3,24.46724,0.29512,-0.16277,1.00682
183.4,24.47685,0.29485,-0.16346,1.0067700000000002
183.5,24.48636,0.29515,-0.16342,1.00672
183.6,24.49588,0.29568,-0.16343,1.0066700000000002
183.7,24.50545,0.29478000000000004,-0.16343,1.00662
183.8,24.51503,0.29313,-0.16343,1.00657
183.9,24.524620000000002,0.29512,-0.16343,1.00652
184.0,24.53418,0.29539,-0.16343,1.00647
184.1,24.54374,0.29413,-0.16343,1.00642
184.2,24.5533,0.29525,-0.16343,1.00637
184.3,24.562910000000002,0.29522,-0.16343,1.00632
184.4,24.57249,0.29605,-0.16343,1.00627
184.5,24.58194,0.29694,-0.16343,1.00621
184.6,24.5915,0.29601,-0.16343,1.00616
184.7,24.60106,0.2967,-0.16342,1.00611
184.8,24.6106,0.29694,-0.16344,1.00606
184.9,24.62019,0.29548,-0.16339,1.00601
185.0,24.62976,0.29519,-0.16272,1.00596
185.1,24.63928,0.29505,-0.16211,1.00591
185.2,24.648870000000002,0.29691999999999996,-0.16211,1.00586
185.3,24.65843,0.29614,-0.16212000000000001,1.00581
185.4,24.66798,0.2955,-0.16208,1.00576
185.5,24.67754,0.29758,-0.16263,1.00571
185.6,24.68702,0.29672,-0.16334,1.00566
185.7,24.69659,0.29534,-0.16346,1.0056100000000001
185.8,24.70618,0.29588000000000003,-0.16342,1.00556
185.9,24.71576,0.29617,-0.16343,1.0055100000000001
186.0,24.72532,0.29706,-0.16343,1.00546
186.1,24.73485,0.29749000000000003,-0.16343,1.0054100000000001
186.2,24.74438,0.29849000000000003,-0.16343,1.00536
186.3,24.75388,0.29794,-0.16343,1.00531
186.4,24.7634,0.2978,-0.16343,1.00526
186.5,24.77287,0.29984,-0.16343,1.00521
186.6,24.782339999999998,0.29807,-0.16343,1.00516
186.7,24.79191,0.29691,-0.16341,1.00511
186.8,24.80143,0.29888000000000003,-0.16288,1.00506
186.9,24.81096,0.29796,-0.16204000000000002,1.00501
187.0,24.820520000000002,0.29788000000000003,-0.16213,1.00495
187.1,24.83,0.29830999999999996,-0.16211,1.0049
187.2,24.83953,0.29746,-0.16211,1.00485
187.3,24.84909,0.29896999999999996,-0.16211,1.0048
187.4,24.85857,0.2975,-0.16211,1.00475
187.5,24.86811,0.29896999999999996,-0.16211,1.0047
187.6,24.87765,0.30008,-0.16211,1.00465
187.7,24.88719,0.30022,-0.16211,1.0046
187.8,24.896729999999998,0.29852,-0.16211,1.00455
187.9,24.90629,0.30025999999999997,-0.16211,1.0045
188.0,24.91581,0.29977,-0.16211,1.00445
188.1,24.92529,0.29811,-0.16211,1.0044
188.2,24.9348,0.29865,-0.16212000000000001,1.00435
188.3,24.94435,0.29939,-0.16205999999999998,1.0043
188.4,24.95394,0.29833000000000004,-0.16236,1.00425
188.5,24.96353,0.29773,-0.16312000000000001,1.0042
188.6,24.97306,0.29775999999999997,-0.16348,1.00415
188.7,24.98266,0.29791999999999996,-0.16342,1.0041
188.8,24.99225,0.29905,-0.16343,1.00405
188.9,25.0018,0.29905,-0.16343,1.004
189.0,25.01129,0.30002,-0.16343,1.00395
189.1,25.020770000000002,0.29901,-0.16343,1.0039
189.2,25.03029,0.29834,-0.16343,1.00385
189.3,25.03985,0.29934,-0.16343,1.0038
189.4,25.04937,0.29966,-0.16343,1.00375
189.5,25.05895,0.29984,-0.16343,1.00369
189.6,25.0685,0.30188000000000004,-0.16343,1.0036399999999999
189.7,25.078,0.30167,-0.16343,1.00359
189.8,25.08755,0.29946,-0.16343,1.0035399999999999
189.9,25.09708,0.30065,-0.16343,1.00349
190.0,25.10662,0.30173,-0.16343,1.0034399999999999
190.1,25.116020000000002,0.30249000000000004,-0.16343,1.00339
190.2,25.12548,0.30307,-0.16343,1.00334
190.3,25.13504,0.30021,-0.16343,1.00329
190.4,25.14457,0.30024,-0.16343,1.00324
190.5,25.15408,0.30167,-0.16344,1.00319
190.6,25.16358,0.30108,-0.16338,1.00314
190.7,25.17311,0.30165,-0.16362000000000002,1.00309
190.8,25.182679999999998,0.30251999999999996,-0.16437000000000002,1.00304
190.9,25.19226,0.30239,-0.16479000000000002,1.00299
191.0,25.20182,0.30099000000000004,-0.16473,1.00294
191.1,25.211389999999998,0.30052,-0.16474,1.00289
191.2,25.22099,0.30053,-0.16474,1.00284
191.3,25.2306,0.30164,-0.16475,1.00279
191.4,25.24014,0.30146,-0.16516,1.00274
191.5,25.24965,0.30382,-0.16609000000000002,1.0026899999999999
191.6,25.25921,0.30208,-0.16605999999999999,1.00264
191.7,25.268720000000002,0.30077,-0.16605999999999999,1.0025899999999999
191.8,25.27828,0.30180999999999997,-0.16605999999999999,1.00254
191.9,25.28782,0.30291999999999997,-0.16605999999999999,1.0024899999999999
192.0,25.2974,0.30416,-0.16605999999999999,1.00243
192.1,25.306910000000002,0.30389,-0.16605999999999999,1.0023799999999998
192.2,25.31639,0.30457,-0.16605999999999999,1.00233
192.3,25.32603,0.30359,-0.16605999999999999,1.0022799999999998
192.4,25.335620000000002,0.30139,-0.16605999999999999,1.00223
192.5,25.34514,0.30322,-0.16605999999999999,1.0021799999999998
192.6,25.35466,0.3036,-0.16605,1.00213
192.7,25.36419,0.30430999999999997,-0.16608,1.0020799999999999
192.8,25.3737,0.30465,-0.16595,1.00203
192.9,25.38316,0.30408,-0.16555999999999998,1.0019799999999999
193.0,25.39265,0.30583,-0.1654,1.00193
193.1,25.40212,0.30541999999999997,-0.16532,1.0018799999999999
193.2,25.41157,0.30507,-0.16504000000000002,1.00183
193.3,25.42107,0.3055,-0.16508,1.00178
193.4,25.43054,0.30641,-0.16505999999999998,1.00173
193.5,25.44003,0.30438000000000004,-0.16508,1.00168
193.6,25.449579999999997,0.30491,-0.16543,1.00163
193.7,25.459120000000002,0.30527,-0.16605999999999999,1.00158
193.8,25.46859,0.30480999999999997,-0.16607,1.00153
193.9,25.478070000000002,0.30303,-0.16605999999999999,1.00148
194.0,25.487560000000002,0.30478,-0.16605999999999999,1.0014299999999998
194.1,25.49707,0.30554000000000003,-0.16605999999999999,1.00138
194.2,25.506510000000002,0.30574,-0.16605999999999999,1.0013299999999998
194.3,25.51601,0.30641,-0.16605999999999999,1.00128
194.4,25.525579999999998,0.30633,-0.16605999999999999,1.0012299999999998
194.5,25.535079999999997,0.30684,-0.16605999999999999,1.00118
194.6,25.54457,0.30685999999999997,-0.16605999999999999,1.00112
194.7,25.55411,0.30591,-0.16605999999999999,1.0010700000000001
194.8,25.56363,0.30613,-0.16605999999999999,1.00102
194.9,25.57312,0.30719,-0.16605999999999999,1.0009700000000001
195.0,25.5826,0.30806999999999995,-0.16605999999999999,1.00092
195.1,25.59214,0.30856,-0.16605999999999999,1.0008700000000001
195.2,25.601670000000002,0.30788000000000004,-0.16605999999999999,1.00082
195.3,25.61116,0.30691999999999997,-0.16605999999999999,1.0007700000000002
195.4,25.62067,0.30685999999999997,-0.16605999999999999,1.00072
195.5,25.63019,0.3069,-0.16605999999999999,1.0006700000000002
195.6,25.63973,0.30753,-0.16605999999999999,1.00062
195.7,25.64923,0.30901,-0.16605999999999999,1.0005700000000002
195.8,25.65863,0.30982,-0.16605999999999999,1.00052
195.9,25.6681,0.30851,-0.16605999999999999,1.00047
196.0,25.67762,0.30944,-0.16605999999999999,1.00042
196.1,25.68714,0.30971,-0.16625,1.00037
196.2,25.69661,0.30954,-0.16718,1.00032
196.3,25.70611,0.30894,-0.16744,1.00027
196.4,25.71561,0.30744,-0.16735999999999998,1.00022
196.5,25.72505,0.30703,-0.16739,1.00017
196.6,25.7345,0.30806,-0.16738,1.0001200000000001
196.7,25.744,0.30825,-0.16738,1.00007
196.8,25.753439999999998,0.30818,-0.16738,1.0000200000000001
196.9,25.76287,0.3093,-0.16738,0.99997
197.0,25.7724,0.3092,-0.16738,0.99992
197.1,25.78187,0.30906,-0.16738,0.99987
197.2,25.79135,0.30951999999999996,-0.16738,0.99982
197.3,25.80086,0.3078,-0.16738,0.99976
197.4,25.81032,0.3109,-0.16738,0.99971
197.5,25.819770000000002,0.3092,-0.16738,0.99966
197.6,25.82929,0.3093,-0.16738,0.99961
197.7,25.83871,0.30928,-0.16738,0.99956
197.8,25.84814,0.31051,-0.16738,0.99951
197.9,25.85762,0.30878,-0.16738,0.99946
198.0,25.86715,0.30922,-0.16738,0.99941
198.1,25.87659,0.3091,-0.16739,0.99936
198.2,25.88605,0.31181,-0.16725,0.99931
198.3,25.895529999999997,0.31215,-0.16638,0.99926
198.4,25.90502,0.3106,-0.16599,0.99921
198.5,25.91455,0.31178,-0.16609000000000002,0.99916
198.6,25.92409,0.313,-0.16605999999999999,0.99911
198.7,25.93364,0.3116,-0.16607,0.9990600000000001
198.8,25.94316,0.31108,-0.16607,0.9990100000000001
198.9,25.95261,0.31174,-0.16607,0.9989600000000001
199.0,25.96216,0.31119,-0.16607,0.9989100000000001
199.1,25.9717,0.31071,-0.16607,0.9988600000000001
199.2,25.9811,0.30982,-0.16607,0.9988100000000001
199.3,25.99064,0.31156,-0.16607,0.99876
199.4,26.00016,0.3122,-0.16608,0.99871
199.5,26.00965,0.31108,-0.16605999999999999,0.99866
199.6,26.01919,0.31037,-0.16607,0.99861
199.7,26.0287,0.30926,-0.16702,0.99856
199.8,26.038220000000003,0.31009000000000003,-0.16707,0.99851
199.9,26.047710000000002,0.31122,-0.16704000000000002,0.99845
200.0,26.05728,0.31212,-0.16705,0.9984
200.1,26.06681,0.31176,-0.16705,0.99835
200.2,26.07634,0.31165,-0.16705,0.9983
200.3,26.08587,0.31334,-0.16705,0.99825
200.4,26.09535,0.31245,-0.16705,0.9982
200.5,26.10485,0.31235,-0.16706,0.99815
200.6,26.11438,0.31314000000000003,-0.16702,0.9981
200.7,26.12387,0.31318,-0.1672,0.99805
200.8,26.13331,0.31338,-0.16742,0.998
200.9,26.142789999999998,0.31233,-0.16737,0.99795
201.0,26.15234,0.31149,-0.16738,0.9979
201.1,26.1619,0.31301999999999996,-0.16738,0.99785
201.2,26.171429999999997,0.31437,-0.16739,0.9978
201.3,26.180989999999998,0.31263,-0.16734000000000002,0.99775
201.4,26.19055,0.31311,-0.16748,0.9977
201.5,26.20005,0.31524,-0.16841,0.99765
201.6,26.20951,0.31356,-0.16835,0.9976
201.7,26.219,0.31564000000000003,-0.16835999999999998,0.99755
201.8,26.228479999999998,0.31611,-0.16835999999999998,0.9975
201.9,26.237990000000003,0.31532,-0.16834000000000002,0.99745
202.0,26.24748,0.31404,-0.16865,0.9974
202.1,26.257009999999998,0.31645,-0.1687,0.99735
202.2,26.26652,0.31492,-0.16868,0.9973
202.3,26.276020000000003,0.31416,-0.16869,0.99725
202.4,26.28548,0.31342,-0.16869,0.9972
202.5,26.29498,0.31211,-0.16869,0.9971399999999999
202.6,26.30455,0.31289,-0.16869,0.9970899999999999
202.7,26.3141,0.3138,-0.16869,0.9970399999999999
202.8,26.32358,0.31423,-0.16869,0.9969899999999999
202.9,26.333090000000002,0.31439,-0.16869,0.9969399999999999
203.0,26.34266,0.3129,-0.16869,0.9968899999999999
203.1,26.3522,0.31267,-0.16869,0.99684
203.2,26.361629999999998,0.31440999999999997,-0.16869,0.99679
203.3,26.3711,0.31446999999999997,-0.16869,0.99674
203.4,26.38063,0.31501999999999997,-0.16869,0.99669
203.5,26.39006,0.3148,-0.16869,0.99664
203.6,26.39951,0.31463,-0.16869,0.99659
203.7,26.40898,0.31373,-0.16869,0.99654
203.8,26.41853,0.31273,-0.16869,0.99649
203.9,26.42803,0.3146,-0.16869,0.99644
204.0,26.4375,0.31603000000000003,-0.16869,0.99639
204.1,26.44701,0.31556,-0.16869,0.99634
204.2,26.45647,0.31576,-0.16868,0.99629
204.3,26.46592,0.31459000000000004,-0.16872,0.99624
204.4,26.475379999999998,0.31361,-0.16858,0.9961899999999999
204.5,26.484840000000002,0.31533,-0.16926,0.9961399999999999
204.6,26.494329999999998,0.31611,-0.16978,0.9960899999999999
204.7,26.503870000000003,0.31578,-0.16965,0.9960399999999999
204.8,26.51335,0.31596,-0.16969,0.9959899999999999
204.9,26.5228,0.31529,-0.16968,0.9959399999999999
205.0,26.532329999999998,0.31703000000000003,-0.16968,0.9958899999999999
205.1,26.541809999999998,0.31781,-0.16968,0.99584
205.2,26.55129,0.31472,-0.16968,0.9957799999999999
205.3,26.56079,0.31854,-0.16969,0.9957299999999999
205.4,26.57033,0.31706,-0.16965999999999998,0.9956799999999999
205.5,26.579859999999996,0.31561999999999996,-0.16973,0.9956299999999999
205.6,26.58932,0.31823,-0.17068,0.9955799999999999
205.7,26.59885,0.31601999999999997,-0.17068,0.9955299999999999
205.8,26.6084,0.31527,-0.17067000000000002,0.9954799999999999
205.9,26.61791,0.31709,-0.17067000000000002,0.9954299999999999
206.0,26.627440000000004,0.31529,-0.17067000000000002,0.9953799999999999
206.1,26.63697,0.31409000000000004,-0.17067000000000002,0.9953299999999999
206.2,26.646490000000004,0.31565,-0.17067000000000002,0.9952799999999999
206.3,26.65598,0.31597,-0.17067000000000002,0.99523
206.4,26.66553,0.31594,-0.17067000000000002,0.99518
206.5,26.675079999999998,0.31515,-0.17067000000000002,0.99513
206.6,26.684620000000002,0.31485,-0.17067000000000002,0.99508
206.7,26.69415,0.31587,-0.17067000000000002,0.99503
206.8,26.70369,0.31704,-0.17067000000000002,0.99498
206.9,26.71325,0.31575,-0.17067000000000002,0.99493
207.0,26.7228,0.31483,-0.17068,0.9948799999999999
207.1,26.732329999999997,0.31653000000000003,-0.17065,0.9948299999999999
207.2,26.741840000000003,0.3178,-0.17075,0.9947799999999999
207.3,26.751379999999997,0.31843,-0.17103,0.9947299999999999
207.4,26.76095,0.31418,-0.17099,0.9946799999999999
207.5,26.77047,0.31682,-0.171,0.9946299999999999
207.6,26.77996,0.31618,-0.171,0.9945799999999999
207.7,26.78949,0.31647,-0.171,0.9945299999999999
207.8,26.799020000000002,0.31686,-0.171,0.9944700000000001
207.9,26.80854,0.31574,-0.171,0.9944200000000001
208.0,26.81802,0.31613,-0.171,0.9943700000000001
208.1,26.82752,0.31531,-0.171,0.9943200000000001
208.2,26.837020000000003,0.31703000000000003,-0.171,0.9942700000000001
208.3,26.84655,0.31655,-0.171,0.9942200000000001
208.4,26.85615,0.31714000000000003,-0.171,0.9941700000000001
208.5,26.86566,0.31648000000000004,-0.17098,0.9941200000000001
208.6,26.875159999999997,0.31809,-0.17113,0.9940700000000001
208.7,26.88467,0.31940999999999997,-0.17173,0.9940200000000001
208.8,26.894190000000002,0.31789,-0.17205,0.99397
208.9,26.903740000000003,0.31616,-0.17197,0.99392
209.0,26.91328,0.31665,-0.17199,0.99387
209.1,26.922790000000003,0.31773,-0.17199,0.99382
209.2,26.93233,0.31758000000000003,-0.17199,0.99377
209.3,26.941840000000003,0.3182,-0.17199,0.99372
209.4,26.95131,0.31749,-0.17199,0.99367
209.5,26.960820000000002,0.31973,-0.17199,0.9936200000000001
209.6,26.9703,0.31990999999999997,-0.17199,0.9935700000000001
209.7,26.979809999999997,0.31792,-0.17199,0.9935200000000001
209.8,26.98933,0.31601999999999997,-0.17199,0.9934700000000001
209.9,26.998790000000003,0.31827,-0.17199,0.9934200000000001
210.0,27.008290000000002,0.31836,-0.17199,0.9933700000000001
210.1,27.0178,0.31905,-0.17197,0.9933200000000001
210.2,27.027309999999996,0.3188,-0.17227,0.9932700000000001
210.3,27.036890000000003,0.31775,-0.17234000000000002,0.9932200000000001
210.4,27.046440000000004,0.31911999999999996,-0.17231,0.99316
210.5,27.05592,0.31856,-0.17232999999999998,0.99311
210.6,27.06539,0.31888,-0.17229,0.99306
210.7,27.07494,0.3186,-0.17248,0.9930100000000001
210.8,27.08447,0.31758000000000003,-0.17285999999999999,0.9929600000000001
210.9,27.09399,0.31797,-0.173,0.9929100000000001
211.0,27.103540000000002,0.31742,-0.17297,0.9928600000000001
211.1,27.11304,0.31683,-0.17298,0.9928100000000001
211.2,27.12252,0.31771,-0.17298,0.9927600000000001
211.3,27.132,0.3191,-0.17298,0.99271
211.4,27.14146,0.31969000000000003,-0.17298,0.99266
211.5,27.15101,0.31706999999999996,-0.17298,0.99261
211.6,27.160559999999997,0.31668,-0.17298,0.99256
211.7,27.1701,0.31959,-0.17298,0.99251
211.8,27.17967,0.31811,-0.17298,0.99246
211.9,27.18918,0.32058000000000003,-0.17298,0.99241
212.0,27.19877,0.3176,-0.17298,0.99236
212.1,27.208370000000002,0.3184,-0.17295,0.99231
212.2,27.217979999999997,0.31845999999999997,-0.17356,0.99226
212.3,27.227520000000002,0.31989,-0.17394,0.99221
212.4,27.237140000000004,0.31951,-0.17397,0.99216
212.5,27.246640000000003,0.31778,-0.17396,0.99211
212.6,27.256190000000004,0.31831,-0.17396,0.99206
212.7,27.26578,0.3204,-0.17396,0.9920100000000001
212.8,27.27533,0.31918,-0.17396,0.9919600000000001
212.9,27.28487,0.31789,-0.17396,0.9919100000000001
213.0,27.29445,0.31811,-0.17396,0.99185
213.1,27.304009999999998,0.31743000000000005,-0.17396,0.9918
213.2,27.31353,0.3173,-0.17396,0.99175
213.3,27.323109999999996,0.31736,-0.17396,0.9917
213.4,27.332720000000002,0.31843,-0.17396,0.99165
213.5,27.342309999999998,0.31964000000000004,-0.17396,0.9916
213.6,27.35193,0.3183,-0.17396,0.99155
213.7,27.36144,0.31790999999999997,-0.17396,0.9915
213.8,27.371,0.31640999999999997,-0.17396,0.99145
213.9,27.38056,0.31913,-0.17396,0.9914
214.0,27.39012,0.32022,-0.17396,0.99135
214.1,27.3997,0.3203,-0.17396,0.9913
214.2,27.40925,0.31903000000000004,-0.17396,0.99125
214.3,27.41879,0.31949,-0.17396,0.9912
214.4,27.428309999999996,0.31661,-0.17396,0.99115
214.5,27.437829999999998,0.31914000000000003,-0.17396,0.9911
214.6,27.44738,0.31903000000000004,-0.17396,0.99105
214.7,27.45699,0.31948000000000004,-0.17396,0.991
214.8,27.46653,0.31843,-0.17411,0.99095
214.9,27.476129999999998,0.32001999999999997,-0.17502,0.9909
215.0,27.48572,0.32036,-0.17535,0.99085
215.1,27.49527,0.31814000000000003,-0.17519,0.9908
215.2,27.504820000000002,0.31948000000000004,-0.17562,0.99075
215.3,27.5144,0.32041,-0.17617,0.9907
215.4,27.523970000000002,0.32035,-0.17628,0.99065
215.5,27.533490000000004,0.32037,-0.17626,0.99059
215.6,27.54304,0.31964000000000004,-0.17626,0.99054
215.7,27.5526,0.31961,-0.17626,0.99049
215.8,27.56216,0.31879,-0.17626,0.99044
215.9,27.571709999999996,0.31894,-0.17626,0.99039
216.0,27.58131,0.31897,-0.17626,0.99034
216.1,27.59085,0.31914000000000003,-0.17626,0.99029
216.2,27.60039,0.31976,-0.17626,0.99024
216.3,27.609920000000002,0.3213,-0.17626,0.99019
216.4,27.61941,0.31972,-0.17626,0.9901399999999999
216.5,27.62896,0.31918,-0.17626,0.9900899999999999
216.6,27.63853,0.32151,-0.17626,0.9900399999999999
216.7,27.6481,0.31995999999999997,-0.17626,0.9899899999999999
216.8,27.65761,0.32056999999999997,-0.17627,0.9899399999999999
216.9,27.667070000000002,0.32123,-0.17623,0.9898899999999999
217.0,27.676609999999997,0.32114000000000004,-0.17652,0.9898399999999999
217.1,27.68608,0.3218,-0.17661,0.98979
217.2,27.695559999999997,0.32203000000000004,-0.17658,0.98974
217.3,27.705090000000002,0.32227,-0.17659,0.98969
217.4,27.714609999999997,0.32247,-0.17659,0.98964
217.5,27.724109999999996,0.32383,-0.17659,0.98959
217.6,27.733659999999997,0.32308000000000003,-0.17659,0.98954
217.7,27.74323,0.32147,-0.17659,0.98949
217.8,27.75273,0.32161,-0.17659,0.98944
217.9,27.76225,0.32131,-0.17658,0.98939
218.0,27.77175,0.32183,-0.17662,0.9893299999999999
218.1,27.781259999999996,0.32016999999999995,-0.1771,0.9892799999999999
218.2,27.790770000000002,0.32145,-0.17804,0.9892299999999999
218.3,27.80033,0.32255,-0.17865,0.98918
218.4,27.80984,0.32336,-0.17925,0.98913
218.5,27.819309999999998,0.32282,-0.17923,0.98908
218.6,27.828840000000003,0.32398000000000005,-0.17923,0.98903
218.7,27.83832,0.3235,-0.17923,0.98898
218.8,27.84781,0.32626,-0.17923,0.98893
218.9,27.85731,0.32376,-0.17923,0.98888
219.0,27.86686,0.32394,-0.17923,0.9888299999999999
219.1,27.8764,0.32521,-0.17923,0.9887799999999999
219.2,27.885920000000002,0.32488,-0.17923,0.9887299999999999
219.3,27.895490000000002,0.32354,-0.17923,0.9886799999999999
219.4,27.905070000000002,0.32489,-0.17923,0.9886299999999999
219.5,27.914620000000003,0.32594,-0.17923,0.9885799999999999
219.6,27.92418,0.32381,-0.17923,0.9885299999999999
219.7,27.933759999999996,0.32331,-0.17923,0.9884799999999999
219.8,27.943270000000002,0.3251,-0.17923,0.9884299999999999
219.9,27.952740000000002,0.32488,-0.17923,0.9883799999999999
220.0,27.9623,0.32415,-0.17923,0.9883299999999999
220.1,27.97185,0.32514,-0.17923,0.9882799999999999
220.2,27.981340000000003,0.32608000000000004,-0.17924,0.9882299999999999
220.3,27.990840000000002,0.3274,-0.1792,0.98818
220.4,28.000329999999998,0.32556999999999997,-0.17931,0.9881200000000001
220.5,28.009809999999998,0.32644,-0.18026,0.9880700000000001
220.6,28.019340000000003,0.32566,-0.18054,0.9880200000000001
220.7,28.0289,0.32585,-0.18054,0.9879700000000001
220.8,28.0384,0.32683,-0.18053,0.98792
220.9,28.04797,0.32615,-0.1806,0.98787
221.0,28.05755,0.32449,-0.17968,0.98782
221.1,28.06705,0.32686,-0.17951,0.98777
221.2,28.076529999999998,0.32688,-0.17957,0.98772
221.3,28.086090000000002,0.3276,-0.17955,0.98767
221.4,28.09565,0.32641,-0.17955,0.98762
221.5,28.10513,0.32641,-0.17955,0.9875700000000001
221.6,28.1146,0.32758000000000004,-0.17955,0.9875200000000001
221.7,28.124109999999998,0.32755,-0.17955,0.9874700000000001
221.8,28.13365,0.32647,-0.17955,0.9874200000000001
221.9,28.14312,0.32515,-0.17954,0.9873700000000001
222.0,28.1525,0.32568,-0.17957,0.9873200000000001
222.1,28.16201,0.32587,-0.1795,0.9872700000000001
222.2,28.171570000000003,0.32416,-0.17974,0.9872200000000001
222.3,28.18106,0.32411999999999996,-0.18067,0.9871700000000001
222.4,28.190590000000004,0.32615,-0.18087,0.9871200000000001
222.5,28.2002,0.32614,-0.18087,0.9870700000000001
222.6,28.20976,0.3267,-0.18087,0.9870200000000001
222.7,28.21929,0.32893,-0.18087,0.9869600000000001
222.8,28.22881,0.32769000000000004,-0.18087,0.9869100000000001
222.9,28.23837,0.32561,-0.18087,0.9868600000000001
223.0,28.24803,0.32793,-0.18087,0.9868100000000001
223.1,28.2576,0.32621999999999995,-0.18086,0.9867600000000001
223.2,28.26711,0.32775,-0.18109,0.9867100000000001
223.3,28.2767,0.32528,-0.18174,0.98666
223.4,28.286240000000003,0.32518,-0.1819,0.98661
223.5,28.29575,0.32511999999999996,-0.18185,0.98656
223.6,28.30528,0.32702,-0.18186,0.98651
223.7,28.314840000000004,0.32729,-0.18186,0.98646
223.8,28.324409999999997,0.32766999999999996,-0.18186,0.98641
223.9,28.333940000000002,0.32805,-0.18186,0.98636
224.0,28.34347,0.32736,-0.18186,0.98631
224.1,28.353040000000004,0.32845,-0.18187,0.98626
224.2,28.36269,0.32628,-0.18184,0.98621
224.3,28.37228,0.32511,-0.18195,0.98616
224.4,28.381790000000002,0.32845,-0.18222,0.98611
224.5,28.391379999999998,0.32924000000000003,-0.18218,0.98606
224.6,28.400940000000002,0.32939,-0.18219000000000002,0.98601
224.7,28.41047,0.32787,-0.18219000000000002,0.9859600000000001
224.8,28.42003,0.32921,-0.18219000000000002,0.9859100000000001
224.9,28.429570000000002,0.32966,-0.18219000000000002,0.9858600000000001
225.0,28.43913,0.32854,-0.18219000000000002,0.9858
225.1,28.44864,0.32776,-0.18248,0.98575
225.2,28.45813,0.32871,-0.18341,0.9857
225.3,28.467670000000002,0.32831,-0.18407,0.98565
225.4,28.477209999999996,0.32813000000000003,-0.18473,0.9856
225.5,28.48675,0.32816999999999996,-0.18485,0.98555
225.6,28.49635,0.32500999999999997,-0.18481,0.9855
225.7,28.5059,0.32761,-0.18482,0.98545
225.8,28.51545,0.32911,-0.18482,0.9854
225.9,28.52502,0.32735,-0.18482,0.98535
226.0,28.53459,0.32893,-0.18482,0.9853
226.1,28.544140000000002,0.32878,-0.18482,0.98525
226.2,28.55365,0.32763000000000003,-0.18482,0.9852
226.3,28.563190000000002,0.32905,-0.18482,0.98515
226.4,28.57275,0.32882,-0.18482,0.9851
226.5,28.582279999999997,0.32816,-0.18482,0.98505
226.6,28.59185,0.32803000000000004,-0.18482,0.985
226.7,28.60138,0.32787,-0.18482,0.98495
226.8,28.61095,0.3291,-0.18482,0.9849
226.9,28.620520000000003,0.32916,-0.18481,0.98485
227.0,28.63008,0.33024000000000003,-0.18485,0.9848
227.1,28.63962,0.32987,-0.18550999999999998,0.98475
227.2,28.649140000000003,0.33103,-0.18613,0.98469
227.3,28.658720000000002,0.33069,-0.18613,0.98464
227.4,28.66827,0.33032,-0.18613,0.98459
227.5,28.67778,0.33008000000000004,-0.18613,0.98454
227.6,28.68737,0.33046,-0.18613,0.98449
227.7,28.696920000000002,0.32884,-0.18613,0.98444
227.8,28.70648,0.32953000000000005,-0.18613,0.98439
227.9,28.71603,0.3314,-0.18613,0.98434
228.0,28.72555,0.33095,-0.18613,0.98429
228.1,28.73508,0.33066999999999996,-0.18612,0.98424
228.2,28.744629999999997,0.33142,-0.18621,0.98419
228.3,28.7542,0.33153,-0.18699000000000002,0.98414
228.4,28.763740000000002,0.3315,-0.18755,0.9840899999999999
228.5,28.773259999999997,0.33161,-0.18742,0.9840399999999999
228.6,28.782840000000004,0.3309,-0.18746,0.9839899999999999
228.7,28.7924,0.33154,-0.18745,0.9839399999999999
228.8,28.801909999999996,0.33192,-0.18745,0.9838899999999999
228.9,28.81147,0.33148,-0.18747,0.9838399999999999
229.0,28.82098,0.33379000000000003,-0.18795,0.9837899999999999
229.1,28.830470000000002,0.32953000000000005,-0.18883,0.98374
229.2,28.84,0.33199,-0.18875999999999998,0.98369
229.3,28.849559999999997,0.32978,-0.18877,0.98364
229.4,28.85912,0.33043,-0.18877,0.9835799999999999
229.5,28.868709999999997,0.33044,-0.18939,0.9835299999999999
229.6,28.87831,0.33155999999999997,-0.19005,0.9834799999999999
229.7,28.887940000000004,0.33194,-0.19008,0.9834299999999999
229.8,28.8975,0.33326,-0.19015,0.9833799999999999
229.9,28.90708,0.33289,-0.18925999999999998,0.9833299999999999
230.0,28.916629999999998,0.33102,-0.18904,0.9832799999999999
230.1,28.92618,0.33316999999999997,-0.18911,0.9832299999999999
230.2,28.93572,0.33123,-0.18908,0.9831799999999999
230.3,28.945259999999998,0.3311,-0.18909,0.98313
230.4,28.95482,0.33329000000000003,-0.18909,0.98308
230.5,28.9644,0.3344,-0.18909,0.98303
230.6,28.974009999999996,0.33363000000000004,-0.18909,0.98298
230.7,28.983629999999998,0.33309,-0.1891,0.98293
230.8,28.99322,0.33361999999999997,-0.18905,0.98288
230.9,29.00282,0.33345,-0.18925999999999998,0.98283
231.0,29.01241,0.33334,-0.19002,0.9827799999999999
231.1,29.021959999999996,0.33163000000000004,-0.19046,0.9827299999999999
231.2,29.031609999999997,0.33247,-0.1904,0.9826799999999999
231.3,29.041209999999996,0.3332,-0.19041,0.9826299999999999
231.4,29.0508,0.33164,-0.19041,0.98257
231.5,29.06038,0.33111,-0.19042,0.9825200000000001
231.6,29.069940000000003,0.33357,-0.19080999999999998,0.9824700000000001
231.7,29.0795,0.33486,-0.19175,0.9824200000000001
231.8,29.08901,0.33278,-0.19172999999999998,0.9823700000000001
231.9,29.098470000000002,0.3352,-0.19172999999999998,0.9823200000000001
232.0,29.10802,0.33443,-0.19172999999999998,0.9822700000000001
232.1,29.11761,0.33292,-0.19172999999999998,0.9822200000000001
232.2,29.12714,0.3327,-0.19172999999999998,0.9821700000000001
232.3,29.13675,0.33113000000000004,-0.19172999999999998,0.9821200000000001
232.4,29.14635,0.33423,-0.19172999999999998,0.9820700000000001
232.5,29.15588,0.33288,-0.19172999999999998,0.9820200000000001
232.6,29.16548,0.33289,-0.19172999999999998,0.9819700000000001
232.7,29.17502,0.33415,-0.19172999999999998,0.9819200000000001
232.8,29.18455,0.33169,-0.19172999999999998,0.98187
232.9,29.19407,0.33207,-0.19172999999999998,0.98182
233.0,29.2036,0.33504,-0.19172999999999998,0.98177
233.1,29.213179999999998,0.33371,-0.19174000000000002,0.98172
233.2,29.22274,0.33124000000000003,-0.19169,0.98167
233.3,29.23232,0.33200999999999997,-0.19187,0.98162
233.4,29.24185,0.33129000000000003,-0.19261,0.98156
233.5,29.25142,0.3299,-0.19309,0.98151
233.6,29.260959999999997,0.33209,-0.19304000000000002,0.98146
233.7,29.27047,0.33329000000000003,-0.19305,0.98141
233.8,29.28005,0.33455,-0.19305,0.98136
233.9,29.289590000000004,0.33382,-0.19305,0.98131
234.0,29.299190000000003,0.3318,-0.19305,0.98126
234.1,29.30883,0.33388,-0.19304000000000002,0.98121
234.2,29.31836,0.33461,-0.19336,0.98116
234.3,29.327859999999998,0.33392,-0.19339,0.98111
234.4,29.337490000000003,0.33544,-0.19338,0.98106
234.5,29.34708,0.33452,-0.19337000000000001,0.98101
234.6,29.35667,0.33435,-0.1934,0.98096
234.7,29.36628,0.33549,-0.19328,0.9809100000000001
234.8,29.375809999999998,0.33636,-0.19405999999999998,0.9808600000000001
234.9,29.38539,0.33609,-0.19444,0.9808100000000001
235.0,29.395,0.33568000000000003,-0.19434,0.9807600000000001
235.1,29.404629999999997,0.3349,-0.19437000000000001,0.9807100000000001
235.2,29.4142,0.33394,-0.19435999999999998,0.9806600000000001
235.3,29.423709999999996,0.33508000000000004,-0.19435999999999998,0.98061
235.4,29.4333,0.33733,-0.19435999999999998,0.98055
235.5,29.442909999999998,0.33683,-0.19435999999999998,0.9805
235.6,29.45247,0.33594,-0.19435999999999998,0.98045
235.7,29.46205,0.33624,-0.19435999999999998,0.9804
235.8,29.471659999999996,0.33466,-0.19435999999999998,0.98035
235.9,29.481309999999997,0.33447,-0.19437000000000001,0.9803
236.0,29.49083,0.33439,-0.19485,0.98025
236.1,29.50038,0.33649,-0.19572,0.9802
236.2,29.509940000000004,0.33569,-0.19571,0.98015
236.3,29.51952,0.33666999999999997,-0.19635999999999998,0.9801
236.4,29.529159999999997,0.33513000000000004,-0.19634000000000001,0.98005
236.5,29.538729999999997,0.33457,-0.19634000000000001,0.98
236.6,29.548240000000003,0.33455,-0.19635,0.97995
236.7,29.55775,0.3354,-0.19630999999999998,0.9799
236.8,29.567320000000002,0.33658000000000005,-0.19685,0.97985
236.9,29.576929999999997,0.33728,-0.19757,0.9798
237.0,29.586509999999997,0.33737,-0.19769,0.97975
237.1,29.596059999999998,0.3365,-0.19765,0.9797
237.2,29.605659999999997,0.33812,-0.19766,0.97965
237.3,29.61515,0.33762,-0.19766,0.97959
237.4,29.624609999999997,0.33793,-0.19766,0.97954
237.5,29.6341,0.34003,-0.19766,0.97949
237.6,29.64348,0.34054,-0.19766,0.97944
237.7,29.652929999999998,0.33953,-0.19766,0.97939
237.8,29.66252,0.33799,-0.19766,0.97934
237.9,29.67207,0.33874,-0.19768,0.97929
238.0,29.68165,0.34048,-0.19760999999999998,0.97924
238.1,29.691229999999997,0.34033,-0.19780999999999999,0.97919
238.2,29.70085,0.33933,-0.19876,0.97914
238.3,29.710459999999998,0.34112,-0.19898,0.97909
238.4,29.71997,0.33946,-0.19896,0.9790399999999999
238.5,29.72952,0.33919,-0.19898,0.9789899999999999
238.6,29.73907,0.33881999999999995,-0.19962,0.9789399999999999
238.7,29.74868,0.34015,-0.20038,0.9788899999999999
238.8,29.7583,0.34059,-0.20040999999999998,0.9788399999999999
238.9,29.7679,0.34087,-0.20040999999999998,0.9787899999999999
239.0,29.7775,0.34021,-0.20033,0.9787399999999999
239.1,29.78701,0.34138,-0.20117000000000002,0.9786799999999999
239.2,29.796570000000003,0.3401,-0.20169,0.9786299999999999
239.3,29.80612,0.33996,-0.20171,0.9785799999999999
239.4,29.81563,0.33858,-0.20171,0.9785299999999999
239.5,29.825259999999997,0.33863000000000004,-0.20171,0.9784799999999999
239.6,29.83493,0.34168000000000004,-0.20171,0.9784299999999999
239.7,29.844590000000004,0.34301,-0.20171,0.9783799999999999
239.8,29.85432,0.34157,-0.20171,0.9783299999999999
239.9,29.86395,0.34058,-0.20171,0.9782799999999999
240.0,29.873520000000003,0.34117,-0.20171,0.9782299999999999
240.1,29.8831,0.34235,-0.20171,0.9781799999999999
240.2,29.89265,0.34263000000000005,-0.20171,0.9781299999999999
240.3,29.90219,0.34373000000000004,-0.20171,0.97808
240.4,29.911720000000003,0.34485,-0.20171,0.97803
240.5,29.921290000000003,0.34188,-0.20171,0.97798
240.6,29.930940000000003,0.34331,-0.20171,0.97793
240.7,29.94053,0.34428000000000003,-0.20171,0.97788
240.8,29.9501,0.3449,-0.2017,0.97783
240.9,29.959629999999997,0.3423,-0.20173,0.97777
241.0,29.96919,0.34334000000000003,-0.20235999999999998,0.97772
241.1,29.97881,0.34356,-0.20235999999999998,0.97767
241.2,29.98838,0.3437,-0.20235999999999998,0.97762
241.3,29.997909999999997,0.34471,-0.20235999999999998,0.97757
241.4,30.00745,0.3443,-0.20235,0.9775200000000001
241.5,30.01707,0.34428000000000003,-0.20255,0.9774700000000001
241.6,30.02665,0.34476,-0.20348,0.9774200000000001
241.7,30.03622,0.34331,-0.20374,0.9773700000000001
241.8,30.045809999999996,0.34197,-0.20365999999999998,0.9773200000000001
241.9,30.05548,0.34317,-0.20368,0.9772700000000001
242.0,30.065109999999997,0.34293,-0.2037,0.9772200000000001
242.1,30.074690000000004,0.34383,-0.20359000000000002,0.9771700000000001
242.2,30.08425,0.34451,-0.20415,0.9771200000000001
242.3,30.093809999999998,0.34336,-0.20492,0.9770700000000001
242.4,30.103379999999998,0.34306,-0.20501,0.9770200000000001
242.5,30.11298,0.34215,-0.205,0.9769700000000001
242.6,30.122609999999998,0.34233,-0.205,0.9769100000000001
242.7,30.1322,0.34265999999999996,-0.205,0.9768600000000001
242.8,30.141740000000002,0.34252,-0.20501999999999998,0.9768100000000001
242.9,30.151290000000003,0.34515,-0.20553000000000002,0.9767600000000001
243.0,30.160890000000002,0.34309,-0.20638,0.9767100000000001
243.1,30.17049,0.34103,-0.20629,0.9766600000000001
243.2,30.180059999999997,0.34048,-0.20631,0.9766100000000001
243.3,30.18961,0.34415999999999997,-0.20631,0.97656
243.4,30.199170000000002,0.34143,-0.20631,0.97651
243.5,30.208840000000002,0.34237,-0.2063,0.97646
243.6,30.21845,0.34269,-0.20690999999999998,0.97641
243.7,30.22798,0.342,-0.20759,0.97636
243.8,30.23757,0.34335,-0.20765,0.97631
243.9,30.24713,0.34235,-0.20763,0.97626
244.0,30.256659999999997,0.34086,-0.20763,0.97621
244.1,30.26623,0.34087,-0.20776999999999998,0.97616
244.2,30.275779999999997,0.34012,-0.20867,0.9761
244.3,30.28533,0.3425,-0.20895,0.97605
244.4,30.29488,0.3406,-0.20926,0.976
244.5,30.30443,0.34021,-0.20993,0.97595
244.6,30.313979999999997,0.34160999999999997,-0.21075,0.9759
244.7,30.323559999999997,0.33952,-0.21148000000000003,0.97585
244.8,30.33313,0.3396,-0.21159,0.9758
244.9,30.3427,0.33971999999999997,-0.21159,0.97575
245.0,30.352320000000002,0.34006,-0.21155,0.9757
245.1,30.361890000000002,0.34009,-0.2117,0.97565
245.2,30.37149,0.33782,-0.21243,0.9756
245.3,30.38103,0.339,-0.21294000000000002,0.97555
245.4,30.39058,0.33868000000000004,-0.21289,0.9755
245.5,30.40015,0.33979000000000004,-0.2129,0.97545
245.6,30.40972,0.33635,-0.2129,0.9754
245.7,30.41928,0.3395,-0.2129,0.97535
245.8,30.4289,0.33757,-0.2129,0.9753
245.9,30.43852,0.33926,-0.21286999999999998,0.97524
246.0,30.448109999999996,0.33784000000000003,-0.21379,0.97519
246.1,30.45777,0.33648,-0.2142,0.97514
246.2,30.467409999999997,0.3369,-0.21420999999999998,0.97509
246.3,30.47697,0.33906,-0.21420999999999998,0.97504
246.4,30.48658,0.33799,-0.21422,0.9749899999999999
246.5,30.496170000000003,0.33825,-0.21416,0.9749399999999999
246.6,30.5058,0.33765,-0.2146,0.9748899999999999
246.7,30.515390000000004,0.33674,-0.21535,0.9748399999999999
246.8,30.52497,0.33587,-0.21556999999999998,0.9747899999999999
246.9,30.53456,0.33676999999999996,-0.21552,0.9747399999999999
247.0,30.5441,0.33808,-0.21553000000000003,0.97469
247.1,30.55365,0.33913000000000004,-0.21558000000000002,0.97464
247.2,30.563240000000004,0.33863000000000004,-0.21628000000000003,0.97459
247.3,30.57282,0.33693,-0.21695,0.97454
247.4,30.58241,0.33724,-0.21681999999999998,0.9744799999999999
247.5,30.59205,0.33559,-0.21686,0.9744299999999999
