##Temp./°C,Time/min,Mass loss(subtr.2)/mg,DSC(subtr.2)/(mW/mg),Sensit./(uV/mW)
49.788,10.00917,-0.00867,0.02564091,1.07511
49.888,10.4208,-0.01111906,0.03094395,1.0750600000000001
49.988,10.52126,-0.01047788,0.03544394,1.07501
50.088,10.58981,-0.01311997,0.04001808,1.07495
50.188,10.643510000000001,-0.01242042,0.04443367,1.0749
50.288,10.68993,-0.01372972,0.04837412,1.07485
50.388,10.73118,-0.01470064,0.05170133,1.0748
50.488,10.76748,-0.01486199,0.05489388,1.07474
50.588,10.801639999999999,-0.01389988,0.06049662,1.07469
50.688,10.83337,-0.01357135,0.06620923,1.07464
50.788,10.86353,-0.01382391,0.06961529,1.07459
50.888,10.8917,-0.01416658,0.07273967,1.07454
50.988,10.9187,-0.01421918,0.07729514,1.0744799999999999
51.088,10.94435,-0.01415566,0.07897142,1.07443
51.188,10.96845,-0.01434332,0.08346388,1.07438
51.288,10.992410000000001,-0.01608326,0.08385772,1.07433
51.388,11.0154,-0.01725002,0.08873269,1.07428
51.488,11.037930000000001,-0.01737165,0.09217899,1.0742200000000002
51.588,11.05994,-0.01761425,0.09235071,1.07417
51.688,11.08056,-0.01783132,0.09769978,1.07412
51.788,11.10137,-0.01620185,0.10107999999999999,1.07407
51.888,11.12148,-0.01582013,0.10413,1.07402
51.988,11.14114,-0.01512771,0.10895999999999999,1.07396
52.088,11.15953,-0.01504859,0.10777,1.0739100000000001
52.188,11.1788,-0.01473167,0.11044000000000001,1.07386
52.288,11.19694,-0.0143719,0.11508,1.07381
52.388,11.21514,-0.01277767,0.11719,1.07375
52.488,11.23269,-0.01292654,0.11952,1.0737
52.588,11.2498,-0.0121401,0.12065999999999999,1.07365
52.688,11.26671,-0.01229273,0.12279000000000001,1.0736
52.788,11.28369,-0.01250614,0.12362000000000001,1.07355
52.888,11.30016,-0.01271436,0.12854000000000002,1.07349
52.988,11.31645,-0.01302602,0.12787,1.07344
53.088,11.33253,-0.01235784,0.13171,1.07339
53.188,11.34817,-0.01203598,0.13454000000000002,1.07334
53.288,11.36388,-0.01234049,0.13396,1.0732899999999999
53.388,11.3795,-0.01218657,0.13967000000000002,1.07323
53.488,11.39494,-0.01095246,0.13854,1.07318
53.588,11.410210000000001,-0.01173505,0.14063,1.07313
53.688,11.42532,-0.01018604,0.14157,1.07308
53.788,11.440380000000001,-0.01049342,0.14368,1.07303
53.888,11.45537,-0.01005232,0.14520999999999998,1.07297
53.988,11.46985,-0.00887314,0.14618,1.07292
54.088,11.48449,-0.009904096,0.1505,1.07287
54.188,11.49886,-0.009961524,0.15055,1.07282
54.288,11.51317,-0.01151257,0.15175,1.07277
54.388,11.527389999999999,-0.01155938,0.15316,1.07271
54.488,11.54161,-0.01296711,0.15641,1.07266
54.588,11.55574,-0.01270149,0.15767,1.07261
54.688,11.56991,-0.01299756,0.15813,1.07256
54.788,11.58416,-0.01304808,0.16004000000000002,1.0725
54.888,11.59773,-0.01255291,0.16251,1.07245
54.988,11.611310000000001,-0.01240977,0.16237000000000001,1.0724
55.088,11.62454,-0.01131914,0.16293,1.07235
55.188,11.638,-0.01139128,0.16380999999999998,1.0723
55.288,11.65135,-0.01084801,0.16735999999999998,1.0722399999999999
55.388,11.664639999999999,-0.01078,0.16567,1.07219
55.488,11.67803,-0.01149457,0.16825,1.0721399999999999
55.588,11.69112,-0.01091674,0.16802999999999998,1.07209
55.688,11.70429,-0.01090117,0.17128,1.0720399999999999
55.788,11.71735,-0.01160105,0.17228,1.07198
55.888,11.730360000000001,-0.01067737,0.17285,1.0719299999999998
55.988,11.74319,-0.01088488,0.17489000000000002,1.07188
56.088,11.756,-0.009922700999999999,0.17461,1.0718299999999998
56.188,11.76881,-0.01017179,0.17834,1.07178
56.288,11.78157,-0.01068558,0.17932,1.07172
56.388,11.794139999999999,-0.01041657,0.18086,1.0716700000000001
56.488,11.80666,-0.01072322,0.18245999999999998,1.07162
56.588,11.81953,-0.01085356,0.18224,1.0715700000000001
56.688,11.83234,-0.01101382,0.18293,1.07152
56.788,11.84477,-0.01307618,0.18555,1.07146
56.888,11.85718,-0.0140336,0.18556,1.07141
56.988,11.86952,-0.01571085,0.18791,1.07136
57.088,11.881780000000001,-0.01637721,0.18621,1.07131
57.188,11.89415,-0.01851756,0.18954000000000001,1.07126
57.288,11.90645,-0.01874299,0.1915,1.0712
57.388,11.918619999999999,-0.01936268,0.19259,1.07115
57.488,11.93078,-0.02028703,0.19353,1.0711
57.588,11.94288,-0.01923242,0.1936,1.07105
57.688,11.954989999999999,-0.01862076,0.19414,1.071
57.788,11.967080000000001,-0.01753723,0.19519,1.07094
57.888,11.97914,-0.01777141,0.19741,1.07089
57.988,11.99112,-0.01609553,0.19647,1.07084
58.088,12.00302,-0.01534977,0.19898,1.07079
58.188,12.01493,-0.01506814,0.19977,1.07074
58.288,12.02675,-0.01540406,0.20207999999999998,1.0706799999999999
58.388,12.03856,-0.01417359,0.20164,1.07063
58.488,12.050310000000001,-0.01407571,0.20302,1.0705799999999999
58.588,12.06216,-0.01332207,0.20235999999999998,1.07053
58.688,12.07385,-0.01388505,0.20174,1.0704799999999999
58.788,12.08563,-0.01249222,0.20135,1.0704200000000001
58.888,12.09732,-0.01200623,0.20257,1.07037
58.988,12.108880000000001,-0.01207355,0.20275,1.0703200000000002
59.088,12.1206,-0.01195402,0.20513,1.07027
59.188,12.13213,-0.01196027,0.20646,1.0702200000000002
59.288,12.1437,-0.0119716,0.20961,1.07016
59.388,12.15519,-0.01190834,0.20848000000000003,1.0701100000000001
59.488,12.166739999999999,-0.0124194,0.20822,1.07006
59.588,12.17827,-0.01324846,0.21051,1.0700100000000001
59.688,12.18977,-0.01327565,0.21034,1.06996
59.788,12.201239999999999,-0.01328082,0.20897,1.0699
59.888,12.21279,-0.01330911,0.21195999999999998,1.06985
59.988,12.224310000000001,-0.01414822,0.21458000000000002,1.0698
60.088,12.23583,-0.01463803,0.21404,1.06975
60.188,12.24725,-0.01463293,0.21295999999999998,1.0697
60.288,12.25885,-0.01394765,0.21500999999999998,1.06964
60.388,12.2702,-0.01399091,0.21586,1.06959
60.488,12.28163,-0.01465044,0.2155,1.06954
60.588,12.29293,-0.01456797,0.21754,1.06949
60.688,12.30433,-0.01461429,0.21750999999999998,1.06944
60.788,12.31574,-0.0144177,0.21957,1.06938
60.888,12.32703,-0.01391461,0.21930999999999998,1.06933
60.988,12.3384,-0.01454096,0.22107,1.06928
61.088,12.34972,-0.01457375,0.22079000000000001,1.06923
61.188,12.36117,-0.01458742,0.22125,1.06918
61.288,12.37252,-0.01454695,0.22075,1.06912
61.388,12.38376,-0.01380301,0.22252,1.06907
61.488,12.394960000000001,-0.01309194,0.22271,1.06902
61.588,12.40618,-0.01397687,0.22459,1.06897
61.688,12.41746,-0.0145787,0.22491999999999998,1.06892
61.788,12.42867,-0.01458892,0.22539,1.0688600000000001
61.888,12.439810000000001,-0.01457935,0.22466,1.06881
61.988,12.45098,-0.01472183,0.22626,1.06876
62.088,12.462110000000001,-0.01577461,0.22741999999999998,1.06871
62.188,12.473189999999999,-0.01589546,0.22662,1.06866
62.288,12.48433,-0.01600252,0.22776999999999997,1.06861
62.388,12.495389999999999,-0.01529977,0.22779000000000002,1.06855
62.488,12.50655,-0.014768,0.2278,1.0685
62.588,12.51763,-0.01579294,0.22916,1.06845
62.688,12.52868,-0.01561937,0.23106999999999997,1.0684
62.788,12.539760000000001,-0.01444562,0.23126,1.06835
62.888,12.550839999999999,-0.01452864,0.23114,1.06829
62.988,12.56195,-0.01426164,0.23285,1.0682399999999999
63.088,12.57301,-0.01320245,0.23181,1.06819
63.188,12.58407,-0.01313157,0.2331,1.0681399999999999
63.288,12.59515,-0.01241549,0.23364000000000001,1.06809
63.388,12.60621,-0.01158675,0.23324,1.06803
63.488,12.61725,-0.01140788,0.23093000000000002,1.06798
63.588,12.62831,-0.01246553,0.23404,1.0679299999999998
63.688,12.63936,-0.0118349,0.23540999999999998,1.06788
63.788,12.65041,-0.01151515,0.23440999999999998,1.0678299999999998
63.888,12.66145,-0.01151896,0.23431999999999997,1.06777
63.988,12.672310000000001,-0.01154647,0.23608,1.06772
64.088,12.68333,-0.01228361,0.23765,1.0676700000000001
64.188,12.694360000000001,-0.01292669,0.23794,1.06762
64.288,12.70548,-0.01282203,0.2381,1.0675700000000001
64.388,12.71649,-0.01284029,0.23771,1.06751
64.488,12.72749,-0.01284932,0.23836,1.06746
64.588,12.73853,-0.01282305,0.23970999999999998,1.06741
64.688,12.74958,-0.0135243,0.23839000000000002,1.06736
64.788,12.760580000000001,-0.01418542,0.23872,1.06731
64.888,12.77153,-0.01412529,0.2409,1.06726
64.988,12.78242,-0.01421804,0.24158000000000002,1.0672
65.088,12.793339999999999,-0.01377831,0.24115999999999999,1.06715
65.188,12.80432,-0.01289145,0.24008000000000002,1.0671
65.288,12.81531,-0.01282508,0.24101999999999998,1.06705
65.388,12.826260000000001,-0.01282936,0.24006999999999998,1.067
65.488,12.83712,-0.01283544,0.23881,1.06694
65.588,12.84801,-0.01281594,0.24095999999999998,1.06689
65.688,12.85897,-0.01284044,0.24275,1.06684
65.788,12.869860000000001,-0.01179644,0.24145,1.06679
65.888,12.88087,-0.0115146,0.24273000000000003,1.06674
65.988,12.89175,-0.01152,0.2428,1.0666799999999999
66.088,12.90271,-0.01152936,0.24191,1.06663
66.188,12.91353,-0.01147561,0.24443,1.0665799999999999
66.288,12.92441,-0.01180111,0.24583000000000002,1.06653
66.388,12.93527,-0.0126507,0.24578000000000003,1.0664799999999999
66.488,12.94613,-0.01287186,0.24519000000000002,1.06643
66.588,12.95689,-0.01283365,0.2445,1.06637
66.688,12.96769,-0.01284113,0.24465,1.0663200000000002
66.788,12.9785,-0.01283971,0.24631,1.06627
66.888,12.98935,-0.01283978,0.24541999999999997,1.0662200000000002
66.988,12.99997,-0.01284379,0.24553000000000003,1.06617
67.088,13.01079,-0.01281008,0.24749000000000002,1.0661100000000001
67.188,13.02165,-0.01303489,0.24918,1.06606
67.288,13.03249,-0.0140321,0.24831999999999999,1.0660100000000001
67.388,13.0434,-0.01415628,0.24845,1.06596
67.488,13.05423,-0.01414836,0.24825999999999998,1.0659100000000001
67.588,13.06502,-0.01415064,0.24941,1.06585
67.688,13.07581,-0.01414893,0.25043000000000004,1.0658
67.788,13.0866,-0.01415341,0.25024,1.06575
67.888,13.097430000000001,-0.01413976,0.25012,1.0657
67.988,13.108139999999999,-0.01417645,0.24893,1.06565
68.088,13.118910000000001,-0.01351148,0.2514,1.0656
68.188,13.129679999999999,-0.01281554,0.24914,1.06554
68.288,13.140410000000001,-0.01283764,0.24993,1.06549
68.388,13.15119,-0.01283011,0.25201,1.06544
68.488,13.1619,-0.01281459,0.251,1.06539
68.588,13.17266,-0.01290742,0.25219,1.06534
68.688,13.18343,-0.01240808,0.25398000000000004,1.06528
68.788,13.194170000000002,-0.01183908,0.25472,1.06523
68.888,13.205079999999999,-0.01262104,0.25505,1.06518
68.988,13.21595,-0.01286664,0.25408000000000003,1.06513
69.088,13.22659,-0.01282175,0.25505,1.06508
69.188,13.23729,-0.01283287,0.25623,1.06503
69.288,13.24794,-0.01282588,0.25624,1.06497
69.388,13.25866,-0.01311922,0.25485,1.06492
69.488,13.269429999999998,-0.01416395,0.25635,1.06487
69.588,13.28023,-0.01414149,0.25711,1.06482
69.688,13.2909,-0.01412275,0.25893,1.06477
69.788,13.301689999999999,-0.0143451,0.25676,1.06471
69.888,13.31241,-0.01534356,0.25803000000000004,1.06466
69.988,13.32308,-0.01547667,0.25885,1.06461
70.088,13.33373,-0.01546825,0.25855,1.06456
70.188,13.344510000000001,-0.01547054,0.25866999999999996,1.06451
70.288,13.35524,-0.0154694,0.25847,1.06446
70.388,13.365920000000001,-0.01547184,0.26,1.0644
70.488,13.3766,-0.01546371,0.2613,1.06435
70.588,13.38735,-0.0154893,0.26064,1.0643
70.688,13.398079999999998,-0.01541984,0.26003000000000004,1.06425
70.788,13.4088,-0.01641817,0.26224000000000003,1.0642
70.888,13.41951,-0.01677995,0.26244,1.0641399999999999
70.988,13.430179999999998,-0.01679623,0.2607,1.06409
71.088,13.44084,-0.01666325,0.26475,1.0640399999999999
71.188,13.45149,-0.01561004,0.26502,1.06399
71.288,13.46215,-0.01533258,0.26491,1.0639399999999999
71.388,13.472779999999998,-0.01535159,0.264,1.06389
71.488,13.483360000000001,-0.01538793,0.26492,1.0638299999999998
71.588,13.493910000000001,-0.01620369,0.26542,1.06378
71.688,13.504529999999999,-0.0166154,0.26652,1.0637299999999998
71.788,13.515170000000001,-0.01610351,0.2671,1.06368
71.888,13.52583,-0.01598856,0.26464,1.0636299999999999
71.988,13.536520000000001,-0.01608732,0.26661999999999997,1.0635700000000001
72.088,13.54706,-0.01547456,0.26708000000000004,1.06352
72.188,13.5576,-0.01534151,0.26724000000000003,1.0634700000000001
72.288,13.568179999999998,-0.01535688,0.26611999999999997,1.06342
72.388,13.57876,-0.01537063,0.26642,1.0633700000000001
72.488,13.58934,-0.01468428,0.27003,1.06332
72.588,13.599839999999999,-0.01390374,0.26719,1.06326
72.688,13.610389999999999,-0.01396811,0.26745,1.06321
72.788,13.620920000000002,-0.01429466,0.26727,1.06316
72.888,13.63144,-0.01419128,0.26937,1.06311
72.988,13.641960000000001,-0.01390975,0.26889,1.0630600000000001
73.088,13.652529999999999,-0.01394857,0.27092,1.06301
73.188,13.663129999999999,-0.01393733,0.27035,1.06295
73.288,13.67366,-0.01394224,0.27108000000000004,1.0629
73.388,13.6841,-0.01393341,0.27166999999999997,1.06285
73.488,13.69459,-0.01396513,0.27182,1.0628
73.588,13.705179999999999,-0.01384515,0.2728,1.06275
73.688,13.715760000000001,-0.01457474,0.27066,1.0627
73.788,13.72621,-0.01522627,0.27066999999999997,1.06264
73.888,13.736670000000002,-0.01525339,0.27173,1.06259
73.988,13.747179999999998,-0.0152493,0.27105999999999997,1.06254
74.088,13.757760000000001,-0.01525013,0.27291,1.06249
74.188,13.7682,-0.01524997,0.27338,1.06244
74.288,13.778720000000002,-0.01525002,0.27385,1.0623799999999999
74.388,13.789229999999998,-0.01525001,0.27576,1.06233
74.488,13.79972,-0.01524965,0.27534000000000003,1.06228
74.588,13.81015,-0.01525249,0.27449,1.06223
74.688,13.8206,-0.01523605,0.27521,1.06218
74.788,13.83112,-0.01532844,0.2755,1.06213
74.888,13.84159,-0.01611065,0.27503,1.06207
74.988,13.852089999999999,-0.01661999,0.27631999999999995,1.06202
75.088,13.862570000000002,-0.01655604,0.27781999999999996,1.06197
75.188,13.87296,-0.01657381,0.27849,1.06192
75.288,13.883420000000001,-0.01656902,0.27685,1.06187
75.388,13.893970000000001,-0.01657026,0.27779,1.06182
75.488,13.90445,-0.01656994,0.27941,1.06176
75.588,13.91492,-0.01657001,0.27962,1.06171
75.688,13.925270000000001,-0.01657001,0.28107,1.06166
75.788,13.9357,-0.01656997,0.28052,1.06161
75.888,13.94619,-0.01657012,0.27998,1.06156
75.988,13.95669,-0.01656957,0.28044,1.06151
76.088,13.96716,-0.01657144,0.28107,1.06145
76.188,13.977689999999999,-0.01656563,0.28067,1.0614
76.288,13.98823,-0.01658145,0.28107,1.06135
76.388,13.9987,-0.01654613,0.28424,1.0613
76.488,14.009020000000001,-0.01753727,0.28191,1.06125
76.588,14.01949,-0.01787877,0.28306,1.0611899999999999
76.688,14.02989,-0.01790315,0.28378000000000003,1.06114
76.788,14.04009,-0.01860661,0.28341,1.0610899999999999
76.888,14.050379999999999,-0.01922093,0.28158,1.06104
76.988,14.060770000000002,-0.01917308,0.28331,1.0609899999999999
77.088,14.07117,-0.01922764,0.28348,1.06094
77.188,14.08165,-0.01901788,0.28401,1.0608799999999998
77.288,14.09215,-0.01861341,0.28615,1.06083
77.388,14.102529999999998,-0.01915142,0.28583000000000003,1.0607799999999998
77.488,14.11292,-0.01914137,0.28683000000000003,1.06073
77.588,14.12326,-0.01873308,0.28661,1.0606799999999998
77.688,14.13372,-0.0178493,0.28493,1.06063
77.788,14.14419,-0.01776321,0.28492,1.06057
77.888,14.15458,-0.01777186,0.28623000000000004,1.0605200000000001
77.988,14.16499,-0.01776901,0.2847,1.06047
78.088,14.175429999999999,-0.01777221,0.28663,1.0604200000000001
78.188,14.18578,-0.01776207,0.28806,1.06037
78.288,14.19612,-0.01790971,0.28873000000000004,1.0603200000000002
78.388,14.206489999999999,-0.01890753,0.28925,1.06026
78.488,14.21708,-0.01975392,0.28873000000000004,1.06021
78.588,14.22755,-0.02037454,0.28967,1.06016
78.688,14.23802,-0.02150313,0.29031999999999997,1.06011
78.788,14.24859,-0.02204302,0.2895,1.06006
78.888,14.25925,-0.02205008,0.29158,1.0600100000000001
78.988,14.269689999999999,-0.0224258,0.2915,1.05995
79.088,14.280079999999998,-0.02341374,0.29007,1.0599
79.188,14.29049,-0.0233551,0.2901,1.05985
79.288,14.30086,-0.02337056,0.28991999999999996,1.0598
79.388,14.31124,-0.02338938,0.29125,1.05975
79.488,14.321639999999999,-0.02326612,0.29119,1.0597
79.588,14.3321,-0.02246826,0.29086999999999996,1.05964
79.688,14.342529999999998,-0.02253477,0.29197,1.05959
79.788,14.352870000000001,-0.0234001,0.29311,1.05954
79.888,14.3632,-0.02302949,0.29217,1.05949
79.988,14.37345,-0.02221243,0.2921,1.05944
80.088,14.38355,-0.02176911,0.29315,1.05939
80.188,14.39374,-0.02180238,0.29399000000000003,1.0593299999999999
80.288,14.404079999999999,-0.0209238,0.29317,1.05928
80.388,14.414420000000002,-0.02030258,0.2928,1.05923
80.488,14.424710000000001,-0.02042523,0.29308,1.05918
80.588,14.434989999999999,-0.02039369,0.29425999999999997,1.05913
80.688,14.445260000000001,-0.02040136,0.29491,1.05908
80.788,14.45553,-0.02040059,0.29508,1.05902
80.888,14.4657,-0.02039633,0.29331,1.05897
80.988,14.475929999999998,-0.02041363,0.29502,1.05892
81.088,14.486289999999999,-0.02035103,0.29394000000000003,1.05887
81.188,14.496579999999998,-0.02084627,0.29524,1.05882
81.288,14.506820000000001,-0.02162158,0.29383000000000004,1.05877
81.388,14.517079999999998,-0.02174116,0.29707,1.05871
81.488,14.527339999999999,-0.02171506,0.29714,1.05866
81.588,14.537529999999999,-0.0217212,0.29757,1.05861
81.688,14.54771,-0.02171963,0.29828000000000005,1.05856
81.788,14.557960000000001,-0.02172035,0.29707,1.05851
81.888,14.56825,-0.02171912,0.29686,1.05846
81.988,14.57854,-0.02172233,0.29849000000000003,1.0584
82.088,14.58893,-0.02171649,0.29921,1.05835
82.188,14.59942,-0.02170498,0.29736999999999997,1.0583
82.288,14.609739999999999,-0.02094592,0.29959,1.05825
82.388,14.61995,-0.02153392,0.29921,1.0582
82.488,14.630120000000002,-0.02148688,0.30232,1.05815
82.588,14.64037,-0.02151693,0.29845,1.0581
82.688,14.65059,-0.02143622,0.29751,1.0580399999999999
82.788,14.66092,-0.02075218,0.29841999999999996,1.05799
82.888,14.67121,-0.02050621,0.29809,1.0579399999999999
82.988,14.681460000000001,-0.02052393,0.29846,1.05789
83.088,14.691679999999998,-0.02051896,0.29891,1.05784
83.188,14.701889999999999,-0.02052004,0.29895,1.05779
83.288,14.712129999999998,-0.02052101,0.30041,1.0577299999999998
83.388,14.722370000000002,-0.02051558,0.29975999999999997,1.05768
83.488,14.73259,-0.02053761,0.30115,1.0576299999999998
83.588,14.742870000000002,-0.02044949,0.30023,1.05758
83.688,14.753129999999999,-0.02086158,0.30044,1.0575299999999999
83.788,14.76335,-0.02173818,0.30008,1.05748
83.888,14.77355,-0.02183717,0.30082,1.05742
83.988,14.783729999999998,-0.02182789,0.30119,1.0573700000000001
84.088,14.79396,-0.02183138,0.30099000000000004,1.05732
84.188,14.804129999999999,-0.02182643,0.30168,1.0572700000000002
84.288,14.814279999999998,-0.02184296,0.3023,1.05722
84.388,14.824489999999999,-0.02178086,0.30117,1.0571700000000002
84.488,14.834710000000001,-0.02212649,0.30173,1.05711
84.588,14.844920000000002,-0.02293129,0.30215,1.05706
84.688,14.855089999999999,-0.02316489,0.30278,1.05701
84.788,14.865260000000001,-0.02319357,0.30239,1.0569600000000001
84.888,14.87535,-0.02274553,0.30046999999999996,1.05691
84.988,14.885539999999999,-0.02236921,0.30334,1.0568600000000001
85.088,14.895729999999999,-0.02295273,0.30459,1.05681
85.188,14.905879999999998,-0.02319372,0.30319,1.05675
85.288,14.91603,-0.02313856,0.30355,1.0567
85.388,14.926160000000001,-0.02315378,0.30234,1.05665
85.488,14.93639,-0.02314598,0.30296,1.0566
85.588,14.946570000000001,-0.02316239,0.30449,1.05655
85.688,14.95672,-0.02310566,0.30480999999999997,1.0565
85.788,14.96693,-0.02361589,0.3051,1.05644
85.888,14.97705,-0.02446645,0.30572,1.05639
85.988,14.987260000000001,-0.0245921,0.30551,1.05634
86.088,14.99741,-0.02456711,0.30376,1.05629
86.188,15.007520000000001,-0.02456147,0.30446999999999996,1.05624
86.288,15.0177,-0.02460361,0.3055,1.05619
86.388,15.02785,-0.02402065,0.30473,1.0561399999999999
86.488,15.03788,-0.02329624,0.30416,1.05608
86.588,15.048010000000001,-0.023243,0.30538000000000004,1.05603
86.688,15.058110000000001,-0.02323932,0.30609000000000003,1.05598
86.788,15.068220000000002,-0.02329473,0.30591999999999997,1.05593
86.888,15.078320000000001,-0.02233625,0.30601,1.05588
86.988,15.088379999999999,-0.02193368,0.30471,1.0558299999999998
87.088,15.09842,-0.02192911,0.30564,1.05577
87.188,15.108460000000001,-0.02193022,0.30694,1.05572
87.288,15.118529999999998,-0.02192995,0.30532,1.05567
87.388,15.1286,-0.02193001,0.30644,1.05562
87.488,15.138670000000001,-0.02193,0.3079,1.0555700000000001
87.588,15.148679999999999,-0.02193,0.30625,1.05552
87.688,15.15874,-0.02193,0.30766,1.0554700000000001
87.788,15.16877,-0.02193,0.30741999999999997,1.05541
87.888,15.17875,-0.02193,0.30677,1.05536
87.988,15.18873,-0.02193,0.30885,1.05531
88.088,15.19865,-0.02193002,0.30761,1.05526
88.188,15.2087,-0.02192993,0.30888000000000004,1.05521
88.288,15.2187,-0.02193026,0.30765,1.05516
88.388,15.228720000000001,-0.02192908,0.30868,1.0551
88.488,15.238760000000001,-0.02193313,0.3093,1.05505
88.588,15.2489,-0.02192215,0.30933,1.055
88.688,15.25893,-0.0225706,0.30881,1.05495
88.788,15.269,-0.02324404,0.30806,1.0549
88.888,15.27907,-0.02325234,0.30954,1.05485
88.988,15.28911,-0.02324665,0.30939,1.0548
89.088,15.29921,-0.02424375,0.30793000000000004,1.05474
89.188,15.309270000000001,-0.02456884,0.30905,1.05469
89.288,15.31935,-0.02458083,0.30794,1.05464
89.388,15.329429999999999,-0.02558165,0.30875,1.05459
89.488,15.339479999999998,-0.02589118,0.3102,1.05454
89.588,15.34956,-0.02588961,0.30882,1.05449
89.688,15.35955,-0.0258901,0.30754000000000004,1.05444
89.788,15.36953,-0.02588998,0.31042,1.0543799999999999
89.888,15.379610000000001,-0.02589,0.30801999999999996,1.05433
89.988,15.38974,-0.02589003,0.31018,1.0542799999999999
90.088,15.39988,-0.02588983,0.30962,1.05423
90.188,15.410029999999999,-0.02589081,0.30867,1.05418
90.288,15.420079999999999,-0.02588674,0.30935999999999997,1.05413
90.388,15.4302,-0.02590376,0.30851999999999996,1.05407
90.488,15.44031,-0.02583072,0.30992,1.0540200000000002
90.588,15.4503,-0.02520301,0.31018,1.05397
90.688,15.460339999999999,-0.02550257,0.30992,1.05392
90.788,15.47037,-0.02579519,0.30956999999999996,1.05387
90.888,15.480410000000001,-0.02577013,0.31031,1.05382
90.988,15.49039,-0.02580348,0.30866,1.05377
91.088,15.50044,-0.02569178,0.30903,1.0537100000000001
91.188,15.51056,-0.02468638,0.30914,1.05366
91.288,15.520560000000001,-0.02445586,0.30899,1.05361
91.388,15.530610000000001,-0.02446114,0.30925,1.05356
91.488,15.54065,-0.02445969,0.30877,1.05351
91.588,15.55069,-0.0244601,0.30717,1.05346
91.688,15.56069,-0.02445994,0.30854000000000004,1.05341
91.788,15.57081,-0.02446014,0.30929,1.05335
91.888,15.580860000000001,-0.02445947,0.30898000000000003,1.0533
91.988,15.59084,-0.02446196,0.30823,1.05325
92.088,15.600829999999998,-0.02445132,0.30726,1.0532
92.188,15.61082,-0.02398514,0.30685,1.05315
92.288,15.620770000000002,-0.02308222,0.30791,1.0531
92.388,15.630770000000002,-0.02316822,0.30771,1.05305
92.488,15.640720000000002,-0.02314524,0.30834,1.0529899999999999
92.588,15.650670000000002,-0.02315117,0.30785999999999997,1.05294
92.688,15.66071,-0.02314995,0.3069,1.0528899999999999
92.788,15.670689999999999,-0.02314904,0.30787,1.05284
92.888,15.68072,-0.023154,0.30657,1.05279
92.988,15.69075,-0.02313475,0.30656,1.05274
93.088,15.70076,-0.02321017,0.30607,1.05269
93.188,15.71075,-0.02393091,0.30783,1.05263
93.288,15.72071,-0.02449537,0.30735999999999997,1.0525799999999998
93.388,15.73071,-0.02445053,0.30603,1.05253
93.488,15.74066,-0.02446235,0.30688000000000004,1.0524799999999999
93.588,15.750639999999999,-0.02445986,0.30608,1.05243
93.688,15.76061,-0.02445826,0.3077,1.0523799999999999
93.788,15.770579999999999,-0.02446694,0.30784,1.0523200000000001
93.888,15.780560000000001,-0.02443436,0.30756999999999995,1.05227
93.988,15.790529999999999,-0.02455502,0.30793000000000004,1.0522200000000002
94.088,15.80056,-0.02555351,0.30723,1.05217
94.188,15.810579999999998,-0.02578438,0.30619,1.0521200000000002
94.288,15.820620000000002,-0.02577881,0.30621,1.05207
94.388,15.830570000000002,-0.02578024,0.30748000000000003,1.0520200000000002
94.488,15.840589999999999,-0.0257802,0.30748000000000003,1.05196
94.588,15.850579999999999,-0.02577896,0.30507,1.0519100000000001
94.688,15.860529999999999,-0.02578383,0.30708,1.05186
94.788,15.870510000000001,-0.02576599,0.30618,1.0518100000000001
94.888,15.880460000000001,-0.02583172,0.30635,1.05176
94.988,15.89042,-0.02653154,0.30803,1.0517100000000001
95.088,15.90037,-0.02716256,0.30491999999999997,1.05166
95.188,15.91032,-0.02784122,0.30761,1.05161
95.288,15.92031,-0.02841899,0.30718,1.05155
95.388,15.930279999999998,-0.02843237,0.30618,1.0515
95.488,15.94023,-0.02915122,0.30765,1.05145
95.588,15.95021,-0.02974583,0.30674,1.0514
95.688,15.96016,-0.02971389,0.30591,1.05135
95.788,15.97015,-0.02971965,0.30583,1.0513
95.888,15.9801,-0.02972706,0.30616,1.05125
95.988,15.990029999999999,-0.02969379,0.30562,1.05119
96.088,15.99995,-0.02898101,0.30585999999999997,1.05114
96.188,16.00984,-0.02816954,0.30651,1.0510899999999999
96.288,16.01973,-0.02817813,0.30768,1.05104
96.388,16.02967,-0.02748266,0.30625,1.0509899999999999
96.488,16.03968,-0.02674244,0.30759000000000003,1.05094
96.588,16.04961,-0.02676406,0.30701999999999996,1.0508899999999999
96.688,16.05956,-0.02675902,0.30761,1.05083
96.788,16.0695,-0.02676023,0.3066,1.0507799999999998
96.888,16.07941,-0.02675995,0.30408,1.05073
96.988,16.08938,-0.02676003,0.30453,1.0506799999999998
97.088,16.09933,-0.02675995,0.30563,1.05063
97.188,16.10928,-0.02676012,0.30545,1.0505799999999998
97.288,16.11925,-0.02675967,0.30546,1.05053
97.388,16.129170000000002,-0.02642962,0.30474,1.05047
97.488,16.1391,-0.02544384,0.30605,1.0504200000000001
97.588,16.148989999999998,-0.02543716,0.30463,1.05037
97.688,16.1589,-0.02544115,0.30291999999999997,1.0503200000000001
97.788,16.16881,-0.02543953,0.30511,1.05027
97.888,16.17861,-0.02544048,0.30457,1.0502200000000002
97.988,16.188570000000002,-0.02543877,0.30296,1.05017
98.088,16.19846,-0.02544514,0.30476,1.05011
98.188,16.20843,-0.02542031,0.30451,1.05006
98.288,16.21837,-0.02603359,0.30462,1.05001
98.388,16.22832,-0.02672998,0.30232,1.04996
98.488,16.23817,-0.02677045,0.30496,1.0499100000000001
98.588,16.24805,-0.0267534,0.30583,1.04986
98.688,16.257929999999998,-0.02677596,0.30419,1.0498100000000001
98.788,16.2678,-0.02669911,0.30553,1.04976
98.888,16.27768,-0.02761153,0.30343000000000003,1.0497
98.988,16.28758,-0.02807077,0.30535,1.04965
99.088,16.29745,-0.028082,0.30546,1.0496
99.188,16.307270000000003,-0.02808071,0.30388000000000004,1.04955
99.288,16.31713,-0.0280747,0.30263,1.0495
99.388,16.326970000000003,-0.02825822,0.30638000000000004,1.04945
99.488,16.33684,-0.02922071,0.30528,1.0494
99.588,16.3467,-0.0294477,0.30491,1.04934
99.688,16.35662,-0.02938681,0.30562,1.04929
99.788,16.36647,-0.02940382,0.30451,1.04924
99.888,16.3763,-0.02939887,0.30489,1.04919
99.988,16.38626,-0.02940051,0.30394,1.04914
100.088,16.396160000000002,-0.02939906,0.30427,1.0490899999999999
100.188,16.40608,-0.02940324,0.30451999999999996,1.04904
100.288,16.415960000000002,-0.02938777,0.30461,1.0489899999999999
100.388,16.42582,-0.02944593,0.30408,1.04893
100.488,16.43573,-0.0290422,0.30338000000000004,1.04888
100.588,16.44568,-0.02810002,0.30435999999999996,1.04883
100.688,16.45555,-0.02779049,0.30345,1.0487799999999998
100.788,16.465410000000002,-0.027927,0.3028,1.04873
100.888,16.47537,-0.02751004,0.3032,1.0486799999999998
100.988,16.485310000000002,-0.02673896,0.30328,1.04863
101.088,16.49522,-0.02650808,0.30216,1.04857
101.188,16.50509,-0.02656323,0.30136999999999997,1.0485200000000001
101.288,16.51502,-0.02654016,0.30228,1.04847
101.388,16.52494,-0.02657619,0.30307,1.0484200000000001
101.488,16.53487,-0.0264561,0.30304000000000003,1.04837
101.588,16.54478,-0.02707476,0.30280999999999997,1.0483200000000001
101.688,16.55462,-0.0278056,0.3016,1.04827
101.788,16.5645,-0.02786636,0.30407,1.0482200000000002
101.888,16.57445,-0.0278583,0.3034,1.04816
101.988,16.5844,-0.02786043,0.30132,1.04811
102.088,16.59431,-0.02786,0.30268,1.04806
102.188,16.6042,-0.02785957,0.30089,1.04801
102.288,16.61407,-0.0278617,0.30186999999999997,1.04796
102.388,16.623920000000002,-0.02785374,0.30391999999999997,1.0479100000000001
102.488,16.633779999999998,-0.02788293,0.30274,1.04786
102.588,16.64356,-0.02777615,0.3028,1.0478100000000001
102.688,16.65336,-0.02822941,0.30293000000000003,1.04775
102.788,16.66326,-0.02907471,0.3011,1.0477
102.888,16.67311,-0.02917736,0.30033000000000004,1.04765
102.988,16.68289,-0.02916802,0.30199000000000004,1.0476
103.088,16.6927,-0.02917054,0.3039,1.04755
103.188,16.70257,-0.02916981,0.3036,1.0475
103.288,16.71246,-0.02917021,0.3018,1.04745
103.388,16.72235,-0.02916936,0.30351,1.04739
103.488,16.73216,-0.02917226,0.30343000000000003,1.04734
103.588,16.74196,-0.02916228,0.3028,1.04729
103.688,16.75181,-0.02919749,0.30406,1.04724
103.788,16.761570000000003,-0.02906906,0.30251,1.04719
103.888,16.77147,-0.02833062,0.30438000000000004,1.04714
103.988,16.781270000000003,-0.02781655,0.30384,1.0470899999999999
104.088,16.79105,-0.02787083,0.30339,1.04704
104.188,16.80088,-0.02785731,0.30094,1.04698
104.288,16.8107,-0.02786054,0.30025999999999997,1.04693
104.388,16.820529999999998,-0.02786031,0.30186999999999997,1.04688
104.488,16.83031,-0.02785858,0.30305,1.04683
104.588,16.84016,-0.02786462,0.30099000000000004,1.0467799999999998
104.688,16.85005,-0.02784506,0.30279,1.04673
104.788,16.860020000000002,-0.02791487,0.30218,1.0466799999999998
104.888,16.8698,-0.02890061,0.30105,1.04663
104.988,16.87966,-0.02918189,0.30263,1.04657
105.088,16.889570000000003,-0.02917958,0.30367,1.0465200000000001
105.188,16.899379999999997,-0.02918006,0.30311,1.04647
105.288,16.90918,-0.02918,0.30221,1.0464200000000001
105.388,16.919,-0.02918,0.30095,1.04637
105.488,16.92886,-0.02917996,0.3,1.0463200000000001
105.588,16.9387,-0.02918025,0.30148,1.04627
105.688,16.94859,-0.02917886,0.30133000000000004,1.0462200000000001
105.788,16.95834,-0.02918576,0.30196999999999996,1.04616
105.888,16.968320000000002,-0.02915846,0.30044,1.04611
105.988,16.97811,-0.02975152,0.30212,1.04606
106.088,16.98791,-0.03045391,0.30004000000000003,1.04601
106.188,16.99779,-0.03051334,0.30221,1.04596
106.288,17.007579999999997,-0.0304958,0.30383000000000004,1.0459100000000001
106.388,17.01744,-0.03050123,0.29996999999999996,1.04586
106.488,17.027279999999998,-0.03049963,0.30114,1.0458100000000001
106.588,17.03709,-0.03050011,0.30224,1.04575
106.688,17.04695,-0.03049997,0.30245,1.0457
106.788,17.056739999999998,-0.03050001,0.30301999999999996,1.04565
106.888,17.066489999999998,-0.0305,0.30144,1.0456
106.988,17.07633,-0.0305,0.30393000000000003,1.04555
107.088,17.08616,-0.0305,0.30171,1.0455
107.188,17.09591,-0.0305,0.30030999999999997,1.04545
107.288,17.10575,-0.03049999,0.30332,1.0454
107.388,17.11561,-0.03050004,0.30296999999999996,1.04534
107.488,17.125420000000002,-0.03049987,0.30322,1.04529
107.588,17.13515,-0.03050051,0.30318,1.04524
107.688,17.14488,-0.03049813,0.30295,1.04519
107.788,17.15469,-0.03050681,0.30346999999999996,1.04514
107.888,17.16451,-0.03047471,0.30367,1.04509
107.988,17.17426,-0.03059244,0.30279,1.04504
108.088,17.184070000000002,-0.03004869,0.30195,1.0449899999999999
108.188,17.1939,-0.02925367,0.30375,1.04493
108.288,17.203689999999998,-0.02917191,0.30168,1.04488
108.388,17.21345,-0.02918634,0.30034,1.04483
108.488,17.2232,-0.02916352,0.30423,1.0447799999999998
108.588,17.23294,-0.02925349,0.30472,1.04473
108.688,17.242720000000002,-0.02969275,0.30408,1.0446799999999998
108.788,17.252470000000002,-0.02965912,0.30321,1.04463
108.888,17.262220000000003,-0.02910583,0.30254000000000003,1.0445799999999998
108.988,17.27202,-0.02919955,0.30296999999999996,1.04453
109.088,17.28175,-0.02917492,0.30451,1.04447
109.188,17.29148,-0.02918128,0.3043,1.0444200000000001
109.288,17.3013,-0.02917967,0.30430999999999997,1.04437
109.388,17.31115,-0.02918008,0.30459,1.0443200000000001
109.488,17.32092,-0.02917998,0.30362,1.04427
109.588,17.33067,-0.02917999,0.30482,1.0442200000000001
109.688,17.34044,-0.02918003,0.30235,1.04417
109.788,17.350270000000002,-0.0291799,0.30462,1.0441200000000002
109.888,17.36006,-0.02918029,0.30367,1.04406
109.988,17.369770000000003,-0.02917929,0.30604000000000003,1.04401
110.088,17.37956,-0.02918169,0.30678,1.04396
110.188,17.38932,-0.02917756,0.30478,1.0439100000000001
110.288,17.39909,-0.02917587,0.30554000000000003,1.04386
110.388,17.40887,-0.0301344,0.30739,1.0438100000000001
110.488,17.41864,-0.03049148,0.30801,1.04376
110.588,17.42846,-0.03047185,0.30705,1.0437100000000001
110.688,17.438270000000003,-0.03107443,0.30525,1.04366
110.788,17.44807,-0.0317701,0.3069,1.0436
110.888,17.45782,-0.03182321,0.30774,1.04355
110.988,17.46745,-0.0318057,0.30722,1.0435
111.088,17.47719,-0.03180997,0.30709000000000003,1.04345
111.188,17.486929999999997,-0.03181548,0.30624,1.0434
111.288,17.496679999999998,-0.03178694,0.3075,1.04335
111.388,17.506429999999998,-0.03190035,0.3083,1.0433
111.488,17.51612,-0.03112568,0.30739,1.04325
111.588,17.5258,-0.03052713,0.30662,1.04319
111.688,17.53556,-0.03049561,0.30715,1.04314
111.788,17.545370000000002,-0.03050171,0.3059,1.04309
111.888,17.55515,-0.03049775,0.30611,1.04304
111.988,17.56488,-0.0305072,0.30745,1.0429899999999999
112.088,17.57462,-0.03042056,0.3067,1.04294
112.188,17.58434,-0.0296221,0.30671,1.0428899999999999
112.288,17.59405,-0.02908889,0.30664,1.04284
112.388,17.603820000000002,-0.02920475,0.30816,1.0427899999999999
112.488,17.61361,-0.02917321,0.30766,1.04273
112.588,17.62334,-0.02918184,0.30612,1.0426799999999998
112.688,17.6331,-0.02917951,0.3086,1.04263
112.788,17.64286,-0.02918011,0.30818,1.0425799999999998
112.888,17.65259,-0.02918006,0.30662,1.04253
112.988,17.66238,-0.02917969,0.30618,1.0424799999999999
113.088,17.672279999999997,-0.02918114,0.30643000000000004,1.04243
113.188,17.68218,-0.02917579,0.30582,1.0423799999999999
113.288,17.69195,-0.02919451,0.30711,1.04233
113.388,17.70175,-0.02912938,0.3069,1.04227
113.488,17.71142,-0.02935449,0.30668,1.0422200000000001
113.588,17.721220000000002,-0.03031119,0.30648000000000003,1.04217
113.688,17.73102,-0.03049453,0.30708,1.0421200000000002
113.788,17.74079,-0.03048917,0.30719,1.04207
113.888,17.750510000000002,-0.03048931,0.30587,1.0420200000000002
113.988,17.76024,-0.03049272,0.30379,1.04197
114.088,17.77003,-0.03048191,0.30664,1.0419200000000002
114.188,17.77978,-0.03051113,0.30675,1.04187
114.288,17.78963,-0.03118847,0.3076,1.0418100000000001
114.388,17.79947,-0.03181975,0.305,1.04176
114.488,17.809260000000002,-0.03180835,0.30527,1.0417100000000001
114.588,17.81906,-0.03149657,0.30583,1.04166
114.688,17.828879999999998,-0.03083956,0.30567,1.0416100000000001
114.788,17.838729999999998,-0.03083371,0.30549,1.04156
114.888,17.8485,-0.03051755,0.30582,1.04151
114.988,17.85827,-0.0304936,0.30664,1.04146
115.088,17.868029999999997,-0.03050224,0.30591999999999997,1.04141
115.188,17.87779,-0.03049925,0.30639,1.04135
115.288,17.88756,-0.03050026,0.30444,1.0413
115.388,17.897370000000002,-0.03049981,0.30519,1.04125
115.488,17.90714,-0.03050048,0.30522,1.0412
115.588,17.917,-0.03049822,0.30568,1.04115
115.688,17.926779999999997,-0.03050705,0.3027,1.0411
115.788,17.93658,-0.03047284,0.30251999999999996,1.04105
115.888,17.94635,-0.03060548,0.3026,1.041
115.988,17.9561,-0.02976621,0.30207,1.04095
116.088,17.9659,-0.02960296,0.30446999999999996,1.0408899999999999
116.188,17.97567,-0.03032464,0.30380999999999997,1.04084
116.288,17.98548,-0.03052854,0.30418,1.0407899999999999
116.388,17.9953,-0.03047916,0.30522,1.04074
116.488,18.00509,-0.03049305,0.3038,1.04069
116.588,18.014860000000002,-0.03048915,0.30330999999999997,1.04064
116.688,18.02463,-0.03049022,0.30217,1.04059
116.788,18.03439,-0.03049,0.30164,1.04054
116.888,18.04414,-0.03048977,0.30085,1.04049
116.988,18.05394,-0.0304909,0.3021,1.04043
117.088,18.06375,-0.03048671,0.30353,1.0403799999999999
117.188,18.073539999999998,-0.03050192,0.30236,1.04033
117.288,18.08332,-0.03044725,0.30262,1.0402799999999999
117.388,18.0931,-0.03068237,0.30228,1.04023
117.488,18.10288,-0.03145175,0.30277,1.0401799999999999
117.588,18.1126,-0.03186164,0.30221,1.04013
117.688,18.12235,-0.03179652,0.30133000000000004,1.04008
117.788,18.132179999999998,-0.03181351,0.30164,1.04003
117.888,18.14198,-0.03180921,0.30014,1.03997
117.988,18.1517,-0.03180973,0.2996,1.0399200000000002
118.088,18.16153,-0.03181169,0.30025,1.03987
118.188,18.17134,-0.03180405,0.30033000000000004,1.03982
118.288,18.18114,-0.03183015,0.2984,1.03977
118.388,18.190929999999998,-0.03174033,0.29782,1.03972
118.488,18.20073,-0.03101949,0.29856,1.03967
118.588,18.21047,-0.0304588,0.2988,1.03962
118.688,18.22026,-0.03049726,0.2975,1.03957
118.788,18.23003,-0.03048849,0.29912,1.03952
118.888,18.23974,-0.03049002,0.29955,1.03946
118.988,18.24951,-0.03049056,0.29962,1.03941
119.088,18.25926,-0.03048938,0.30071,1.03936
119.188,18.26897,-0.03048553,0.29925,1.03931
119.288,18.278760000000002,-0.03110556,0.30015,1.03926
119.388,18.28856,-0.03239012,0.30003,1.03921
119.488,18.29835,-0.03332123,0.30004000000000003,1.03916
119.588,18.30809,-0.03333824,0.29952,1.03911
119.688,18.31786,-0.03388358,0.29939,1.03906
119.788,18.32767,-0.0348008,0.29832,1.039
119.888,18.33747,-0.03489898,0.29822,1.03895
119.988,18.34724,-0.03506663,0.29818,1.0389
120.088,18.35701,-0.03603762,0.30049000000000003,1.03885
120.188,18.366770000000002,-0.03624977,0.30036,1.0388
120.288,18.37655,-0.03617015,0.29925999999999997,1.03875
120.388,18.38625,-0.03626807,0.30064,1.0387
120.488,18.39602,-0.0357458,0.30025,1.03865
120.588,18.40578,-0.03542116,0.3006,1.0386
120.688,18.41554,-0.03598649,0.30067,1.03855
120.788,18.42531,-0.03615119,0.29939,1.03849
120.888,18.43509,-0.03514199,0.29756,1.03844
120.988,18.44487,-0.03472619,0.298,1.03839
121.088,18.454629999999998,-0.03452767,0.29827,1.03834
121.188,18.46435,-0.03355209,0.29730999999999996,1.03829
121.288,18.47409,-0.03325578,0.29809,1.03824
121.388,18.48384,-0.03279594,0.2992,1.03819
121.488,18.493560000000002,-0.03180595,0.29875,1.03814
121.588,18.50328,-0.03177211,0.29627,1.03809
121.688,18.51305,-0.03134177,0.2969,1.03804
121.788,18.52285,-0.03061365,0.29844,1.03798
121.888,18.53265,-0.03074853,0.29736999999999997,1.03793
121.988,18.5424,-0.03071243,0.29766,1.03788
122.088,18.55216,-0.03072198,0.29671,1.03783
122.188,18.56196,-0.03071948,0.2988,1.03778
122.288,18.57173,-0.03072013,0.29691,1.0377299999999998
122.388,18.58147,-0.03071997,0.29746,1.03768
122.488,18.59122,-0.03071999,0.2965,1.0376299999999998
122.588,18.60104,-0.03072004,0.29631,1.03758
122.688,18.6108,-0.03071985,0.29777,1.0375299999999998
122.788,18.62056,-0.03072047,0.29836999999999997,1.0374700000000001
122.888,18.6303,-0.03071861,0.29755,1.03742
122.988,18.64005,-0.03072393,0.29856,1.0373700000000001
123.088,18.649829999999998,-0.03070917,0.29845,1.03732
123.188,18.65955,-0.03074253,0.29714,1.0372700000000001
123.288,18.66935,-0.03171629,0.2963,1.03722
123.388,18.679129999999997,-0.03213972,0.29817,1.0371700000000001
123.488,18.68893,-0.03213851,0.29817,1.03712
123.588,18.698629999999998,-0.03243734,0.29969,1.0370700000000002
123.688,18.708389999999998,-0.03308897,0.29825999999999997,1.03702
123.788,18.71814,-0.03313121,0.29928,1.03696
123.888,18.72786,-0.03311604,0.29844,1.03691
123.988,18.73755,-0.03312134,0.29772,1.0368600000000001
124.088,18.74725,-0.03311957,0.2979,1.03681
124.188,18.756970000000003,-0.03312013,0.29889,1.0367600000000001
124.288,18.76666,-0.03311996,0.29628000000000004,1.03671
124.388,18.7764,-0.03312001,0.29755,1.0366600000000001
124.488,18.786170000000002,-0.03312,0.29954000000000003,1.03661
124.588,18.795920000000002,-0.03312,0.29761,1.03656
124.688,18.80568,-0.03312,0.29738000000000003,1.03651
124.788,18.815379999999998,-0.03312,0.2981,1.03645
124.888,18.82506,-0.03312,0.29924,1.0364
124.988,18.83481,-0.03312,0.29730999999999996,1.03635
125.088,18.84456,-0.03311999,0.29681,1.0363
125.188,18.85424,-0.03312005,0.29801,1.03625
125.288,18.863970000000002,-0.03311983,0.29774,1.0362
125.388,18.87368,-0.0331206,0.29836,1.03615
125.488,18.88339,-0.03311788,0.29774,1.0361
125.588,18.89314,-0.03312754,0.29693,1.03605
125.688,18.90287,-0.03309374,0.29771,1.036
125.788,18.912670000000002,-0.0332269,0.2978,1.0359399999999999
125.888,18.922439999999998,-0.03348632,0.29698,1.03589
125.988,18.93219,-0.03343663,0.29703,1.0358399999999999
126.088,18.94193,-0.03347344,0.2978,1.03579
126.188,18.95174,-0.03403295,0.29766,1.0357399999999999
126.288,18.961579999999998,-0.03485722,0.29741,1.03569
126.388,18.97135,-0.03474762,0.29805,1.03564
126.488,18.98111,-0.03477594,0.29768,1.03559
126.588,18.99084,-0.03476605,0.29846,1.03554
126.688,19.00061,-0.03428327,0.29867,1.03549
126.788,19.01037,-0.03317165,0.29657,1.03544
126.888,19.02009,-0.03325375,0.29612,1.03538
126.988,19.029870000000003,-0.03283484,0.29748,1.0353299999999999
127.088,19.03961,-0.03166933,0.29816,1.03528
127.188,19.04935,-0.03170612,0.29758,1.0352299999999999
127.288,19.05913,-0.03170201,0.29667,1.03518
127.388,19.06891,-0.03103716,0.29946,1.0351299999999999
127.488,19.078670000000002,-0.03188438,0.29922,1.03508
127.588,19.08841,-0.03193524,0.29809,1.03503
127.688,19.09809,-0.03191412,0.29786999999999997,1.03498
127.788,19.1078,-0.03212704,0.29784,1.03493
127.888,19.11747,-0.03329576,0.29871,1.03488
127.988,19.12714,-0.03349986,0.30038000000000004,1.03482
128.088,19.13681,-0.03343242,0.29856,1.03477
128.188,19.146520000000002,-0.03354971,0.2982,1.03472
128.288,19.15622,-0.03357549,0.2968,1.03467
128.388,19.165860000000002,-0.03356838,0.29832,1.03462
128.488,19.17553,-0.03357035,0.29879,1.03457
128.588,19.18519,-0.03357036,0.29841,1.03452
128.688,19.19489,-0.0335682,0.29761,1.03447
128.788,19.2046,-0.03357677,0.2979,1.0344200000000001
128.888,19.214270000000003,-0.03354542,0.29798,1.03437
128.988,19.223979999999997,-0.03365826,0.29775999999999997,1.03431
129.088,19.23368,-0.03316244,0.29761,1.03426
129.188,19.24341,-0.03233799,0.29816,1.03421
129.288,19.25305,-0.03224819,0.29882,1.03416
129.388,19.262539999999998,-0.03223389,0.29924,1.03411
129.488,19.27214,-0.03230742,0.30027,1.03406
129.588,19.28184,-0.03203787,0.29861,1.03401
129.688,19.29151,-0.03110172,0.3011,1.03396
129.788,19.30125,-0.030924,0.29857,1.03391
129.888,19.31095,-0.03093151,0.29951,1.03386
129.988,19.32068,-0.03092949,0.30105,1.0338100000000001
130.088,19.330379999999998,-0.03093052,0.29939,1.03375
130.188,19.3401,-0.03092875,0.29791999999999996,1.0337
130.288,19.349829999999997,-0.03093326,0.2998,1.03365
130.388,19.359560000000002,-0.03129412,0.29875999999999997,1.0336
130.488,19.36928,-0.0322464,0.2981,1.03355
130.588,19.37898,-0.0322429,0.30013,1.0335
130.688,19.38866,-0.03223781,0.30025999999999997,1.03345
130.788,19.39846,-0.03224086,0.29824,1.0334
130.888,19.40812,-0.03223965,0.29803,1.03335
130.988,19.41787,-0.03224012,0.29963,1.0333
131.088,19.42755,-0.03223996,0.30078,1.03325
131.188,19.43725,-0.03224001,0.30016,1.0332
131.288,19.44693,-0.03224,0.29919,1.03314
131.388,19.45658,-0.03224,0.30221,1.03309
131.488,19.46637,-0.03223999,0.3014,1.03304
131.588,19.476210000000002,-0.03224002,0.30034,1.0329899999999999
131.688,19.4859,-0.03223993,0.30059,1.03294
131.788,19.49563,-0.03224026,0.29948,1.0328899999999999
131.888,19.50532,-0.032239,0.30058,1.03284
131.988,19.515,-0.03224368,0.30136,1.0327899999999999
132.088,19.52468,-0.03222644,0.30185,1.03274
132.188,19.53441,-0.03228881,0.30007,1.0326899999999999
132.288,19.54417,-0.03198038,0.29967,1.03264
132.388,19.55386,-0.03122002,0.30175,1.0325799999999998
132.488,19.56348,-0.03086708,0.30007,1.03253
132.588,19.57313,-0.03098241,0.29862,1.0324799999999998
132.688,19.58284,-0.03075985,0.29996999999999996,1.03243
132.788,19.59256,-0.02997388,0.30018,1.0323799999999999
132.888,19.60228,-0.02892457,0.29943000000000003,1.03233
132.988,19.61194,-0.0282229,0.29991999999999996,1.0322799999999999
133.088,19.62164,-0.02831984,0.29966,1.03223
133.188,19.63131,-0.02829509,0.29889,1.0321799999999999
133.288,19.64102,-0.02830121,0.29743,1.03213
133.388,19.650679999999998,-0.02829976,0.30022,1.0320799999999999
133.488,19.660439999999998,-0.02829995,0.29930999999999996,1.03203
133.588,19.67016,-0.02830032,0.29895,1.03197
133.688,19.67991,-0.02829909,0.29953,1.0319200000000002
133.788,19.68958,-0.02830184,0.29948,1.03187
133.888,19.69922,-0.0282992,0.29896,1.0318200000000002
133.988,19.70896,-0.02828868,0.29991,1.03177
134.088,19.71872,-0.02925152,0.29936999999999997,1.03172
134.188,19.72843,-0.02961523,0.30043000000000003,1.03167
134.288,19.73815,-0.02962799,0.30046,1.03162
134.388,19.74785,-0.02958875,0.2991,1.03157
134.488,19.75753,-0.03013543,0.29971,1.03152
134.588,19.76727,-0.0308545,0.2995,1.03147
134.688,19.77703,-0.03094913,0.29996999999999996,1.03141
134.788,19.78676,-0.03093477,0.30091999999999997,1.03136
134.888,19.796470000000003,-0.03088666,0.30048,1.03131
134.988,19.80613,-0.03132899,0.29880999999999996,1.03126
135.088,19.81578,-0.03216503,0.29908,1.03121
135.188,19.8255,-0.03242042,0.29991,1.03116
135.288,19.83523,-0.03229374,0.29972,1.03111
135.388,19.84494,-0.03268663,0.29936999999999997,1.03106
135.488,19.854689999999998,-0.03343857,0.29953,1.03101
135.588,19.86439,-0.03378844,0.29872,1.03096
135.688,19.87405,-0.03450276,0.29986999999999997,1.03091
135.788,19.88375,-0.03508786,0.29975999999999997,1.03086
135.888,19.89344,-0.03496344,0.29798,1.0308
135.988,19.90321,-0.03499714,0.30006,1.03075
136.088,19.91293,-0.03498804,0.29991999999999996,1.0307
136.188,19.92256,-0.03499052,0.29996,1.03065
136.288,19.93225,-0.03498987,0.30217,1.0306
136.388,19.94194,-0.03499003,0.29972,1.03055
136.488,19.95166,-0.03499001,0.29927,1.0305
136.588,19.96134,-0.03498994,0.3015,1.03045
136.688,19.971020000000003,-0.03499019,0.30215,1.0304
136.788,19.980729999999998,-0.03498942,0.30162,1.03035
136.888,19.9904,-0.03499168,0.30189,1.0303
136.988,20.00004,-0.03498551,0.30232,1.03025
137.088,20.00976,-0.03460807,0.30234,1.0302
137.188,20.019479999999998,-0.03366309,0.29936999999999997,1.03014
137.288,20.02916,-0.03367992,0.29946,1.03009
137.388,20.03879,-0.03368242,0.30264,1.03004
137.488,20.04844,-0.03367402,0.30149000000000004,1.02999
137.588,20.05813,-0.03370582,0.30104000000000003,1.0299399999999999
137.688,20.06777,-0.03313929,0.30049000000000003,1.02989
137.788,20.07747,-0.03241491,0.30096,1.0298399999999999
137.888,20.08711,-0.03255514,0.30093000000000003,1.02979
137.988,20.09681,-0.03323246,0.30088000000000004,1.0297399999999999
138.088,20.1065,-0.03337018,0.30080999999999997,1.02969
138.188,20.11619,-0.03333161,0.3006,1.0296399999999999
138.288,20.12592,-0.03334002,0.30236999999999997,1.02959
138.388,20.13561,-0.03334927,0.3005,1.0295299999999998
138.488,20.14529,-0.03330273,0.30133000000000004,1.02948
138.588,20.154989999999998,-0.033544,0.30236999999999997,1.0294299999999998
138.688,20.16467,-0.03361984,0.30222,1.02938
138.788,20.17432,-0.03279077,0.30286,1.0293299999999999
138.888,20.183989999999998,-0.03227137,0.30373,1.02928
138.988,20.19367,-0.03238537,0.30278,1.0292299999999999
139.088,20.20335,-0.03235015,0.30203,1.02918
139.188,20.213060000000002,-0.03237319,0.30312,1.0291299999999999
139.288,20.22273,-0.03232012,0.30311,1.02908
139.388,20.23242,-0.0325167,0.30251999999999996,1.02903
139.488,20.24215,-0.0332345,0.30098,1.02898
139.588,20.251820000000002,-0.0331546,0.30314,1.02893
139.688,20.26148,-0.03219795,0.30301,1.0288700000000002
139.788,20.27113,-0.03202555,0.30261,1.02882
139.888,20.280829999999998,-0.03203108,0.30093000000000003,1.02877
139.988,20.2905,-0.03202976,0.30099000000000004,1.02872
140.088,20.3002,-0.03203005,0.30259,1.02867
140.188,20.30985,-0.03202999,0.30186999999999997,1.02862
140.288,20.31951,-0.03203,0.30083000000000004,1.02857
140.388,20.32919,-0.03203,0.30106,1.02852
140.488,20.3388,-0.03203009,0.30163,1.02847
140.588,20.34851,-0.03202946,0.30164,1.0284200000000001
140.688,20.35821,-0.03203281,0.30204000000000003,1.02837
140.788,20.36771,-0.03180928,0.30145,1.0283200000000001
140.888,20.37735,-0.03084088,0.30075999999999997,1.02827
140.988,20.38705,-0.03067479,0.30136999999999997,1.02821
141.088,20.39666,-0.0305618,0.30314,1.02816
141.188,20.40634,-0.02961365,0.30321,1.02811
141.288,20.41603,-0.02932965,0.30196,1.02806
141.388,20.42569,-0.02940788,0.3011,1.02801
141.488,20.4354,-0.02938486,0.30215,1.02796
141.588,20.445079999999997,-0.02939149,0.30383000000000004,1.02791
141.688,20.45475,-0.02938958,0.30235,1.02786
141.788,20.46445,-0.0293901,0.30314,1.0278100000000001
141.888,20.47414,-0.02939003,0.30439,1.02776
141.988,20.48386,-0.02938977,0.30309,1.0277100000000001
142.088,20.49361,-0.02939084,0.30195,1.02766
142.188,20.50336,-0.02938697,0.30315,1.0276100000000001
142.288,20.51306,-0.02940073,0.30535,1.02755
142.388,20.52274,-0.0293532,0.3041,1.0275
142.488,20.532429999999998,-0.02953979,0.30355,1.02745
142.588,20.5421,-0.0302906,0.30296,1.0274
142.688,20.55183,-0.03075915,0.30318,1.02735
142.788,20.5615,-0.0306959,0.30456,1.0273
142.888,20.5712,-0.03071855,0.30444,1.02725
142.988,20.581020000000002,-0.03069046,0.3066,1.0272
143.088,20.5907,-0.03076965,0.30559000000000003,1.02715
143.188,20.60045,-0.03147697,0.30588000000000004,1.0271
143.288,20.61003,-0.03205236,0.30476,1.02705
143.388,20.6196,-0.03202696,0.3062,1.027
143.488,20.62915,-0.03203,0.30435,1.02695
143.588,20.63867,-0.03202662,0.30624,1.0269
143.688,20.64829,-0.03230318,0.30458,1.02684
143.788,20.65795,-0.033213,0.30662,1.0267899999999999
143.888,20.66764,-0.03421536,0.30416,1.02674
143.988,20.67728,-0.03474369,0.30489,1.0266899999999999
144.088,20.68691,-0.03473915,0.30484,1.02664
144.188,20.69653,-0.03519774,0.30491999999999997,1.02659
144.288,20.70608,-0.03603104,0.30705,1.02654
144.388,20.7157,-0.03624511,0.30614,1.02649
144.488,20.725360000000002,-0.03618058,0.30457,1.02644
144.588,20.73498,-0.03629379,0.3062,1.02639
144.688,20.74466,-0.03711192,0.30632,1.02634
144.788,20.75431,-0.03761088,0.307,1.02629
144.888,20.763920000000002,-0.03749407,0.30654000000000003,1.02624
144.988,20.77358,-0.0375296,0.30579,1.0261799999999999
145.088,20.783279999999998,-0.03750864,0.30831,1.02613
145.188,20.79299,-0.0375539,0.30706999999999995,1.0260799999999999
145.288,20.80262,-0.03737785,0.306,1.02603
145.388,20.8123,-0.03653365,0.30779,1.02598
145.488,20.822110000000002,-0.03593216,0.30698000000000003,1.02593
145.588,20.83183,-0.03589912,0.30753,1.02588
145.688,20.841620000000002,-0.03505459,0.30711,1.02583
145.788,20.85141,-0.03443634,0.30554000000000003,1.02578
145.888,20.861079999999998,-0.03429828,0.30674,1.02573
145.988,20.87075,-0.03307694,0.3075,1.02568
146.088,20.88038,-0.03267582,0.30659000000000003,1.0256299999999998
146.188,20.89005,-0.0322697,0.30659000000000003,1.02558
146.288,20.89975,-0.03112222,0.3064,1.0255299999999998
146.388,20.90942,-0.03116464,0.30917,1.02547
146.488,20.91914,-0.03116012,0.30803,1.02542
146.588,20.92884,-0.03115953,0.30711,1.0253700000000001
146.688,20.93854,-0.0311603,0.30673,1.02532
146.788,20.948179999999997,-0.03115965,0.30695,1.0252700000000001
146.888,20.957829999999998,-0.03116117,0.30643000000000004,1.02522
146.988,20.96751,-0.03115513,0.30677,1.0251700000000001
147.088,20.97714,-0.03118074,0.30819,1.02512
147.188,20.98677,-0.0310754,0.309,1.0250700000000001
147.288,20.996370000000002,-0.0318637,0.30678,1.02502
147.388,21.00597,-0.03244179,0.30773,1.0249700000000002
147.488,21.01558,-0.03247487,0.30801999999999996,1.02492
147.588,21.0252,-0.03246983,0.30774,1.0248700000000002
147.688,21.0349,-0.03246547,0.30885999999999997,1.02482
147.788,21.044610000000002,-0.03248815,0.30835,1.0247700000000002
147.888,21.054289999999998,-0.03240359,0.30724,1.02471
147.988,21.06391,-0.03277981,0.30644,1.0246600000000001
148.088,21.073520000000002,-0.03319998,0.30712,1.02461
148.188,21.083170000000003,-0.03311007,0.30853,1.0245600000000001
148.288,21.09284,-0.03313879,0.3081,1.02451
148.388,21.10248,-0.03311604,0.30703,1.02446
148.488,21.1121,-0.03317225,0.30677,1.02441
148.588,21.1217,-0.03298517,0.30875,1.02436
148.688,21.1313,-0.03241031,0.30868,1.02431
148.788,21.14087,-0.0324838,0.30784,1.02426
148.888,21.15053,-0.03246683,0.30831,1.02421
148.988,21.16014,-0.03247066,0.30723,1.02416
149.088,21.16975,-0.03246989,0.30813,1.02411
149.188,21.17942,-0.03247001,0.30941,1.02406
149.288,21.18905,-0.03247,0.30942,1.02401
149.388,21.19869,-0.03247,0.30738000000000004,1.02395
149.488,21.20831,-0.03247,0.30827,1.0239
149.588,21.21799,-0.03247,0.30993000000000004,1.02385
149.688,21.22762,-0.03247,0.30762,1.0238
149.788,21.23724,-0.03246998,0.30993000000000004,1.02375
149.888,21.24686,-0.03247008,0.30856999999999996,1.0237
149.988,21.25649,-0.03246966,0.30911,1.02365
150.088,21.26609,-0.03247133,0.30798000000000003,1.0236
150.188,21.27579,-0.03246503,0.30894,1.02355
150.288,21.28547,-0.03248899,0.30887,1.0235
150.388,21.29508,-0.03239922,0.309,1.02345
150.488,21.3047,-0.03284124,0.30875,1.0234
150.588,21.3143,-0.03319493,0.30805,1.02335
150.688,21.32398,-0.03311217,0.3088,1.0233
150.788,21.333679999999998,-0.03313487,0.30925,1.02324
150.888,21.343339999999998,-0.03312892,0.31009000000000003,1.02319
150.988,21.352970000000003,-0.03312944,0.30961,1.02314
151.088,21.36261,-0.03313302,0.30898000000000003,1.02309
151.188,21.372320000000002,-0.0331193,0.3098,1.02304
151.288,21.38195,-0.03317253,0.30949,1.02299
151.388,21.39162,-0.0336279,0.30918,1.02294
151.488,21.40127,-0.03417987,0.308,1.0228899999999999
151.588,21.41093,-0.0340806,0.31062,1.02284
151.688,21.42061,-0.03420702,0.30983,1.0227899999999999
151.788,21.43025,-0.03523811,0.31162,1.02274
151.888,21.43996,-0.03600067,0.31168,1.0226899999999999
151.988,21.44962,-0.03598809,0.3115,1.02264
152.088,21.45926,-0.03664972,0.31116,1.0225899999999999
152.188,21.46889,-0.03751245,0.31228,1.02254
152.288,21.47857,-0.03748849,0.31288,1.02249
152.388,21.48818,-0.0386228,0.31306999999999996,1.02243
152.488,21.49784,-0.03871214,0.31298000000000004,1.0223799999999998
152.588,21.50743,-0.03795911,0.31053000000000003,1.02233
152.688,21.51696,-0.03868414,0.31296999999999997,1.0222799999999999
152.788,21.52657,-0.03937086,0.31411999999999995,1.02223
152.888,21.536179999999998,-0.03928048,0.31233,1.0221799999999999
152.988,21.54581,-0.04011493,0.31164000000000003,1.02213
153.088,21.55547,-0.04076561,0.31351999999999997,1.0220799999999999
153.188,21.56512,-0.04143935,0.31411999999999995,1.02203
153.288,21.57474,-0.04248124,0.31361,1.0219799999999999
153.388,21.58438,-0.04330747,0.31303000000000003,1.02193
153.488,21.593989999999998,-0.04359983,0.31404,1.02188
153.588,21.6036,-0.04352989,0.31601,1.02183
153.688,21.6132,-0.04355634,0.31484,1.02178
153.788,21.62274,-0.04268414,0.31292,1.02173
153.888,21.6323,-0.04174428,0.31349,1.02168
153.988,21.64183,-0.041543,0.31486,1.02162
154.088,21.65137,-0.04029692,0.31506,1.02157
154.188,21.66089,-0.03959458,0.31383,1.02152
154.288,21.67043,-0.03801681,0.31374,1.02147
154.388,21.67995,-0.03695631,0.31365,1.02142
154.488,21.68944,-0.03540818,0.31456999999999996,1.0213700000000001
154.588,21.698970000000003,-0.03513008,0.31401999999999997,1.02132
154.688,21.70849,-0.03352957,0.31354,1.0212700000000001
154.788,21.71811,-0.03347491,0.31213,1.02122
154.888,21.72781,-0.03261519,0.31373,1.0211700000000001
154.988,21.73736,-0.03205183,0.31298000000000004,1.02112
155.088,21.746879999999997,-0.03202338,0.31288,1.0210700000000001
155.188,21.75645,-0.03203213,0.31383,1.02102
155.288,21.76605,-0.03202935,0.31246,1.0209700000000002
155.388,21.77569,-0.0320302,0.31245,1.02092
155.488,21.78529,-0.03202994,0.31379,1.0208700000000002
155.588,21.7949,-0.03203002,0.31449,1.02081
155.688,21.80453,-0.03203,0.31369,1.0207600000000001
155.788,21.81413,-0.03203,0.31345,1.02071
155.888,21.82377,-0.03203,0.31436,1.0206600000000001
155.988,21.83343,-0.03203,0.31364000000000003,1.02061
156.088,21.84309,-0.03203,0.31395,1.0205600000000001
156.188,21.852729999999998,-0.03203001,0.31527,1.02051
156.288,21.862389999999998,-0.03202998,0.31537,1.0204600000000001
156.388,21.87211,-0.03203009,0.31686,1.02041
156.488,21.8818,-0.03202971,0.31616,1.02036
156.588,21.89153,-0.03203096,0.31506999999999996,1.02031
156.688,21.90118,-0.032027,0.31508,1.02026
156.788,21.91086,-0.03203929,0.31456999999999996,1.02021
156.888,21.92051,-0.03200328,0.31601999999999997,1.02016
156.988,21.930220000000002,-0.03210679,0.3133,1.02011
157.088,21.93988,-0.03304698,0.3129,1.02006
157.188,21.94959,-0.03300706,0.3172,1.02
157.288,21.95929,-0.03300678,0.31688,1.01995
157.388,21.96889,-0.0323835,0.31522,1.0199
157.488,21.97847,-0.03172373,0.31622,1.01985
157.588,21.98809,-0.03168992,0.318,1.0198
157.688,21.9977,-0.03170381,0.3176,1.01975
157.788,22.00729,-0.03169864,0.31594,1.0197
157.888,22.01683,-0.03170046,0.31653000000000003,1.01965
157.988,22.02639,-0.03169985,0.31587,1.0196
158.088,22.03601,-0.03170005,0.31647,1.01955
158.188,22.04559,-0.03169998,0.31754,1.0195
158.288,22.05518,-0.03170001,0.3151,1.01945
158.388,22.064770000000003,-0.03169996,0.31563,1.0194
158.488,22.07434,-0.03170013,0.31706999999999996,1.01935
158.588,22.08391,-0.03169956,0.3174,1.0193
158.688,22.09348,-0.03170155,0.31631,1.01925
158.788,22.103070000000002,-0.03169472,0.31468,1.0192
158.888,22.11264,-0.03171784,0.31678,1.01915
158.988,22.122220000000002,-0.03164196,0.31664000000000003,1.01909
159.088,22.131829999999997,-0.03190825,0.3161,1.01904
159.188,22.14136,-0.03283096,0.31798000000000004,1.01899
159.288,22.15094,-0.03301307,0.31706999999999996,1.01894
159.388,22.1605,-0.03301549,0.31799,1.01889
159.488,22.17005,-0.03299435,0.3175,1.01884
159.588,22.17967,-0.03304176,0.31924,1.0187899999999999
159.688,22.1893,-0.03401023,0.31937,1.01874
159.788,22.19882,-0.03432163,0.31863,1.0186899999999999
159.888,22.2084,-0.03464281,0.31951,1.01864
159.988,22.217979999999997,-0.03466737,0.32005,1.0185899999999999
160.088,22.22759,-0.0346573,0.31894,1.01854
160.188,22.23722,-0.03466091,0.31774,1.01849
160.288,22.246879999999997,-0.03465971,0.31883,1.01844
160.388,22.256520000000002,-0.03466009,0.32024,1.01839
160.488,22.26611,-0.03465997,0.31825,1.01834
160.588,22.27575,-0.03466001,0.31769000000000003,1.01829
160.688,22.28533,-0.03466,0.3173,1.01823
160.788,22.29491,-0.03466,0.31923,1.0181799999999999
160.888,22.30451,-0.03466,0.31995,1.01813
160.988,22.31413,-0.03466,0.31992,1.0180799999999999
161.088,22.32378,-0.03466,0.32014000000000004,1.01803
161.188,22.33341,-0.03466,0.31956999999999997,1.0179799999999999
161.288,22.34307,-0.03466,0.3209,1.01793
161.388,22.352729999999998,-0.03466,0.32237,1.01788
161.488,22.36234,-0.03465999,0.32204,1.01783
161.588,22.37186,-0.03466003,0.32014000000000004,1.01778
161.688,22.381339999999998,-0.03465992,0.32158000000000003,1.01773
161.788,22.39084,-0.03466022,0.32244,1.01768
161.888,22.40044,-0.0346594,0.32183,1.01763
161.988,22.41011,-0.03466161,0.3207,1.01758
162.088,22.419710000000002,-0.0346567,0.32216,1.0175299999999998
162.188,22.42933,-0.03466346,0.3228,1.01748
162.288,22.43897,-0.03498582,0.32001,1.0174299999999998
162.388,22.44858,-0.03499365,0.32121,1.01738
162.488,22.45812,-0.03498818,0.32216999999999996,1.01732
162.588,22.46772,-0.0349907,0.32122,1.0172700000000001
162.688,22.47733,-0.03498976,0.32206999999999997,1.01722
162.788,22.48688,-0.03499008,0.32276,1.0171700000000001
162.888,22.49652,-0.03498998,0.32123,1.01712
162.988,22.506120000000003,-0.03499001,0.32216,1.0170700000000001
163.088,22.51575,-0.03499,0.32416999999999996,1.01702
163.188,22.525370000000002,-0.03499,0.32372,1.0169700000000002
163.288,22.534979999999997,-0.03499001,0.32352,1.01692
163.388,22.544610000000002,-0.03498996,0.32298000000000004,1.0168700000000002
163.488,22.55419,-0.03499015,0.32183,1.01682
163.588,22.56375,-0.03498949,0.32298000000000004,1.0167700000000002
163.688,22.57331,-0.03499176,0.32366,1.01672
163.788,22.58286,-0.03498407,0.32261,1.01667
163.888,22.59253,-0.0350224,0.32211,1.01662
163.988,22.60226,-0.03562716,0.32272,1.01657
164.088,22.61186,-0.03638936,0.32414,1.01652
164.188,22.621489999999998,-0.0362776,0.32382,1.01647
164.288,22.63106,-0.03630549,0.3235,1.01642
164.388,22.640520000000002,-0.03629884,0.32179,1.01636
164.488,22.65012,-0.03630024,0.32497,1.01631
164.588,22.65974,-0.03629995,0.32503000000000004,1.01626
164.688,22.66937,-0.03630001,0.32382,1.01621
164.788,22.67899,-0.03630002,0.32535,1.01616
164.888,22.68864,-0.03629981,0.3237,1.01611
164.988,22.698339999999998,-0.03630106,0.3244,1.01606
165.088,22.70794,-0.03629449,0.32378,1.01601
165.188,22.717589999999998,-0.03632442,0.32621,1.01596
165.288,22.727220000000003,-0.0360226,0.32653000000000004,1.01591
165.388,22.73684,-0.03595407,0.32647,1.01586
165.488,22.74644,-0.03597349,0.32681,1.01581
165.588,22.75599,-0.03597529,0.32545,1.01576
165.688,22.76556,-0.03585792,0.32556,1.0157100000000001
165.788,22.77516,-0.03500541,0.3266,1.01566
165.888,22.784860000000002,-0.03458121,0.32642,1.0156100000000001
165.988,22.79466,-0.03468209,0.32578,1.01556
166.088,22.8043,-0.03465357,0.32664,1.0155100000000001
166.188,22.81381,-0.03466181,0.32482,1.01546
166.288,22.82335,-0.03465951,0.32415,1.0154
166.388,22.8329,-0.0346601,0.32737,1.01535
166.488,22.842570000000002,-0.03466006,0.32738,1.0153
166.588,22.85228,-0.03465968,0.32588,1.01525
166.688,22.861829999999998,-0.03466107,0.32561999999999997,1.0152
166.788,22.87131,-0.0346568,0.3279,1.01515
166.888,22.880770000000002,-0.0346686,0.32605,1.0151
166.988,22.89034,-0.03463741,0.32528,1.01505
167.088,22.89985,-0.03470701,0.32732,1.015
167.188,22.90943,-0.03566715,0.32708000000000004,1.01495
167.288,22.91897,-0.03596825,0.32802,1.0149
167.388,22.9285,-0.03690273,0.32866,1.01485
167.488,22.93805,-0.0372836,0.32795,1.0148
167.588,22.94761,-0.0372923,0.32802,1.01475
167.688,22.957160000000002,-0.03728921,0.32824000000000003,1.0147
167.788,22.96675,-0.03729018,0.32709,1.01465
167.888,22.976329999999997,-0.03729024,0.32661999999999997,1.0146
167.988,22.98593,-0.03728877,0.32771,1.01455
168.088,22.9955,-0.03729478,0.32878,1.0145
168.188,23.00508,-0.03727231,0.32888,1.01444
168.288,23.01468,-0.03735488,0.32719000000000004,1.01439
168.388,23.02429,-0.03696818,0.32678,1.01434
168.488,23.03389,-0.03649695,0.32855,1.01429
168.588,23.043470000000003,-0.0369248,0.32936,1.01424
168.688,23.05305,-0.03735634,0.32909,1.01419
168.788,23.062620000000003,-0.03727247,0.32826,1.01414
168.888,23.07225,-0.03729456,0.32785,1.01409
168.988,23.08194,-0.03728883,0.32788,1.01404
169.088,23.091639999999998,-0.0372903,0.32815,1.01399
169.188,23.10118,-0.03728993,0.33059,1.01394
169.288,23.11076,-0.03729,0.32964,1.01389
169.388,23.1203,-0.03729003,0.33016999999999996,1.01384
169.488,23.12995,-0.03728991,0.33035,1.01379
169.588,23.13953,-0.03729015,0.33115,1.0137399999999999
169.688,23.149079999999998,-0.03729012,0.33114,1.01369
169.788,23.15867,-0.03728745,0.32879,1.0136399999999999
169.888,23.1683,-0.03730553,0.33234,1.01359
169.988,23.17793,-0.03699086,0.33066,1.0135399999999999
170.088,23.18758,-0.03694932,0.33065,1.01349
170.188,23.19719,-0.03696354,0.32937,1.0134299999999998
170.288,23.2068,-0.0369594,0.33228,1.01338
170.388,23.21637,-0.03695796,0.33132,1.0133299999999998
170.488,23.22598,-0.03696921,0.3333,1.01328
170.588,23.23558,-0.03692441,0.33291,1.0132299999999999
170.688,23.24519,-0.03716463,0.3316,1.01318
170.788,23.25478,-0.0373206,0.33191,1.0131299999999999
170.888,23.26437,-0.03728133,0.33207,1.01308
170.988,23.274,-0.03729256,0.3317,1.0130299999999999
171.088,23.28359,-0.03728885,0.33154,1.01298
171.188,23.29317,-0.03729182,0.33245,1.0129299999999999
171.288,23.30275,-0.03728446,0.33229000000000003,1.01288
171.388,23.3124,-0.03730842,0.33127,1.01283
171.488,23.322039999999998,-0.037221,0.33121,1.01278
171.588,23.33164,-0.03687937,0.33261999999999997,1.01273
171.688,23.34121,-0.03712222,0.3336,1.01268
171.788,23.35086,-0.0380688,0.33339,1.01263
171.888,23.36046,-0.03828828,0.33275,1.01258
171.988,23.370070000000002,-0.03826956,0.33143,1.01253
172.088,23.37966,-0.03792841,0.33405,1.0124799999999998
172.188,23.389229999999998,-0.03729755,0.33288,1.01243
172.288,23.39881,-0.03729632,0.33437,1.01237
172.388,23.408379999999998,-0.03730231,0.33488,1.01232
172.488,23.41798,-0.03729903,0.3341,1.01227
172.588,23.42755,-0.03730037,0.33449,1.0122200000000001
172.688,23.43713,-0.03729988,0.33366,1.01217
172.788,23.44674,-0.03730004,0.33401,1.0121200000000001
172.888,23.45634,-0.03729999,0.33402,1.01207
172.988,23.46594,-0.03730001,0.33644,1.0120200000000001
173.088,23.47553,-0.0373,0.33595,1.01197
173.188,23.48508,-0.0373,0.33344,1.0119200000000002
173.288,23.49468,-0.0373,0.33387,1.01187
173.388,23.50427,-0.03729999,0.33435,1.0118200000000002
173.488,23.51386,-0.03730003,0.33395,1.01177
173.588,23.52346,-0.03729989,0.3325,1.0117200000000002
173.688,23.53303,-0.03730038,0.33412,1.01167
173.788,23.54262,-0.03729872,0.33683,1.01162
173.888,23.55218,-0.03730419,0.33583,1.01157
173.988,23.56172,-0.03728682,0.33676999999999996,1.01152
174.088,23.571260000000002,-0.03733967,0.33453,1.01147
174.188,23.5808,-0.03718311,0.3371,1.01142
174.288,23.590310000000002,-0.03622356,0.3377,1.01137
174.388,23.5999,-0.03597735,0.33605999999999997,1.01131
174.488,23.60951,-0.03598026,0.33613000000000004,1.01126
174.588,23.6191,-0.03597995,0.33576,1.01121
174.688,23.62864,-0.035982,0.33754,1.01116
174.788,23.6382,-0.03572385,0.33547,1.01111
174.888,23.64777,-0.03476625,0.33752,1.01106
174.988,23.65737,-0.03463694,0.33691,1.01101
175.088,23.66695,-0.03468081,0.33797,1.01096
175.188,23.67651,-0.03466818,0.33702,1.01091
175.288,23.68606,-0.03466387,0.33579000000000003,1.01086
175.388,23.695629999999998,-0.03478638,0.33564,1.01081
175.488,23.705170000000003,-0.03563421,0.33693,1.01076
175.588,23.71473,-0.03606202,0.3366,1.01071
175.688,23.72429,-0.03595641,0.33604,1.0106600000000001
175.788,23.73384,-0.03598658,0.33752,1.01061
175.888,23.74342,-0.03597819,0.33808,1.0105600000000001
175.988,23.75301,-0.03598049,0.33752,1.01051
176.088,23.76259,-0.03597987,0.3364,1.0104600000000001
176.188,23.77216,-0.03598003,0.33586,1.01041
176.288,23.78175,-0.03597999,0.33731,1.0103600000000001
176.388,23.7913,-0.03598,0.33762,1.01031
176.488,23.80089,-0.03598,0.33671,1.01026
176.588,23.81041,-0.03598,0.33594,1.0102
176.688,23.81994,-0.03598,0.33848,1.01015
176.788,23.82947,-0.03598,0.33707,1.0101
176.888,23.83902,-0.03598,0.33713000000000004,1.01005
176.988,23.84864,-0.03598,0.33601,1.01
177.088,23.85821,-0.03598,0.33653,1.00995
177.188,23.8677,-0.03598,0.33629000000000003,1.0099
177.288,23.87725,-0.03598,0.33638,1.00985
177.388,23.8868,-0.03598001,0.33813000000000004,1.0098
177.488,23.89635,-0.03597997,0.33907,1.00975
177.588,23.905929999999998,-0.03598013,0.33826,1.0097
177.688,23.91549,-0.03597951,0.33793,1.00965
177.788,23.92504,-0.03598183,0.33655,1.0096
177.888,23.93459,-0.03597332,0.33837,1.00955
177.988,23.94417,-0.03600382,0.33876999999999996,1.0095
178.088,23.95374,-0.0358956,0.3377,1.00945
178.188,23.963260000000002,-0.03633732,0.3378,1.0094
178.288,23.97281,-0.03717749,0.3368,1.00935
178.388,23.98238,-0.0372979,0.3378,1.0093
178.488,23.99195,-0.03728608,0.33801,1.00925
178.588,24.00156,-0.03729698,0.3386,1.0092
178.688,24.01115,-0.03727011,0.33975,1.00915
178.788,24.02072,-0.03734952,0.34008,1.0091
178.888,24.03025,-0.03804058,0.33981,1.00904
178.988,24.03987,-0.03862899,0.34009,1.00899
179.088,24.04942,-0.03860805,0.33886,1.00894
179.188,24.05893,-0.03860968,0.34042,1.00889
179.288,24.06844,-0.03860797,0.33766999999999997,1.00884
179.388,24.07799,-0.0386237,0.34171,1.0087899999999999
179.488,24.08757,-0.03854553,0.33987,1.00874
179.588,24.097179999999998,-0.03939012,0.34194,1.0086899999999999
179.688,24.1068,-0.03999749,0.33959,1.00864
179.788,24.11638,-0.04001286,0.33899,1.0085899999999999
179.888,24.125970000000002,-0.04034269,0.34126999999999996,1.00854
179.988,24.135579999999997,-0.04172709,0.33966,1.0084899999999999
180.088,24.14516,-0.04256432,0.33989,1.00844
180.188,24.15472,-0.04250572,0.34226999999999996,1.00839
180.288,24.164260000000002,-0.04283158,0.3399,1.00834
180.388,24.17386,-0.04359359,0.33863000000000004,1.00829
180.488,24.18346,-0.0439324,0.34073000000000003,1.00824
180.588,24.192989999999998,-0.04386585,0.34208,1.00819
180.688,24.20255,-0.04388367,0.34198,1.00814
180.788,24.2121,-0.04387932,0.34121999999999997,1.00809
180.888,24.221629999999998,-0.04387932,0.34358,1.00804
180.988,24.23118,-0.04388271,0.34343,1.00799
181.088,24.24073,-0.04387218,0.34306,1.00794
181.188,24.25023,-0.04389902,0.34392,1.0078799999999999
181.288,24.25984,-0.04383749,0.34394,1.00783
181.388,24.26945,-0.04286726,0.3427,1.00778
181.488,24.27904,-0.0425606,0.34349,1.00773
181.588,24.2886,-0.04255799,0.34165,1.00768
181.688,24.29814,-0.0425686,0.34149,1.00763
181.788,24.30767,-0.0423162,0.34001,1.00758
181.888,24.31718,-0.04166238,0.34252,1.00753
181.988,24.32674,-0.04154681,0.34265,1.00748
182.088,24.33633,-0.04155497,0.34404,1.0074299999999998
182.188,24.345879999999998,-0.04166222,0.34434000000000003,1.00738
182.288,24.35543,-0.04097073,0.34371999999999997,1.0073299999999998
182.388,24.36501,-0.04030578,0.34243,1.00728
182.488,24.37461,-0.04025366,0.34213000000000005,1.0072299999999998
182.588,24.38416,-0.04026179,0.34317,1.00718
182.688,24.39368,-0.04025961,0.34312,1.0071299999999999
182.788,24.40326,-0.04025971,0.34304,1.00708
182.888,24.41282,-0.04026141,0.34335,1.0070299999999999
182.988,24.42239,-0.04025523,0.34303,1.00698
183.088,24.43194,-0.04027537,0.34313,1.0069299999999999
183.188,24.44151,-0.04021242,0.34431,1.00688
183.288,24.45111,-0.04041428,0.34448,1.00683
183.388,24.46066,-0.04181773,0.34271999999999997,1.00678
183.488,24.4702,-0.04294276,0.34309,1.00673
183.588,24.47973,-0.04288154,0.3433,1.0066700000000002
183.688,24.48926,-0.04289039,0.34386,1.00662
183.788,24.49885,-0.04289039,0.34291,1.00657
183.888,24.50841,-0.04288974,0.34431999999999996,1.00652
183.988,24.51801,-0.04289012,0.34578000000000003,1.00647
184.088,24.527639999999998,-0.04288995,0.34571,1.00642
184.188,24.5372,-0.04289004,0.3458,1.00637
184.288,24.54673,-0.04288988,0.34609,1.00632
184.388,24.556279999999997,-0.04289048,0.3457,1.00627
184.488,24.565839999999998,-0.04288815,0.3442,1.0062200000000001
184.588,24.57538,-0.04289702,0.3438,1.00617
184.688,24.5849,-0.04280166,0.34334000000000003,1.0061200000000001
184.788,24.59447,-0.04200318,0.34204,1.00607
184.888,24.604039999999998,-0.04148842,0.34458,1.0060200000000001
184.988,24.61359,-0.04160535,0.34672,1.00597
185.088,24.62315,-0.04157301,0.34657,1.0059200000000001
185.188,24.63268,-0.04158194,0.3468,1.00587
185.288,24.64227,-0.04157921,0.34476,1.0058200000000002
185.388,24.65183,-0.04158112,0.34558,1.00577
185.488,24.66137,-0.04157696,0.34648,1.0057200000000002
185.588,24.671020000000002,-0.04158926,0.34444,1.00567
185.688,24.68061,-0.04155369,0.3459,1.0056200000000002
185.788,24.69023,-0.04165056,0.34439000000000003,1.00557
185.888,24.69985,-0.0426132,0.34518000000000004,1.00552
185.988,24.70938,-0.04289108,0.34365999999999997,1.00546
186.088,24.71896,-0.04289106,0.34443,1.0054100000000001
186.188,24.72855,-0.0428814,0.34585,1.00536
186.288,24.738039999999998,-0.0429424,0.34474,1.00531
186.388,24.74761,-0.04205415,0.3455,1.00526
186.488,24.75713,-0.04159317,0.34408,1.00521
186.588,24.76669,-0.04157669,0.34556,1.00516
186.688,24.77626,-0.04158059,0.3463,1.00511
186.788,24.78581,-0.04158161,0.34697,1.00506
186.888,24.795379999999998,-0.04157279,0.34636,1.00501
186.988,24.80497,-0.04167143,0.34621,1.00496
187.088,24.81456,-0.04247561,0.34506,1.00491
187.188,24.824089999999998,-0.04298106,0.3447,1.00486
187.288,24.83364,-0.04286536,0.3472,1.00481
187.388,24.84326,-0.04289544,0.3494,1.00476
187.488,24.85278,-0.04289307,0.34807,1.00471
187.588,24.86228,-0.04287464,0.34552,1.00466
187.688,24.87186,-0.04294062,0.3467,1.00461
187.788,24.88136,-0.04272555,0.34741,1.0045600000000001
187.888,24.8908,-0.0417931,0.34805,1.00451
187.988,24.90033,-0.04157584,0.34603,1.0044600000000001
188.088,24.90987,-0.04158067,0.34636999999999996,1.00441
188.188,24.919439999999998,-0.04158,0.34681999999999996,1.0043600000000001
188.288,24.92892,-0.04158024,0.34945,1.00431
188.388,24.93844,-0.0415774,0.34868000000000005,1.00426
188.488,24.94802,-0.04159417,0.34724,1.0042
188.588,24.95755,-0.04131745,0.34805,1.00415
188.688,24.96714,-0.04096129,0.34986999999999996,1.0041
188.788,24.97673,-0.04090734,0.34883000000000003,1.00405
188.888,24.98634,-0.04092396,0.34807,1.004
188.988,24.99595,-0.04091879,0.34793,1.00395
189.088,25.00555,-0.04092036,0.34888,1.0039
189.188,25.01511,-0.0409199,0.34828000000000003,1.00385
189.288,25.02469,-0.04092,0.34859,1.0038
189.388,25.03431,-0.04092012,0.34924,1.00375
189.488,25.0439,-0.04091955,0.34829,1.0037
189.588,25.05347,-0.04092158,0.3484,1.00365
189.688,25.06311,-0.04091458,0.3498,1.0036
189.788,25.072779999999998,-0.04093875,0.34952,1.00355
189.888,25.08239,-0.04085689,0.34815,1.0035
189.988,25.092029999999998,-0.04114929,0.34899,1.00345
190.088,25.10172,-0.04207025,0.34939000000000003,1.0034
190.188,25.111279999999997,-0.04223409,0.34976999999999997,1.00335
190.288,25.12087,-0.04223323,0.34919,1.0033
190.388,25.13048,-0.04221764,0.34847,1.00325
190.488,25.1401,-0.04226312,0.34721,1.0032
190.588,25.14967,-0.04293158,0.34875,1.00315
190.688,25.15924,-0.04354216,0.34776999999999997,1.0031
190.788,25.168779999999998,-0.04354327,0.34798,1.00305
190.888,25.1784,-0.04353815,0.34862,1.003
190.988,25.18786,-0.04354091,0.35123000000000004,1.00294
191.088,25.19728,-0.04353963,0.34953,1.00289
191.188,25.206670000000003,-0.04354013,0.34996,1.00284
191.288,25.21615,-0.04353996,0.35062,1.00279
191.388,25.22569,-0.04354001,0.34973000000000004,1.00274
191.488,25.23525,-0.04354,0.34941,1.0026899999999999
191.588,25.24482,-0.04354,0.35026,1.00264
191.688,25.254379999999998,-0.04353999,0.35008,1.0025899999999999
191.788,25.263920000000002,-0.04354003,0.34986999999999996,1.00254
191.888,25.273429999999998,-0.04353989,0.35105,1.0024899999999999
191.988,25.28295,-0.04354038,0.3504,1.00244
192.088,25.29247,-0.04353874,0.34962,1.00239
192.188,25.30199,-0.04354402,0.35172,1.00234
192.288,25.3115,-0.04352774,0.35217,1.00229
192.388,25.32102,-0.04357755,0.35033000000000003,1.00224
192.488,25.33055,-0.04392564,0.34969,1.00219
192.588,25.340120000000002,-0.04421682,0.35231,1.00214
192.688,25.3497,-0.04418918,0.3513,1.00209
192.788,25.35928,-0.04420646,0.34969,1.00204
192.888,25.36882,-0.04516072,0.35079,1.00199
192.988,25.378429999999998,-0.04551632,0.35301,1.00194
193.088,25.38792,-0.0455216,0.35122,1.00189
193.188,25.39757,-0.04551983,0.35012,1.00184
193.288,25.407239999999998,-0.04551845,0.35068,1.00179
193.388,25.41695,-0.04552696,0.35063,1.0017399999999999
193.488,25.42654,-0.04535912,0.35079,1.00169
193.588,25.43609,-0.04447499,0.35154,1.00163
193.688,25.44567,-0.04408292,0.35086,1.00158
193.788,25.45525,-0.04460264,0.34856,1.00153
193.888,25.46483,-0.04513384,0.35053,1.00148
193.988,25.474439999999998,-0.04511725,0.35213,1.0014299999999998
194.088,25.48402,-0.04561397,0.35311,1.00138
194.188,25.493570000000002,-0.04646403,0.35211,1.0013299999999998
194.288,25.50311,-0.04662822,0.35063,1.00128
194.388,25.5127,-0.04662145,0.35373000000000004,1.0012299999999998
194.488,25.52236,-0.04732758,0.35297,1.00118
194.588,25.53199,-0.04826123,0.35201,1.0011299999999999
194.688,25.54162,-0.04812904,0.35370999999999997,1.00108
194.788,25.55122,-0.04813242,0.35324,1.0010299999999999
194.888,25.56082,-0.04822393,0.35286999999999996,1.00098
194.988,25.57037,-0.04888065,0.3527,1.0009299999999999
195.088,25.57985,-0.04914646,0.35357,1.00088
195.188,25.58943,-0.04913826,0.35223000000000004,1.0008299999999999
195.288,25.59892,-0.04913629,0.35263,1.00078
195.388,25.60838,-0.04917881,0.35381,1.00073
195.488,25.61787,-0.04827871,0.35348,1.00068
195.588,25.62735,-0.04784183,0.3541,1.00063
195.688,25.63695,-0.04782529,0.35441999999999996,1.00058
195.788,25.64657,-0.04783738,0.3536,1.00053
195.888,25.65611,-0.04780431,0.35429,1.00048
195.988,25.66566,-0.04792697,0.35616,1.00043
196.088,25.67524,-0.04724642,0.35612,1.0003799999999998
196.188,25.68479,-0.04655838,0.35545,1.00032
196.288,25.6944,-0.04650736,0.35438000000000003,1.00027
196.388,25.70407,-0.04649914,0.35381999999999997,1.00022
196.488,25.713720000000002,-0.04655432,0.35331999999999997,1.00017
196.588,25.72331,-0.04630583,0.35216,1.0001200000000001
196.688,25.732870000000002,-0.04554879,0.35226,1.00007
196.788,25.74246,-0.04514058,0.35263,1.0000200000000001
196.888,25.75198,-0.04519538,0.35359,0.99997
196.988,25.76151,-0.04521115,0.35441,0.99992
197.088,25.771060000000002,-0.04511428,0.35385,0.99987
197.188,25.78069,-0.04440502,0.35473000000000005,0.99982
197.288,25.79039,-0.04385019,0.3545,0.99977
197.388,25.799960000000002,-0.04388559,0.35520999999999997,0.99972
197.488,25.80965,-0.04387904,0.35245,0.9996700000000001
197.588,25.81935,-0.0438801,0.35444000000000003,0.9996200000000001
197.688,25.82902,-0.04388002,0.35291,0.9995700000000001
197.788,25.838720000000002,-0.04387998,0.35302,0.9995200000000001
197.888,25.84829,-0.04388001,0.355,0.9994700000000001
197.988,25.85791,-0.04388,0.35412,0.9994200000000001
198.088,25.86755,-0.04388,0.35365,0.9993700000000001
198.188,25.87709,-0.04388,0.35620999999999997,0.9993200000000001
198.288,25.88666,-0.04388,0.35509,0.9992700000000001
198.388,25.89627,-0.04388,0.35326,0.9992200000000001
198.488,25.905820000000002,-0.04388,0.35477,0.9991700000000001
198.588,25.91535,-0.04388,0.35453,0.9991200000000001
198.688,25.924870000000002,-0.04388,0.35508,0.9990700000000001
198.788,25.93443,-0.04388,0.35557,0.9990100000000001
198.888,25.944,-0.04388,0.35366,0.9989600000000001
198.988,25.95356,-0.04388,0.35453,0.9989100000000001
199.088,25.963160000000002,-0.04388,0.35519,0.9988600000000001
199.188,25.97277,-0.04388001,0.35393,0.9988100000000001
199.288,25.982310000000002,-0.04387998,0.35581999999999997,0.99876
199.388,25.991870000000002,-0.04388006,0.35615,0.99871
199.488,26.00143,-0.04387983,0.35357,0.99866
199.588,26.01101,-0.04388051,0.35281999999999997,0.99861
199.688,26.0206,-0.04387858,0.35401,0.99856
199.788,26.03019,-0.04388368,0.35331,0.99851
199.888,26.03978,-0.04387221,0.35468,0.99846
199.988,26.04936,-0.0438888,0.35427,0.99841
200.088,26.05896,-0.04453202,0.35503,0.99836
200.188,26.06851,-0.0445357,0.3563,0.99831
200.288,26.07807,-0.04484053,0.35427,0.99826
200.388,26.08772,-0.04487632,0.35469,0.99821
200.488,26.0973,-0.04506432,0.35396,0.99816
200.588,26.10685,-0.04600651,0.3553,0.99811
200.688,26.11646,-0.04622876,0.35357,0.9980600000000001
200.788,26.126070000000002,-0.04617311,0.35486999999999996,0.9980100000000001
200.888,26.13566,-0.04615065,0.35519,0.9979600000000001
200.988,26.145220000000002,-0.04637783,0.35536999999999996,0.9979100000000001
201.088,26.15476,-0.04652989,0.3556,0.9978600000000001
201.188,26.16434,-0.04649151,0.35459,0.9978100000000001
201.288,26.17391,-0.04650241,0.35548,0.9977600000000001
201.388,26.18345,-0.04649934,0.35736999999999997,0.99771
201.488,26.19304,-0.04650018,0.35786,0.99765
201.588,26.20262,-0.04649996,0.35807,0.9976
201.688,26.21217,-0.0465,0.35838000000000003,0.99755
201.788,26.221740000000004,-0.04650004,0.35704,0.9975
201.888,26.23133,-0.04649987,0.3559,0.99745
201.988,26.24087,-0.04650037,0.35620999999999997,0.9974
202.088,26.25047,-0.04649897,0.3568,0.99735
202.188,26.26002,-0.04650241,0.3584,0.9973
202.288,26.269540000000003,-0.04649624,0.35822,0.99725
202.388,26.279090000000004,-0.04649748,0.35995,0.9972
202.488,26.288690000000003,-0.04712694,0.35933000000000004,0.99715
202.588,26.298270000000002,-0.04774476,0.35668,0.9971
202.688,26.30783,-0.04869974,0.35904,0.99705
202.788,26.317390000000003,-0.04912453,0.35806,0.997
202.888,26.326959999999996,-0.04914466,0.35893,0.99695
202.988,26.336479999999998,-0.04913847,0.35778000000000004,0.9969
203.088,26.346,-0.0491404,0.35775999999999997,0.99685
203.188,26.35561,-0.04914019,0.35843,0.9968
203.288,26.365190000000002,-0.04913876,0.35989,0.99675
203.388,26.374740000000003,-0.04914471,0.35899000000000003,0.9967
203.488,26.38431,-0.04912305,0.35953,0.99665
203.588,26.3939,-0.04920007,0.36114,0.9966
203.688,26.40348,-0.04887737,0.36023,0.99655
203.788,26.41307,-0.04836128,0.35991,0.9965
203.888,26.42267,-0.04868851,0.3594,0.99645
203.988,26.432240000000004,-0.04929618,0.35957,0.9964
204.088,26.4418,-0.04948626,0.36057,0.99634
204.188,26.45138,-0.04946594,0.36016,0.99629
204.288,26.46088,-0.04947094,0.36024,0.99624
204.388,26.47043,-0.0494698,0.36172,0.9961899999999999
204.488,26.479979999999998,-0.04947004,0.36215,0.9961399999999999
204.588,26.489520000000002,-0.04947,0.35995,0.9960899999999999
204.688,26.49902,-0.04947,0.36077,0.9960399999999999
204.788,26.508540000000004,-0.04947,0.35963,0.9959899999999999
204.888,26.51805,-0.04947,0.3609,0.9959399999999999
204.988,26.52758,-0.04947,0.36038000000000003,0.9958899999999999
205.088,26.53708,-0.04947,0.36027,0.99584
205.188,26.546609999999998,-0.04947,0.36017,0.99579
205.288,26.5562,-0.04947,0.36373,0.99574
205.388,26.56573,-0.04947,0.36373,0.99569
205.488,26.57525,-0.04947,0.36236999999999997,0.99564
205.588,26.58479,-0.04947,0.3618,0.99559
205.688,26.5943,-0.04947,0.36178,0.99554
205.788,26.6038,-0.04947,0.36218,0.99549
205.888,26.61331,-0.04947001,0.36344,0.99544
205.988,26.622840000000004,-0.04946996,0.36438000000000004,0.99539
206.088,26.63239,-0.04947012,0.36391,0.99534
206.188,26.641959999999997,-0.04946962,0.3657,0.99529
206.288,26.65147,-0.04947116,0.36605,0.99524
206.388,26.660970000000002,-0.04946672,0.36312,0.99519
206.488,26.67053,-0.04947898,0.36114,0.9951399999999999
206.588,26.680059999999997,-0.0494489,0.36325,0.9950899999999999
206.688,26.68962,-0.04913076,0.36429,0.9950399999999999
206.788,26.69915,-0.04913986,0.36486,0.99498
206.888,26.708679999999998,-0.04914767,0.36486,0.99493
206.988,26.718159999999997,-0.04909172,0.3652,0.9948799999999999
207.088,26.72774,-0.04998926,0.36349000000000004,0.9948299999999999
207.188,26.737340000000003,-0.05043785,0.36625,0.9947799999999999
207.288,26.746879999999997,-0.05045488,0.36622,0.9947299999999999
207.388,26.75648,-0.05044282,0.36724,0.9946799999999999
207.488,26.76598,-0.05057922,0.36564,0.9946299999999999
207.588,26.77549,-0.05145566,0.36761,0.9945799999999999
207.688,26.785059999999998,-0.05184901,0.36783000000000005,0.9945299999999999
207.788,26.794620000000002,-0.05174531,0.36605,0.9944799999999999
207.888,26.80422,-0.05178347,0.3664,0.9944299999999999
207.988,26.8138,-0.05174305,0.36573,0.9943799999999999
208.088,26.82333,-0.05185737,0.36604000000000003,0.9943299999999999
208.188,26.83287,-0.05142171,0.36726,0.9942799999999999
208.288,26.842409999999997,-0.05042286,0.36703,0.99423
208.388,26.85195,-0.05021539,0.36633000000000004,0.99418
208.488,26.86153,-0.05023363,0.36606,0.99413
208.588,26.871129999999997,-0.05022911,0.36726,0.99408
208.688,26.88069,-0.0502302,0.3653,0.99403
208.788,26.890290000000004,-0.05022995,0.3652,0.99398
208.888,26.89985,-0.05023002,0.36659,0.99393
208.988,26.9094,-0.05022998,0.36630999999999997,0.9938799999999999
209.088,26.91893,-0.05022993,0.3709,0.9938299999999999
209.188,26.928559999999997,-0.05023059,0.36830999999999997,0.9937799999999999
209.288,26.938109999999998,-0.05022644,0.36596999999999996,0.9937299999999999
209.388,26.94763,-0.05064819,0.36885999999999997,0.99367
209.488,26.95722,-0.05276547,0.36705,0.9936200000000001
209.588,26.96677,-0.05319309,0.36676,0.9935700000000001
209.688,26.97638,-0.05318515,0.3691,0.9935200000000001
209.788,26.98599,-0.05430677,0.36829,0.9934700000000001
209.888,26.99558,-0.05469931,0.36878,0.9934200000000001
209.988,27.005159999999997,-0.05468026,0.36835999999999997,0.9933700000000001
210.088,27.014670000000002,-0.05560636,0.36745,0.9933200000000001
210.188,27.0242,-0.05614196,0.36901999999999996,0.9932700000000001
210.288,27.03375,-0.05607674,0.36921,0.9932200000000001
210.388,27.0433,-0.05681739,0.36773,0.9931700000000001
210.488,27.052870000000002,-0.0574654,0.36761,0.9931200000000001
210.588,27.06243,-0.05734497,0.36835999999999997,0.9930700000000001
210.688,27.072,-0.05737654,0.36787,0.9930200000000001
210.788,27.0815,-0.05736839,0.36719,0.99297
210.888,27.09106,-0.05737039,0.3689,0.99292
210.988,27.100620000000003,-0.05736989,0.36846999999999996,0.99287
211.088,27.1102,-0.05737007,0.36766,0.99282
211.188,27.1198,-0.05736989,0.36738000000000004,0.99277
211.288,27.12942,-0.05737015,0.3702,0.99272
211.388,27.138920000000002,-0.05737052,0.36827,0.99267
211.488,27.14848,-0.05736507,0.36941,0.9926200000000001
211.588,27.15809,-0.05739679,0.36823,0.9925700000000001
211.688,27.16765,-0.05723993,0.36858,0.9925200000000001
211.788,27.1772,-0.05896437,0.3702,0.9924700000000001
211.888,27.186690000000002,-0.05996536,0.36651,0.9924200000000001
211.988,27.196209999999997,-0.06000628,0.36845,0.99236
212.088,27.20573,-0.06000439,0.3703,0.99231
212.188,27.21527,-0.05997495,0.36935,0.99226
212.288,27.224840000000004,-0.0600944,0.36693000000000003,0.99221
212.388,27.234409999999997,-0.05951416,0.36873,0.99216
212.488,27.244,-0.05873877,0.37041999999999997,0.99211
212.588,27.25355,-0.05871651,0.36946999999999997,0.99206
212.688,27.26305,-0.05849673,0.36903,0.9920100000000001
212.788,27.272579999999998,-0.0577519,0.36801999999999996,0.9919600000000001
212.888,27.2821,-0.0573206,0.36951,0.9919100000000001
212.988,27.29168,-0.05738219,0.3699,0.9918600000000001
213.088,27.301240000000004,-0.05736797,0.36906,0.9918100000000001
213.188,27.31076,-0.05736781,0.36883,0.9917600000000001
213.288,27.32027,-0.057377,0.37032,0.9917100000000001
213.388,27.3298,-0.05735537,0.36927,0.99166
213.488,27.3393,-0.05703724,0.372,0.99161
213.588,27.34893,-0.05703864,0.37201,0.99156
213.688,27.358520000000002,-0.05704095,0.37128,0.99151
213.788,27.368029999999997,-0.05704012,0.37068,0.99146
213.888,27.377540000000003,-0.05703705,0.3713,0.99141
213.988,27.387079999999997,-0.05705351,0.37382,0.99136
214.088,27.396729999999998,-0.05698574,0.37285,0.99131
214.188,27.4063,-0.05749816,0.3726,0.99126
214.288,27.415840000000003,-0.0579698,0.37088000000000004,0.99121
214.388,27.42541,-0.0580316,0.36933,0.99116
214.488,27.43495,-0.05801651,0.37077,0.9911
214.588,27.444540000000003,-0.05802121,0.37271,0.99105
214.688,27.454109999999996,-0.05801887,0.37251999999999996,0.991
214.788,27.46365,-0.05802302,0.37024,0.99095
214.888,27.47322,-0.0580098,0.37106999999999996,0.9909
214.988,27.48275,-0.05805403,0.37204,0.99085
215.088,27.492309999999996,-0.05788844,0.36961,0.9908
215.188,27.501859999999997,-0.05712094,0.37145,0.99075
215.288,27.51138,-0.05675825,0.37290999999999996,0.9907
215.388,27.520970000000002,-0.05752994,0.37205,0.99065
215.488,27.53057,-0.05806114,0.37215,0.9906
215.588,27.540090000000003,-0.05802398,0.37224,0.99055
215.688,27.549640000000004,-0.0580309,0.3732,0.9905
215.788,27.55919,-0.05802999,0.37339,0.99045
215.888,27.568759999999997,-0.05802994,0.37418,0.9904
215.988,27.57834,-0.05803003,0.37403000000000003,0.99035
216.088,27.58792,-0.05803003,0.37435,0.9903
216.188,27.597540000000002,-0.05802982,0.37481,0.99025
216.288,27.607029999999998,-0.05803085,0.37472,0.9902
216.388,27.61658,-0.05802654,0.37453000000000003,0.99015
216.488,27.626170000000002,-0.05804359,0.37449,0.9901
216.588,27.635720000000003,-0.0579775,0.37540999999999997,0.99005
216.688,27.64531,-0.05837861,0.37292,0.99
216.788,27.65486,-0.05912874,0.37309000000000003,0.98995
216.888,27.66443,-0.0593855,0.37467,0.9899
216.988,27.673990000000003,-0.05932708,0.37437,0.9898399999999999
217.088,27.68355,-0.05934357,0.37361,0.98979
217.188,27.69313,-0.05933903,0.37393000000000004,0.98974
217.288,27.702690000000004,-0.05934026,0.37485999999999997,0.98969
217.388,27.71228,-0.05933994,0.37468,0.98964
217.488,27.721890000000002,-0.05934,0.37654,0.98959
217.588,27.73143,-0.05934005,0.37573,0.98954
217.688,27.741,-0.05933983,0.37533,0.98949
217.788,27.7506,-0.05934049,0.37643000000000004,0.98944
217.888,27.76018,-0.05933874,0.37544,0.98939
217.988,27.76967,-0.05934225,0.3776,0.98934
218.088,27.77923,-0.05967497,0.37656,0.98929
218.188,27.78882,-0.06063864,0.37427,0.98924
218.288,27.79836,-0.06067395,0.37496999999999997,0.98919
218.388,27.807890000000004,-0.06065371,0.37506,0.9891399999999999
218.488,27.81751,-0.06066286,0.37577,0.9890899999999999
218.588,27.82708,-0.06065642,0.37744,0.9890399999999999
218.688,27.83667,-0.06067172,0.37624,0.9889899999999999
218.788,27.84625,-0.06061436,0.37761,0.9889399999999999
218.888,27.855790000000002,-0.06102887,0.37849,0.9888899999999999
218.988,27.86535,-0.06187733,0.37825,0.9888399999999999
219.088,27.87489,-0.06209938,0.3784,0.98879
219.188,27.88445,-0.06233038,0.37813,0.98874
219.288,27.89405,-0.06323923,0.37794,0.98869
219.388,27.90365,-0.06369024,0.37676,0.9886299999999999
219.488,27.913240000000002,-0.06361102,0.37589,0.9885799999999999
219.588,27.92282,-0.06358771,0.37772,0.9885299999999999
219.688,27.93239,-0.06376458,0.37936,0.9884799999999999
219.788,27.941990000000004,-0.06450088,0.37895,0.9884299999999999
219.888,27.95151,-0.0649772,0.37831,0.9883799999999999
219.988,27.961059999999996,-0.0649121,0.37768,0.9883299999999999
220.088,27.970640000000003,-0.06445258,0.37613,0.9882799999999999
220.188,27.980220000000003,-0.06360747,0.37867,0.9882299999999999
220.288,27.989759999999997,-0.06433824,0.37746999999999997,0.98818
220.388,27.999270000000003,-0.06494216,0.37642,0.98813
220.488,28.008840000000003,-0.06493773,0.37737,0.98808
220.588,28.018359999999998,-0.06497833,0.37882,0.98803
220.688,28.027859999999997,-0.06407043,0.37773,0.98798
220.788,28.03742,-0.06363108,0.37851,0.98793
220.888,28.04695,-0.06361437,0.3785,0.98788
220.988,28.0565,-0.06363156,0.37898000000000004,0.9878299999999999
221.088,28.06607,-0.06357837,0.37743000000000004,0.9877799999999999
221.188,28.075640000000003,-0.06386779,0.37646999999999997,0.9877299999999999
221.288,28.08519,-0.06388057,0.37765,0.9876799999999999
221.388,28.094759999999997,-0.06447156,0.37866,0.9876299999999999
221.488,28.10432,-0.06521137,0.38024,0.9875799999999999
221.588,28.11386,-0.0652759,0.38085,0.9875299999999999
221.688,28.12343,-0.0652684,0.37981,0.9874799999999999
221.788,28.13298,-0.06527034,0.37976,0.9874200000000001
221.888,28.1425,-0.06527023,0.38008000000000003,0.9873700000000001
221.988,28.15205,-0.06526892,0.37848000000000004,0.9873200000000001
222.088,28.161659999999998,-0.06527351,0.37867,0.9872700000000001
222.188,28.17127,-0.06525596,0.38206999999999997,0.9872200000000001
222.288,28.180790000000002,-0.06478777,0.38014000000000003,0.9871700000000001
222.388,28.19033,-0.06389396,0.382,0.9871200000000001
222.488,28.19994,-0.06396636,0.38061999999999996,0.9870700000000001
222.588,28.20952,-0.06393856,0.37937,0.9870200000000001
222.688,28.21906,-0.06330007,0.37864000000000003,0.9869700000000001
222.788,28.228509999999996,-0.06262047,0.37861,0.98692
222.888,28.23797,-0.06348993,0.37972,0.98687
222.988,28.24742,-0.06404928,0.38061,0.98682
223.088,28.256790000000002,-0.0640199,0.38201,0.98677
223.188,28.26632,-0.06448473,0.37982,0.98672
223.288,28.275890000000004,-0.06522578,0.38144,0.98667
223.388,28.285429999999998,-0.06539479,0.38053000000000003,0.98662
223.488,28.295,-0.06540701,0.37856,0.9865700000000001
223.588,28.304579999999998,-0.06509319,0.38001999999999997,0.9865200000000001
223.688,28.31415,-0.06426648,0.38183,0.9864700000000001
223.788,28.32367,-0.06422816,0.38138,0.9864200000000001
223.888,28.333170000000003,-0.06504813,0.38192,0.9863700000000001
223.988,28.342709999999997,-0.06541779,0.38384,0.9863200000000001
224.088,28.35228,-0.06535744,0.38295999999999997,0.98626
224.188,28.36182,-0.06537319,0.38305,0.98621
224.288,28.37135,-0.06536922,0.38335,0.98616
224.388,28.38085,-0.06537018,0.38304,0.98611
224.488,28.3904,-0.06536997,0.38381,0.98606
224.588,28.39998,-0.06536999,0.38258000000000003,0.98601
224.688,28.40949,-0.06537003,0.38395,0.9859600000000001
224.788,28.41903,-0.06537004,0.38279,0.9859100000000001
224.888,28.428590000000003,-0.0653694,0.38414,0.9858600000000001
224.988,28.438190000000002,-0.06537347,0.3835,0.9858100000000001
225.088,28.447840000000003,-0.06513816,0.38369000000000003,0.9857600000000001
225.188,28.45751,-0.06417732,0.38451,0.9857100000000001
225.288,28.467229999999997,-0.06402351,0.38336,0.9856600000000001
225.388,28.476770000000002,-0.06407257,0.38436,0.98561
225.488,28.4863,-0.06405598,0.38445,0.98556
225.588,28.49588,-0.06406121,0.38359,0.98551
225.688,28.5054,-0.06405976,0.38477,0.98546
225.788,28.514909999999997,-0.06405961,0.38451,0.98541
225.888,28.52443,-0.06406178,0.38349,0.98536
225.988,28.534,-0.06405366,0.38509,0.98531
226.088,28.543590000000002,-0.0640824,0.38532,0.98526
226.188,28.55315,-0.06398313,0.38609,0.98521
226.288,28.562720000000002,-0.06436259,0.38559,0.98516
226.388,28.572290000000002,-0.06524777,0.3831,0.9851
226.488,28.581809999999997,-0.06538629,0.38703000000000004,0.98505
226.588,28.59135,-0.06537851,0.38711,0.985
226.688,28.600929999999998,-0.06538024,0.3861,0.98495
226.788,28.610440000000004,-0.06538023,0.38531,0.9849
226.888,28.619970000000002,-0.06537932,0.38635,0.98485
226.988,28.629509999999996,-0.06538103,0.38878,0.9848
227.088,28.63908,-0.06538091,0.38856999999999997,0.98475
227.188,28.64873,-0.06565222,0.38745999999999997,0.9847
227.288,28.6583,-0.06753708,0.38638,0.98465
227.388,28.66785,-0.06801627,0.38822,0.9846
227.488,28.67738,-0.0679938,0.38832,0.98455
227.588,28.686970000000002,-0.06800129,0.38836,0.9845
227.688,28.69652,-0.06800284,0.38713000000000003,0.98445
227.788,28.70605,-0.06798626,0.38637,0.9844
227.888,28.71565,-0.06814268,0.38735,0.98435
227.988,28.725209999999997,-0.06887651,0.38888,0.9843
228.088,28.73477,-0.06993498,0.38886,0.98425
228.188,28.744320000000002,-0.07054858,0.38947,0.9842
228.288,28.75385,-0.07067646,0.39149,0.98415
228.388,28.763379999999998,-0.07055602,0.39171,0.9841
228.488,28.7729,-0.07096255,0.39016999999999996,0.9840399999999999
228.588,28.78245,-0.07183465,0.38935,0.9839899999999999
228.688,28.79203,-0.0719629,0.3899,0.9839399999999999
228.788,28.80162,-0.07197078,0.38981,0.9838899999999999
228.888,28.811190000000003,-0.07192249,0.38897,0.9838399999999999
228.988,28.820759999999996,-0.07207224,0.38943,0.9837899999999999
229.088,28.83032,-0.07302688,0.38806999999999997,0.98374
229.188,28.839890000000004,-0.07327274,0.38821,0.98369
229.288,28.849429999999998,-0.07326972,0.38841,0.98364
229.388,28.858970000000003,-0.07326994,0.38937,0.98359
229.488,28.86853,-0.07327002,0.39144,0.98354
229.588,28.87805,-0.07327021,0.38916,0.98349
229.688,28.887629999999998,-0.07326889,0.39066999999999996,0.98344
229.788,28.89718,-0.07327498,0.38954,0.98339
229.888,28.906709999999997,-0.07339088,0.38881,0.98334
229.988,28.91625,-0.07476279,0.39068,0.98329
230.088,28.925759999999997,-0.07588642,0.39200999999999997,0.98324
230.188,28.93532,-0.0760397,0.39015,0.98319
230.288,28.94486,-0.07599504,0.38877,0.98314
230.388,28.95441,-0.07603656,0.38945,0.9830899999999999
230.488,28.963959999999997,-0.07592316,0.38934,0.9830399999999999
230.588,28.973470000000002,-0.07638788,0.38865,0.98298
230.688,28.98299,-0.07724534,0.38935,0.98293
230.788,28.99254,-0.0772712,0.39018,0.98288
230.888,29.00208,-0.07756479,0.39058000000000004,0.98283
230.988,29.011609999999997,-0.07848267,0.39016,0.9827799999999999
231.088,29.02115,-0.07864463,0.38849,0.9827299999999999
231.188,29.0307,-0.07863881,0.39023,0.9826799999999999
231.288,29.040229999999998,-0.07864056,0.38991,0.9826299999999999
231.388,29.049809999999997,-0.07863921,0.39183,0.9825799999999999
231.488,29.059359999999998,-0.07864078,0.39058000000000004,0.9825299999999999
231.588,29.068859999999997,-0.07894478,0.38982,0.9824799999999999
231.688,29.07842,-0.07991198,0.39178,0.9824299999999999
231.788,29.087970000000002,-0.07998166,0.39145,0.9823799999999999
231.888,29.09747,-0.0799515,0.3929,0.9823299999999999
231.988,29.10704,-0.07996292,0.3925,0.9822799999999999
232.088,29.116609999999998,-0.07995899,0.39227,0.9822299999999999
232.188,29.12613,-0.07996055,0.39100999999999997,0.9821799999999999
232.288,29.13567,-0.07995899,0.39161,0.98213
232.388,29.145229999999998,-0.07996349,0.39226,0.98208
232.488,29.154790000000002,-0.0799473,0.39095,0.98203
232.588,29.164340000000003,-0.08000584,0.3926,0.98198
232.688,29.17391,-0.07972889,0.39393,0.9819200000000001
232.788,29.18351,-0.07891639,0.39084,0.98187
232.888,29.19305,-0.07847526,0.3903,0.98182
232.988,29.20257,-0.07855714,0.39216999999999996,0.98177
233.088,29.21211,-0.07853556,0.39155,0.98172
233.188,29.221659999999996,-0.07854112,0.3913,0.98167
233.288,29.23118,-0.07853971,0.39152,0.98162
233.388,29.2407,-0.0785401,0.39221999999999996,0.98157
233.488,29.25028,-0.07853988,0.39171999999999996,0.9815200000000001
233.588,29.2598,-0.07854021,0.39149,0.9814700000000001
233.688,29.2694,-0.07853973,0.39224000000000003,0.9814200000000001
233.788,29.279009999999996,-0.07853936,0.39032,0.9813700000000001
233.888,29.288529999999998,-0.07881973,0.39053000000000004,0.9813200000000001
233.988,29.29812,-0.07978079,0.3942,0.9812700000000001
234.088,29.30773,-0.07987618,0.39455999999999997,0.9812200000000001
234.188,29.317220000000002,-0.07984015,0.3927,0.9811700000000001
234.288,29.32677,-0.07985324,0.3918,0.9811200000000001
234.388,29.336340000000003,-0.07984915,0.3933,0.9810700000000001
234.488,29.34595,-0.07984957,0.39286,0.9810200000000001
234.588,29.355490000000003,-0.07985279,0.39146,0.98096
234.688,29.36505,-0.07983938,0.39297,0.9809100000000001
234.788,29.374609999999997,-0.07994212,0.39398,0.9808600000000001
234.888,29.384140000000002,-0.0806577,0.39274000000000003,0.9808100000000001
234.988,29.39374,-0.08149808,0.39116,0.9807600000000001
235.088,29.40336,-0.08214164,0.39048,0.9807100000000001
235.188,29.4129,-0.08254922,0.39099,0.9806600000000001
235.288,29.42245,-0.08247451,0.39113000000000003,0.98061
235.388,29.43205,-0.08249401,0.3911,0.98056
235.488,29.44163,-0.08248899,0.39179,0.98051
235.588,29.451240000000002,-0.08249025,0.39096,0.98046
235.688,29.46081,-0.08248994,0.39,0.98041
235.788,29.47035,-0.08249001,0.39328,0.98036
235.888,29.479909999999997,-0.08248999,0.39211,0.98031
235.988,29.489440000000002,-0.08249,0.39076,0.98026
236.088,29.499029999999998,-0.08249001,0.39254,0.98021
236.188,29.50858,-0.08248984,0.39044,0.98016
236.288,29.51813,-0.08249093,0.39184,0.98011
236.388,29.527759999999997,-0.08248561,0.39107,0.98006
236.488,29.53738,-0.0825093,0.38802,0.98
236.588,29.54699,-0.08240902,0.38946,0.97995
236.688,29.55653,-0.08321963,0.38956,0.9799
236.788,29.566129999999998,-0.08378425,0.38924000000000003,0.97985
236.888,29.57569,-0.08381464,0.38816999999999996,0.9798
236.988,29.585240000000002,-0.08381037,0.38788,0.97975
237.088,29.59481,-0.08380346,0.3883,0.9797
237.188,29.60437,-0.08388163,0.38714,0.97965
237.288,29.613940000000003,-0.08463945,0.38568,0.9796
237.388,29.62357,-0.08521223,0.3874,0.97955
237.488,29.633190000000003,-0.08509942,0.38921,0.9795
237.588,29.642740000000003,-0.08509413,0.38756999999999997,0.97945
237.688,29.65233,-0.0844658,0.3871,0.9794
237.788,29.66187,-0.08372354,0.38845,0.97935
237.888,29.67142,-0.08377996,0.38865,0.9793
237.988,29.680970000000002,-0.08392505,0.38908000000000004,0.97925
238.088,29.690459999999998,-0.0848909,0.39052,0.9792
238.188,29.70004,-0.08511528,0.38916,0.97915
238.288,29.709609999999998,-0.08513352,0.39027,0.9791
238.388,29.719179999999998,-0.08578121,0.39142,0.9790399999999999
238.488,29.72877,-0.08652331,0.39171,0.9789899999999999
238.588,29.73832,-0.08655541,0.38866999999999996,0.9789399999999999
238.688,29.747840000000004,-0.08650394,0.38847,0.9788899999999999
238.788,29.75735,-0.08705038,0.38799,0.9788399999999999
238.888,29.766920000000002,-0.08776637,0.38836,0.9787899999999999
238.988,29.77647,-0.08788502,0.38756999999999997,0.9787399999999999
239.088,29.786,-0.08786484,0.38916999999999996,0.97869
239.188,29.79556,-0.0878103,0.39047,0.97864
239.288,29.805159999999997,-0.08819583,0.38949,0.97859
239.388,29.814729999999997,-0.08895529,0.39028,0.97854
239.488,29.82426,-0.08922785,0.38974000000000003,0.97849
239.588,29.833779999999997,-0.08916652,0.3892,0.97844
239.688,29.84331,-0.08918369,0.38856999999999997,0.97839
239.788,29.852829999999997,-0.08917903,0.38934,0.97834
239.888,29.862370000000002,-0.08918017,0.39104,0.97829
239.988,29.871990000000004,-0.08918024,0.3884,0.97824
240.088,29.88157,-0.08917906,0.38992,0.97819
240.188,29.89113,-0.08918285,0.38821,0.9781299999999999
240.288,29.90076,-0.08917155,0.38847,0.97808
240.388,29.91037,-0.08920294,0.38761999999999996,0.97803
240.488,29.919929999999997,-0.08912635,0.38632,0.97798
240.588,29.92936,-0.08817833,0.38791,0.97793
240.688,29.93889,-0.08818527,0.38733,0.97788
240.788,29.94838,-0.08819393,0.38847,0.97783
240.888,29.95791,-0.08818824,0.39196,0.97778
240.988,29.96752,-0.08819072,0.39045,0.9777299999999999
241.088,29.977079999999997,-0.08818937,0.38871999999999995,0.9776799999999999
